tree
version=v3
num_class=1
num_tree_per_iteration=1
label_index=0
max_feature_idx=9
objective=binary sigmoid:1
feature_names=Column_0 Column_1 Column_2 Column_3 Column_4 Column_5 Column_6 Column_7 Column_8 Column_9
feature_infos=[0:1] [0:0.99029126213592222] [0:1] [0:1] [0:0.99929123711340195] [0:0.98245614035087725] [0:1] [0:1] [0:1] [0:1]
tree_sizes=8981 10352 10316 10324 10343 10335 10339 10343 10342 10339 10341 10360 10355 10342 10358 10337 10338 10349 10362 10362 10373 10364 10363 10350 10346 10383 10379 10376 10366 10366 10379 10343 10371 10390 10357 10357 10354 10388 10403 10385 10349 10373 10396 10381 10381 10362 10345 10350 10395 10355 10362 10418 10367 10350 10338 10376 10405 10368 10321 10339 10342 10382 10383 10340 10383 10379 10369 10396 10373 10376 10402 10334 10418 10370 10353 10410 10356 10379 10321 10339 10290 10411 10343 10394 10467 10347 10339 10448 10462 10330 10324 10399 10355 10428 10375 10422 10386 10337 10324 10352 10352 10345 10334 10328 10287 10362 10312 10340 10393 10372 10430 10338 10373 10271 10368 10249 10310 10327 10356 10267 10262 10294 10272 10256 10368 10223 10170 10390 10272 10308 10310 10256 10243 10401 10129 10324 10233 10163 10333 10287 10274 10196 10190 10178 10256 10314 10203 10213 10289 10285 10254 10212 10178 10182 10183 10270 10161 10274 10247 10194 10270 10153 10239 10128 10161 10227 10201 10163 10234 10268 10160 10167 10204 10187 10230 10190 10197 10225 10201 10180 10208 10164 10216 10250 10192 10210 10241 10164 10156 10214 10187 10189 10168 10113 10132 10207 10145 10158 10197 10138 10215 10231 10165 10185 10178 10181 10175 10198 10131 10171 10178 10178 10212 10229 10136 10134 10204 10195 10209 10116 10135 10191 10165 10181 10109 10206 10227 10138 10177 10132 10172 10225 10210 10212 10180 10168 10278 10203 10175 10180 10231 10164 10191 10165 10180 10152 10193 10098 10179 10210 10135 10153 10138 10144 10198 10150 10127 10133 10167 10147 10163 10203 10204 10190 10100 10156 10143 10193 10162 10174 10257 10207 10168 10207 10204 10114 10198 10148 10130 10182 10158 10150 10210 10194 10159 10182 10175 10242 10156 10175 10185 10209 10182 10143 10172 10178 10207 10209 10192 10159 10228 10200 10159 10150 10147 10197 10156 10192 10163 10140 10199 10168 10201 10197 10168 10208 10193 10228 10162 10161 10163 10223 10145 10211 10182 10105 10188 10150 10173 10147 10139 10116 10161 10216 10148 10185 10127 10183 10161 10204 10178 10207 10191 10125 10206 10206 10180 10174 10175 10173 10123 10186 10204 10212 10181 10163 10140 10213 10160 10165 10176 10178 10172 10173 10245 10207 10180 10243 10157 10178 10207 10189 10191

Tree=0
num_leaves=95
num_cat=0
split_feature=2 6 8 2 2 6 0 8 2 2 6 8 6 6 1 8 0 3 5 2 2 6 6 3 6 0 8 7 7 1 0 5 7 7 8 8 8 5 5 5 5 5 5 8 0 2 2 6 6 5 0 0 6 5 5 6 0 0 5 5 4 8 1 1 8 1 5 5 4 3 5 5 6 6 1 5 5 5 5 1 9 9 0 9 0 7 5 5 7 7 9 9 7 7
split_gain=40044.4 14713.7 4084.92 3293.96 6633.43 2632.85 1876.37 1301.98 813.387 1660.19 757.91 737.047 596.85 781.18 357.787 355.227 286.106 273.771 287.13 247.423 474.534 243.45 324.778 210.017 207.346 193.45 180.61 168.776 251.768 148.634 144.957 122.952 119.952 462.883 116.859 112.608 116.289 111.77 383.757 125.512 277.226 132.786 237.666 110.131 99.0729 93.4891 135.668 93.1142 158.015 91.2744 90.9381 100.736 88.0149 81.0004 102.844 78.9797 71.3828 64.8341 63.8099 260.756 62.3458 60.2707 58.7976 110.942 57.4074 57.3958 57.725 105.759 55.7382 54.5048 51.8672 345.33 51.5554 56.5367 49.4786 49.3955 145.903 52.1083 47.2582 63.5779 68.25 48.1875 47.2508 46.3292 45.607 44.1937 43.1069 122.309 42.3401 297.846 42.3382 59.6356 41.8441 167.865
threshold=1.0000000180025095e-35 1.0000000180025095e-35 1.0000000180025095e-35 0.010190167955222975 0.010204439600757793 1.0000000180025095e-35 0.22843841104478121 0.010191311153557203 0.020372297381331266 0.020409017063373471 1.0000000180025095e-35 1.0000000180025095e-35 0.010183700647738535 0.010204274168435336 0.51456244262113138 0.010191311153557203 0.50284819709923689 0.57983030366942223 0.017542318106266427 0.030507512302545135 0.030616229572702273 0.010183700647738535 0.010204274168435336 0.42128955279453956 1.0000000180025095e-35 0.62748668704708044 0.010213238437682825 0.071441563348531578 0.14269531208659084 0.50485558091311211 0.71926736555921078 1.0000000180025095e-35 0.14288120810167124 0.21425752031130285 0.020306902447688169 0.00030647992603224326 0.010191311153557203 0.14035539145293313 0.15750753687007549 0.15789625307309102 0.17543244164842564 0.17543875631721792 0.19297746399089144 0.010213238437682825 0.43926404578375389 0.040668630401230831 0.040819789291365698 0.020407829663893727 0.020408717816329674 0.12280763299779413 0.59125244399356791 0.71924431575265202 0.010183700647738535 0.26316624938090888 0.2806877356068595 0.010204274168435336 0.60939403277163562 0.44967716127640839 0.19298751104701498 0.20981389810372245 0.12133440170847222 1.0000000180025095e-35 0.63106464234757831 0.62136311230255448 0.00036199460557238139 0.43683836284367139 0.10526420338592855 0.12269934903232442 0.2490489617143927 0.35541099675041371 0.17543875631721792 0.19297746399089144 0.020407829663893727 0.020408717816329674 0.33009416235161954 0.21052890736481222 0.22806369950247277 0.31579882696288369 0.17543875631721792 0.40776353227594225 0.0077563383866949319 0.099934704012156053 0.052571751396923411 0.051528952133829339 0.18199858164345648 0.071053066111418595 0.12280763299779413 0.14006335347507068 0.14269531208659084 0.072752725027162776 0.10001440476138009 0.14999529317913343 0.21430070114087782 0.28557011347891553
decision_type=2 2 2 2 2 2 2 2 2 2 2 2 2 2 2 2 2 2 2 2 2 2 2 2 2 2 2 2 2 2 2 2 2 2 2 2 2 2 2 2 2 2 2 2 2 2 2 2 2 2 2 2 2 2 2 2 2 2 2 2 2 2 2 2 2 2 2 2 2 2 2 2 2 2 2 2 2 2 2 2 2 2 2 2 2 2 2 2 2 2 2 2 2 2
left_child=1 2 6 -2 5 11 23 -4 -6 10 35 16 -3 25 17 -13 84 18 31 -11 24 -7 61 62 56 64 44 49 -29 30 37 -8 65 -34 -28 57 -37 50 -39 -40 -41 -42 -43 -17 -9 -22 -47 -15 -49 -19 -20 60 -12 88 -55 -54 -21 -10 -44 -60 -52 -23 63 70 -14 66 -25 -68 -18 -32 -1 -72 -24 -74 -51 -61 -77 -78 79 80 -30 83 -73 -80 -5 -53 -69 -88 89 -16 -83 -92 -35 -94
right_child=3 12 7 4 8 21 14 26 9 19 52 15 13 47 53 43 68 27 29 20 45 22 72 32 -26 -27 34 28 78 -31 69 -33 33 92 -36 36 -38 38 39 40 41 42 58 -45 -46 46 -48 48 -50 74 51 85 55 54 -56 -57 -58 -59 59 75 -62 -63 -64 -65 -66 -67 67 86 -70 -71 71 82 73 -75 -76 76 77 -79 81 -81 -82 90 -84 -85 -86 -87 87 -89 -90 -91 91 -93 93 -95
leaf_value=-0.086381674649215826 0.099985231825604329 0.099985231825604329 0.099985231825604329 -0.078049045893878025 0.099985231825604329 0.099985231825604329 -0.0037741666706362829 -0.069384137543765045 -0.068329374915968716 0.099985231825604329 0.099985231825604329 0.099985231825604329 -0.046898237009084034 0.099985231825604329 -0.068209610581272465 -0.037538577698205212 -0.005855054229222857 -0.072818115454730409 -0.067625516177300546 -0.044158912318539828 0.099985231825604329 -0.027908506314813137 0.099985231825604329 -0.085331223870598216 0.062393990949691905 0.027746999356824304 0.099985231825604329 0.099985231825604329 -0.066681434841062343 0.099985231825604329 0.020282261528574621 0.099985231825604329 0.099985231825604329 -0.077563450877717557 -0.026330557648079889 0.099985231825604329 -0.022133148236700977 0.099985231825604329 -0.084126917707105967 0.099985231825604329 -0.085084212618840124 0.099985231825604329 -0.074472599499696882 0.05273248457285707 -0.0099321235462965091 0.023158509487399729 0.082122999046506939 0.0081646513506702812 0.082731710698843761 0.02755279939317189 0.019635886847438382 -0.053664403210892032 0.0084320983106179418 0.099985231825604329 -0.045817106112759125 0.070846158977922208 0.017966304380809366 -0.027420015987806759 0.099985231825604329 -0.076914464223027904 -0.036313002314356448 0.03123523182560432 -0.092965587846526823 0.099985231825604329 0.026385231825604323 -0.080687037081958707 0.099985231825604329 -0.095271685170443113 -0.039069886284631906 -0.068689466969576396 0.099985231825604329 -0.087111542367944064 0.014003923414389365 0.073898275303865196 -0.030934828506220719 0.099985231825604329 -0.053296191978622613 -0.00084810150772901495 0.014778131233888343 -0.064193872652007614 0.02811023182560432 -0.065686409965440451 -0.069251105488908893 0.099985231825604329 -0.058618974675351709 -0.091880796882529661 0.099985231825604329 -0.055847581649130562 -0.08288938591139873 0.099985231825604329 0.099985231825604329 -0.028940388009106425 0.099985231825604329 -0.063049787629648593
leaf_weight=4170 4667.25 1058.5 466.5 714.75 2492.75 281 99.75 166.5 222.5 1094 100.75 110.5 184.5 345 1047 131.25 209.75 119.5 1032.75 111 500.25 131.75 115.25 197.5 137 260.25 40.75 65.25 27 17 101 40 49 218.25 33.25 25.75 80.25 48.75 160.5 36 144 32.5 103.75 45.5 121 119.75 526.25 94.75 284 46.25 57.25 274 91.75 12.749999999999998 235.25 113.25 79.25 171.5 35 82.25 382.25 64 2135 8.2499999999999982 31.25 1190 10.999999999999998 63.25 317.5 20.75 27.5 798.25 53.5 149.5 165.75 19.25 224.75 60 126.75 67 64 33.5 690.75 18.25 523 104.5 12.999999999999998 400.75 408.75 27 12.749999999999998 30.25 18 128.5
leaf_count=16680 18669 4234 1866 2859 9971 1124 399 666 890 4376 403 442 738 1380 4188 525 839 478 4131 444 2001 527 461 790 548 1041 163 261 108 68 404 160 196 873 133 103 321 195 642 144 576 130 415 182 484 479 2105 379 1136 185 229 1096 367 51 941 453 317 686 140 329 1529 256 8540 33 125 4760 44 253 1270 83 110 3193 214 598 663 77 899 240 507 268 256 134 2763 73 2092 418 52 1603 1635 108 51 121 72 514
internal_value=-1.5543e-05 -0.0470934 -0.0634479 0.0660889 0.0479323 -0.0146868 -0.0691556 0.044792 0.0783265 0.0623213 -0.000294011 -0.0446122 0.0726189 0.0484745 -0.0458862 0.0296632 -0.0567003 -0.037402 -0.044098 0.0819716 0.0685974 0.0625638 0.0421059 -0.0819942 0.0154933 -0.00127527 -0.0264325 -0.0108682 0.00926011 -0.0474307 -0.0482892 0.0259244 -0.0686726 -0.0443048 0.0432285 -0.0382148 0.0075324 -0.0506135 -0.0366401 -0.0440571 -0.0353368 -0.0422813 -0.0312255 -0.0143005 -0.0443626 0.0837584 0.0711927 0.0811942 0.0640776 -0.037873 -0.0577616 -0.0453082 0.0617187 -0.0647699 -0.0383212 0.0429121 -0.0182802 -0.0505224 -0.0393481 -0.0306973 -0.029025 -0.0085716 -0.0858892 -0.0832362 -0.0362836 -0.0740484 -0.0625239 -0.0532935 -0.0258564 0.0051187 -0.083502 -0.0755835 0.0732767 0.0581133 -0.0181751 -0.042539 -0.0332385 -0.0422448 -0.00633888 -0.02723 -1.47682e-05 0.00856311 -0.0788261 0.0255025 -0.069839 -0.0642156 -0.0568282 -0.0509513 -0.0691937 -0.0639812 -0.0235442 0.00928756 -0.0636885 -0.0430182
internal_weight=0 18788.2 16530 13380.5 8713.25 2847.25 15702 828 5866 3373.25 805.75 2052.25 2258.25 1199.75 5583 287.25 1765 3852.25 3076 2567.5 1473.5 795 514 10119 327.25 476 361.5 776.25 444.75 2936.25 2919.25 139.75 2289.25 413.75 74 500 106 2797.5 946.75 898 737.5 701.5 557.5 176.75 287.5 1146.25 646 723.75 378.75 331.5 1850.75 818 305.75 1730.75 248 205 190.25 394 525 421.25 439.5 195.75 7829.75 5694.75 215.75 1875.5 685.5 488 527.25 121.75 5686.5 1516.5 318.25 203 212 386.25 304 284.75 379.5 158 91 221.5 1489 145 1237.75 378.5 477 413.75 1482.75 1074 76.5 43 364.75 146.5
internal_count=128675 75153 66120 53522 34853 11389 62808 3312 23464 13493 3223 8209 9033 4799 22332 1149 7060 15409 12304 10270 5894 3180 2056 40476 1309 1904 1446 3105 1779 11745 11677 559 9157 1655 296 2000 424 11190 3787 3592 2950 2806 2230 707 1150 4585 2584 2895 1515 1326 7403 3272 1223 6923 992 820 761 1576 2100 1685 1758 783 31319 22779 863 7502 2742 1952 2109 487 22746 6066 1273 812 848 1545 1216 1139 1518 632 364 886 5956 580 4951 1514 1908 1655 5931 4296 306 172 1459 586
shrinkage=1


Tree=1
num_leaves=95
num_cat=0
split_feature=2 6 8 2 2 6 0 8 2 2 6 8 6 6 1 8 0 1 2 2 6 6 3 5 3 6 0 8 5 0 7 7 5 5 5 8 8 8 5 5 5 5 8 5 5 7 7 0 4 2 2 6 6 6 5 5 0 6 1 0 7 7 1 0 8 3 8 1 3 9 0 1 4 9 7 7 6 6 3 3 9 9 9 7 7 7 7 8 6 6 2 2 5 8
split_gain=36209.3 13301.5 3692.49 2985.31 6001.37 2379.24 1700.54 1178.35 738.097 1502.56 684.785 665.821 541.638 707.006 324.933 321.508 259.038 251.557 224.86 429.786 220.866 293.747 210.236 258.404 191.388 187.313 174.656 163.151 136.418 124.965 121.236 343.629 106.918 106.914 106.003 105.77 101.713 105.191 99.5635 298.434 99.6883 209.774 99.4444 98.0401 192.195 91.9192 275.489 89.6217 89.5891 85.1007 122.961 84.671 143.097 79.9046 76.3218 531.917 82.051 71.4449 70.4322 64.4553 64.271 194.204 64.2497 58.6941 54.4064 51.9513 51.842 51.7509 63.1884 70.4559 51.047 52.4751 50.3417 48.9428 47.3862 306.649 46.8689 51.1781 46.1145 46.0767 44.8798 42.4022 88.7489 41.2255 246.355 40.8751 116.035 39.9434 39.1826 36.6378 62.2255 51.2765 36.4394 35.4531
threshold=1.0000000180025095e-35 1.0000000180025095e-35 1.0000000180025095e-35 0.010190167955222975 0.010204439600757793 1.0000000180025095e-35 0.22843841104478121 0.010191311153557203 0.020372297381331266 0.020409017063373471 1.0000000180025095e-35 1.0000000180025095e-35 0.010183700647738535 0.010204274168435336 0.48543379928179042 0.010191311153557203 0.50284819709923689 0.47573061204473716 0.030507512302545135 0.030616229572702273 0.010183700647738535 0.010204274168435336 0.53754998296905721 0.017542318106266427 0.54615194704124048 1.0000000180025095e-35 0.62748668704708044 0.010213238437682825 0.087722803273902625 0.71926736555921078 0.072114744977771025 0.14269531208659084 0.24561673357517536 0.26315753614740339 1.0000000180025095e-35 0.020306902447688169 0.00030647992603224326 0.010191311153557203 0.14035539145293313 0.15750753687007549 0.15789625307309102 0.17543244164842564 0.010213238437682825 0.17543875631721792 0.19297746399089144 0.14288120810167124 0.21425752031130285 0.43926404578375389 0.1802595304744691 0.040668630401230831 0.040819789291365698 0.020407829663893727 0.020408717816329674 0.010183700647738535 0.14035539145293313 0.15750753687007549 0.049450444759073946 0.010204274168435336 0.47572368740623 0.60939403277163562 0.071441563348531578 0.14269531208659084 0.33009416235161954 0.44967716127640839 1.0000000180025095e-35 0.66524915017001496 0.00036199460557238139 0.42684270032546107 0.34274264121682357 0.099934704012156053 0.34970204774424885 0.387701996809444 0.2490489617143927 1.0000000180025095e-35 0.14269531208659084 0.072752725027162776 0.020407829663893727 0.020408717816329674 0.55501458422913585 0.35541099675041371 0.049999544495928867 0.15003508800420873 0.19927281989819856 0.071053066111418595 1.0000000180025095e-35 0.21430070114087782 0.28557011347891553 0.010213238437682825 0.010183700647738535 1.0000000180025095e-35 0.050949321351007305 0.051070972493132312 0.19297746399089144 0.010191311153557203
decision_type=2 2 2 2 2 2 2 2 2 2 2 2 2 2 2 2 2 2 2 2 2 2 2 2 2 2 2 2 2 2 2 2 2 2 2 2 2 2 2 2 2 2 2 2 2 2 2 2 2 2 2 2 2 2 2 2 2 2 2 2 2 2 2 2 2 2 2 2 2 2 2 2 2 2 2 2 2 2 2 2 2 2 2 2 2 2 2 2 2 2 2 2 2 2
left_child=1 2 6 -2 5 11 24 -4 -6 10 36 16 -3 26 17 -13 81 22 -11 25 -7 64 23 34 54 59 66 47 -24 38 -26 -32 74 -34 -8 -29 63 -38 48 -40 -41 -42 -17 -43 -45 -33 -47 -9 -25 -21 -51 -15 -53 -12 -1 -56 -57 -55 60 -20 62 -62 -30 -10 -22 -63 -14 68 -58 73 -46 -72 -18 92 75 83 -23 -78 -35 -31 -75 -5 -83 84 -16 -48 -87 -39 -27 90 -52 -92 -70 -66
right_child=3 12 7 4 8 20 14 27 9 18 53 15 13 51 32 42 72 -19 19 49 21 76 28 29 30 88 -28 35 58 79 31 45 33 78 -36 -37 37 87 39 40 41 43 -44 44 70 46 85 -49 -50 50 89 52 -54 57 55 56 67 -59 -60 -61 61 65 -64 -65 93 -67 -68 -69 69 -71 71 -73 -74 80 -76 -77 77 -79 -80 -81 -82 82 -84 -85 -86 86 -88 -89 -90 -91 91 -93 -94 -95
leaf_value=-0.084631548336645573 0.095242538924331155 0.095242538924331155 0.095242538924331155 -0.068441554905882315 0.095242538924331155 0.095242538924331155 -0.0029691970501593452 -0.065980901699166983 -0.064975251742710571 0.095242538924331155 0.095242538924331155 0.095242538924331155 -0.04456348266984711 0.095242538924331155 -0.060063316454712856 -0.035659661246777864 -0.0055475794968051252 0.099868381984042326 -0.041957001798638531 0.095242538924331155 -0.026503564743499415 0.095242538924331155 -0.068524094663689195 -0.036498146559747521 -0.07902825857465734 0.096975633405799622 0.026379582290904625 0.095242538924331155 0.017902493641926611 0.02018364975323874 0.10205589959354722 -0.068361584486973839 0.098652599392822282 -0.057314399801285366 0.095242538924331155 -0.025003671341346918 0.095242538924331155 -0.042864155362060979 0.095242538924331155 -0.080319030501563776 0.095242538924331155 -0.07994458738184046 0.050146082387908165 0.095242538924331155 -0.061373758698294367 0.095242538924331155 -0.071648091045264539 -0.0094209857887778917 -0.062652320969552783 0.022018357661942208 0.096057928608228302 0.0077713170108444753 0.078746844235314264 0.0080254047713452237 0.10401177355772553 -0.083840967616230833 -0.072873524189252623 0.067404608089999388 -0.087882097957841826 0.017084161646677056 0.095483824980163348 -0.028903003968180963 -0.035381157385957707 -0.026039226501161306 0.098462373588702176 0.011935141605553645 0.025085180278206609 -0.074119454210443136 -0.0062263127057023658 -0.076755570460178973 0.00070594603327449551 -0.045104495600978574 -0.037116034756864529 0.10087336237772966 -0.077258000931139437 0.095956766482040698 0.013319157271913571 0.070315718684109518 -0.021533783188185746 -0.073702922704969906 -0.0033308697402520669 0.10344393147452058 -0.054907198773444979 -0.071961589126900524 0.10172736042612894 0.095242538924331155 -0.052051764210686885 0.035942473035585912 0.040327130545350059 0.085409587831999104 -0.038234166706398509 0.053053567813543506 -0.073778106464570517 0.0095518071650664716
leaf_weight=5010.6021613627672 4655.604697689414 1055.8589260280132 465.33603116869926 1179.7796687483788 2486.5303144603968 280.29887408018112 94.99966025352478 166.29976987838745 222.24048852920532 1091.2703496217728 100.49861766397953 110.22429034113884 184.39858514070511 344.13918703794479 614.80548349022865 131.20377324521542 209.7481997013092 34.708635717630386 110.94590663909912 499.00182120501995 131.72435238957405 114.96243856847286 96.388120010495186 455.63589629530907 472.53772221505642 45.955259084701538 260.19991140067577 40.648324266076088 78.948454678058624 91.990540742874146 36.946010440587997 437.34892490506172 14.475649878382681 185.36837169528008 38.653314486145973 33.244236767292023 25.685750916600227 57.992895722389221 42.643334046006203 131.01804479956627 30.673275366425514 115.79031491279602 45.468383371829987 29.426394253969193 140.61488509178162 37.157057151198387 119.81969833374023 120.99701416492462 1163.6148452162743 119.73394741117954 51.163688376545906 94.748418688774109 283.51459765434265 91.748370319604874 40.925228834152222 2106.4819031506777 220.42054781317711 113.10801574587822 24.733549758791924 79.243604153394699 58.107230216264725 125.91265611350536 199.63224731385708 171.46776941418648 14.496464282274244 204.12798610329628 31.244561076164246 1309.1510844677687 38.947086468338966 67.422823488712311 117.1000279635191 134.09897653758526 317.37886443734169 12.978506505489348 486.71718017756939 31.175950855016708 53.497375577688217 149.29608309268951 175.12143994867802 15.232026010751722 50.688667610287666 10.987573385238646 45.446354508399963 620.76936016976833 24.464729487895966 15.960078239440916 82.418066561222076 22.247274652123451 90.911490797996521 403.81876972317696 22.711686059832573 47.669582828879356 40.957590237259865 49.487929791212082
leaf_count=20081 18669 4234 1866 4725 9971 1124 380 666 890 4376 403 442 738 1380 2462 525 839 139 444 2001 527 461 386 1824 1893 184 1041 163 316 368 148 1752 58 742 155 133 103 232 171 525 123 464 182 118 563 149 480 484 4659 479 205 379 1136 367 164 8442 883 453 99 317 233 504 799 686 58 817 125 5245 156 270 469 537 1270 52 1950 125 214 598 701 61 203 44 182 2486 98 64 330 89 364 1618 91 191 164 198
internal_value=0 -0.0447964 -0.0603565 0.0629288 0.0456328 -0.0139535 -0.0657867 0.0426454 0.0745814 0.059325 -0.000264321 -0.0424091 0.0691325 0.0461251 -0.0436252 0.0282312 -0.0539023 -0.0340552 0.0780451 0.0652885 0.0595454 0.0400585 -0.0354267 -0.0422796 -0.0780228 0.0147424 -0.00119725 -0.0251178 -0.0127982 -0.0459468 -0.0592977 -0.0465198 -0.0588456 -0.0345825 0.0254343 0.0411438 -0.0363162 0.00717654 -0.0483448 -0.0331691 -0.0410061 -0.0319332 -0.0135767 -0.0391971 -0.0279964 -0.0544442 -0.0306078 -0.0421603 -0.0552929 0.0797377 0.0677443 0.0772961 0.0609687 0.0587253 -0.0805526 -0.0752958 -0.0772033 0.0408106 -0.00503012 -0.0173571 -0.00195657 0.0111951 -0.0202808 -0.0480178 -0.00812999 -0.00364488 -0.0344721 -0.0691702 -0.0541516 -0.0345933 -0.037252 -0.0237493 -0.0245547 -0.0147934 -0.0639627 -0.0589511 0.0697382 0.0552799 -0.0399326 0.00684613 0.0179111 -0.0664163 -0.0240765 -0.0627838 -0.0538716 -0.0520389 -0.0281559 -0.0210143 0.0593478 0.0781656 0.0540981 0.0235955 -0.0408521 0.0296956
internal_weight=0 18758.3 16504.2 13353.6 8697.95 2844 15677.7 826.525 5853.95 3367.42 804.989 2050.24 2254.1 1198.25 5576.95 286.896 1763.34 3424.05 2562.43 1471.16 793.764 513.465 3389.34 2601.49 10100.8 327.056 475.843 361.189 787.85 2467.84 1202.19 729.65 2152.9 374.965 133.653 73.8926 499.634 105.926 2360.62 741.365 698.722 567.704 176.672 537.031 421.24 692.704 255.355 287.297 1619.25 1144.1 645.098 722.402 378.263 305.355 8898.58 3887.97 3847.05 204.856 691.462 190.19 666.729 388.148 278.581 393.708 195.709 330.041 215.643 1740.57 431.415 210.995 391.814 251.199 527.127 143.572 1777.93 1291.22 317.756 202.793 360.49 107.223 63.6672 1236.21 56.4339 1260.04 639.27 218.198 98.3781 80.2402 136.867 525.364 121.545 70.3813 79.9047 63.9844
internal_count=128675 75153 66120 53522 34853 11389 62808 3312 23464 13493 3223 8209 9033 4799 22332 1149 7060 13710 10270 5894 3180 2056 13571 10417 40476 1309 1904 1446 3154 9882 4816 2923 8622 1501 535 296 2000 424 9453 2970 2799 2274 707 2151 1687 2775 1023 1150 6483 4585 2584 2895 1515 1223 35660 15579 15415 820 2768 761 2669 1554 1115 1576 783 1321 863 6973 1728 845 1569 1006 2109 575 7121 5171 1273 812 1443 429 255 4951 226 5046 2560 874 394 321 548 2105 487 282 320 256
shrinkage=0.05


Tree=2
num_leaves=95
num_cat=0
split_feature=2 6 8 2 2 6 0 8 2 2 6 8 6 6 1 8 0 3 5 2 2 6 6 3 6 0 8 0 5 1 5 7 7 5 8 8 8 8 5 5 5 5 5 5 4 0 2 2 6 6 5 5 5 5 7 7 6 5 5 5 5 0 6 0 5 1 5 5 5 5 0 5 5 1 8 5 9 9 3 5 5 8 4 4 0 1 6 6 0 5 5 0 3 7
split_gain=32855.4 12060.4 3346.84 2726.28 5454.19 2155.26 1556.1 1071.95 676.356 1367.04 620.014 602.556 496.501 643.186 300.637 292.515 235.903 227.159 244.86 206.874 391.818 202.278 266.72 173.047 169.556 157.799 147.636 132.437 131.639 125.759 120.567 106.314 298.078 101.651 96.2391 92.0014 95.5581 89.8806 85.8853 328.328 93.3405 231.385 96.2656 203.784 82.5773 81.4166 78.615 112.366 78.0549 130.397 76.0413 101.681 82.1089 118.847 75.4404 240.028 73.3265 70.0235 101.933 68.9144 444.872 74.7178 64.9032 58.2536 56.3188 69.155 54.7313 77.6926 73.8721 62.3108 53.4356 53.3004 54.4724 49.9729 49.1415 48.225 47.6948 125.41 71.2492 47.3152 69.715 46.8688 45.53 45.3586 43.9682 56.5909 43.1761 46.582 41.4683 40.9479 243.611 41.9147 40.7501 38.9187
threshold=1.0000000180025095e-35 1.0000000180025095e-35 1.0000000180025095e-35 0.010190167955222975 0.010204439600757793 1.0000000180025095e-35 0.21546601872509727 0.010191311153557203 0.020372297381331266 0.020409017063373471 1.0000000180025095e-35 1.0000000180025095e-35 0.010183700647738535 0.010204274168435336 0.51456244262113138 0.010191311153557203 0.50284819709923689 0.53754998296905721 0.017542318106266427 0.030507512302545135 0.030616229572702273 0.010183700647738535 0.010204274168435336 0.55043226537948653 1.0000000180025095e-35 0.62748668704708044 0.010213238437682825 0.71926736555921078 0.15789625307309102 0.50485558091311211 0.17543244164842564 0.072114744977771025 0.14269531208659084 1.0000000180025095e-35 0.020306902447688169 0.00030647992603224326 0.010191311153557203 0.010213238437682825 0.14035539145293313 0.15750753687007549 0.15789625307309102 0.17543244164842564 0.17543875631721792 0.19297746399089144 0.1802595304744691 0.43926404578375389 0.040668630401230831 0.040819789291365698 0.020407829663893727 0.020408717816329674 0.17543875631721792 0.19297746399089144 0.19298751104701498 0.20981389810372245 0.14288120810167124 0.21425752031130285 0.010183700647738535 0.26316624938090888 0.2806877356068595 0.14035539145293313 0.15750753687007549 0.076721661781235004 0.010204274168435336 0.60939403277163562 0.070176331267112632 0.40776353227594225 0.21052890736481222 0.22806369950247277 0.22807240313791741 0.24561256715419991 0.44967716127640839 0.24561673357517536 0.26315753614740339 0.47572368740623 1.0000000180025095e-35 0.26316624938090888 0.099934704012156053 0.050000680790483629 0.29337329169711579 0.15750753687007549 0.14035539145293313 0.00036199460557238139 0.2490489617143927 0.27094464300053533 0.34970204774424885 0.387701996809444 0.020407829663893727 0.020408717816329674 0.18199858164345648 0.070176331267112632 0.087718563267215222 0.59125244399356791 0.08919530636065702 0.071441563348531578
decision_type=2 2 2 2 2 2 2 2 2 2 2 2 2 2 2 2 2 2 2 2 2 2 2 2 2 2 2 2 2 2 2 2 2 2 2 2 2 2 2 2 2 2 2 2 2 2 2 2 2 2 2 2 2 2 2 2 2 2 2 2 2 2 2 2 2 2 2 2 2 2 2 2 2 2 2 2 2 2 2 2 2 2 2 2 2 2 2 2 2 2 2 2 2 2
left_child=1 2 6 -2 5 11 23 -4 -6 10 35 16 -3 25 17 -13 88 18 33 -11 24 -7 74 59 63 81 45 29 64 38 -30 -25 -33 -8 -28 70 -37 -17 44 -40 -41 -42 -43 -44 -20 -9 -22 -48 -15 -50 -32 -52 -53 -54 -34 -56 -12 -16 -59 -1 -61 -62 -58 -21 -19 79 -55 -68 -69 -70 -10 -71 -73 76 -23 -74 77 78 -63 80 93 -14 -18 -29 -45 -86 -24 -88 -5 92 -91 -92 -46 -66
right_child=3 12 7 4 8 21 14 26 9 19 56 15 13 48 57 37 82 28 27 20 46 22 86 31 -26 -27 34 83 30 -31 50 32 54 -35 -36 36 -38 -39 39 40 41 42 43 84 89 -47 47 -49 49 -51 51 52 53 66 55 -57 62 58 -60 60 61 73 -64 -65 65 -67 67 68 69 71 -72 72 75 -75 -76 -77 -78 -79 -80 -81 -82 -83 -84 -85 85 -87 87 -89 -90 90 91 -93 -94 -95
leaf_value=-0.081142241402140047 0.09113236470615492 0.09113236470615492 0.09113236470615492 -0.071173669830040448 0.09113236470615492 0.09113236470615492 -0.0033065796189209063 -0.062898686764974163 -0.061933557143673192 0.09113236470615492 0.09113236470615492 0.09113236470615492 -0.042402122559492245 0.09113236470615492 -0.063115819487096519 -0.033910913946423135 -0.005270330065110438 -0.082904338090412574 -0.035727125491146892 -0.03991491592810105 0.09113236470615492 -0.02519244518947868 0.09113236470615492 -0.075613195624316287 0.056549281295416781 0.025074454239608957 0.09113236470615492 0.028262336630126551 0.098636133021400577 0.09698892506336039 -0.057595045518064214 0.097007323202576559 -0.064718837898908879 0.091350244172720821 -0.023765292356042619 0.09113236470615492 -0.019977330946281069 0.04773393477994748 0.091748250604098691 -0.07666429561925038 0.091832732613099169 -0.0770678211195122 0.091613126795736494 -0.056581568375225044 -0.051958248851509382 -0.0089505684141779826 0.020925491011134383 0.074632019746470241 0.0073831052263805376 0.075177996796710278 0.096944132152396431 -0.061281261471803995 0.09766156887381798 -0.053462856700879885 0.09113236470615492 -0.050224762891075185 0.0076245287064817483 0.097580053480165574 -0.042424911302647944 0.098663835760192109 -0.078811876751843313 -0.081185141720396814 0.064265481469026497 0.016233713344989069 -0.032140821081318181 -0.05289710622786184 0.097885299699066397 -0.065911712441515155 0.098674450531611502 -0.063997292854272095 -0.024750596224814347 0.095437278525391592 -0.0673992859747123 -0.071749842293533705 0.028241645910508813 0.013121460437249733 -0.071679104426705401 0.1047738352975028 -0.028258231705313042 -0.075389338305118667 0.097842305240373295 0.023842830939486317 -0.03529883539014516 -0.038197456282268921 0.0006706422523264071 -0.044059581042792929 0.012654986356777725 0.06706229573610506 -0.052604241218053953 0.10559789870913833 -0.065034278504744344 -0.04085383137246084 -0.082696664702937295 0.015175050537055075
leaf_weight=4910.3032387942076 4623.0592755228281 1048.4778495132923 462.08305791020393 710.97311459481716 2469.1480012983084 278.33941966295242 99.743760749697685 165.73959991335869 221.51445850729942 1083.6417263746262 99.796073064208031 109.45375755429268 184.11468511819839 341.73345118761063 1539.9444228112698 131.07434771955013 209.74318636953831 51.500723212957382 481.19117031991482 110.79446375370026 495.51350422203541 131.65252965688705 114.1587833315134 443.80936315655708 136.46952050924301 260.05948027968407 40.364168509840965 81.67478646337986 31.417170822620392 15.191323593258856 55.366101637482643 35.424987345933914 418.09157460927963 39.632607102394104 33.228104472160339 25.506192371249199 80.187724709510803 45.379819929599762 48.572205096483231 157.4608968347311 34.687467232346535 142.55251513421535 31.957137301564217 202.53370586037636 167.38383322954178 120.98866969347 119.68892307579517 522.79187303781509 94.743985369801521 282.15667295455933 27.907345712184906 50.664708152413368 32.654167145490646 45.183184191584587 35.163876861333847 205.72179012000561 91.743787527084351 13.730803549289702 244.49752582609653 37.727940678596497 2529.7815837562084 96.213906109333038 112.71057593822479 79.225663661956787 92.043934375047684 151.73747250437737 21.189862534403801 38.193852320313454 17.951161965727806 26.954006433486938 171.37752786278725 17.417018160223961 21.472426369786263 761.80189730226994 63.918610543012619 138.76400624215603 176.53618340194225 14.454845413565634 187.51078017055988 23.7224101126194 16.461745083332062 31.229311600327492 317.03973785042763 37.442949444055557 117.10112541913986 178.49071095883846 53.490015715360641 148.72537595033646 520.93671697378159 23.424747124314308 601.84670616686344 255.21337248384953 303.00385436415672 82.334656655788422
leaf_count=19787 18669 4234 1866 2859 9971 1124 399 666 890 4376 403 442 738 1380 6191 525 839 207 1929 444 2001 527 461 1786 548 1041 163 327 126 61 222 142 1681 160 133 103 321 182 196 634 140 574 129 813 672 484 479 2105 379 1136 112 203 131 181 142 827 367 55 980 151 10190 387 453 317 369 609 85 153 72 108 686 70 86 3065 256 556 710 58 753 95 66 125 1270 150 469 716 214 598 2092 94 2418 1024 1217 330
internal_value=0 -0.0427444 -0.0575857 0.0601327 0.0435743 -0.0132979 -0.0627642 0.0407243 0.0712758 0.0566446 -0.000250134 -0.0404023 0.0660255 0.0439794 -0.0421197 0.0269181 -0.0513464 -0.0344244 -0.0411152 0.0745704 0.0623154 0.0568258 0.0381737 -0.0748338 0.0140312 -0.00113884 -0.0239201 -0.0442478 -0.0130017 -0.0464751 0.00366197 -0.0564987 -0.0442822 0.0236097 0.0392542 -0.0345745 0.0068358 -0.0129138 -0.047269 -0.034744 -0.0418487 -0.0340982 -0.0405924 -0.0307833 -0.0535131 -0.0401346 0.0761681 0.0646269 0.0738268 0.058136 -0.0023816 0.00459215 -0.00168714 0.00670499 -0.0518776 -0.0295898 0.0559985 -0.0590754 -0.0349804 -0.0772286 -0.0721769 -0.0738883 0.0388493 -0.0165047 -0.0339463 -0.027063 -0.00237443 0.00581284 -0.00166937 0.00935543 -0.0457145 0.00151905 0.0114593 -0.0638151 -0.00772856 0.00233131 -0.0510818 -0.0388872 -0.0462063 -0.00879322 -0.000514985 -0.0327952 -0.0233427 0.00737166 -0.0386356 -0.0263393 0.0665489 0.0526705 -0.0633212 -0.0598486 -0.0534859 -0.0578339 -0.0717586 -0.00980014
internal_weight=0 18677.7 16435.2 13278.1 8655 2834.89 15612.8 822.404 5820.11 3350.96 802.836 2044.6 2242.52 1194.04 5760.21 285.908 1758.69 3962.04 3019.1 2548.13 1464.48 790.285 511.945 9852.54 326.49 475.403 360.321 2879.73 942.936 2760.61 525.135 1138.21 694.402 139.376 73.5923 498.586 105.694 176.454 2745.42 913.356 864.784 707.323 672.635 530.083 1832.06 286.728 1137.99 642.481 718.634 376.901 493.718 438.352 410.444 359.78 658.977 240.886 304.25 1798.17 258.228 8714.33 3804.03 3766.3 204.454 190.02 417.801 366.3 327.126 281.942 260.752 222.559 392.892 204.607 177.653 1236.52 195.571 160.236 474.716 298.18 283.725 214.563 190.84 215.344 526.783 119.118 498.126 295.592 316.374 202.215 1231.91 1350.87 880.485 857.06 470.388 174.379
internal_count=128675 75153 66120 53522 34853 11389 62808 3312 23464 13493 3223 8209 9033 4799 23129 1149 7060 15903 12122 10270 5894 3180 2056 39679 1309 1904 1446 11563 3781 11086 2105 4578 2792 559 296 2000 424 707 11025 3671 3475 2841 2701 2127 7354 1150 4585 2584 2895 1515 1979 1757 1645 1442 2650 969 1223 7226 1035 35101 15314 15163 820 761 1676 1469 1311 1130 1045 892 1576 820 712 4973 783 642 1908 1198 1140 860 765 863 2109 477 1998 1185 1273 812 4951 5425 3536 3442 1889 699
shrinkage=0.05


Tree=3
num_leaves=95
num_cat=0
split_feature=2 6 8 2 2 6 0 8 2 2 6 8 6 6 8 1 0 3 2 2 1 6 6 5 5 5 6 0 8 7 7 5 5 0 5 5 8 8 8 8 3 0 2 2 6 6 5 5 5 5 5 5 0 6 5 5 1 1 4 5 6 5 5 0 0 3 3 5 5 7 7 8 1 8 4 6 6 3 9 9 9 9 0 3 3 9 9 1 1 8 6 5 5 5
split_gain=29901.3 10963.4 3040.81 2506.43 4976.02 1956.34 1433.5 979.522 625.225 1249.2 562.357 546.117 459.078 587.727 267.342 252.103 215.878 215.05 192.487 359.161 190.397 186.792 243.019 160.599 194.513 188.997 153.688 142.656 133.795 124.081 433.885 98.9496 244.286 97.2235 88.2696 88.2573 87.9682 83.3394 87.1202 81.3027 78.6799 74.2311 73.6544 103.313 72.8015 119.461 70.184 362.143 72.0492 331.75 75.6712 357.476 68.9934 67.9114 67.2858 406.115 66.8662 71.7195 65.8411 64.7992 59.1742 55.4639 123.436 52.7216 48.8819 47.2217 45.6609 45.6144 190.029 44.7958 74.852 44.3934 42.5984 42.4132 41.2263 40.2252 42.5976 40.1927 38.6747 80.2743 37.856 122.056 78.8909 37.1245 54.7754 36.214 203.926 36.1428 40.01 36.0976 36.0844 35.5179 131.423 37.3644
threshold=1.0000000180025095e-35 1.0000000180025095e-35 1.0000000180025095e-35 0.010190167955222975 0.010204439600757793 1.0000000180025095e-35 0.28872383460633799 0.010191311153557203 0.020372297381331266 0.020409017063373471 1.0000000180025095e-35 1.0000000180025095e-35 0.010183700647738535 0.010204274168435336 0.010191311153557203 0.48543379928179042 0.50284819709923689 0.42128955279453956 0.030507512302545135 0.030616229572702273 0.47573061204473716 0.010183700647738535 0.010204274168435336 0.17543875631721792 0.017542318106266427 0.19297746399089144 1.0000000180025095e-35 0.62748668704708044 0.010213238437682825 0.14288120810167124 0.21425752031130285 0.19298751104701498 0.20981389810372245 0.71926736555921078 1.0000000180025095e-35 0.24561673357517536 0.020306902447688169 0.00030647992603224326 0.010191311153557203 0.010213238437682825 0.71113265863794983 0.43926404578375389 0.040668630401230831 0.040819789291365698 0.020407829663893727 0.020408717816329674 0.12280763299779413 0.14006335347507068 0.14035539145293313 0.15750753687007549 0.15789625307309102 0.17543244164842564 0.084103860474045666 0.010183700647738535 0.12269934903232442 0.10526420338592855 0.43683836284367139 0.42718892853717227 0.19276835773536713 0.26315753614740339 0.010204274168435336 0.12280763299779413 0.14006335347507068 0.58564874165108838 0.44967716127640839 0.66524915017001496 0.5596605947080201 0.14035539145293313 0.15750753687007549 0.21430070114087782 0.28557011347891553 1.0000000180025095e-35 0.63106464234757831 0.00036199460557238139 0.2490489617143927 0.020407829663893727 0.020408717816329674 0.77378545324985415 0.15003508800420873 0.19927281989819856 0.099934704012156053 0.050000680790483629 0.18618771638769713 1.0000000180025095e-35 0.10458451345198008 0.049999544495928867 1.0000000180025095e-35 0.24271780728844186 0.23301249621749434 0.010213238437682825 0.010183700647738535 0.21052890736481222 0.22806369950247277 0.22807240313791741
decision_type=2 2 2 2 2 2 2 2 2 2 2 2 2 2 2 2 2 2 2 2 2 2 2 2 2 2 2 2 2 2 2 2 2 2 2 2 2 2 2 2 2 2 2 2 2 2 2 2 2 2 2 2 2 2 2 2 2 2 2 2 2 2 2 2 2 2 2 2 2 2 2 2 2 2 2 2 2 2 2 2 2 2 2 2 2 2 2 2 2 2 2 2 2 2
left_child=1 2 6 -2 5 11 17 -4 -6 10 37 16 -3 27 -13 20 78 52 -11 26 23 -7 71 24 34 -25 63 73 41 56 -31 -27 -33 46 -8 -17 -30 64 -39 -16 91 -9 -21 -44 -15 -46 54 -48 77 -50 -51 -52 -1 -12 55 58 57 61 66 -37 -55 -19 -63 -20 -10 -32 83 -54 -69 -67 -71 -23 -70 -14 -18 -24 -77 -49 -5 -80 81 82 -64 -26 -85 86 -61 88 -86 -40 -28 -34 -93 -94
right_child=3 12 7 4 8 21 15 28 9 18 53 14 13 44 39 35 74 29 19 42 -22 22 75 25 33 31 90 -29 36 30 65 32 40 -35 -36 59 -38 38 89 -41 -42 -43 43 -45 45 -47 47 48 49 50 51 -53 67 60 -56 -57 -58 -59 -60 85 -62 62 80 -65 -66 69 -68 68 72 70 -72 -73 -74 -75 -76 76 -78 -79 79 -81 -82 -83 -84 84 87 -87 -88 -89 -90 -91 -92 92 93 -95
leaf_value=-0.07706522599800221 0.087549605573600212 0.087549605573600212 0.087549605573600212 -0.062433200448733545 0.087549605573600212 0.087549605573600212 -0.0026554708495678532 -0.060075048595881579 -0.059143635291451772 0.087549605573600212 0.087549605573600212 0.087549605573600212 -0.040380616114121498 0.087549605573600212 -0.032265831222416386 -0.057137042285506257 -0.0050070034748122098 -0.069522650290665775 -0.039360300704496587 0.087549605573600212 0.095430322329238176 -0.023953521002440976 0.087549605573600212 0.090057832886685465 -0.083667731675767867 -0.060018373860603907 0.090290030568920335 0.023841133762158094 0.087549605573600212 0.092369483025932717 -0.066530872618065312 0.095252005510850377 -0.062598666865020247 0.0044435353831614004 0.08754142607981269 0.092579827173816964 -0.022594403898714178 0.087549605573600212 -0.039791084517593237 0.045487824780158094 0.018593331211222874 -0.0085039694071812003 0.019891077779038133 0.071436082806715637 0.0070144705852302307 0.071966888823429859 0.10475102896397735 -0.074918231060075002 0.090043389598037912 -0.072323215090468032 0.090440677199562891 -0.06752833936419482 -0.073261342767628038 0.0072438756480441768 -0.074941432247373443 0.10451365320050593 -0.069402266582195019 0.10076562407580077 -0.057984226893530125 -0.041606683869068663 0.061394796234108942 0.099649052325816834 -0.06047712963283939 0.01365725606510191 -0.023532697278278725 -0.05663027988214743 -0.082325790448652195 0.093617979534558235 -0.058136720430272473 0.09349569302514292 -0.028959428359625394 0.02685866441817238 -0.085099935823029299 0.022668231590297114 -0.033590808335721138 0.012024856055242547 0.064098361021753245 0.0015510892274131381 0.10118865323932909 -0.049466386136678309 -0.066881336915587911 0.10322328758633591 -0.0039957826004128017 0.00067148228880912965 -0.019858753450192574 -0.055066226513805064 0.10232559615146597 -0.046875407140745916 0.10475812861709149 0.035140192171386468 0.035685217770586572 0.095938452186916059 -0.070240456386584743 -0.022130047465276841
leaf_weight=5723.640391305089 4572.861599162221 1037.0933639109135 457.06571021676064 1169.2048645913601 2442.3377259224653 275.31718021631241 94.997599124908447 164.87444025278091 220.39308726787567 1071.8754276037216 98.712476536631584 108.26529684662819 183.67592453956604 338.02287250757217 130.87427951395512 1458.7653844207525 209.73542258143425 295.89075210690498 105.08217456936836 490.13316513597965 30.82921576499939 131.54149733483791 112.91923494637012 46.30893075466156 28.883856207132339 100.53893138468266 45.467997670173645 259.84229524433613 39.925890013575554 59.170185849070549 242.86726325750351 53.516008630394936 67.641059935092926 120.52312533557415 37.965159192681313 10.871150612831114 33.203162834048271 25.229243382811546 57.895427107810974 45.242939293384552 109.86845873296261 120.97576713562012 119.61928096413612 518.96552775800228 94.73711796104908 280.060378074646 47.769516676664352 148.47464303672314 52.400667756795883 145.49240189790726 49.538535729050636 129.25927111506462 1351.6133692413568 91.736700057983398 195.66041558980942 44.7432701587677 1343.0145010948181 7.7074513733386985 754.18133726716042 151.32569906115532 112.09671713411808 14.905951753258703 206.10972601175308 84.676134467124939 171.23801532387733 85.468049705028534 44.318184241652489 19.87181057035923 929.30705896019936 15.66539643704891 61.357771903276443 63.851029306650162 173.89428772032261 31.205728650093079 316.51549205183983 53.47862833738327 147.84399938583374 19.432533591985703 10.997544735670088 45.110998809337616 152.97184255719185 14.883657306432722 88.314450114965439 136.22683762013912 33.384366348385811 105.50141315162182 29.388384521007538 213.75579856336117 7.9808051735162726 22.2497878074646 90.425330221652985 21.673089593648911 51.783597931265831 182.89458023011684
leaf_count=23257 18669 4234 1866 4725 9971 1124 380 666 890 4376 403 442 738 1380 525 5893 839 1200 422 2001 124 527 461 188 116 404 184 1041 163 240 982 215 272 483 155 44 133 103 232 182 441 484 479 2105 379 1136 192 598 213 589 201 523 5485 367 788 180 5440 31 3042 608 453 60 832 339 686 345 179 80 3758 63 247 256 705 125 1270 214 598 78 44 182 618 60 356 547 134 424 118 859 32 89 364 87 208 734
internal_value=0 -0.040886 -0.0550729 0.0576465 0.0417258 -0.0126947 -0.0600217 0.0390023 0.0683401 0.0542334 -0.000235967 -0.0385492 0.0632444 0.0420184 0.0257182 -0.0370587 -0.0489836 -0.0700824 0.0714729 0.0596243 -0.0281794 0.0543647 0.0364374 -0.029476 -0.0356067 -0.00719477 0.0133656 -0.00108407 -0.02281 -0.0575178 -0.0341098 -0.0148552 -0.00553863 -0.0392004 0.0230987 -0.0520782 0.0375404 -0.0329525 0.00651913 -0.0122916 -0.017971 -0.0382495 0.0729706 0.0617807 0.0707238 0.0555489 -0.0417644 -0.0272498 -0.0388283 -0.0266864 -0.0455482 -0.0237607 -0.0740492 0.053509 -0.047657 -0.0434317 -0.0626377 -0.051002 -0.0488632 -0.0272382 0.0370238 -0.0525151 -0.0419691 -0.0157022 -0.043573 -0.052572 -0.0340556 -0.0670735 -0.0596265 -0.0317083 -0.00405383 -0.00734894 -0.0623869 -0.0312245 -0.0221988 0.0636633 0.0502657 -0.0660681 -0.0604873 -0.0199373 -0.0465355 -0.0364733 -0.0435352 -0.0289649 -0.0249275 -0.0317891 -0.0181999 -0.0385966 0.00418425 -0.0189888 0.0539552 -0.0303702 -0.0218664 -0.032746
internal_weight=0 18553.2 16328.6 13161.9 8589.03 2820.9 15512.5 816.045 5768.13 3325.8 799.551 2035.95 2224.64 1187.54 284.383 4725.89 1751.56 10786.7 2526.25 1454.37 2970.04 784.952 509.634 2939.21 2304.99 634.225 325.652 474.724 358.979 2588.33 464.529 587.916 487.377 2172.03 132.963 1755.85 73.1291 497.006 105.374 176.117 433.861 285.85 1128.72 638.585 712.82 374.797 2051.5 592.368 544.598 376.691 324.29 178.798 8198.33 302.546 1459.13 1263.47 2123.8 780.784 1218.73 297.087 203.833 773.076 477.186 189.758 391.631 405.358 464.55 2474.69 1123.07 162.491 77.0232 195.393 1103.2 214.882 526.251 314.242 201.323 167.907 1225.31 56.1085 462.28 309.308 294.424 420.232 391.348 286.215 180.714 255.121 41.3652 80.1452 135.893 323.992 256.351 234.678
internal_count=128675 75153 66120 53522 34853 11389 62808 3312 23464 13493 3223 8209 9033 4799 1149 19049 7060 43759 10270 5894 11962 3180 2056 11838 9289 2549 1309 1904 1446 10474 1877 2361 1957 8754 535 7087 296 2000 424 707 1742 1150 4585 2584 2895 1515 8271 2394 2202 1526 1313 724 33285 1223 5877 5089 8597 3157 4909 1194 820 3126 1926 761 1576 1637 1867 10028 4543 655 310 783 4463 863 2109 1273 812 676 4951 226 1866 1248 1188 1688 1572 1150 726 1025 166 321 548 1301 1029 942
shrinkage=0.05


Tree=4
num_leaves=95
num_cat=0
split_feature=2 6 8 2 2 6 0 8 2 2 6 8 6 6 1 8 0 1 2 2 3 5 6 6 3 6 0 8 7 7 0 5 5 5 5 5 5 7 7 5 0 0 8 8 8 8 2 6 6 6 0 3 5 5 6 0 7 7 5 5 6 3 4 4 0 5 5 9 9 0 0 0 8 5 5 5 5 4 5 0 8 7 6 6 4 9 4 7 7 9 9 9 0 9
split_gain=27283.2 9987.97 2768.32 2317.56 4555.16 1778.97 1332.46 898.551 582.207 1145.91 510.868 495.65 427.665 539.108 255.702 245.301 202.308 200.865 180.75 330.724 178.76 195.066 173.716 222.072 148.358 139.568 129.101 121.407 111.445 163.907 92.1129 105.71 300.213 111.566 259.203 95.562 192.649 92.1016 261.856 84.5215 81.7221 88.6342 80.7298 75.5494 79.6908 73.5943 69.7892 96.3142 68.5843 109.944 67.8888 65.1459 63.7208 448.878 63.3931 63.2857 59.6505 196.552 55.3755 246.1 54.1176 52.2764 50.3858 50.3755 47.9715 46.682 139.709 46.4668 589.675 45.1733 44.8982 44.0009 43.4453 41.8621 118.677 41.5888 74.0542 53.7674 41.4549 40.5659 40.1158 38.0051 37.8378 39.1099 36.5103 41.7433 36.061 36.0046 91.0821 35.0862 50.6044 97.2239 59.46 42.4424
threshold=1.0000000180025095e-35 1.0000000180025095e-35 1.0000000180025095e-35 0.010190167955222975 0.010204439600757793 1.0000000180025095e-35 0.21083630298109401 0.010191311153557203 0.020372297381331266 0.020409017063373471 1.0000000180025095e-35 1.0000000180025095e-35 0.010183700647738535 0.010204274168435336 0.51456244262113138 0.010191311153557203 0.65736234258157056 0.50485558091311211 0.030507512302545135 0.030616229572702273 0.61285111961322969 0.017542318106266427 0.010183700647738535 0.010204274168435336 0.55043226537948653 1.0000000180025095e-35 0.65736234258157056 0.010213238437682825 0.071441563348531578 0.14269531208659084 0.71926736555921078 0.14035539145293313 0.15750753687007549 0.15789625307309102 0.17543244164842564 0.17543875631721792 0.19297746399089144 0.072114744977771025 0.14269531208659084 1.0000000180025095e-35 0.59125244399356791 0.71924431575265202 0.020306902447688169 0.00030647992603224326 0.010191311153557203 0.010213238437682825 0.040668630401230831 1.0000000180025095e-35 0.020407829663893727 0.020408717816329674 0.43926404578375389 0.67198437395152388 0.17543875631721792 0.19297746399089144 0.010183700647738535 0.18199858164345648 0.14288120810167124 0.21425752031130285 0.19298751104701498 0.20981389810372245 0.010204274168435336 0.3477538723366887 0.12133440170847222 0.4635926610220274 0.60939403277163562 0.21052890736481222 0.22806369950247277 0.049999544495928867 1.0000000180025095e-35 0.36888467414081155 0.44967716127640839 0.047856663849712454 0.00036199460557238139 0.22807240313791741 0.24561256715419991 0.24561673357517536 0.26315753614740339 0.41719367334102814 0.12280763299779413 0.63509836117549867 1.0000000180025095e-35 0.071053066111418595 0.020407829663893727 0.020408717816329674 0.34149603611024398 0.15003508800420873 0.30606676084294965 0.21430070114087782 0.28557011347891553 0.14999529317913343 0.00088885114803479652 0.049999544495928867 0.57444391891867219 0.10001440476138009
decision_type=2 2 2 2 2 2 2 2 2 2 2 2 2 2 2 2 2 2 2 2 2 2 2 2 2 2 2 2 2 2 2 2 2 2 2 2 2 2 2 2 2 2 2 2 2 2 2 2 2 2 2 2 2 2 2 2 2 2 2 2 2 2 2 2 2 2 2 2 2 2 2 2 2 2 2 2 2 2 2 2 2 2 2 2 2 2 2 2 2 2 2 2 2 2
left_child=1 2 6 -2 5 11 24 -4 -6 10 43 16 -3 26 17 -13 55 20 -11 25 21 39 -7 80 52 64 72 50 78 -30 31 40 -33 -34 -35 -36 -37 -26 -39 -8 -23 62 -29 70 -45 -17 -21 69 -15 -50 -9 67 -1 -54 -12 -5 -40 -58 -38 -60 -56 -32 -42 79 -20 -61 -67 68 -16 -48 -10 -55 -14 -68 -75 -76 -77 -78 -22 -53 -24 -43 -25 -84 85 -57 -80 -59 -89 90 -31 -92 93 -93
right_child=3 12 7 4 8 22 14 27 9 18 54 15 13 48 51 45 -18 -19 19 46 28 30 23 82 37 -27 -28 42 29 89 61 32 33 34 35 36 58 38 56 -41 41 81 -44 44 -46 -47 47 -49 49 -51 -52 63 53 71 60 84 57 87 59 65 -62 -63 -64 -65 -66 66 73 -69 -70 -71 -72 -73 -74 74 75 76 77 -79 86 -81 -82 -83 83 -85 -86 -87 -88 88 -90 -91 91 92 -94 -95
leaf_value=-0.07393518140267398 0.084401947271126682 0.084401947271126682 0.084401947271126682 -0.065519178306134462 0.084401947271126682 0.084401947271126682 -0.0031727746208688999 -0.05747213495144346 -0.056569029878266452 0.084401947271126682 0.084401947271126682 0.084401947271126682 -0.037535403717601112 0.084401947271126682 -0.060987568775494432 -0.030714999649060576 -0.0105651746116868 0.096800163847727105 -0.036264396849995301 0.084401947271126682 -0.058053371151162131 -0.05743668326304005 -0.022781430413497596 0.084401947271126682 -0.069767799469305378 0.051576604374493067 0.023889591403357776 0.084401947271126682 0.088250923115560417 -0.027385628369694898 0.018600316109650811 0.086276572086780703 -0.071580469945925124 0.088403489734244639 -0.06883915253465564 0.086466196382348259 -0.062982922842495168 0.093990140876853312 -0.05900009226190786 0.084553154256093457 0.022137561787242591 -0.044577151504648534 -0.021486160661924287 0.084401947271126682 -0.018068903743453407 0.043388003558587802 -0.014040196945127374 0.071653716725932307 0.0066643924669903187 0.069055225450858279 -0.0080799171467096191 -0.055506357398764222 0.1060676283899596 -0.073262474785081341 0.0068823861351378956 -0.03683061331490297 0.084236536360130773 -0.065596014440092151 0.092952136588158207 -0.067059234900753648 0.058752688976716851 -0.060902643295594389 -0.027979017442557843 0.0079707191805958207 0.014750684919186068 0.093915458268519006 -0.070305223750033868 -0.070292409484821142 0.10674779674005004 0.04306091810610186 -0.02238032393316846 -0.059765781915361284 0.024033075536048644 0.10498942361325284 -0.076410055274272387 0.10178346440208946 0.004622447771831152 -0.051888969648591368 -0.0045022201124453745 -0.0020052932266366934 0.025551717550183262 -0.079990366707783866 0.011426852612337387 0.061379740677089428 -0.055440389403458329 0.043747257774472359 -0.05440189213720506 0.090426945311341947 -0.04474783058736561 -0.050031499146508375 0.094773188282681248 -0.035289773053317396 0.035653568043466595 0.089822924385303288
leaf_weight=6029.5879551917315 4507.846978828311 1022.3484979569912 450.56738242506981 701.07206992805004 2407.6138103753328 271.40286058187485 99.477596402168274 163.75260177254677 218.93897160887718 1056.6360479593277 97.309032753109932 106.72603592276573 192.33214093744755 333.21703523397446 966.94987326860428 130.61466179788113 315.56964309513569 30.304825961589813 110.26448121666908 483.16470108926296 103.65887999534607 1108.3611804842949 131.39739640057087 111.31380669772625 432.39422743022442 135.07912021875381 247.84154346585274 39.358244016766548 55.066425144672394 103.08392009139061 99.624830454587936 53.655481517314911 173.57134608924389 45.581472486257553 159.26274643838406 36.207972526550293 118.08650082349777 34.486333653330803 408.00832332670689 37.924414202570915 57.648479744791985 272.03963457047939 33.17079122364521 24.870546832680702 80.020200490951538 45.065359503030777 46.251975953578949 449.36450740695 94.728206142783165 277.34329295158386 120.95902770757675 156.11702264845371 38.023012161254883 1315.1844160407782 91.727496191859245 338.38934995234013 33.774339854717255 108.89860497415066 40.652372524142265 93.067258074879646 111.30073048174381 26.091844260692596 385.64985318481922 62.603880807757378 79.166499719023705 22.287811368703842 68.235802248120308 516.95957469940186 55.398592993617058 137.91826345026493 171.05693933367729 1116.5422598272562 33.668491765856743 16.143062263727188 48.554669052362442 10.923553720116614 64.625241711735725 120.70948597788811 130.22904917597771 45.831875428557396 63.76330041885376 105.00562089681625 53.463844835758209 146.70124846696854 370.28818534314632 16.874435275793076 50.148423403501511 14.816934719681738 78.402350917458534 38.032483667135239 32.56892728805542 87.145414143800735 68.38374125957489 7.3503018021583548
leaf_count=24759 18669 4234 1866 2859 9971 1124 398 666 890 4376 403 442 775 1380 3931 525 1266 122 444 2001 421 4501 527 461 1768 548 994 163 225 415 399 221 710 187 651 149 478 139 1663 157 231 1099 133 103 321 182 187 1837 379 1136 484 634 153 5401 367 1368 140 443 164 377 453 105 1557 253 317 90 276 2102 224 560 686 4557 135 65 196 44 260 486 524 186 256 428 214 598 1499 68 202 60 317 153 131 351 275 30
internal_value=0 -0.0391888 -0.0527753 0.0554194 0.0400549 -0.0121374 -0.057513 0.0374463 0.0657144 0.0520516 -0.000222122 -0.0368321 0.0607348 0.0402145 -0.0385272 0.0246147 -0.0467925 -0.0314336 0.0686937 0.0571771 -0.0324201 -0.0372668 0.0521222 0.0348302 -0.0689186 0.0127454 -0.00103257 -0.0217762 -0.00901145 0.00828201 -0.0398297 -0.0415866 -0.0289953 -0.0350714 -0.0275662 -0.0341841 -0.0255534 -0.051734 -0.0402395 0.0210405 -0.0485822 -0.0366189 0.0359746 -0.031442 0.00622786 -0.0117061 0.0700888 0.059173 0.0679261 0.0531707 -0.036488 -0.0541366 -0.0711644 -0.0643999 0.0512211 -0.0548059 -0.0474286 -0.0274141 -0.0322766 -0.0248034 0.0353179 0.00209989 -0.0214616 -0.0312164 -0.0149443 -0.0355718 -0.0272343 -0.0580758 -0.0518984 0.0287207 -0.0415734 -0.0670654 -0.0283632 -0.0354367 -0.0263192 -0.0349777 -0.0247272 -0.0321837 -0.0328558 -0.0433644 -0.00698993 -0.0544396 0.0610331 0.0480374 -0.0444542 -0.0330033 -0.0183753 -0.0460711 -0.0232622 -0.00480196 0.000960202 0.0159104 0.000141258 -0.0255579
internal_weight=0 18392.6 16191.1 13011.2 8503.33 2802.64 15383.3 807.808 5700.68 3293.07 795.224 2024.6 2201.48 1179.13 5773.22 282.406 1742.19 3969.36 2497.85 1441.21 3939.06 3263.39 778.042 506.64 9610.12 324.51 473.842 357.241 675.668 391.631 3125.99 3000.27 1071.56 1017.91 844.338 798.756 639.494 1110.78 678.387 137.402 1928.7 820.344 72.529 494.887 104.891 175.68 1116.7 633.535 705.289 372.071 284.712 1803.86 8499.34 2469.75 300.337 1426.62 643.901 235.892 603.286 485.199 203.028 125.717 443.298 264.553 189.431 444.547 351.48 1539.31 1022.35 184.17 389.996 2431.73 226.001 329.192 260.956 244.813 196.258 185.335 284.036 201.949 195.161 377.045 311.479 200.165 725.552 355.264 180.377 202.118 93.2193 336.565 298.532 195.448 162.879 94.4957
internal_count=128675 75153 66120 53522 34853 11389 62808 3312 23464 13493 3223 8209 9033 4799 23408 1149 7060 16078 10270 5894 15956 13229 3180 2056 39400 1309 1904 1446 2727 1580 12674 12170 4354 4133 3423 3236 2585 4530 2762 555 7816 3315 296 2000 424 707 4585 2584 2895 1515 1150 7330 34870 10111 1223 5794 2623 960 2436 1958 820 504 1788 1073 761 1794 1417 6257 4155 747 1576 9958 910 1327 1051 986 790 746 1147 820 783 1527 1273 812 2935 1436 726 820 377 1355 1202 787 656 381
shrinkage=0.05


Tree=5
num_leaves=95
num_cat=0
split_feature=2 6 8 2 2 6 0 8 2 2 6 8 6 6 1 8 0 1 2 2 3 5 6 6 3 6 0 8 0 5 7 7 5 8 8 8 2 2 8 6 6 9 9 9 9 9 9 0 5 5 6 0 3 7 7 5 5 5 5 5 5 5 5 5 1 6 4 5 5 0 0 1 4 7 7 5 5 0 0 7 7 5 5 5 5 4 5 5 5 5 5 5 5 5
split_gain=24951 9117.81 2525.13 2154.25 4181.94 1620.03 1239.43 827.107 545.943 1054.55 464.672 450.268 401.02 496.162 230.464 225.857 185.745 180.008 171.284 305.728 164.088 184.267 162.548 203.443 138.911 126.816 117.254 110.286 103.215 93.1728 85.9587 243.798 77.9385 74.3483 68.58 73.0919 66.8995 94.4623 66.6557 65.1677 101.584 64.2999 384.19 76.8648 392.225 96.9198 836.961 62.2515 62.1376 512.539 59.5758 59.1048 58.155 55.8121 182.061 55.1256 416.291 50.5448 54.0287 100.447 57.3726 86.4683 60.3125 97.4457 53.4699 49.6233 45.9727 58.1422 81.1045 50.262 75.2087 54.5051 45.9077 45.3401 272.674 44.9494 360.212 43.477 41.3808 41.3747 175.586 40.9695 64.7104 54.2968 58.5685 40.0134 39.8631 340.928 48.643 326.275 38.9577 43.8087 38.7151 38.3301
threshold=1.0000000180025095e-35 1.0000000180025095e-35 1.0000000180025095e-35 0.010190167955222975 0.010204439600757793 1.0000000180025095e-35 0.21546601872509727 0.010191311153557203 0.020372297381331266 0.020409017063373471 1.0000000180025095e-35 1.0000000180025095e-35 0.010183700647738535 0.010204274168435336 0.51456244262113138 0.010191311153557203 0.65736234258157056 0.50485558091311211 0.030507512302545135 0.030616229572702273 0.53754998296905721 0.017542318106266427 0.010183700647738535 0.010204274168435336 0.55043226537948653 1.0000000180025095e-35 0.62748668704708044 0.010213238437682825 0.71926736555921078 0.087722803273902625 0.072114744977771025 0.14269531208659084 1.0000000180025095e-35 0.020306902447688169 0.00030647992603224326 0.010191311153557203 0.040668630401230831 0.040819789291365698 0.010213238437682825 0.020407829663893727 0.020408717816329674 0.14999529317913343 0.10001440476138009 0.099934704012156053 0.050000680790483629 0.049999544495928867 1.0000000180025095e-35 0.43926404578375389 0.15789625307309102 0.17543244164842564 0.010183700647738535 0.18199858164345648 0.67198437395152388 0.14288120810167124 0.21425752031130285 0.17543875631721792 0.19297746399089144 0.10506079769517364 0.15789625307309102 0.17543244164842564 0.17543875631721792 0.19297746399089144 0.19298751104701498 0.20981389810372245 0.387701996809444 0.010204274168435336 0.46664457004196752 0.14035539145293313 0.15750753687007549 0.56955871550227555 0.71924431575265202 0.26213392868275565 0.4635926610220274 0.14269531208659084 0.072114744977771025 0.19298751104701498 0.20981389810372245 0.58564874165108838 0.44967716127640839 0.071053066111418595 1.0000000180025095e-35 0.21052890736481222 0.22806369950247277 0.22807240313791741 0.24561256715419991 0.30989572953837624 0.21052890736481222 0.22806369950247277 0.22807240313791741 0.24561256715419991 0.24561673357517536 0.26315753614740339 0.26316624938090888 0.15750753687007549
decision_type=2 2 2 2 2 2 2 2 2 2 2 2 2 2 2 2 2 2 2 2 2 2 2 2 2 2 2 2 2 2 2 2 2 2 2 2 2 2 2 2 2 2 2 2 2 2 2 2 2 2 2 2 2 2 2 2 2 2 2 2 2 2 2 2 2 2 2 2 2 2 2 2 2 2 2 2 2 2 2 2 2 2 2 2 2 2 2 2 2 2 2 2 2 2
left_child=1 2 6 -2 5 11 24 -4 -6 10 34 16 -3 26 17 -13 51 20 -11 25 21 32 -7 -24 48 77 -14 47 41 -22 -26 -32 -8 -29 78 -36 -21 -38 -17 -15 -41 42 43 44 45 46 66 -9 -1 -50 -12 -5 73 -33 -55 -51 -57 -31 64 -60 -61 -62 -63 -64 93 -52 67 69 -69 -23 71 -71 -54 74 79 -58 -77 -20 -10 80 -16 -65 -83 -84 -85 -30 -78 -88 -89 -90 -86 -92 -93 -59
right_child=3 12 7 4 8 22 14 27 9 18 50 15 13 39 52 38 -18 -19 19 36 29 28 23 -25 30 -27 -28 33 85 57 31 53 -34 -35 35 -37 37 -39 -40 40 -42 -43 -44 -45 -46 -47 -48 -49 49 55 65 -53 72 54 -56 56 75 58 59 60 61 62 63 81 -66 -67 -68 68 -70 70 -72 -73 -74 -75 -76 76 86 -79 -80 -81 -82 82 83 84 90 -87 87 88 89 -91 91 92 -94 -95
leaf_value=-0.071581060745598252 0.08161751930927702 0.08161751930927702 0.08161751930927702 -0.062889133291571794 0.08161751930927702 0.08161751930927702 -0.0030142255648571365 -0.055059118841871937 -0.054179993695148726 0.08161751930927702 0.08161751930927702 0.08161751930927702 -0.0284155552830287 0.08161751930927702 -0.049979690010308525 -0.029250297108466928 -0.010042062986862201 0.092355089363980569 -0.035810488344153207 0.08161751930927702 -0.056322880856913837 -0.059386297671961241 -0.0066499972085113717 0.058619373642331822 -0.067021216065990596 0.049330727305086773 0.021617096301357885 0.08161751930927702 0.0234349289744612 0.10405679933150691 0.090143418317467416 -0.056640229023767669 0.081753483362604296 -0.02043622579865241 0.08161751930927702 -0.017179919120256553 0.016684270227882349 0.06613571407200676 0.041417993006517398 0.0063318987623181807 0.066396400670231406 -0.061716665732056974 0.10286659358509045 -0.05954769500721982 0.10190016154091948 -0.059571884364321648 0.10281040351567844 -0.007677222218380195 0.11746241831209131 -0.079705522906268145 0.0065390700073392691 -0.042453951442108721 -0.041615611418858882 0.081538975810527853 -0.044024082771888462 0.1004470537102147 -0.078538926910652077 0.0068423282996377278 0.08960432870976219 -0.052193315353249448 0.088472759038703941 -0.05490867624023052 0.08842404576562661 -0.048861243437274694 -0.046020794908687351 0.056306761864089241 -0.066694948150964453 0.082781983714668633 -0.027116455845551793 0.025742330834259797 -0.057861963829810438 -0.030417885544479786 0.0076213552304759862 -0.069570423550366842 0.10029091264943531 0.11850676206980607 -0.078441987335406888 0.012414438641540959 -0.021288846559398698 -0.064453967748576244 0.10728512501190252 0.089258744628613274 -0.059275908929721371 0.092643063764255518 -0.058238117417364815 -0.043138677094764072 0.11929436818483757 -0.081347023614686639 0.11603867731629802 -0.062649817636066071 0.088677788513526257 -0.064125845982422713 0.0088480319205146481 -0.068476999932344795
leaf_weight=5426.0095456540585 4430.4929726868868 1004.8051446974277 442.83571091294289 694.04851354658604 2366.2995034903288 266.74562650918961 99.474673762917519 162.41651031374931 217.20709592103958 1038.5043252706528 95.639223739504814 104.89463248848915 213.58060908317566 327.499078810215 528.81595642864704 130.30527345836163 315.41202065348625 29.877851843833923 104.43468821048737 474.87366427481174 106.68375027179718 403.47592079639435 194.88438808917999 308.19028662145138 431.86232857406139 134.18991005420685 259.23176567256451 38.68286220729351 88.004182636737823 10.186088800430296 34.939261868596077 408.83052211999893 37.278191208839417 33.132208481431007 24.443771824240685 79.954515889286995 119.20495295524597 508.56752009689808 44.853776514530182 94.717583119869232 274.10847353935242 338.68832868337631 47.15406234562397 461.8621886074543 49.641855776309967 488.79939572513103 103.72722393274307 120.93907165527344 38.994882792234421 524.53361769020557 91.716520458459854 721.85413482785225 198.66385307908058 33.676728367805481 202.22373448312283 38.885418206453323 459.27781556546688 124.67960400879383 30.638147607445717 54.259217485785484 27.307184964418411 49.896507322788239 31.035406887531281 44.555860042572021 149.70959064364433 110.35273548960686 206.12960393726826 18.350454643368721 197.18509784340858 61.943508759140968 178.0316778421402 142.80608184635639 62.152579560875893 412.87815473973751 29.323134437203407 27.50554296374321 371.37769386172295 84.594041094183922 170.84113854169846 514.28282363712788 18.365085795521736 20.074210599064827 37.779657900333405 17.780579969286919 26.717204958200455 30.355936780571938 26.009120479226112 299.22568143904209 26.096656322479248 1211.7435974031687 14.876634374260901 21.076195105910301 132.05898240208626 19.538510292768478
leaf_count=22581 18669 4234 1866 2859 9971 1124 398 666 890 4376 403 442 863 1380 2166 525 1266 121 422 2001 437 1649 783 1273 1786 548 1041 163 353 41 142 1681 157 133 103 321 479 2105 182 379 1136 1387 192 1892 203 1999 422 484 160 2177 367 2935 811 142 827 156 1903 504 125 220 112 202 127 180 608 453 844 77 809 249 724 578 251 1696 118 113 1539 339 686 2110 74 82 153 72 108 122 107 1240 107 5018 61 85 531 79
internal_value=0 -0.0376345 -0.0506695 0.0534059 0.0385296 -0.0116182 -0.0552131 0.0360301 0.0633427 0.0500555 -0.000208415 -0.0352265 0.0584531 0.0385447 -0.0366828 0.0235938 -0.0447412 -0.0299015 0.0661717 0.054922 -0.0308449 -0.0365868 0.050065 0.0333349 -0.0661944 0.012159 -0.000983844 -0.0208094 -0.0393392 -0.0123924 -0.0495779 -0.0384943 0.0200931 0.0345346 -0.0300213 0.00595247 0.0674571 0.0567456 -0.0111539 0.065385 0.0509713 -0.0413442 -0.0384194 -0.041301 -0.0367458 -0.0405686 -0.0334868 -0.034836 -0.0683803 -0.0626365 0.0491057 -0.0524709 -0.0516777 -0.0454655 -0.0260989 -0.0649895 -0.0618518 -0.00662187 -0.00802762 0.00184345 -0.00378858 0.00241809 -0.00351826 0.0038937 -0.0250898 0.0337179 -0.045191 -0.0407663 -0.0177598 -0.047073 -0.034094 -0.0134276 -0.0298824 -0.0554582 -0.0501166 -0.0644583 -0.0611622 -0.0142289 -0.0396994 -0.0542716 -0.0447014 -0.00443679 0.00288435 -0.00404322 0.00577596 0.00636073 -0.0637169 -0.0602183 -0.0632559 -0.0588826 -0.00215581 0.00676238 -0.00119546 -0.00336185
internal_weight=0 18199.3 16025.3 12832.5 8402.01 2781.19 15227.3 798.006 5620.82 3254.52 790.155 2011.37 2173.94 1169.14 5666.12 280.054 1731.31 3901.64 2464.37 1425.86 3871.76 2952.91 769.82 503.075 9561.19 323.219 472.812 355.171 2816.16 918.853 1111.53 679.67 136.753 71.8151 492.447 104.398 1102.65 627.772 175.159 696.325 368.826 2697.8 2359.11 2311.95 1850.09 1800.45 1311.65 283.356 8449.66 3023.65 297.708 1415.9 1764.48 644.731 235.9 2984.66 2460.12 812.17 801.983 508.056 477.418 423.158 395.851 345.955 293.928 202.069 1207.92 1001.79 215.536 786.257 382.781 204.75 260.816 1503.67 1090.79 2421.24 1961.96 189.029 388.048 1061.46 547.181 314.919 270.363 250.289 212.51 118.36 1934.45 1563.08 1537.07 1237.84 194.729 168.012 153.135 144.218
internal_count=128675 75153 66120 53522 34853 11389 62808 3312 23464 13493 3223 8209 9033 4799 23129 1149 7060 15903 10270 5894 15782 12055 3180 2056 39679 1309 1904 1446 11500 3727 4578 2792 555 296 2000 424 4585 2584 707 2895 1515 11025 9638 9446 7554 7351 5352 1150 35101 12520 1223 5794 7226 2650 969 12360 10183 3290 3249 2058 1933 1713 1601 1399 1191 820 4930 4086 886 3200 1551 827 1062 6164 4468 10027 8124 761 1576 4350 2240 1272 1092 1010 857 475 8011 6472 6365 5125 785 677 616 583
shrinkage=0.05


Tree=6
num_leaves=95
num_cat=0
split_feature=2 6 8 2 2 6 0 8 2 2 6 8 6 6 8 1 3 0 2 2 1 6 6 5 5 5 6 0 8 7 7 5 5 0 5 5 8 1 1 2 6 0 6 6 3 8 1 1 0 6 9 9 5 0 5 5 1 5 5 5 5 4 5 5 6 5 5 5 5 0 0 3 3 0 7 7 6 6 3 3 5 5 5 8 9 9 0 6 0 7 7 5 5 4
split_gain=22862.6 8337.52 2306.99 2011.96 3849.93 1476.35 1161.78 763.666 514.792 973.469 423.126 409.383 378.364 458.085 208.593 198.346 178.787 173.379 163.36 283.765 161.519 153.357 186.407 127.204 151.699 145.949 115.339 107.022 100.278 99.8439 348.323 77.7074 192.685 74.4739 72.5428 69.1606 68.6858 66.7273 140.681 64.5479 88.8078 62.7226 62.3782 94.1778 61.9033 60.4012 58.9303 69.6705 57.2091 56.313 55.2391 272.145 52.3394 48.9194 48.7704 254.221 57.379 52.8269 153.07 52.1841 290.68 60.8493 47.9838 132.129 45.6035 42.8065 172.297 41.3949 93.8243 40.8046 39.9229 39.4013 38.1259 37.7941 37.7897 61.3618 36.9665 36.7379 36.6353 41.0545 36.6777 36.5727 104.733 36.2623 34.9876 137.026 34.7381 34.3279 34.2934 34.268 203.642 34.256 80.6207 32.5435
threshold=1.0000000180025095e-35 1.0000000180025095e-35 1.0000000180025095e-35 0.010190167955222975 0.010204439600757793 1.0000000180025095e-35 0.28872383460633799 0.010191311153557203 0.020372297381331266 0.020409017063373471 1.0000000180025095e-35 1.0000000180025095e-35 0.010183700647738535 0.010204274168435336 0.010191311153557203 0.48543379928179042 0.42128955279453956 0.50284819709923689 0.030507512302545135 0.030616229572702273 0.47573061204473716 0.010183700647738535 0.010204274168435336 0.17543875631721792 0.19297746399089144 0.017542318106266427 1.0000000180025095e-35 0.32512506496035909 0.010213238437682825 0.14288120810167124 0.21425752031130285 0.19298751104701498 0.20981389810372245 0.71926736555921078 0.24561673357517536 1.0000000180025095e-35 0.020306902447688169 0.60194015054797656 0.59223519769423716 0.040668630401230831 1.0000000180025095e-35 0.52719095355582046 0.020407829663893727 0.020408717816329674 0.71113265863794983 0.010213238437682825 0.42684270032546107 0.41747746387372614 0.43926404578375389 0.010183700647738535 0.14999529317913343 0.10001440476138009 0.26315753614740339 0.084103860474045666 0.12280763299779413 0.14006335347507068 0.40776353227594225 0.14035539145293313 0.15750753687007549 0.12269934903232442 0.10526420338592855 0.18518070741428058 0.14035539145293313 0.15750753687007549 0.010204274168435336 0.15789625307309102 0.17543244164842564 0.10526420338592855 0.12269934903232442 0.36888467414081155 0.50782997659534779 0.66524915017001496 0.5596605947080201 0.71926736555921078 0.21430070114087782 0.28557011347891553 0.020407829663893727 0.020408717816329674 1.0000000180025095e-35 0.10458451345198008 0.035089619903279946 0.12280763299779413 0.14006335347507068 1.0000000180025095e-35 0.099934704012156053 0.050000680790483629 0.057995083761155621 0.010183700647738535 0.72016410362896133 0.14269531208659084 0.072752725027162776 0.035086295781965239 0.017545449789829838 0.18685640617698324
decision_type=2 2 2 2 2 2 2 2 2 2 2 2 2 2 2 2 2 2 2 2 2 2 2 2 2 2 2 2 2 2 2 2 2 2 2 2 2 2 2 2 2 2 2 2 2 2 2 2 2 2 2 2 2 2 2 2 2 2 2 2 2 2 2 2 2 2 2 2 2 2 2 2 2 2 2 2 2 2 2 2 2 2 2 2 2 2 2 2 2 2 2 2 2 2
left_child=1 2 6 -2 5 11 16 -4 -6 10 41 17 -3 27 -13 20 37 86 -11 26 23 -7 83 25 -25 35 70 -14 48 46 -31 -26 -33 50 89 -8 -30 38 53 -21 69 -10 -15 -44 -34 -16 47 67 -9 -12 51 54 -36 93 59 -56 57 -57 -59 60 61 72 -55 -64 -51 -60 -67 -18 -69 -41 -20 -32 78 -19 -73 -76 -24 -78 -27 80 91 -70 -83 88 85 -65 -5 -28 -23 90 -17 92 -80 -1
right_child=3 12 7 4 8 21 15 28 9 18 49 14 13 42 45 34 29 73 19 39 -22 22 76 24 31 33 87 -29 36 30 71 32 44 -35 52 -37 -38 -39 -40 40 -42 -43 43 -45 -46 -47 -48 -49 -50 64 -52 -53 -54 62 55 56 -58 58 65 -61 -62 -63 63 84 -66 66 -68 68 81 -71 -72 74 -74 -75 75 -77 77 -79 79 -81 -82 82 -84 -85 -86 -87 -88 -89 -90 -91 -92 -93 -94 -95
leaf_value=-0.053996938105878446 0.079139479216729855 0.079139479216729855 0.079139479216729855 -0.065589484451797853 0.079139479216729855 0.079139479216729855 -0.002213501674966251 -0.052810651666478782 -0.042944732829853727 0.079139479216729855 0.079139479216729855 0.079139479216729855 -0.038502015630671849 0.079139479216729855 -0.027864659379558749 -0.049219224496349273 -0.06511117356801116 -0.02389586125473403 -0.038016745826589537 0.079139479216729855 0.090399705834602773 -0.031188436160865259 0.079817395176953576 0.083060224012133532 -0.052798312684009467 -0.077670959101405881 0.083278339168136942 0.014156329816188737 0.079139479216729855 0.085922705279821335 -0.059118183493417742 0.086579332086674621 -0.026263947667840411 0.0040339811906493772 0.086479377866397908 0.079125003411388908 -0.019440720489344865 -0.072482999310142779 0.11655366299087309 -0.015514979646397826 0.066691159010676265 -0.0062288767255390303 0.0060160903209242464 0.063952663614127922 0.017334874985177412 0.039563900982117574 -0.061480946265293338 0.10426812161759827 -0.0072947571092542469 0.0062129808636306894 -0.059232934708568621 0.097897881368686351 -0.027160193050055167 -0.063807955651657186 0.10073183955567283 -0.052960538814457239 -0.058986856574760299 0.082774634410547193 -0.057151801458299879 -0.06797784644370207 0.1001763093526627 -0.052172576634040881 0.093287690122080547 -0.047518085424455174 0.054030407301139227 0.083117699461294048 -0.055355883134008091 0.10509362415032697 -0.076724129930388754 0.038930583839029573 0.0080811886618086005 -0.05013968130790665 -0.074315372299673457 0.016772723708863877 0.087610498011537863 -0.024103498852495422 0.0079533432720819072 0.056551624340708463 -0.029756106073299218 -0.031095474533926488 0.039084518020227867 0.097670022583963567 -0.040402053653592562 0.024636304218522115 -0.0654696598502819 0.10551886742485793 -0.047401899758023482 0.029353525872318122 0.045073696563953214 -0.063281107979494447 0.094012873836261113 -0.07025081768304757 0.11119483144076475 -0.068671767712597684
leaf_weight=434.151875898242 4342.9661227315664 984.95466086268425 434.08724543452263 389.39964625239372 2319.5519422441721 261.4759184718132 94.991523325443268 160.90344107151031 299.49669310450554 1017.9880954027176 93.749817743897438 102.82238075137138 135.25758430361748 321.029152572155 129.95472773909569 1020.4025237411261 191.17871041595936 458.58298997581005 88.496544003486633 465.49227122962475 30.356313928961754 114.24412022531033 107.88114300370216 44.819275259971619 98.826814398169518 28.059207245707512 44.145390629768372 336.64115430414677 37.918660774827003 57.128618091344833 236.19279816746712 52.202941000461578 319.6622066795826 120.18476782739162 10.509468287229536 36.052898913621902 33.08849273622036 2670.7934493422508 10.91432575881481 46.06628742814064 438.91161850094795 190.18665814399719 94.70554256439209 270.44626307487488 109.23637564480305 44.614091664552689 1361.1157652586699 7.8729179948568335 120.91645431518555 91.704084575176239 235.59749394655228 38.570051044225693 282.35387402772903 1043.7225174456835 38.294496715068817 89.547876611351967 147.7740535736084 38.63207633793354 70.874980181455612 162.90982480347157 36.964726462960243 638.25349418818951 16.292256951332092 533.73900061845779 109.27918629348278 34.846448853611946 63.216270565986633 11.235320463776587 62.636021718382835 136.03904418647289 100.08675111830235 83.747411549091339 39.538303300738335 65.25684654712677 15.418293178081511 60.621869787573814 53.301258206367493 143.80643749237061 42.281086459755898 223.98004586994648 47.813798189163208 14.206416815519331 413.43284411728382 63.687918573617935 264.23048086464405 15.039000853896139 805.88033720850945 89.037279427051544 16.925054848194122 379.20627336204052 25.434212014079094 21.500496059656143 13.347597122192381 2910.5197789222002
leaf_count=1835 18669 4234 1866 1623 9971 1124 380 666 1232 4376 403 442 548 1380 525 4215 802 1847 359 2001 124 459 461 188 404 115 184 1356 163 240 982 215 1301 483 44 155 133 11285 45 187 1837 768 379 1136 441 182 5688 32 484 367 973 157 1150 4387 154 367 613 163 295 670 149 2627 66 2214 453 146 262 46 263 560 402 345 164 262 63 247 214 598 171 911 193 58 1708 256 1101 61 3328 364 68 1575 103 87 54 12291
internal_value=0 -0.0361998 -0.0487243 0.0515722 0.0371269 -0.0111298 -0.0530879 0.0347326 0.0611917 0.0482253 -0.000195035 -0.0337204 0.0563585 0.0369832 0.0226441 -0.0322676 -0.0623568 -0.0428152 0.0638798 0.0528491 -0.0243329 0.0481125 0.0318819 -0.0255389 -0.00556623 -0.0310522 0.0116059 -0.000936825 -0.0199017 -0.0507457 -0.0294942 -0.0124156 -0.00412033 -0.0341999 -0.0457468 0.0201643 0.0332023 -0.0660532 -0.0627688 0.0650631 0.054512 -0.0286848 0.0630615 0.0489263 -0.0151597 -0.0106321 -0.0554163 -0.0436334 -0.0332818 0.0471391 -0.0364838 -0.0334667 -0.0230822 -0.0631439 -0.0363822 -0.0228849 -0.0335253 -0.0208618 -0.00701409 -0.0415803 -0.0376412 -0.0424711 -0.0566743 -0.0476963 0.0322124 -0.0275467 -0.00614949 -0.0453144 -0.0377678 0.0251578 -0.0135512 -0.0461456 -0.027605 -0.0188296 -0.02697 -0.0014518 0.056288 0.0434098 -0.0227059 -0.0182858 0.00467745 -0.0410416 -0.0358152 -0.0063184 -0.0505215 -0.0433242 -0.0533271 0.0472277 -0.0213482 -0.0504047 -0.0457359 -0.0166521 0.00406379 -0.0667669
internal_weight=0 17980.4 15837.3 12631 8288.06 2757.83 15050.4 786.914 5530.23 3210.68 784.416 1996.51 2143.03 1158.08 277.391 4636.24 10414.2 1719.12 2426.26 1408.28 2918.34 761.322 499.846 2887.98 624.748 2263.23 321.766 471.899 352.827 2514.79 453.109 579.928 481.102 2132.19 1717.91 131.044 71.0072 7899.4 5228.61 1086.51 621.017 489.683 686.181 365.152 428.899 174.569 2061.68 700.562 281.82 294.733 2012 1776.4 292.863 5217.69 1737.83 483.186 444.892 297.118 207.57 1254.65 1091.74 1054.77 1873.02 829.301 200.983 168.938 98.0627 692.689 501.511 182.105 188.583 395.98 416.521 523.84 159.788 76.0402 304.989 197.108 376.982 348.923 124.943 490.275 427.639 194.857 813.008 548.778 1195.28 133.183 131.169 1425.04 1045.84 77.1292 55.6287 3344.67
internal_count=128675 75153 66120 53522 34853 11389 62808 3312 23464 13493 3223 8209 9033 4799 1149 19049 43759 7060 10270 5894 11962 3180 2056 11838 2549 9289 1309 1904 1446 10474 1877 2361 1957 8754 7087 535 296 33285 22000 4585 2584 2000 2895 1515 1742 707 8597 2909 1150 1223 8271 7298 1194 21955 7141 2000 1846 1233 866 5141 4471 4322 7829 3442 820 703 408 2877 2075 747 761 1637 1695 2109 655 310 1273 812 1531 1416 505 2029 1766 783 3376 2275 4951 548 527 5893 4318 312 225 14126
shrinkage=0.05


Tree=7
num_leaves=95
num_cat=0
split_feature=2 6 8 2 2 6 0 8 2 2 6 8 6 6 1 8 1 0 2 2 6 6 3 5 5 5 3 6 0 8 5 5 7 7 5 5 0 5 5 5 5 5 5 5 5 5 5 5 5 5 8 2 2 5 5 5 5 8 8 6 6 5 5 9 9 8 6 0 5 5 5 5 5 5 7 7 9 9 6 1 0 8 5 5 5 5 9 9 9 4 0 6 9 9
split_gain=20983 7633.9 2110.14 1886.92 3550.9 1347.58 1093.62 707.015 488.559 901.838 385.336 372.506 358.97 424.138 199.446 193.175 166.629 160.815 156.814 264.035 144.965 171.423 141.38 155.972 272.882 146.637 122.229 105.082 100.052 91.2519 79.2193 81.2242 75.8874 215.543 68.5764 317.342 82.2876 77.7824 352.439 87.7868 278.125 96.4454 300.863 97.5506 239.278 69.4931 187.488 74.3811 157.673 66.9436 63.6324 62.7954 87.3769 62.1251 76.204 72.2673 89.6055 62.0677 66.7884 60.0859 87.564 57.3977 440.211 56.7073 677.032 54.756 53.4932 52.6734 51.732 371.597 47.0379 74.5345 50.7425 83.1263 44.5964 150.423 42.7406 620.581 41.9881 38.0467 36.6227 36.5897 36.1278 59.2817 47.7038 53.5057 36.5368 39.5562 35.8042 35.7017 35.5002 35.3665 34.6729 71.921
threshold=1.0000000180025095e-35 1.0000000180025095e-35 1.0000000180025095e-35 0.010190167955222975 0.010204439600757793 1.0000000180025095e-35 0.21083630298109401 0.010191311153557203 0.020372297381331266 0.020409017063373471 1.0000000180025095e-35 1.0000000180025095e-35 0.010183700647738535 0.010204274168435336 0.51456244262113138 0.010191311153557203 0.50485558091311211 0.50284819709923689 0.030507512302545135 0.030616229572702273 0.010183700647738535 0.010204274168435336 0.53754998296905721 0.035086295781965239 0.017545449789829838 0.017542318106266427 0.55043226537948653 1.0000000180025095e-35 0.66753074205610685 0.010213238437682825 0.12280763299779413 0.14006335347507068 0.072114744977771025 0.14269531208659084 0.070176331267112632 0.087718563267215222 0.71926736555921078 0.087722803273902625 0.10506079769517364 0.10526420338592855 0.12269934903232442 0.12280763299779413 0.14006335347507068 0.14035539145293313 0.15750753687007549 0.15789625307309102 0.17543244164842564 0.17543875631721792 0.19297746399089144 1.0000000180025095e-35 0.020306902447688169 0.040668630401230831 0.040819789291365698 0.14035539145293313 0.15750753687007549 0.15789625307309102 0.17543244164842564 0.00030647992603224326 0.010191311153557203 0.020407829663893727 0.020408717816329674 0.15789625307309102 0.17543244164842564 0.049999544495928867 1.0000000180025095e-35 0.010213238437682825 0.010183700647738535 0.43926404578375389 0.17543875631721792 0.19297746399089144 0.17543875631721792 0.19297746399089144 0.19298751104701498 0.20981389810372245 0.14288120810167124 0.21425752031130285 1.0000000180025095e-35 0.049999544495928867 0.010204274168435336 0.42684270032546107 0.60939403277163562 0.00036199460557238139 0.21052890736481222 0.22806369950247277 0.22807240313791741 0.24561256715419991 0.099934704012156053 0.050742922160796143 0.10001440476138009 0.2490489617143927 0.44967716127640839 0.020407829663893727 0.15003508800420873 0.19927281989819856
decision_type=2 2 2 2 2 2 2 2 2 2 2 2 2 2 2 2 2 2 2 2 2 2 2 2 2 2 2 2 2 2 2 2 2 2 2 2 2 2 2 2 2 2 2 2 2 2 2 2 2 2 2 2 2 2 2 2 2 2 2 2 2 2 2 2 2 2 2 2 2 2 2 2 2 2 2 2 2 2 2 2 2 2 2 2 2 2 2 2 2 2 2 2 2 2
left_child=1 2 6 -2 5 11 26 -4 -6 10 57 17 -3 28 16 -13 22 92 -11 27 -7 -22 23 24 25 49 61 80 81 67 -24 -32 -28 -34 36 -36 -25 -37 -39 -40 -41 -42 -43 -44 -45 -46 -47 -48 -49 -8 -31 -21 -53 -33 -55 -56 -57 90 -59 -15 -61 -1 -63 64 -16 -17 -12 -9 -64 -70 -58 -72 -73 -74 -35 -76 -71 -78 -68 -79 -20 -14 -75 -84 -85 -86 87 -87 -88 -19 -10 -23 -5 -94
right_child=3 12 7 4 8 20 14 29 9 18 66 15 13 59 63 65 -18 89 19 51 21 91 30 34 -26 -27 32 -29 -30 50 31 53 33 74 35 37 -38 38 39 40 41 42 43 44 45 46 47 48 -50 -51 -52 52 -54 54 55 56 70 58 -60 60 -62 62 68 -65 -66 -67 78 -69 69 76 71 72 73 82 75 -77 77 79 -80 -81 -82 -83 83 84 85 86 88 -89 -90 -91 -92 -93 93 -95
leaf_value=-0.066945079750244108 0.076922279836186658 0.076922279836186658 0.076922279836186658 -0.053100763856342784 0.076922279836186658 0.076922279836186658 -0.0026651797366161953 -0.050705736344371248 -0.050223523521966996 0.076922279836186658 0.076922279836186658 0.076922279836186658 -0.032923927682120567 0.076922279836186658 -0.051240475067665374 -0.026551922088058649 0.090223760016385615 -0.0019279498838059321 -0.03168454911730325 0.076922279836186658 -0.0060138072508384884 0.077529949805319034 -0.035168411711488975 -0.057365851800194878 0.10711729558174923 -0.051799642764266664 -0.062580920002293497 0.045290672079722399 0.021705081674141553 0.076922279836186658 0.091436514787848103 -0.051973814478334636 0.08770793303353186 -0.052128305106551899 0.10583548883408248 -0.06267274458837295 0.010340415128613223 0.11189147040681467 -0.063588210730404077 0.10332534259754907 -0.065924629532051943 0.10269787623576709 -0.067331003076499626 0.080918974027775481 -0.063535065862348597 0.083311292360967237 -0.065092386764106253 0.082023326854994 -0.031227728540144318 0.077108690813622635 -0.018496153469138809 0.013860555138505615 0.061645504200185608 0.091561019893580078 -0.061183817165570122 0.084975682151453735 -0.04764263170235318 0.0798564014862541 -0.015116982633470374 0.0057160999650473741 0.061693131282834601 0.11428019952211954 -0.074935603419231028 -0.06057120060500102 0.10543355251528541 0.037813990680952536 0.0059032307814945728 -0.006931479218065491 0.097722085321062233 -0.065979770578927191 0.083263676385465391 -0.050574738403192404 0.082806260714252233 -0.045516971514385059 0.076618201619547355 -0.040647128189985608 0.12338764966156611 -0.042829614451675609 0.051901628565761609 -0.0659646463312 0.013008459969365341 0.021992199350176694 0.08609153554716388 -0.055889934168539469 0.088947153523929345 0.0038789962084760984 -0.068473221743626092 0.092880606652063727 0.0038618822066646512 -0.02859009525467604 -0.01962133010347359 0.04161307149223796 0.10206468101822402 -0.04103497381075185
leaf_weight=5225.9138233363628 4247.1600667834282 963.22651040554047 424.51125848293304 1127.8818247318268 2268.3825071454048 255.70774626731873 99.450719028711319 159.24607434868813 213.48815649747849 995.53122568130493 91.681691944599152 100.55411374568939 195.08429099619389 313.94723296165466 1103.8357816636562 129.57062087953091 29.854106664657593 209.36600112915039 109.0906141102314 455.22348779439926 194.52024771273136 105.56922768056393 250.30287507176399 587.14071954786777 48.966087728738785 165.07431897521019 416.39243991672993 131.9772065281868 240.15706712007523 37.08217316865921 22.395908504724503 64.493610873818398 33.780255243182182 395.69637651741505 40.147663980722427 242.42759889364243 48.590101197361946 41.293161973357201 245.34132972359657 37.417149767279625 210.93860056996346 41.703802943229675 184.0940338820219 48.259769663214684 157.33441440761089 36.658811256289482 140.95733107626438 32.759699061512947 496.91671040654182 35.752539470791817 33.040585368871689 118.57037645578384 495.22077548503876 21.757437691092491 49.979851648211479 30.459718376398087 53.523256883025169 24.108371257781982 79.734447211027145 94.692344263195992 266.43581557273865 36.53451968729496 503.4878516048193 578.46515968441963 73.547670766711235 44.351482182741165 91.690456509590149 120.89167332649231 38.041782230138779 1276.2231653630733 26.517912983894348 49.687431842088699 30.133443385362625 45.149240836501122 31.740431487560272 197.58830368518829 47.938753500580788 229.85307304561138 108.10326991975307 783.40895090997219 79.051464229822159 35.916096389293671 19.798412397503853 37.372186288237572 17.564014956355095 113.39861133694649 33.571002572774887 14.028577715158461 34.882474511861801 313.65407329797745 170.41896173357964 195.39375841617584 10.978169679641722 43.861561179161072
leaf_count=22451 18669 4234 1866 4725 9971 1124 398 666 890 4376 403 442 793 1380 4609 525 122 839 444 2001 783 461 1034 2436 198 679 1768 548 967 163 91 263 139 1663 162 1007 195 168 1020 151 882 168 769 207 666 155 596 139 2045 157 133 479 2105 89 206 127 220 103 321 379 1136 149 2159 2422 299 182 367 484 153 5449 112 204 127 184 140 820 200 970 453 3339 317 144 82 153 72 459 136 57 142 1270 686 812 44 182
internal_value=0 -0.0348616 -0.046909 0.0498927 0.0358305 -0.0106739 -0.0511037 0.0335364 0.0592134 0.0465169 -0.000181899 -0.0323046 0.0544221 0.0355143 -0.0337662 0.0217564 -0.0274471 -0.0410038 0.0617764 0.0509221 0.0463471 0.0305679 -0.0283581 -0.033698 -0.00233046 -0.020178 -0.0617168 0.0110871 -0.000892352 -0.0190468 -0.0111936 -0.00216568 -0.0458724 -0.0353119 -0.0379245 -0.0332882 -0.0521909 -0.0362032 -0.0323692 -0.0360185 -0.0311419 -0.0348699 -0.0291171 -0.0341283 -0.0274325 -0.0334803 -0.0267947 -0.0328134 -0.0242233 0.0184299 0.0319628 0.0628508 0.0524145 -0.00542934 -0.00023429 -0.003826 0.00183851 -0.0273626 0.00693224 0.0609237 0.0470152 -0.0638093 -0.0581886 -0.0477518 -0.0414535 -0.0101381 0.0453018 -0.0318152 -0.0603773 -0.0572916 -0.00348569 0.00211346 -0.00332641 0.0034607 -0.0419607 -0.0244169 -0.0598144 -0.0523999 0.0307918 -0.0607166 -0.0129059 -0.0243855 -0.00411125 0.00279684 -0.00377808 0.00534622 -0.00215002 0.0136773 -0.0316128 -0.0179172 -0.036639 0.0542117 -0.051213 -0.0123884
internal_weight=0 17742.8 15633.3 12410.8 8163.68 2731.41 14858.5 774.772 5432.27 3163.89 779.225 1980.22 2109.46 1146.23 5641.94 274.476 3886.09 1705.74 2384.67 1389.13 751.191 495.483 3856.24 2941.22 349.244 300.278 9216.6 320.119 471.157 350.261 915.016 664.713 1075.2 658.805 2591.98 1956.25 635.731 1916.1 1673.67 1632.38 1387.04 1349.62 1138.68 1096.98 912.887 864.627 707.293 670.634 529.676 135.203 70.1228 1069.01 613.791 642.317 577.824 556.066 506.086 487.75 103.843 675.075 361.128 8141.4 2915.49 1755.85 1177.38 173.922 291.475 280.138 2878.95 2375.47 475.627 422.103 395.585 345.898 625.025 229.329 2337.42 1061.2 199.794 1013.26 188.142 231 315.765 270.615 250.817 213.445 195.881 127.427 68.4535 523.02 383.907 300.963 1182.72 54.8397
internal_count=128675 75153 66120 53522 34853 11389 62808 3312 23464 13493 3223 8209 9033 4799 23408 1149 16078 7060 10270 5894 3180 2056 15956 12198 1432 1234 39400 1309 1904 1446 3758 2724 4530 2762 10766 8135 2631 7973 6966 6798 5778 5627 4745 4577 3808 3601 2935 2780 2184 555 296 4585 2584 2633 2370 2281 2075 2000 424 2895 1515 34870 12419 7330 4908 707 1223 1150 12270 10111 1948 1728 1616 1412 2623 960 9958 4509 820 4309 761 937 1285 1101 1019 866 794 516 278 2109 1576 1273 4951 226
shrinkage=0.05


Tree=8
num_leaves=95
num_cat=0
split_feature=2 6 8 2 2 6 0 8 2 2 6 6 6 8 1 8 1 0 2 2 6 6 3 3 5 6 0 8 5 0 7 7 5 5 2 6 5 8 7 7 6 6 5 5 8 8 0 1 6 8 0 1 1 1 5 3 4 5 5 5 5 3 5 5 5 5 5 6 0 7 7 7 7 1 1 3 1 1 4 9 6 6 5 5 0 0 4 9 0 6 8 6 1 5
split_gain=19291.4 7001.49 1933.46 1775.73 3282.73 1230.86 1027.53 656.174 465.214 836.636 351.482 341.771 393.345 339.274 182.631 179.335 170.468 151.734 151.292 246.485 137.88 157.77 119.067 119.026 135.225 95.7137 90.6769 83.095 80.8749 75.9161 72.1494 408.439 67.5693 77.184 61.375 82.8509 59.7143 59.0994 58.5226 250.802 58.1914 81.6161 57.3452 152.551 56.4597 61.5448 51.9234 51.2 51.0306 49.6553 48.6439 46.4878 95.2602 45.0847 44.3122 39.4974 61.3046 48.2606 60.8914 43.4084 83.2827 48.1749 41.1174 38.9572 107.875 38.9233 221.83 38.7201 38.1596 37.9472 244.151 39.5495 199.4 37.2991 64.3051 35.6763 35.0399 60.4444 34.9568 34.5102 34.1608 34.5304 34.0873 97.2089 33.9167 33.5537 33.2948 36.3981 32.9527 32.7442 32.4133 31.7031 32.552 30.7256
threshold=1.0000000180025095e-35 1.0000000180025095e-35 1.0000000180025095e-35 0.010190167955222975 0.010204439600757793 1.0000000180025095e-35 0.21546601872509727 0.010191311153557203 0.020372297381331266 0.020409017063373471 1.0000000180025095e-35 0.010183700647738535 0.010204274168435336 1.0000000180025095e-35 0.48543379928179042 0.010191311153557203 0.47573061204473716 0.65736234258157056 0.030507512302545135 0.030616229572702273 0.010183700647738535 0.010204274168435336 0.41545409707376529 0.53754998296905721 0.017542318106266427 1.0000000180025095e-35 0.32512506496035909 0.010213238437682825 0.087722803273902625 0.55563047852548597 0.071441563348531578 0.14269531208659084 0.24561673357517536 0.26315753614740339 0.040668630401230831 1.0000000180025095e-35 1.0000000180025095e-35 0.020306902447688169 0.14288120810167124 0.21425752031130285 0.020407829663893727 0.020408717816329674 0.14035539145293313 0.15750753687007549 0.00030647992603224326 0.010191311153557203 0.18199858164345648 0.47572368740623 0.010183700647738535 0.010213238437682825 0.38337724821863045 0.63106464234757831 0.62136311230255448 0.46602385502233767 0.10506079769517364 0.00065334412915760761 0.12739466617619524 0.017545449789829838 0.035086295781965239 0.12280763299779413 0.14006335347507068 0.083189170800118575 0.036495965757539821 0.15789625307309102 0.17543244164842564 0.17543875631721792 0.19297746399089144 0.010204274168435336 0.53185049067288437 0.14269531208659084 0.072752725027162776 0.071053066111418595 1.0000000180025095e-35 0.46601940937437109 0.45631181163717111 0.55501458422913585 0.45631058574902633 0.44660230069745238 0.25729357604977582 0.050000680790483629 0.020407829663893727 0.020408717816329674 0.17543875631721792 0.19297746399089144 0.052571751396923411 0.50782997659534779 0.34149603611024398 0.15003508800420873 0.44967716127640839 0.010183700647738535 0.010213238437682825 0.030609745072649557 0.54368722442905015 0.17543875631721792
decision_type=2 2 2 2 2 2 2 2 2 2 2 2 2 2 2 2 2 2 2 2 2 2 2 2 2 2 2 2 2 2 2 2 2 2 2 2 2 2 2 2 2 2 2 2 2 2 2 2 2 2 2 2 2 2 2 2 2 2 2 2 2 2 2 2 2 2 2 2 2 2 2 2 2 2 2 2 2 2 2 2 2 2 2 2 2 2 2 2 2 2 2 2 2 2
left_child=1 2 6 -2 5 13 22 -4 -6 10 44 -3 26 17 16 -15 23 46 -11 25 -7 79 51 24 36 85 -13 50 -25 42 -24 -32 69 -34 -21 68 -8 -29 -33 -40 -14 -42 -26 -44 88 -46 -5 53 -12 -17 -9 52 65 54 -30 -31 57 -57 -59 61 -61 -58 -60 -45 -65 78 -67 -50 -36 70 71 72 -16 74 76 -35 77 -56 -1 -22 -23 -82 -66 -84 -68 -20 87 -48 -10 -27 -47 -43 -93 -62
right_child=3 11 7 4 8 20 14 27 9 18 48 12 40 15 32 49 -18 -19 19 34 21 80 30 28 29 89 -28 37 47 55 31 38 33 75 35 -37 -38 -39 39 -41 41 91 43 63 45 90 86 -49 67 -51 -52 -53 -54 -55 73 56 59 58 62 60 93 -63 -64 64 82 66 84 -69 -70 -71 -72 -73 -74 -75 -76 -77 -78 -79 -80 -81 81 -83 83 -85 -86 -87 -88 -89 -90 -91 -92 92 -94 -95
leaf_value=-0.055199814777442818 0.07492900829616958 0.07492900829616958 0.07492900829616958 -0.056447395536058743 0.07492900829616958 0.07492900829616958 -0.0019696713569954997 -0.050175570861405061 -0.048239409108295307 0.07492900829616958 0.07492900829616958 -0.035602886854871112 0.07492900829616958 0.07492900829616958 -0.043646044454358525 -0.025306673194771357 0.086938322282881314 -0.0079663058530153683 -0.034874741211602688 0.07492900829616958 -0.021773034555609153 0.075476196695931447 -0.059876249764723916 -0.052720773017059686 -0.050048862097423152 0.079263400723734681 0.01303191150290235 0.07492900829616958 0.10239761187723651 -0.0714845192967625 0.095905706202607632 -0.055228310514038585 0.088810089367555495 -0.044089752703200986 -0.0063490870168440199 0.062467605608346771 0.074912338142519908 -0.017599356049846821 0.081008284525281957 -0.045900832977226851 0.0054311258689256244 0.078284164889818181 0.077738594836916294 -0.064407747098300147 0.077565232878391732 -0.034231246503406539 -0.029622407071068231 -0.07412041784423759 0.0056089838336765667 0.03615825590089651 -0.0083030934310215024 -0.069340598909652648 0.11102885577320232 0.089702481552533117 -0.0042505891610561423 -0.043245068560866101 -0.0066062152301075141 0.09814203869209881 -0.048684439036479239 0.093471548746248412 -0.034052880009466241 -0.041866769417816342 0.02386940116828281 0.078544981332251629 -0.06271755999098437 0.092185636048010042 -0.063340728737301275 0.049902091608287374 0.040722722783941033 -0.059818519648593166 0.092639168847225575 -0.055846189547189312 0.10294989389149015 -0.056988920368367835 0.090688271169854173 -0.012814831170742422 -0.056418977699715205 0.089878294146568782 -0.066104627448481071 0.021909285716342854 0.0054992052986398169 0.052815092670021963 0.079068902946012973 -0.034556244170974269 -0.047267153212523734 0.0075063243795655907 -0.047679494275831347 0.045929412238572741 -0.018671781815678617 0.025961255423222536 0.03686944125560989 0.049268846036641945 -0.05554317474047326 0.002519190221153926
leaf_weight=1009.8627720326185 4144.7283648848534 939.9957093000412 414.27302634716034 669.11234332621098 2213.6743546128273 249.5406653881073 94.986580014228821 147.069444835186 211.21378406882286 971.52130937576294 89.470541059970856 134.12484866380692 306.37555003166199 98.12898051738739 603.55680473148823 129.15958687663078 33.658015593886375 314.44207738339901 87.665833577513695 444.24454754590988 122.98845356702805 103.08263635635376 911.32166783511639 93.310517236590385 824.57260057330132 42.851619243621826 335.74778392910957 36.187836706638336 9.9376001805067045 41.708358496427536 51.944813638925552 783.33243350684643 14.438798129558561 189.68558998405933 71.521398738026619 426.20080332458019 34.404043778777122 32.989318758249283 43.941671624779701 341.34143550693989 94.678219765424728 121.61192208528519 31.381103426218033 96.738869026303291 23.59249709546566 57.405386120080948 330.86398953199387 24.480100005865097 91.675871416926384 44.070498824119568 131.26878052949905 1926.3316434323788 8.1081874966621381 13.572884052991865 540.90332214534283 37.661109387874603 121.95070138573647 21.381569683551788 26.187930598855019 18.112151443958282 129.54328082501888 470.97765846550465 76.778376311063766 22.001907348632812 87.90556289255619 25.730085149407387 723.0815451592207 106.84531804919243 108.17403475940228 479.97186732292175 32.184607908129692 615.88845118880272 24.123599871993065 31.571950241923332 18.442410171031952 175.60126356780529 30.383127748966217 17.61020116508007 2699.2339013963938 71.499845340847969 53.108007609844208 140.75341358780861 20.031552419066429 312.08727772533894 600.95333990454674 99.946349814534187 359.83745445311069 16.748446702957153 170.13851210474968 87.947067141532898 22.239219754934311 132.68852978944778 7.8459304571151725 103.16768972575665
leaf_count=4410 18669 4234 1866 2859 9971 1124 380 622 890 4376 403 548 1380 442 2541 525 140 1266 359 2001 495 461 3934 393 3479 184 1356 163 40 175 216 3354 61 790 294 1837 155 133 193 1444 379 527 138 417 103 232 1368 102 367 182 528 8459 33 56 2230 154 502 86 107 73 552 1961 311 96 378 104 3158 453 453 2045 132 2611 98 130 76 719 125 73 11808 288 214 598 87 1290 2566 402 1499 68 686 364 89 575 34 426
internal_value=0 -0.0336279 -0.0452348 0.0483502 0.0346309 -0.0102439 -0.0492743 0.0324273 0.0574067 0.0449451 -0.000169326 0.0526397 0.0341485 -0.0309757 -0.0322479 0.0209229 -0.0250254 -0.039304 0.0598398 0.0491281 0.0446612 0.0292918 -0.0595755 -0.0261497 -0.0313396 0.0105923 -0.000850861 -0.0182389 -0.0090438 -0.0339787 -0.0492312 -0.0412831 -0.0436981 -0.0245735 0.0608124 0.0504621 0.0184727 0.0308039 -0.0473811 -0.0314268 0.0589453 0.0452214 -0.0416184 -0.0294258 -0.0261681 0.00663373 -0.0464623 -0.0031106 0.0435775 -0.00966972 -0.0304278 -0.062729 -0.0602154 -0.000486399 -0.00237301 -0.0238064 -0.0218292 0.00634213 0.0213606 -0.0272383 -0.00980154 -0.0346145 0.00541642 -0.0356677 -0.0293778 -0.0604899 -0.0532196 0.0294478 0.0219875 -0.0478344 -0.0433256 -0.0468445 -0.0380119 -0.00400261 -0.00124816 -0.0290552 -0.00412733 -0.00128266 -0.0631356 -0.00571408 0.0522194 0.039853 -0.0350311 -0.027703 -0.0560452 -0.0122971 -0.0370183 -0.0259822 -0.035048 0.0434238 -0.0143778 0.0595923 0.0434173 -0.0178394
internal_weight=0 17480.9 15407.9 12174.4 8029.66 2703.34 14646.1 761.788 5326.33 3112.65 772.581 2073.07 1133.07 1962.36 5520.9 271.359 3385.45 1691 2340.07 1368.55 740.973 491.432 9125.18 3351.79 2571.58 318.411 469.873 347.515 780.212 2442.19 2131.88 1220.56 2135.45 379.726 1050.14 605.896 129.391 69.1772 1168.62 385.283 663.2 356.825 1394.72 570.146 484.589 103.237 1376.56 686.902 287.992 173.23 278.338 6993.3 5066.97 662.421 648.849 1047.47 1005.76 162.009 124.348 843.751 250.823 592.928 102.966 538.765 442.026 5058.86 1349.76 198.521 179.695 1755.73 1275.75 1243.57 627.68 638.911 607.339 365.287 588.897 558.514 3709.1 194.488 296.944 193.861 420.024 332.119 1324.03 187.612 707.45 347.612 381.352 130.799 79.6446 262.146 140.534 232.711
internal_count=128675 75153 66120 53522 34853 11389 62808 3312 23464 13493 3223 9033 4799 8209 23129 1149 14132 7060 10270 5894 3180 2056 39679 13992 10767 1309 1904 1446 3225 10232 9141 5207 8997 1570 4585 2584 535 296 4991 1637 2895 1515 5885 2406 2000 424 5794 2832 1223 707 1150 30538 22079 2730 2674 4347 4172 658 504 3514 1051 2463 418 2268 1851 22046 5828 820 747 7427 5382 5250 2639 2634 2504 1509 2428 2303 16218 783 1273 812 1755 1377 5724 761 2935 1436 1576 548 321 1136 609 978
shrinkage=0.05


Tree=9
num_leaves=95
num_cat=0
split_feature=2 6 8 2 2 6 0 8 2 2 6 6 6 8 8 1 1 3 2 2 0 6 6 5 5 5 8 0 7 7 8 5 1 1 0 2 2 5 5 6 6 5 8 1 1 8 8 3 5 4 5 6 5 1 8 0 5 0 0 5 5 8 5 5 7 7 6 2 2 9 9 5 5 6 8 0 1 8 6 8 9 9 7 7 3 4 0 0 6 6 8 7 0 3
split_gain=17755.4 6425.16 1772.08 1676.48 3040.2 1125.4 973 610.352 444.755 777.602 326.914 365.734 320.856 309.154 166.852 155.932 154.483 153.465 146.665 230.481 141.882 131.441 145.595 98.8851 116.903 107.738 89.3422 84.994 82.0171 277.942 75.7023 63.5589 62.0461 127.319 61.0601 60.3454 81.511 59.2227 164.638 56.589 76.2618 55.292 55.0143 52.8546 61.6686 51.3523 56.8436 51.0951 55.6789 53.6486 50.3401 48.858 47.0761 45.737 45.0423 44.2003 43.1541 42.324 42.1813 41.761 118.544 39.3789 36.8262 82.8085 36.2949 130.239 35.7528 35.508 106.018 34.2016 154.736 33.2396 91.4528 33.0113 32.9482 32.8666 32.8393 32.2681 32.0028 31.7661 31.6215 121.996 31.461 138.242 31.6767 31.2116 30.8922 30.6387 30.2452 32.0868 30.0556 29.5609 29.3751 28.7967
threshold=1.0000000180025095e-35 1.0000000180025095e-35 1.0000000180025095e-35 0.010190167955222975 0.010204439600757793 1.0000000180025095e-35 0.28872383460633799 0.010191311153557203 0.020372297381331266 0.020409017063373471 0.010183700647738535 0.010204274168435336 1.0000000180025095e-35 1.0000000180025095e-35 0.010191311153557203 0.47572368740623 0.46602385502233767 0.42128955279453956 0.030507512302545135 0.030616229572702273 0.34006702414417583 0.010183700647738535 0.010204274168435336 0.17543875631721792 0.19297746399089144 0.017542318106266427 1.0000000180025095e-35 0.66753074205610685 0.14288120810167124 0.21425752031130285 0.010213238437682825 0.24561673357517536 0.60194015054797656 0.59223519769423716 0.71926736555921078 0.040668630401230831 0.040819789291365698 0.19298751104701498 0.20981389810372245 0.020407829663893727 0.020408717816329674 1.0000000180025095e-35 0.020306902447688169 0.42684270032546107 0.41747746387372614 0.00030647992603224326 0.010191311153557203 0.47436792436842051 0.070176331267112632 0.1802595304744691 0.31579882696288369 0.010183700647738535 0.035086295781965239 0.40776353227594225 0.010213238437682825 0.084103860474045666 0.26315753614740339 0.71926736555921078 0.65397164748197201 0.14035539145293313 0.15750753687007549 0.010191311153557203 0.10526420338592855 0.12269934903232442 0.21430070114087782 0.28557011347891553 0.010204274168435336 0.050949321351007305 0.051070972493132312 0.049999544495928867 1.0000000180025095e-35 0.12280763299779413 0.14006335347507068 0.020407829663893727 0.00036199460557238139 0.26916332092286049 0.53381853282945169 1.0000000180025095e-35 0.020408717816329674 0.010191311153557203 0.099934704012156053 0.050000680790483629 0.071053066111418595 1.0000000180025095e-35 0.64498689521116293 0.18685640617698324 0.72016410362896133 0.44967716127640839 0.030609745072649557 0.030617404490623463 0.010191311153557203 0.28589696064041242 0.60939403277163562 0.00065334412915760761
decision_type=2 2 2 2 2 2 2 2 2 2 2 2 2 2 2 2 2 2 2 2 2 2 2 2 2 2 2 2 2 2 2 2 2 2 2 2 2 2 2 2 2 2 2 2 2 2 2 2 2 2 2 2 2 2 2 2 2 2 2 2 2 2 2 2 2 2 2 2 2 2 2 2 2 2 2 2 2 2 2 2 2 2 2 2 2 2 2 2 2 2 2 2 2 2
left_child=1 2 6 -2 5 13 17 -4 -6 12 -3 27 45 20 -15 16 23 32 -11 26 -5 -7 77 25 -25 41 58 74 43 -30 52 82 33 55 47 -21 -37 -26 -39 -13 -41 -8 -32 44 62 87 -47 49 -49 93 -40 -14 -9 -50 -16 85 -33 76 -20 -57 -61 -28 -19 -64 -31 -66 -53 -38 -69 70 -58 -65 -73 -24 -12 -70 -22 86 -75 -79 81 -62 83 -17 -84 -1 -23 -10 -42 -90 -76 -67 -48 -27
right_child=3 10 7 4 8 21 15 30 9 18 11 39 51 14 54 31 -18 28 19 35 57 22 73 24 37 34 61 -29 29 64 42 56 -34 -35 -36 36 67 38 50 40 88 -43 -44 -45 -46 46 92 48 53 -51 -52 66 -54 -55 -56 59 69 -59 -60 60 80 -63 63 71 65 91 -68 68 75 -71 -72 72 -74 78 90 -77 -78 79 -80 -81 -82 -83 84 -85 -86 -87 -88 -89 89 -91 -92 -93 -94 -95
