tree
version=v3
num_class=1
num_tree_per_iteration=1
label_index=0
max_feature_idx=9
objective=binary sigmoid:1
feature_names=Column_0 Column_1 Column_2 Column_3 Column_4 Column_5 Column_6 Column_7 Column_8 Column_9
feature_infos=[0:0.99949027632104104] [0.20388349514563101:1] [0:1] [0:1] [0:0.99929123711340195] [0:1] [0:1] [0:1] [0:1] [0:1]
tree_sizes=1564 1733 1740 1741 1738 1737 1748 1748 1749 1738 1749 1742 1737 1743 1750 1737 1757 1737 1747 1739 1737 1741 1741 1744 1738 1738 1741 1740 1743 1735 1751 1743 1750 1736 1743 1738 1745 1747 1738 1741 1740 1754 1743 1740 1750 1750 1738 1739 1751 1746 1746 1743 1748 1758 1753 1739 1738 1750 1762 1749 1741 1747 1739 1748 1737 1754 1764 1734 1747 1742 1756 1766 1740 1734 1738 1749 1735 1750 1735 1755 1756 1732 1746 1755 1752 1738 1721 1745 1748 1731 1742 1751 1735 1741 1751 1752 1740 1744 1755 1729 1742 1752 1750 1708 1765 1739 1735 1732 1749 1725 1776 1724 1745 1737 1745 1741 1727 1738 1700 1744 1711 1727 1738 1760 1746 1750 1725 1758 1703 1712 1724 1743 1762 1729 1750 1737 1769 1737 1751 1741 1718 1742 1722 1704 1705 1751 1738 1725 1723 1704 1722 1712 1760 1727 1733 1742 1714 1743 1733 1721 1730 1744 1749 1732 1718 1736 1730 1731 1721 1721 1741 1737 1715 1740 1706 1718 1725 1723 1732 1754 1754 1719 1737 1709 1707 1763 1727 1739 1718 1708 1739 1720 1744 1718 1710 1748 1741 1735 1714 1718 1724 1748 1723 1729 1709 1705 1740 1728 1732 1710 1727 1710 1731 1750 1723 1716 1710 1748 1737 1741 1756 1703 1706 1734 1716 1699 1705 1702 1721 1737 1758 1720 1736 1729 1718 1734 1723 1699 1720 1735 1731 1711 1724 1701 1722 1712 1725 1741 1751 1695 1695 1725 1727 1703 1708 1737 1721 1736 1721 1711 1716 1721 1732 1706 1732 1718 1703 1716 1724 1720 1720 1743 1711 1744 1709 1717 1712 1704 1729 1702 1745 1716 1708 1703 1722 1738 1701 1736 1714 1712 1726 1724 1717 1683 1728 1728 1718 1719 1727 1739 1714 1713 1731 1725 1730 1707 1736 1732 1730 1749 1721 1726 1709 1704 1715 1741 1713 1729 1695 1718 1723 1716 1716 1718 1722 1712 1729 1711 1725 1705 1736 1723 1731 1716 1693 1708 1727 1724 1723 1715 1709 1713 1699 1741 1719 1700 1724 1713 1718 1717 1718 1714 1724 1708 1689 1721 1720 1713 1713 1730 1696 1723 1710 1712 1716 1707 1704 1695 1695 1714 1709 1686 1723 1716 1707 1720 1731 1714 1709 1719 1703 1686 1710 1726 1711 1721 1716 1730 1729 1689 1715 1706 1718 1727 1711 1741 1705 1709 1702 1716 1736 1717 1701 1706 1702 1709 1753 1703 1716 1706 1722 1706 1721 1708 1701 1725 1704 1721 1729 1703 1693 1682 1729 1701 1743 1726 1708 1726 1711 1718 1725 1721 1702 1707 1697 1734 1722 1729 1709 1717 1723 1727 1720 1697 1731 1722 1701 1715 1703 1720 1712 1728 1750 1723 1721 1700 1716 1704 1717 1697 1714 1727 1708 1714 1733 1721 1713 1718 1717 1723 1715 1722 1708 1730 1707 1716 1718 1713 1731 1726 1727 1729 1706 1712 1719 1721 1714 1714 1728 1707 1723 1716 1722 1728 1723 1697 1700 1707 1726 1718 1707 1717 1715 1713 1726 1714 1709 1732 1713 1720 1714 1742 1718 1717 1723 1736 1715 1724 1710 1714 1735 1709 1714 1749 1720 1702 1711 1736 1735 1715 1715 1713 1726 1716 1696 1706 1712 1697 1704 1727 1692 1708 1733 1689 1704 1708 1718 1731 1721 1702 1702 1696 1718 1704 1719 1718 1722 1713 1715 1702 1739 1702 1709 1706 1723 1706 1710 1724 1717 1696 1709 1696 1732 1721 1715 1726 1734 1707 1702 1716 1711 1718 1718 1701 1719 1705 1712 1724 1714 1709 1716 1713 1734 1701 1722 1703 1719 1706 1719 1719 1712 1721 1708 1719 1709 1715 1710 1715 1696 1738 1706 1716 1706 1711 1717 1709 1692 1709 1706 1704 1719 1711 1706 1713 1712 1701 1720 1706 1710 1717 1709 1713 1705 1718 1706 1714 1711 1724 1704 1713 1710 1714 1718 1718 1720 1721 1725 1717 1721 1720 1725 1705 1725 1713 1713 1707 1708 1718 1705 1721 1711 1722 1704 1727 1689 1722 1718 1722 1728 1724 1713 1704 1709 1726 1723 1705 1710 1717 1701 1694 1714 1719 1708 1701 1730 1697 1710 1715 1729 1731 1703 1707 1724 1735 1732 1707 1710 1703 1715 1709 1724 1717 1729 1712 1719 1703 1705 1711 1715 1728 1705 1732 1707 1708 1704 1719 1701 1722 1700 1700 1714 1706 1714 1715 1709 1722 1708 1715 1702 1704 1712 1729 1708 1715 1698 1695 1707 1695 1700 1714 1700 1706

Tree=0
num_leaves=15
num_cat=0
split_feature=6 8 0 8 8 0 9 9 9 9 6 6 5 5
split_gain=35393.9 12948.2 6685.97 1767.25 983.175 718.299 577.04 2723.19 783.847 1699.1 554.311 1351.97 499.282 650.845
threshold=1.0000000180025095e-35 1.0000000180025095e-35 0.28641245759572037 0.010182159784130366 0.010208275396424374 0.083455702498406281 1.0000000180025095e-35 0.049868416364522154 0.050000680790483629 0.09965952127230622 0.010203942695819609 0.010204274168435336 0.14035539145293313 0.15770788144187783
decision_type=2 2 2 2 2 2 2 2 2 2 2 2 2 2
left_child=1 2 5 -3 -5 -1 -4 -8 -9 -10 -2 -12 -7 -14
right_child=10 3 6 4 -6 12 7 8 9 -11 11 -13 13 -15
leaf_value=-0.15289587952407935 0.20001399331401354 0.20001399331401354 -0.048037860156236269 -0.04580062489750137 0.15182685881108957 -0.14191756191677446 0.20001399331401354 -0.09004588692550744 0.20001399331401354 -0.02850284451736932 0.057506606230856079 0.18194578583076426 0.20001399331401354 -0.085451597401373189
leaf_weight=8080.25 4109.75 1752.75 3432.75 612.25 427.5 2052.75 624.75 1252.5 385.25 2093.5 1184.5 3320.75 82.25 2757.25
leaf_count=32321 16439 7011 13731 2449 1710 8211 2499 5010 1541 8374 4738 13283 329 11029
internal_value=1.5543e-05 -0.0634218 -0.090614 0.138743 0.0354552 -0.134586 -0.0173765 0.00678626 -0.0255672 0.00701349 0.173456 0.149229 -0.104345 -0.0771827
internal_weight=0 23553.8 20761.2 2792.5 1039.75 12972.5 7788.75 4356 3731.25 2478.75 8615 4505.25 4892.25 2839.5
internal_count=128675 94215 83045 11170 4159 51890 31155 17424 14925 9915 34460 18021 19569 11358
shrinkage=1


Tree=1
num_leaves=15
num_cat=0
split_feature=6 8 0 8 8 0 6 6 7 7 9 9 9 9
split_gain=28886.3 10545.6 5506.59 1458.12 801.02 762.461 464.743 1118.83 388.703 2296.3 359.437 1017.4 345.527 708.757
threshold=1.0000000180025095e-35 1.0000000180025095e-35 0.2141343746630254 0.010182159784130366 0.010208275396424374 0.49979263091277115 0.010203942695819609 0.010204274168435336 0.071434243465786487 0.14255557503506128 1.0000000180025095e-35 0.049868416364522154 0.050000680790483629 0.09965952127230622
decision_type=2 2 2 2 2 2 2 2 2 2 2 2 2 2
left_child=1 2 8 -3 -5 -4 -2 -8 -1 -10 -7 -12 -13 -14
right_child=6 3 5 4 -6 10 7 -9 9 -11 11 12 13 -15
leaf_value=-0.1399403149749322 0.18187192427840818 0.18187192427840818 -0.053303540063883763 -0.041256988102345432 0.13744833534360579 -0.02695366927670656 0.05178632902716801 0.1651465032386375 0.21330901043897046 -0.12100381732640555 0.18187192427840818 -0.053863845548468361 0.18187192427840818 -0.00036234984853503768
leaf_weight=8048.0075588226318 4068.9193008393049 1735.3362867683172 4504.40876711905 611.92904455959797 425.04582434892654 2045.0699789077044 1183.5212486088276 3293.4181467741728 219.26998011767864 3261.6117180287838 373.25447446107864 714.05157575011253 256.92184647917747 1260.4939756840467
leaf_count=32361 16439 7011 18059 2449 1710 8185 4738 13283 881 13108 1508 2862 1038 5043
internal_value=0 -0.0573378 -0.0818865 0.12581 0.0319926 -0.0239813 0.157411 0.135179 -0.127865 -0.0999446 0.00442406 0.0290599 0.0034993 0.0304927
internal_weight=0 23455.4 20683.1 2772.31 1036.97 9154.2 8545.86 4476.94 11528.9 3480.88 4649.79 2604.72 2231.47 1517.42
internal_count=128675 94215 83045 11170 4159 36695 34460 18021 46350 13989 18636 10451 8943 6081
shrinkage=0.1


Tree=2
num_leaves=15
num_cat=0
split_feature=2 8 0 2 2 8 8 3 2 2 0 3 8 8
split_gain=30804.1 5818.96 3255.49 3046.67 5397.54 1312.15 940.713 908.103 738.488 1335.31 469.451 378.259 329.376 289.239
threshold=1.0000000180025095e-35 1.0000000180025095e-35 0.35778159069607324 0.010197987448642752 0.010204723813225255 1.0000000180025095e-35 0.010182159784130366 0.044749845681341709 0.020406438860566867 0.020410805580943391 0.65731457364330648 0.55080192075980039 0.010208275396424374 0.010182159784130366
decision_type=2 2 2 2 2 2 2 2 2 2 2 2 2 2
left_child=1 2 11 -2 5 10 -3 -4 -6 -10 -5 -1 -8 -7
right_child=3 6 7 4 8 13 12 -9 9 -11 -12 -13 -14 -15
leaf_value=-0.13508662781374597 0.18344723553020675 0.16944062542183602 0.059073143116294649 -0.095956967723119832 0.18016511941507668 0.17000320495325258 -0.039118814103360974 -0.051965117595985003 -0.0070385039897903623 0.14303496952602138 0.013813818602259609 -0.083215997663593111 0.11609143056125928 0.035119452496544495
leaf_weight=10330.355292439461 4584.2976780235767 901.3374580591917 894.98349465429783 1623.6141734868288 2411.2785487025976 277.22254973649979 430.19319374859333 4160.0721010714769 779.05642460286617 2481.123950779438 512.59990502893925 1627.3416951149702 200.42626476287842 372.72302111983299
leaf_count=42050 18790 3730 3637 6578 9897 1146 1735 16759 3164 10174 2076 6600 823 1516
internal_value=0 -0.0827762 -0.0995855 0.117798 0.082214 -0.0317633 0.103895 -0.0323061 0.138206 0.107173 -0.0696167 -0.128027 0.0102108 0.0926517
internal_weight=0 18544.7 17012.8 13041.9 8457.62 2786.16 1531.96 5055.06 5671.46 3260.18 2136.21 11957.7 630.619 649.946
internal_count=128675 75334 69046 53341 34551 11316 6288 20396 23235 13338 8654 48650 2558 2662
shrinkage=0.1


Tree=3
num_leaves=15
num_cat=0
split_feature=2 6 2 2 8 6 0 8 2 2 6 6 6 8
split_gain=25473.7 9017.73 2586.58 4496.95 2149.85 1656.73 1011.42 895.306 644.774 1125.13 500.101 488.658 601.04 337.57
threshold=1.0000000180025095e-35 1.0000000180025095e-35 0.010197987448642752 0.010204723813225255 1.0000000180025095e-35 1.0000000180025095e-35 0.2141343746630254 0.010182159784130366 0.020406438860566867 0.020410805580943391 1.0000000180025095e-35 0.010203942695819609 0.010204274168435336 1.0000000180025095e-35
decision_type=2 2 2 2 2 2 2 2 2 2 2 2 2 2
left_child=1 4 -2 5 6 13 -1 -6 -5 10 -10 -3 -13 -4
right_child=2 11 3 8 7 -7 -8 -9 9 -11 -12 12 -14 -15
leaf_value=-0.12978819710245146 0.16983536613087699 0.16715820369331214 -0.09292209424216416 0.1672437170300925 0.1576184946720437 0.096637583538655897 -0.07680404640873767 -0.055807405950835699 -0.07024282967583162 0.13178505083715669 0.094093430172427814 -0.015903388725722598 0.13038222870007091 0.027207382951156975
leaf_weight=9518.8334057629108 4462.5091506540775 998.39726901054382 1728.4420262426138 2341.2812992781401 426.74199223518372 761.86949737370014 5796.8649914115667 364.38135382533073 476.16779144108295 2426.3998089432716 303.02188348770142 467.78414323925972 702.90336076915264 270.53111137449741
leaf_count=39649 18790 4172 7048 9897 1840 3151 23401 1474 1924 10174 1240 1878 2920 1117
internal_value=0 -0.0756532 0.108429 0.0754441 -0.101431 -0.0288408 -0.109734 0.0593172 0.12735 0.0982123 -0.00633351 0.115762 0.0719293 -0.0766644
internal_weight=0 18275.9 12770.2 8307.71 16106.8 2760.84 15315.7 791.123 5546.87 3205.59 779.19 2169.08 1170.69 1998.97
internal_count=128675 75334 53341 34551 66364 11316 63050 3314 23235 13338 3164 8970 4798 8165
shrinkage=0.1


Tree=4
num_leaves=15
num_cat=0
split_feature=2 6 2 2 8 6 0 8 2 2 6 6 6 1
split_gain=21259.8 7492.95 2244.9 3789.91 1783.31 1363.21 917.884 764.499 577.294 953.415 432.856 507.69 409.732 319.296
threshold=1.0000000180025095e-35 1.0000000180025095e-35 0.010197987448642752 0.010204723813225255 1.0000000180025095e-35 1.0000000180025095e-35 0.2141343746630254 0.010182159784130366 0.020406438860566867 0.020410805580943391 0.010203942695819609 0.010204274168435336 1.0000000180025095e-35 0.48543379928179042
decision_type=2 2 2 2 2 2 2 2 2 2 2 2 2 2
left_child=1 4 -2 5 6 -4 -1 -6 -5 12 -3 -12 -10 -8
right_child=2 10 3 8 7 -7 13 -9 9 -11 11 -13 -14 -15
leaf_value=-0.12050501398910095 0.15921846470775258 0.15687384427041262 -0.069848847897655247 0.15711947489318057 0.14921631712801203 0.088627561041546954 -0.050957527450766461 -0.05030116924091213 -0.063535450079872643 0.12228533330103604 -0.014304214287314166 0.12088662455184292 0.08604078589543164 -0.099332959935160448
leaf_weight=9241.26147313416 4292.6738193184137 959.4410133510828 1975.9998444318771 2247.687131524086 406.7188286781311 748.36171835660934 3533.9252341687679 363.86521388590336 473.90730629861355 2356.9906780421734 468.05743409693241 683.31574632227421 298.48102432489395 2222.4767658859491
leaf_count=39649 18790 4172 8165 9897 1840 3151 14352 1474 1924 10174 1878 2920 1240 9049
internal_value=0 -0.0696713 0.100752 0.0697725 -0.0933571 -0.0263166 -0.10098 0.0550053 0.118457 0.090688 0.107267 0.0659287 -0.00573335 -0.0696347
internal_weight=0 17879.1 12394.1 8101.43 15768.2 2724.36 14997.7 770.584 5377.07 3129.38 2110.81 1151.37 772.388 5756.4
internal_count=128675 75334 53341 34551 66364 11316 63050 3314 23235 13338 8970 4798 3164 23401
shrinkage=0.1


Tree=5
num_leaves=15
num_cat=0
split_feature=2 6 2 2 8 6 8 3 2 2 6 6 5 6
split_gain=17844.1 6255.86 1988 3221.6 1485.81 1121.48 658.569 637.821 528.773 814.005 391.429 432.007 374.958 336.471
threshold=1.0000000180025095e-35 1.0000000180025095e-35 0.010197987448642752 0.010204723813225255 1.0000000180025095e-35 1.0000000180025095e-35 0.010182159784130366 0.55080192075980039 0.020406438860566867 0.020410805580943391 0.010203942695819609 0.010204274168435336 0.017542318106266427 1.0000000180025095e-35
decision_type=2 2 2 2 2 2 2 2 2 2 2 2 2 2
left_child=1 4 -2 5 7 -4 -6 12 -5 13 -3 -12 -1 -10
right_child=2 10 3 8 6 -7 -8 -9 9 -11 11 -13 -14 -15
leaf_value=0.042233022835627902 0.15073067429932607 0.14865752904322424 -0.063507878516210786 0.14899783385786269 0.14239407762927286 0.081485801066261632 -0.04539332465507967 -0.046333284696462237 -0.057566382775747875 0.11406871942912314 -0.012868099467861811 0.11267916917086801 -0.10469512046793389 0.078878557959097206
leaf_weight=176.23131611943245 4091.2725916206837 913.57174481451511 1956.9720265269279 2138.7678282558918 384.71506118774414 733.35072666406631 362.93272829055786 2414.9582672268152 470.89980636537075 2278.201327547431 468.25313994288445 660.94544498622417 12040.721571907401 293.29899808764458
leaf_count=711 18790 4172 8165 9897 1840 3151 1474 10156 1924 10174 1878 2920 52183 1240
internal_value=0 -0.0644282 0.094186 0.0647965 -0.086267 -0.0239843 0.0512359 -0.093293 0.110896 0.0841107 0.099991 0.0606176 -0.102576 -0.0051989
internal_weight=0 17422.3 11962.8 7871.49 15379.6 2690.32 747.648 14631.9 5181.17 3042.4 2042.77 1129.2 12217 764.199
internal_count=128675 75334 53341 34551 66364 11316 3314 63050 23235 13338 8970 4798 52894 3164
shrinkage=0.1


Tree=6
num_leaves=15
num_cat=0
split_feature=6 8 1 8 3 8 7 7 6 6 4 7 7 3
split_gain=12549.1 4298.72 1169.85 876.694 675.351 446.981 428.592 1157.42 387.608 761.397 348.006 320.747 744.224 287.573
threshold=1.0000000180025095e-35 1.0000000180025095e-35 0.59223068449506255 0.010182159784130366 0.52494444463524326 0.010208275396424374 0.071427655486923647 1.0000000180025095e-35 0.010203942695819609 0.010204274168435336 0.25715343605899604 0.071434243465786487 0.14255557503506128 0.31612574856789327
decision_type=2 2 2 2 2 2 2 2 2 2 2 2 2 2
left_child=1 2 4 -3 6 -5 7 10 -2 -10 -1 -6 -13 -8
right_child=8 3 -4 5 11 -7 13 -9 9 -11 -12 12 -14 -15
leaf_value=-0.015009616264087653 0.13953923568671059 0.13932587691680048 -0.098649969358762329 -0.038131347160522112 -0.038893408323223189 0.10109625989767131 -0.095391916114915987 0.19952943588344982 0.023515319457480373 0.12118696562650333 -0.068829413272268575 0.1926701679974564 0.0027888148251802181 -0.051476446162302431
leaf_weight=2557.1832982003689 3307.4236478507519 1396.0045704096556 4534.1788704097271 596.85569860041142 1255.4174694567919 375.76020120084286 2543.1477006226778 209.99563972651958 1122.5902863293886 2761.4318513274193 2266.1388961672783 235.38892298936844 1676.8750093728304 3604.6034004241228
leaf_count=11080 16439 7011 20327 2449 5366 1710 11381 911 4738 13283 9955 1010 7198 15817
internal_value=0 -0.038443 -0.054372 0.0885446 -0.0403802 0.0156578 -0.0519277 -0.03029 0.114381 0.0929571 -0.0402957 0.000379285 0.0261621 -0.069643
internal_weight=0 21251.5 18882.9 2368.62 14348.8 972.616 11181.1 5033.32 7191.45 3884.02 4823.32 3167.68 1912.26 6147.75
internal_count=128675 94215 83045 11170 62718 4159 49144 21946 34460 18021 21035 13574 8208 27198
shrinkage=0.1


Tree=7
num_leaves=15
num_cat=0
split_feature=2 6 2 2 0 6 2 2 8 8 8 6 6 2
split_gain=13741.9 4441.47 1777.18 2567.67 1059.13 756.355 501.552 650.473 423.883 417.629 353.228 352.113 331.387 261.384
threshold=1.0000000180025095e-35 1.0000000180025095e-35 0.010197987448642752 0.010204723813225255 0.28641245759572037 1.0000000180025095e-35 0.020406438860566867 0.020410805580943391 1.0000000180025095e-35 1.0000000180025095e-35 0.010182159784130366 0.010203942695819609 0.010204274168435336 0.03061153123818941
decision_type=2 2 2 2 2 2 2 2 2 2 2 2 2 2
left_child=1 4 -2 5 9 -4 -5 -8 -6 -1 -11 -3 -13 -9
right_child=2 11 3 6 8 -7 7 13 -10 10 -12 12 -14 -15
leaf_value=-0.099200096038088298 0.14237116526982976 0.13652651126804669 -0.054723070890281091 0.14036512988298941 -0.047347815877744399 0.067261291229914769 -0.0060949813254773961 0.1436228851836554 0.060390030281923746 0.13198570007422483 -0.084989820543357353 -0.013936868186925345 0.097984031119467754 0.072514014450626565
leaf_weight=9351.7572198212147 3735.9907376170158 812.27814717590809 1908.6781392097473 1940.957136169076 4622.0720316618681 692.79309618473053 741.64495605230331 899.20531629025936 396.50985057651997 146.15549910068512 154.17757511138916 468.11198832094669 608.37769992649555 1215.9409803301096
leaf_count=43743 18790 4172 8165 9897 19307 3151 3164 4384 1885 796 633 1878 2920 5790
internal_value=0 -0.0575154 0.0861491 0.0577616 -0.0760979 -0.0222376 0.101139 0.0744888 -0.0388356 -0.0954724 0.0206002 0.086821 0.0493152 0.102744
internal_weight=0 16559.4 11135.2 7399.22 14670.7 2601.47 4797.75 2856.79 5018.58 9652.09 300.333 1888.77 1076.49 2115.15
internal_count=128675 75334 53341 34551 66364 11316 23235 13338 21192 45172 1429 8970 4798 10174
shrinkage=0.1


Tree=8
num_leaves=15
num_cat=0
split_feature=2 6 2 2 0 8 2 2 8 8 6 6 8 0
split_gain=11630.3 3731.55 1621.34 2204.85 969.793 639.004 477.396 567.038 374.084 346.19 328.843 284.674 266.394 265.799
threshold=1.0000000180025095e-35 1.0000000180025095e-35 0.010197987448642752 0.010204723813225255 0.2141343746630254 1.0000000180025095e-35 0.020406438860566867 0.020410805580943391 1.0000000180025095e-35 1.0000000180025095e-35 0.010203942695819609 0.010204274168435336 0.010182159784130366 0.33771819360246802
decision_type=2 2 2 2 2 2 2 2 2 2 2 2 2 2
left_child=1 4 -2 5 9 13 -5 -8 -6 -1 -3 -12 -11 -4
right_child=2 10 3 6 8 -7 7 -9 -10 12 11 -13 -14 -15
leaf_value=-0.096236986088151261 0.13698372010690868 0.13188468898391068 -0.084511987053267457 0.13527535357019102 -0.046672904741965143 0.071007070925635574 -0.0054850503777846386 0.096697886161030908 0.050670238397530647 0.12803077199777482 -0.012538098152585248 0.092137485921590795 -0.076563099263131429 -0.011111581319713619
leaf_weight=8079.0204313397408 3506.4476467370987 759.49548980593681 981.34819799661636 1818.8713459819555 5490.4710934460163 589.90196608006954 741.69998742640018 2027.863362133503 425.36819180846214 122.95191693305969 468.29143330454826 583.59035405516624 131.92953933775425 992.1196686476469
leaf_count=39649 18790 4172 4387 9897 23401 2662 3164 10174 2048 719 1878 2920 547 4267
internal_value=0 -0.0534519 0.081282 0.0539721 -0.0706373 -0.0203141 0.0954727 0.0693329 -0.0396736 -0.0926169 0.0817416 0.0455365 0.0221307 -0.0476115
internal_weight=0 16061.1 10658.3 7151.8 14249.7 2563.37 4588.43 2769.56 5915.84 8333.9 1811.38 1051.88 254.881 1973.47
internal_count=128675 75334 53341 34551 66364 11316 23235 13338 25449 40915 8970 4798 1266 8654
shrinkage=0.1


Tree=9
num_leaves=15
num_cat=0
split_feature=0 8 8 5 5 8 0 0 8 1 8 8 5 5
split_gain=6176.53 2091.27 1687.02 520.778 1316.1 473.428 425.315 394.421 297.521 280.218 275.374 285.277 260.787 500.783
threshold=0.34255747661107705 1.0000000180025095e-35 1.0000000180025095e-35 0.10526420338592855 0.12280282866640664 0.010182159784130366 0.71926736555921078 0.074052877649006268 0.010208275396424374 0.54368870938159153 0.010182159784130366 0.010208275396424374 0.14035539145293313 0.15770788144187783
decision_type=2 2 2 2 2 2 2 2 2 2 2 2 2 2
left_child=1 3 6 -1 -5 -3 9 -6 -7 -2 -4 -12 -9 -14
right_child=2 5 10 4 7 8 -8 12 -10 -11 11 -13 13 -15
leaf_value=-0.091754941191850473 0.0280302534789868 0.12758831341491805 0.12915981553549868 0.22474926219398839 -0.07436526982456225 -0.059770751657952585 0.093655174942448446 -0.080073292071708768 0.096690269598193004 -0.01960660947061775 0.027108284245694336 0.10880120357173398 0.19841742412018012 -0.024757538546218306
leaf_weight=3631.2362169474363 6233.3180342465639 733.47023390233517 2142.7909502238035 175.26097872853279 4051.5667036920786 307.67078179121017 836.05971859395504 842.28741811215878 200.89275003969669 1539.8954892009497 715.40050968527794 1062.0533812046051 103.82914035022259 3178.3451413810253
leaf_count=18304 29091 4500 12758 853 20565 1355 4207 4081 1076 7104 3373 5855 502 15051
internal_value=0 -0.0473365 0.0506435 -0.0601393 -0.0463925 0.076179 0.0258826 -0.0522047 0.00203448 0.0185933 0.105021 0.0759209 -0.0304358 -0.0176976
internal_weight=0 13224.6 12529.5 11982.5 8351.29 1242.03 8609.27 8176.03 508.564 7773.21 3920.24 1777.45 4124.46 3282.17
internal_count=128675 66287 62388 59356 41052 6931 40402 40199 2431 36195 21986 9228 19634 15553
shrinkage=0.1


Tree=10
num_leaves=15
num_cat=0
split_feature=2 6 2 2 8 6 3 2 2 8 1 1 6 7
split_gain=9065.74 2903.52 1514.24 1801.69 611.564 521.143 504.134 476.182 471.623 433.94 338.382 412.093 313.423 275.82
threshold=1.0000000180025095e-35 1.0000000180025095e-35 0.010197987448642752 0.010204723813225255 1.0000000180025095e-35 1.0000000180025095e-35 0.58049580762415032 0.020406438860566867 0.020410805580943391 0.010182159784130366 0.4756817148826194 0.46602385502233767 0.010203942695819609 0.071434243465786487
decision_type=2 2 2 2 2 2 2 2 2 2 2 2 2 2
left_child=1 4 -2 5 6 -4 10 -5 -9 -6 11 -1 -3 -8
right_child=2 12 3 7 9 -7 13 8 -10 -11 -12 -13 -14 -15
leaf_value=-0.059981476794584314 0.13170922910255986 0.12716615259402458 -0.046863096399433687 0.12989582774107186 0.12381216001402054 0.057088507203556807 -0.06739325734620652 -0.0068900681114325395 0.087672819092556573 -0.041929099006133203 -0.092933864804736629 0.29234697434218221 0.039690354277033352 0.0090514656969953016
leaf_weight=5012.1394121944904 3176.1593496352434 688.32185405492783 1836.6628316342831 1634.6572650372982 284.89625123143196 654.0049087703228 788.4667591303587 734.0351871997118 1873.7016762197018 354.56435836851597 5890.5610211342573 33.418377727270126 1011.5095458775759 1175.8920780420303
leaf_count=23943 18790 4172 8165 9897 1840 3151 3581 3164 10174 1474 30118 151 4798 5257
internal_value=0 -0.0480786 0.0747934 0.0479447 -0.0635442 -0.0195673 -0.0682759 0.0875803 0.0610549 0.0319129 -0.0766541 -0.0576479 0.0751124 -0.0216324
internal_weight=0 15239.8 9909.22 6733.06 13539.9 2490.67 12900.5 4242.39 2607.74 639.461 10936.1 5045.56 1699.83 1964.36
internal_count=128675 75334 53341 34551 66364 11316 63050 23235 13338 3314 54212 24094 8970 8838
shrinkage=0.1


Tree=11
num_leaves=15
num_cat=0
split_feature=2 6 2 2 0 2 6 6 6 2 2 2 6 6
split_gain=7693.79 2437.94 1403.04 1552.24 724.73 459.385 430.943 429.626 300.323 280.564 388.214 354.595 238.183 237.124
threshold=1.0000000180025095e-35 1.0000000180025095e-35 0.010197987448642752 0.010204723813225255 0.2141343746630254 0.020406438860566867 1.0000000180025095e-35 1.0000000180025095e-35 0.010203942695819609 0.020410805580943391 0.03061153123818941 0.030621294114086244 0.010204274168435336 0.010203942695819609
decision_type=2 2 2 2 2 2 2 2 2 2 2 2 2 2
left_child=1 4 -2 7 -1 -5 9 -4 -3 -7 -11 -12 -10 -9
right_child=2 8 3 5 -6 6 -8 13 12 10 11 -13 -14 -15
leaf_value=-0.079619636893044451 0.1279868058706185 0.12395025312078307 -0.042705805931549663 0.12641670311952313 -0.032256872111525392 -0.047611054127850765 0.096942104457070605 0.13667373843863065 -0.016059620627096396 0.13677326886348085 -0.12609142895841913 0.058013471096115356 0.081763487858532713 0.0085000920660070443
leaf_weight=7427.0912872552872 2953.1500806063414 638.13987420499325 1815.0823794752359 1517.6923741325736 5718.0685103237629 458.28202950954437 1300.1545244157314 220.07763044536114 466.36286799609661 314.00043411552906 162.73499289155006 292.93486560881138 533.78902357816696 419.39977435767651
leaf_count=40915 18790 4172 8165 9897 25449 1924 7457 1148 1878 1714 740 1503 2920 2003
internal_value=0 -0.0446808 0.0708305 0.0448641 -0.0590171 0.0829264 0.056818 -0.0178732 0.0703492 0.0143346 0.0512187 -0.00773656 0.0361494 0.0526113
internal_weight=0 14783.5 9453.51 6500.36 13145.2 4045.8 2528.11 2454.56 1638.29 1227.95 769.67 455.67 1000.15 639.477
internal_count=128675 75334 53341 34551 66364 23235 13338 11316 8970 5881 3957 2243 4798 3151
shrinkage=0.1


Tree=12
num_leaves=15
num_cat=0
split_feature=2 6 2 2 0 2 6 6 6 1 1 2 2 2
split_gain=6538.37 2046.31 1300.59 1345.93 657.715 438.291 378.519 355.231 283.749 245.99 259.757 233.836 345.03 281.223
threshold=1.0000000180025095e-35 1.0000000180025095e-35 0.010197987448642752 0.010204723813225255 0.19310476710727117 0.020406438860566867 1.0000000180025095e-35 1.0000000180025095e-35 0.010203942695819609 0.48543379928179042 0.47573025281562392 0.020410805580943391 0.03061153123818941 0.030621294114086244
decision_type=2 2 2 2 2 2 2 2 2 2 2 2 2 2
left_child=1 4 -2 7 -1 -5 11 -4 -3 10 -6 -7 -13 -14
right_child=2 8 3 5 9 6 -8 -9 -10 -11 -12 12 13 -15
leaf_value=-0.0757075533507158 0.12477872289790855 0.1211806307543053 -0.038906487886181174 0.12341203674736292 -0.017201749860115335 -0.043237963679770917 0.092182427998996994 0.04869796112138769 0.033366441632087317 -0.056545019998761603 0.24453912665755687 0.13228411529582124 -0.109197602106184 0.053617683572702551
leaf_weight=6865.3612687885761 2737.2606441229582 589.92659687250853 1794.2311678379774 1404.9679341614246 3674.4704016149044 454.38022558391094 1234.0296139866114 623.79372273385525 977.96545326709747 2225.8273015916348 38.311453238129616 293.25812241435051 168.76326756179333 285.6482856720686
leaf_count=39462 18790 4172 8165 9897 16390 1924 7457 3151 4798 10342 170 1714 740 1503
internal_value=0 -0.0414239 0.0672832 0.0421389 -0.0546282 0.0789316 0.0532782 -0.0163066 0.0664069 -0.0302593 -0.0145009 0.013339 0.0477225 -0.00685006
internal_weight=0 14371.9 8996.33 6259.07 12804 3841.05 2436.08 2418.02 1567.89 5938.61 3712.78 1202.05 747.67 454.412
internal_count=128675 75334 53341 34551 66364 23235 13338 11316 8970 26902 16560 5881 3957 2243
shrinkage=0.1


Tree=13
num_leaves=15
num_cat=0
split_feature=2 6 2 2 0 2 8 2 6 2 2 8 8 1
split_gain=5556.96 1713.6 1211.19 1169.7 591.14 418.969 386.408 337.964 272.349 261.492 387.732 240.852 221.66 217.397
threshold=1.0000000180025095e-35 1.0000000180025095e-35 0.010197987448642752 0.010204723813225255 0.19310476710727117 0.020406438860566867 1.0000000180025095e-35 0.020410805580943391 0.010203942695819609 0.03061153123818941 0.030621294114086244 1.0000000180025095e-35 0.010182159784130366 0.46601780811111043
decision_type=2 2 2 2 2 2 2 2 2 2 2 2 2 2
left_child=1 4 -2 6 11 -5 -4 -7 -3 -9 -11 -1 -8 -6
right_child=2 8 3 5 13 7 12 9 -10 10 -12 -13 -14 -15
leaf_value=-0.074686387238384166 0.12199677420603239 0.11878129937036004 -0.03666135187981772 0.12080178504555812 -0.010987207961911286 -0.0077279250289077721 0.13877819094674632 0.12410268735968369 0.030353010688620292 -0.065540518644555623 0.078865029262468481 0.031308414621539049 0.0077429396572653679 -0.04987278310798246
leaf_weight=6370.1491426378489 2530.334227129817 544.01291966438293 1844.915889531374 1297.317419745028 3383.0386559665203 708.35923871397972 213.38216516375542 651.58028982579708 968.09174524247646 248.59825168550014 737.66488420963287 221.84457747638226 326.81964026391506 2500.3049281388521
leaf_count=38240 18790 4172 8654 9897 15147 3164 1146 4384 4798 1218 4572 1222 1516 11755
internal_value=0 -0.0383689 0.0639316 0.0395605 -0.0505546 0.0751992 -0.0148814 0.0499835 0.062167 0.0749434 0.0424661 -0.0711193 0.0595025 -0.0275128
internal_weight=0 13987.4 8558.97 6028.64 12475.3 3643.52 2385.12 2346.2 1512.1 1637.84 986.263 6591.99 540.202 5883.34
internal_count=128675 75334 53341 34551 66364 23235 11316 13338 8970 10174 5790 39462 2662 26902
shrinkage=0.1


Tree=14
num_leaves=15
num_cat=0
split_feature=2 6 2 2 0 2 6 8 6 5 5 5 5 5
split_gain=4722.63 1435.46 1133.51 1013.59 535.817 403.683 324.922 319.768 261.087 246.743 859.836 360.163 948.261 327.642
threshold=1.0000000180025095e-35 1.0000000180025095e-35 0.010197987448642752 0.010204723813225255 0.10442403900150567 0.020406438860566867 1.0000000180025095e-35 1.0000000180025095e-35 0.010203942695819609 0.14035539145293313 0.15770788144187783 0.15789625307309102 0.1754270399235654 0.17543875631721792
decision_type=2 2 2 2 2 2 2 2 2 2 2 2 2 2
left_child=1 4 -2 7 -1 -5 -7 -4 -3 -6 -11 -12 -13 -14
right_child=2 8 3 5 9 6 -8 -9 -10 10 11 12 13 -15
leaf_value=-0.071661330722317021 0.11957165455629318 0.11669221930401041 -0.033289244843861601 0.11852275520900901 -0.046053536058122513 0.0092962572194421732 0.084983339103303579 0.055185859489474166 0.027594966526711413 0.25225782623098486 -0.10279338985726627 0.28071637836108759 -0.10305632070186346 -0.002417019691759145
leaf_weight=5060.7737881541252 2333.5802875608206 500.60120970755816 1829.4650114923716 1195.2689575105906 3875.8510233014822 1147.2862944528461 1121.7941024526954 525.93780472874641 958.87013518810272 121.59757021069527 438.50745283067226 111.3156146556139 380.39096903800964 2162.6716246008873
leaf_count=31942 18790 4172 8654 9897 18770 5881 7457 2662 4798 547 2151 524 1866 10564
internal_value=0 -0.0355506 0.0606891 0.0370787 -0.0468057 0.0714899 0.0467146 -0.0135336 0.0581555 -0.0290648 -0.0085807 -0.0188356 -0.00496568 -0.0174706
internal_weight=0 13610.6 8153.33 5819.75 12151.1 3464.35 2269.08 2355.4 1459.47 7090.33 3214.48 3092.89 2654.38 2543.06
internal_count=128675 75334 53341 34551 66364 23235 13338 11316 8970 34422 15652 15105 12954 12430
shrinkage=0.1


Tree=15
num_leaves=15
num_cat=0
split_feature=2 6 2 2 0 2 7 7 2 0 2 2 6 6
split_gain=4003.46 1200.99 1068.37 873.347 503.253 393.912 313.051 1073.13 298.867 280.655 257.014 325.357 249.842 215.725
threshold=1.0000000180025095e-35 1.0000000180025095e-35 0.010197987448642752 0.010204723813225255 0.36248515352781596 0.020406438860566867 0.14288448102738369 0.21426036293826137 0.020410805580943391 0.65392132753595045 0.03061153123818941 0.030621294114086244 0.010203942695819609 0.010204274168435336
decision_type=2 2 2 2 2 2 2 2 2 2 2 2 2 2
left_child=1 4 -2 9 6 -5 -1 -8 -7 -4 -10 -12 -3 -14
right_child=2 12 3 5 -6 8 7 -9 10 -11 11 -13 13 -15
leaf_value=-0.063168322118786632 0.11744807272103289 0.11486529599062012 -0.035301465757738917 0.11652433295654695 -0.013688100054609862 -0.010716398250778341 0.35566022403544478 -0.040828323134819586 0.1205093339201657 0.040035675182693103 -0.061920834246557047 0.071569330136354956 -0.023675554396581616 0.071640185661881767
leaf_weight=7402.7198867425323 2147.7219263762236 459.79613522440195 1619.8858963102102 1099.1174195185304 3872.47165556252 700.45024815201759 78.994045048952103 502.5506002381444 580.64963238686323 711.75895108282566 249.66601890325546 679.53506848216057 464.28479345142841 486.01184192299843
leaf_count=45631 18790 4172 7894 9897 17414 3164 425 2894 4384 3422 1218 4572 1878 2920
internal_value=0 -0.0328946 0.0574252 0.0345727 -0.0432705 0.0675997 -0.0576184 0.0130286 0.0432709 -0.012304 0.0683167 0.035702 0.0543513 0.0250719
internal_weight=0 13266.8 7788.79 5641.06 11856.7 3309.42 7984.26 581.545 2210.3 2331.64 1509.85 929.201 1410.09 950.297
internal_count=128675 75334 53341 34551 66364 23235 48950 3319 13338 11316 10174 5790 8970 4798
shrinkage=0.1


Tree=16
num_leaves=15
num_cat=0
split_feature=2 6 2 2 8 3 2 8 6 0 8 6 8 7
split_gain=3396.17 1006.36 1005.52 758.289 488.954 433.374 379.122 331.202 282.244 280.224 254.067 235.898 206.106 197.139
threshold=1.0000000180025095e-35 1.0000000180025095e-35 0.010197987448642752 0.010204723813225255 1.0000000180025095e-35 0.54196949186621912 0.020406438860566867 0.010182159784130366 1.0000000180025095e-35 0.13573553211911643 1.0000000180025095e-35 0.010203942695819609 0.010182159784130366 0.071434243465786487
decision_type=2 2 2 2 2 2 2 2 2 2 2 2 2 2
left_child=1 4 -2 10 5 9 -5 -6 -8 -1 -4 -3 -12 -7
right_child=2 11 3 6 7 13 8 -9 -10 -11 12 -13 -14 -15
leaf_value=-0.072670508730214203 0.11558133531508961 0.11326152937989181 -0.028894722532295771 0.11476545611484215 0.12450519025890888 -0.041092767029011747 0.0056917312124683574 -0.020928238981495165 0.078398070940226758 -0.037047778220273844 0.13233449925987467 0.023105072778876037 0.0017144960017019936 0.020990304736190197
leaf_weight=4356.7226406484842 1973.1109739094973 421.62894964963198 1799.0395679920912 1008.9807358756661 288.86203949898481 862.21387669444084 1118.2006198018789 341.96958376467228 1021.8360614851117 4477.9922249615192 193.41590705513954 931.19928246736526 321.76598438620567 1257.3606466203928
leaf_count=30306 18790 4172 8654 9897 1840 4418 5881 1474 7457 22189 1146 4798 1516 6137
internal_value=0 -0.0304117 0.0543936 0.032295 -0.0399422 -0.0448722 0.0642329 0.0456667 0.0404079 -0.0546147 -0.0111638 0.0512037 0.0507535 -0.00426424
internal_weight=0 12937.9 7436.35 5463.24 11585.1 10954.3 3149.02 630.832 2140.04 8834.71 2314.22 1352.83 515.182 2119.57
internal_count=128675 75334 53341 34551 66364 63050 23235 3314 13338 52495 11316 8970 2662 10555
shrinkage=0.1


Tree=17
num_leaves=15
num_cat=0
split_feature=2 2 0 2 5 5 2 5 5 5 5 8 2 2
split_gain=2879.36 948.275 882.185 651.307 408.282 1140.9 368.833 328.14 1284.14 370.473 1353.36 300.672 261.923 251.68
threshold=1.0000000180025095e-35 0.010197987448642752 0.59490560104105261 0.010204723813225255 0.14035539145293313 0.15770788144187783 0.020406438860566867 0.15789625307309102 0.1754270399235654 0.17543875631721792 0.19265970315279787 1.0000000180025095e-35 0.020410805580943391 0.03061153123818941
decision_type=2 2 2 2 2 2 2 2 2 2 2 2 2 2
left_child=2 -2 4 -3 11 -6 -5 -7 -9 -10 -11 -1 -8 -14
right_child=1 3 -4 6 5 7 12 8 9 10 -12 -13 13 -15
leaf_value=-0.068999554619069578 0.1139348795378828 -0.010134722686567002 0.020855742089065436 0.11321243661585866 0.25423272946729275 -0.093837426205213612 -0.012916091680579403 0.2850929043497572 -0.1027508254838173 0.30044444475123355 -0.029811925076406971 0.03885514721459294 0.11767115646041826 0.029740140112664133
leaf_weight=4596.1345615386963 1809.8187480941415 2287.3722392916679 2843.3149053230882 924.84416607767344 145.06334614753723 697.00869879126549 692.64710257947445 133.79258563369513 593.25258877873421 129.11346489936113 3184.6982394233346 273.87432441860437 516.94086028635502 879.01441341638565
leaf_count=29503 18790 11316 14892 9897 785 4340 3164 727 3667 725 18990 1705 4384 5790
internal_value=0 0.0514368 -0.0281576 0.0300985 -0.0424467 -0.0220134 0.0606377 -0.0304715 -0.0195415 -0.0299733 -0.0169444 -0.0629341 0.0373574 0.0623022
internal_weight=0 7110.64 12596.3 5300.82 9752.94 4882.93 3013.45 4737.87 4040.86 3907.06 3313.81 4870.01 2088.6 1395.96
internal_count=128675 53341 75334 34551 60442 29234 23235 28449 24109 23382 19715 31208 13338 10174
shrinkage=0.1


Tree=18
num_leaves=15
num_cat=0
split_feature=2 2 6 6 0 2 2 6 6 3 6 5 6 5
split_gain=2436.11 896.683 777.693 600.932 378.094 307.441 390.684 258.246 397.232 248.259 223.079 219.806 177.09 159.349
threshold=1.0000000180025095e-35 0.010197987448642752 1.0000000180025095e-35 1.0000000180025095e-35 0.07627108871173896 0.010204723813225255 0.020406438860566867 0.010203942695819609 0.010204274168435336 0.65940694995582028 0.010203942695819609 0.017542318106266427 0.010204274168435336 0.14035539145293313
decision_type=2 2 2 2 2 2 2 2 2 2 2 2 2 2
left_child=2 -2 4 5 -1 -3 -7 -5 -9 11 -4 -6 -12 -13
right_child=1 3 10 7 9 6 -8 8 -10 -11 12 13 -14 -15
leaf_value=-0.060075811312785721 0.11247848994303813 -0.028028223780532553 0.11173452798724526 0.11886013889123365 0.077141073700127585 0.11472101001709112 0.0021821237987277174 -0.040290702245728942 0.082323684825559337 0.024277448217598183 -0.022911204930054482 -0.046501176384556434 0.06495057133109193 -0.01362562259964429
leaf_weight=3814.7447529137135 1657.7072945870459 1688.7987210899591 379.44893109798431 728.19003642722964 190.0832606703043 429.70001268386841 1093.4387465640903 385.96038614958525 837.64223647862673 1031.1542073264718 463.48311066627502 3362.6740156337619 454.21303957700729 2625.5161739289761
leaf_count=28404 18790 8165 4172 6941 836 4248 5881 2154 7162 4906 1878 18080 2920 14138
internal_value=0 0.0484889 -0.0259988 0.0279464 -0.0346166 0.00135358 0.033931 0.0717084 0.0436475 -0.0211453 0.0472422 -0.0287264 0.0205759 -0.0320869
internal_weight=0 6821.44 12321.3 5163.73 11024.2 3211.94 1523.14 1951.79 1223.6 7209.43 1297.15 6178.27 917.696 5988.19
internal_count=128675 53341 75334 34551 66364 18294 10129 16257 9316 37960 8970 33054 4798 32218
shrinkage=0.1


Tree=19
num_leaves=15
num_cat=0
split_feature=2 2 0 8 5 5 8 0 5 5 5 5 8 8
split_gain=2061.82 843.945 678.132 532.837 329.809 927.955 296.053 294.105 288.23 1019.62 329.059 1057.79 249.145 240.125
threshold=1.0000000180025095e-35 0.010197987448642752 0.59490560104105261 1.0000000180025095e-35 0.14035539145293313 0.15770788144187783 0.010182159784130366 0.47879474536750277 0.15789625307309102 0.1754270399235654 0.17543875631721792 0.19265970315279787 1.0000000180025095e-35 0.010208275396424374
decision_type=2 2 2 2 2 2 2 2 2 2 2 2 2 2
left_child=2 -2 4 7 12 -6 -5 -3 -7 -10 -11 -12 -1 -8
right_child=1 3 -4 6 5 8 13 -9 9 10 11 -13 -14 -15
leaf_value=-0.062010666892665101 0.11118695845287144 -0.026323765661140426 0.019177742352403673 0.11830506795626411 0.23195552674389974 -0.088050435436715258 -0.020863306734111606 0.033619313425987687 0.2531770172225693 -0.097254099405069017 0.26304675007008482 -0.025410077045085612 0.037312340871030143 0.078593886961423165
leaf_weight=4288.4124929085374 1516.4855457507074 1711.1402500458062 2799.3583282157779 748.39515383541584 143.52651814743876 648.13703116774559 433.14100477844477 1569.0592688247561 135.78591534867883 549.61665201187134 132.58500896394253 3088.3472770452499 268.35721316933632 552.27627447992563
leaf_count=29503 18790 9734 14892 7710 785 4340 2424 9915 727 3667 725 18990 1705 4768
internal_value=0 0.0458201 -0.0239486 0.02605 -0.0369934 -0.0184016 0.0708887 0.00234956 -0.0262912 -0.0160441 -0.0257394 -0.0135362 -0.0561613 0.0348774
internal_weight=0 6530.5 12054.1 5014.01 9254.77 4698 1733.81 3280.2 4554.47 3906.33 3770.55 3220.93 4556.77 985.417
internal_count=128675 53341 75334 34551 60442 29234 14902 19649 28449 24109 23382 19715 31208 7192
shrinkage=0.1


Tree=20
num_leaves=15
num_cat=0
split_feature=6 2 2 6 6 1 1 2 2 5 5 5 5 8
split_gain=1836.74 822.406 820.314 462.62 497.268 382.485 405.68 240.787 363.89 231.434 452.69 217.347 453.654 210.8
threshold=1.0000000180025095e-35 1.0000000180025095e-35 0.010197987448642752 0.010203942695819609 0.010204274168435336 0.4756817148826194 0.46602385502233767 0.010204723813225255 0.020406438860566867 0.15789625307309102 0.1754270399235654 0.17543875631721792 0.19265970315279787 1.0000000180025095e-35
decision_type=2 2 2 2 2 2 2 2 2 2 2 2 2 2
left_child=1 5 -3 -2 -5 6 9 -4 -9 -1 -11 -12 -13 -7
right_child=3 2 7 4 -6 13 -8 8 -10 10 11 12 -14 -15
leaf_value=-0.027649288061997974 0.11254267056196987 0.11207365306223863 -0.025879997553029152 -0.019914235814403179 0.075405813067419683 -0.053414299922544706 0.25910374710900208 0.1132020853103307 -6.437578540769711e-05 0.22362346544454714 -0.081054756036594705 0.2354367276257838 0.0042943355364800711 0.040125407976570812
leaf_weight=3640.6966733410954 1291.6765957511961 828.96521925553679 1661.0158685445786 905.61150924116373 1383.2381005659699 5012.5975605323911 55.082451239228249 385.05336007475853 1076.9385937154293 100.30723060667515 249.37166506052017 91.592384487390518 1164.0856499150395 253.08702466264367
leaf_count=21373 16439 9557 8165 4738 13283 34407 266 4248 5881 452 1568 417 6468 1413
internal_value=0 -0.015274 0.0236433 0.0646939 0.0376913 -0.0298291 -0.0108673 0.000170486 0.0297673 -0.013702 0.0179284 0.00421941 0.0211545 -0.0489185
internal_weight=0 14518.8 3951.97 3580.53 2288.85 10566.8 5301.14 3123.01 1461.99 5246.05 1605.36 1505.05 1255.68 5265.68
internal_count=128675 94215 27851 34460 18021 66364 30544 18294 10129 30278 8905 8453 6885 35820
shrinkage=0.1


Tree=21
num_leaves=15
num_cat=0
split_feature=6 2 2 6 6 1 1 3 4 6 6 2 2 7
split_gain=1568.45 686.325 744.092 448.24 431.412 350.091 449.455 240.477 217.404 199.629 393.01 199.341 332.421 172.172
threshold=1.0000000180025095e-35 1.0000000180025095e-35 0.010197987448642752 0.010203942695819609 0.010204274168435336 0.59223068449506255 0.58253615818851767 0.58049580762415032 0.1803924328019976 0.020322351000948636 0.020408717816329674 0.010204723813225255 0.020406438860566867 0.071434243465786487
decision_type=2 2 2 2 2 2 2 2 2 2 2 2 2 2
left_child=1 5 -3 -2 -5 6 7 8 -1 -6 -11 -4 -13 -9
right_child=3 2 11 4 9 -7 -8 13 -10 10 -12 12 -14 -15
leaf_value=0.014451658531680093 0.11131224493292005 0.11081684819193033 -0.023512157273286524 -0.017828402809556158 0.11620453901830199 -0.060909055516381941 0.3995445553248172 -0.025592797142089643 -0.035105712885451709 -0.10426552163716217 0.074947647003928142 0.11182336844847381 -5.7937140409574949e-05 0.04489811999382208
leaf_weight=1058.5715681314468 1181.0154234841466 758.14943184331059 1646.271804779768 910.15254620462656 571.0544521920383 2401.2145525589585 25.777428984642029 561.93088046461344 5405.5452730618417 154.66932411491871 585.91060747951269 352.48600424826145 1076.9520862177014 903.78069099783897
leaf_count=6066 16439 9557 8165 4738 6158 17989 153 3046 34664 1189 5936 4248 5881 4446
internal_value=0 -0.0140631 0.0220827 0.0615316 0.0350702 -0.0274435 -0.0173427 -0.0186978 -0.0269901 0.0717769 0.0375192 0.000210155 0.0275309 0.017873
internal_weight=0 14190.7 3833.86 3402.8 2221.79 10356.8 7955.61 7929.83 6464.12 1311.63 740.58 3075.71 1429.44 1465.71
internal_count=128675 94215 27851 34460 18021 66364 48375 48222 40730 13283 7125 18294 10129 7492
shrinkage=0.1


Tree=22
num_leaves=15
num_cat=0
split_feature=8 0 8 8 6 6 9 9 2 9 9 9 9 2
split_gain=1442.67 738.291 611.18 330.759 279.798 257.085 250.526 3197.19 489.402 213.285 1495.91 206.917 872.242 189.062
threshold=1.0000000180025095e-35 0.29096536252024124 0.010182159784130366 0.010208275396424374 1.0000000180025095e-35 0.010203942695819609 1.0000000180025095e-35 0.049868416364522154 1.0000000180025095e-35 0.050000680790483629 0.09965952127230622 0.10001222297154691 0.14993375425634115 8.0947187717707328e-05
decision_type=2 2 2 2 2 2 2 2 2 2 2 2 2 2
left_child=1 6 -2 -4 -3 -6 -1 8 -8 -9 13 -12 -13 -11
right_child=2 4 3 -5 5 -7 7 9 -10 10 11 12 -14 -15
leaf_value=-0.05215029170501051 0.11569398833124306 0.00073436497801300168 -0.020723590815412543 0.073731102312892066 0.11130558248326416 0.020672896524294146 0.38834619007548987 -0.07763401192056002 0.13834788976605092 0.37867624127931832 -0.082796859078149279 0.2793076486184724 -0.052960427459357279 0.15221609407287209
leaf_weight=3854.7391758561134 1318.0369633249938 5661.8930996507406 814.23247753456235 680.64749740064144 465.49685879424214 955.18044006824493 188.71659308671951 1273.9799766689539 133.84059288725257 83.524388436228037 929.31630527228117 90.282986480742693 632.51701231300831 65.993298683315516
leaf_count=30006 17258 30836 4728 6931 6585 6907 1167 9607 1334 506 6808 702 4643 657
internal_value=0 -0.0122745 0.0660524 0.0222834 0.0106906 0.0503695 -0.0347003 -0.0149058 0.284613 -0.046318 -0.0241737 -0.051586 -0.0114577 0.278723
internal_weight=0 14335.5 2812.92 1494.88 7082.57 1420.68 7252.91 3398.17 322.557 3075.61 1801.63 1652.12 722.8 149.518
internal_count=128675 99758 28917 11659 44328 13492 55430 25424 2501 22923 13316 12153 5345 1163
shrinkage=0.1


Tree=23
num_leaves=15
num_cat=0
split_feature=8 0 8 8 2 2 9 9 2 9 9 9 9 8
split_gain=1235.64 629.809 580.96 282.022 237.177 268.592 212.176 2919.66 253.449 202.144 1340.48 209.219 845.387 191.024
threshold=1.0000000180025095e-35 0.36248515352781596 0.010182159784130366 0.010208275396424374 1.0000000180025095e-35 0.010197987448642752 1.0000000180025095e-35 0.049868416364522154 1.0000000180025095e-35 0.050000680790483629 0.09965952127230622 0.10001222297154691 0.14993375425634115 0.020323585293002381
decision_type=2 2 2 2 2 2 2 2 2 2 2 2 2 2
left_child=1 6 -2 -4 -3 -6 -1 8 -8 -9 -11 -12 -13 -5
right_child=2 4 3 13 5 -7 7 9 -10 10 11 12 -14 -15
leaf_value=-0.045589743472365565 0.11421668757558401 -0.002034955032551643 -0.018612118140213366 0.12301034759005731 0.10805180368827548 0.021348307279977184 0.30358005767297269 -0.072377063615710099 0.13759836930503555 0.23872823505549523 -0.078360706777723221 0.24516212606916757 -0.051209253332299635 0.014551912087041582
leaf_weight=4140.9862351752818 1207.245395867154 3927.1509063020349 815.85274546593428 330.31782279163599 447.98143508285284 1764.8604946732521 253.64452464133501 1381.426512889564 144.35257506743073 178.70470058917999 1019.1979431770742 111.69517952948809 695.85048436000943 319.42796102538705
leaf_count=32380 17258 20164 4728 3940 7053 11776 1386 10556 1583 1375 7533 881 5071 2991
internal_value=0 -0.0113231 0.0628483 0.020535 0.0127183 0.0389011 -0.0299475 -0.0128335 0.243379 -0.0429415 -0.0226651 -0.0482365 -0.0102168 0.06969
internal_weight=0 14065.9 2672.84 1465.6 6139.99 2212.84 7925.86 3784.87 397.997 3386.87 2005.45 1826.74 807.546 649.746
internal_count=128675 99758 28917 11659 38993 18829 60765 28385 2969 25416 14860 13485 5952 6931
shrinkage=0.1


Tree=24
num_leaves=15
num_cat=0
split_feature=2 2 0 2 2 3 2 2 2 2 5 5 1 1
split_gain=984.983 676.76 389.623 296.563 334.396 255.779 174.074 269.335 228.96 179.66 146.632 147.562 144.334 195.11
threshold=1.0000000180025095e-35 0.010197987448642752 0.59490560104105261 0.010204723813225255 0.020406438860566867 0.42153562571609277 0.020410805580943391 0.03061153123818941 0.030621294114086244 0.040812568363590609 0.017542318106266427 1.0000000180025095e-35 0.6116493727904978 0.60194518610436287
decision_type=2 2 2 2 2 2 2 2 2 2 2 2 2 2
left_child=2 -2 5 -3 -5 12 -6 -8 -9 -10 11 -4 13 -1
right_child=1 3 10 4 6 -7 7 8 9 -11 -12 -13 -14 -15
leaf_value=-0.032538637585230255 0.10763250930002538 -0.0093316316999078521 0.031585869051193399 0.1083284789132172 -0.02038689029266539 -0.0030953173952830413 0.11414528785183625 -0.071839928637463552 0.11884256201983011 -0.0026764028043357851 0.0067532014186911923 0.16567547288499748 -0.070009960970211074 0.37342586610674183
leaf_weight=4144.3005500230938 1041.8764635547996 2088.4827898070216 260.52476907521486 580.44281615316868 648.13460543751717 2789.0522238668054 372.4152247980237 234.26580832153559 208.51750464737415 292.09220166131854 2278.6238300427794 119.81336234137416 1260.4727958329022 11.87257578037679
leaf_count=31317 18790 11316 1503 9897 3164 17440 4384 1218 1989 2583 12474 915 11590 95
internal_value=0 0.0351238 -0.0169198 0.0180489 0.0425297 -0.0276997 0.0207729 0.0448652 0.00975588 0.0479395 0.0163474 0.0738265 -0.0403685 -0.031379
internal_weight=0 5466.23 10864.7 4424.35 2335.87 8205.7 1755.43 1107.29 734.876 500.61 2658.96 380.338 5416.65 4156.17
internal_count=128675 53341 75334 34551 23235 60442 13338 10174 5790 4572 14892 2418 43002 31412
shrinkage=0.1


Tree=25
num_leaves=15
num_cat=0
split_feature=8 8 0 2 2 8 5 8 5 5 5 5 5 5
split_gain=991.254 545.93 479.988 246.654 365.702 231.497 192.3 180.046 149.319 735.398 148.247 828.628 294.833 410.265
threshold=1.0000000180025095e-35 0.010182159784130366 0.15697807519390264 1.0000000180025095e-35 0.010197987448642752 0.010208275396424374 0.017542318106266427 0.020323585293002381 0.10526420338592855 0.12280282866640664 0.1228115765499575 0.14009757561173417 0.14035539145293313 0.15770788144187783
decision_type=2 2 2 2 2 2 2 2 2 2 2 2 2 2
left_child=2 -2 8 6 -5 -3 -4 -7 -1 -10 -8 -12 -13 -14
right_child=1 5 3 4 -6 7 10 -9 9 -11 11 12 13 -15
leaf_value=-0.060852353154651831 0.11305640234833043 -0.016958011084876136 0.065481883736244917 0.1071234115135489 0.011873935375804445 0.12157911681987427 -0.029126538041195645 0.012200014427034396 0.31572516758033281 -0.029609198462961856 0.29870116439286581 -0.094283767722447898 0.19417057067718096 -0.0029092301829837025
leaf_weight=1529.9890120830387 1058.5878975354135 807.65147086232901 340.90014974400401 491.50389955937862 2240.8210911117494 290.61800794303417 2619.7587454468012 312.11903817951679 62.815091768279672 3369.7807478234172 92.20021590217948 333.09648174792528 110.62309206649661 2339.4244068488479
leaf_count=14430 17258 4728 2118 8825 15049 3940 14734 2991 501 28581 482 1912 539 12587
internal_value=0 0.0587794 -0.0101221 0.00421153 0.0290079 0.018041 -0.00739773 0.0649387 -0.0348705 -0.0232897 -0.011919 0.00375904 -0.00601182 0.0059892
internal_weight=0 2468.98 13530.9 8568.33 2732.32 1410.39 5836 602.737 4962.58 3432.6 5495.1 2875.34 2783.14 2450.05
internal_count=128675 28917 99758 56246 23874 11659 32372 6931 43512 29082 30254 15520 15038 13126
shrinkage=0.1


Tree=26
num_leaves=15
num_cat=0
split_feature=6 6 0 6 0 6 6 9 9 9 9 9 9 9
split_gain=844.349 430.997 337.316 324.462 251.716 206.527 308.767 182.549 2456.36 295.098 1364.8 286.854 1005.98 156.321
threshold=1.0000000180025095e-35 0.010203942695819609 0.04938047188315603 0.010204274168435336 0.71926736555921078 0.020322351000948636 0.020408717816329674 1.0000000180025095e-35 0.049868416364522154 0.050000680790483629 0.09965952127230622 0.10001222297154691 0.14993375425634115 0.15000534084025116
decision_type=2 2 2 2 2 2 2 2 2 2 2 2 2 2
left_child=2 -2 -1 -3 7 -5 -7 -4 -9 -10 -11 -12 -13 -14
right_child=1 3 4 5 -6 6 -8 8 9 10 11 12 13 -15
leaf_value=-0.040256793051981841 0.109122326552508 -0.021215377607710605 -0.019846973423171071 0.11362819476190855 0.072734649771571611 -0.097196660903500473 0.064195525837566395 0.19456118406423856 -0.052218620727686606 0.19198025517241532 -0.055797516224696711 0.20350750259249317 -0.061653513390421147 0.021290080447970084
leaf_weight=2916.118086649105 860.09971614740789 871.93307515978813 4423.6256891321391 439.06755368411541 435.79502875730395 157.11368672549725 482.82974586077034 619.39485501125455 1607.268165493384 331.93865898251534 1325.1646465025842 222.74014221131802 631.09631459973752 355.06075690500438
leaf_count=27317 16439 4738 29092 6158 3000 1189 5936 5023 10376 2764 8434 1873 3925 2411
internal_value=0 0.0501496 -0.010347 0.0241507 -0.00158291 0.0608104 0.0245718 -0.00498626 0.00792216 -0.017921 0.00131334 -0.0236623 0.0115636 -0.0317901
internal_weight=0 2811.04 12868.2 1950.94 9952.08 1079.01 639.943 9516.29 5092.66 4473.27 2866 2534.06 1208.9 986.157
internal_count=128675 34460 94215 18021 66898 13283 7125 63898 34806 29783 19407 16643 8209 6336
shrinkage=0.1


Tree=27
num_leaves=15
num_cat=0
split_feature=8 8 0 5 5 5 5 5 5 5 5 8 5 5
split_gain=768.778 506.98 348.324 189.574 879.771 190.171 1122.75 300.196 552.657 189.549 677.957 180.334 176.427 575.247
threshold=1.0000000180025095e-35 0.010182159784130366 0.35241353764981653 0.10526420338592855 0.12280282866640664 0.1228115765499575 0.14009757561173417 0.14035539145293313 0.15770788144187783 0.15789625307309102 0.1754270399235654 0.010208275396424374 0.17543875631721792 0.19265970315279787
decision_type=2 2 2 2 2 2 2 2 2 2 2 2 2 2
left_child=2 -2 3 -1 -5 -6 -7 -8 -9 -10 -11 -3 -12 -14
right_child=1 11 -4 4 5 6 7 8 9 10 12 -13 13 -15
leaf_value=-0.050046709170136733 0.11159496052924085 -0.015189662601130539 0.0090231862946133778 0.27261587661256942 -0.075940961665050377 0.3074650054906955 -0.093606453220221819 0.20527886370442994 -0.076344938761027076 0.21017588844068358 -0.080369460628838985 0.059101588778392646 0.20605662940800615 -0.019324285448599668
leaf_weight=1980.3356531541795 917.90919991582632 796.70582579821348 5953.1836457084864 105.17923664860427 535.43101129680872 106.79717168398201 500.26153794117272 114.35133494995534 483.25569272227585 134.99816253595054 404.05205395072699 553.90166316367686 118.36097621917725 2620.1768849864602
leaf_count=18480 17258 4728 39712 859 4783 865 4456 877 4192 957 3534 6931 863 20180
internal_value=0 0.0542508 -0.00881835 -0.0237713 -0.0136141 -0.019614 -0.0128854 -0.0207046 -0.0112934 -0.0178785 -0.00925805 0.0152781 -0.0186844 -0.00958321
internal_weight=0 2268.52 13056.4 7103.2 5122.86 5017.68 4482.25 4375.46 3875.2 3760.84 3277.59 1350.61 3142.59 2738.54
internal_count=128675 28917 99758 60046 41566 40707 35924 35059 30603 29726 25534 11659 24577 21043
shrinkage=0.1


Tree=28
num_leaves=15
num_cat=0
split_feature=8 8 1 1 0 9 9 9 9 9 9 8 8 8
split_gain=654.812 479.053 324.949 321.215 229.835 162.796 1011.62 322.672 1997.17 187.686 850.248 152.334 177.602 107.501
threshold=1.0000000180025095e-35 0.010182159784130366 0.60181782254885874 0.59223519769423716 0.59011148876907848 0.09965952127230622 0.050000680790483629 0.049868416364522154 1.0000000180025095e-35 0.10001222297154691 0.14993375425634115 0.010208275396424374 0.020323585293002381 0.020414886173439509
decision_type=2 2 2 2 2 2 2 2 2 2 2 2 2 2
left_child=2 -2 3 4 5 6 7 8 -1 -7 -11 -3 -13 -14
right_child=1 11 -4 -5 -6 9 -8 -9 -10 10 -12 12 13 -15
leaf_value=-0.024761083683027488 0.11052515065501789 -0.013656562217888175 -0.04243437733155183 0.252848845664078 0.020408073989040057 -0.062278766482811401 0.19736742584409731 -0.055759616809256243 0.19829299970271166 0.21239092263450721 -0.042305902460107653 0.11872108745294779 -0.075498940442952522 0.049957275494982821
leaf_weight=3219.4495061151683 838.18755341600627 797.486647605896 2269.0329725807533 49.718136712908745 3205.2716929279268 1153.764726229012 242.44249216839671 1250.0249629020691 458.59657160937786 154.82023096363991 854.34314966574311 241.8902498241514 109.47334469854832 181.60642677545547
leaf_count=24581 17258 4728 20372 444 22263 8900 2108 9626 3728 1368 6368 3940 724 2267
internal_value=0 0.0513108 -0.00809242 -0.000733161 -0.00192948 -0.0116927 -0.00205613 -0.011867 0.00305038 -0.034729 -0.00323173 0.0140057 0.055397 0.00277395
internal_weight=0 2168.64 12857.5 10588.4 10538.7 7333.44 5170.51 4928.07 3678.05 2162.93 1009.16 1330.46 532.97 291.08
internal_count=128675 28917 99758 79386 78942 56679 40043 37935 28309 16636 7736 11659 6931 2991
shrinkage=0.1


Tree=29
num_leaves=15
num_cat=0
split_feature=8 8 1 1 0 5 5 5 5 5 5 5 5 5
split_gain=558.349 450.477 279.295 272.493 182.034 152.608 493.665 237.128 443.07 194.971 678.652 186.333 497.424 259.671
threshold=1.0000000180025095e-35 0.010182159784130366 0.59223068449506255 0.58253615818851767 0.59011148876907848 0.15789625307309102 0.1754270399235654 0.17543875631721792 0.19265970315279787 0.19298751104701498 0.20976699272164254 0.21052890736481222 0.22806720531643918 0.22807240313791741
decision_type=2 2 2 2 2 2 2 2 2 2 2 2 2 2
left_child=2 -2 3 4 5 -1 -7 -8 -9 -10 -11 -12 -13 -14
right_child=1 -3 -4 -5 -6 6 7 8 9 10 11 12 13 -15
leaf_value=-0.0237558340910261 0.10955349398479659 0.01293828429255081 -0.037715067922624544 0.21608298216954772 0.018560105157560659 0.17843271459730481 -0.076659653964422092 0.18212046373529855 -0.068458851835640544 0.23225635129230149 -0.075741606642442685 0.23350249242483181 -0.098992150425597503 0.012914741358356172
leaf_weight=3836.0523802964017 764.80695525929332 1307.8466374445707 2450.9744435753673 57.964061437174678 3159.3418481908739 157.64305124059319 382.50678479485214 137.86679695732892 375.2870221119374 128.71866432949901 311.26776164211333 92.819664724171162 246.33881681784987 1310.1979486402124
leaf_count=31837 17258 11659 22314 497 21958 1242 3073 1101 2613 1018 2157 759 1690 9499
internal_value=0 0.0485892 -0.0074052 -0.000119133 -0.00135527 -0.0103712 0.00596668 -0.00314154 0.00766392 -0.00209485 0.00982543 -0.00477758 0.0086148 -0.00479574
internal_weight=0 2072.65 12647 10196 10138 6978.7 3142.65 2985 2602.5 2464.63 2089.34 1960.62 1649.36 1556.54
internal_count=128675 28917 99758 77444 76947 54989 23152 21910 18837 17736 15123 14105 11948 11189
shrinkage=0.1


Tree=30
num_leaves=15
num_cat=0
split_feature=6 6 6 1 1 6 6 9 9 9 9 9 9 9
split_gain=540.879 411.958 248.268 228.356 300.391 206.225 240.752 132.104 1010.32 298.235 1773.25 222.323 932.341 172.884
threshold=1.0000000180025095e-35 0.010203942695819609 0.010204274168435336 0.5820259308087149 0.57282143289931964 0.020322351000948636 0.020408717816329674 0.09965952127230622 0.050000680790483629 0.049868416364522154 1.0000000180025095e-35 0.10001222297154691 0.14993375425634115 0.15000534084025116
decision_type=2 2 2 2 2 2 2 2 2 2 2 2 2 2
left_child=3 -2 -3 4 7 -4 -7 8 9 10 -1 -9 -13 -14
right_child=1 2 5 -5 -6 6 -8 11 -10 -11 -12 12 13 -15
leaf_value=-0.013724390577795932 0.10803349720277983 -0.021695673335001341 0.11204269031587527 -0.03467254332016885 0.24800050141808483 -0.087987644991287764 0.055705644676219093 -0.046904650346225589 0.17495065562373413 -0.041517603475535771 0.17778079049894732 0.18957589630726399 -0.058908248633652051 0.022502027640857347
leaf_weight=4057.664089422673 697.87249020952731 850.64968144148588 362.11073097214103 2585.9733723457903 48.155552912503481 161.20717664808035 421.37892093136907 1497.2585351597518 333.70831800438464 1557.9527905937284 548.92467118799686 236.13807000592351 710.65618307702243 412.13065373711288
leaf_count=29339 16439 4738 6158 23677 436 1189 5936 11072 3134 11385 4923 2153 5070 3026
internal_value=0 0.0428358 0.0174927 -0.00835566 -0.00111779 0.0527797 0.0159443 -0.00240022 0.00547829 -0.00369584 0.00909551 -0.020325 0.00896028 -0.0290258
internal_weight=0 2493.22 1795.35 11988.6 9402.59 944.697 582.586 9354.43 6498.25 6164.54 4606.59 2856.18 1358.92 1122.79
internal_count=128675 34460 18021 94215 70538 13283 7125 70102 48781 45647 34262 21321 10249 8096
shrinkage=0.1


Tree=31
num_leaves=15
num_cat=0
split_feature=6 6 6 0 6 6 5 5 5 5 5 5 5 5
split_gain=459.061 387.109 211.412 202.72 193.86 194.517 180.67 1177.53 442.254 742.655 334.681 677.864 297.89 595.983
threshold=1.0000000180025095e-35 0.010203942695819609 0.010204274168435336 0.71926736555921078 0.020322351000948636 0.020408717816329674 0.1228115765499575 0.14009757561173417 0.14035539145293313 0.15770788144187783 0.15789625307309102 0.1754270399235654 0.17543875631721792 0.19265970315279787
decision_type=2 2 2 2 2 2 2 2 2 2 2 2 2 2
left_child=3 -2 -3 6 -4 -6 -1 -8 -9 -10 -11 -12 -13 -14
right_child=1 2 4 -5 5 -7 7 8 9 10 11 12 13 -15
leaf_value=-0.024780124077878211 0.10728678715661105 -0.019433066877858722 0.11088381960053989 0.060884727070678317 -0.075333922496227446 0.052445025755407992 0.22936587436149433 -0.08161213328110678 0.17915131869895967 -0.071147723127802265 0.17289549993332923 -0.073452353615241731 0.17473275535929458 -0.0036690593169377197
leaf_weight=4839.5380664654076 635.63203443121165 854.50601958855987 330.90065621770918 416.64499659091234 169.00108220428228 403.75963979586959 217.71786387450993 708.54072048421949 227.64306966308504 674.14964434690773 226.69336267188191 547.56062585487962 197.13723527081311 3735.7948211273178
leaf_count=38843 16439 4738 6158 3000 1189 5936 1888 5933 1974 5541 1970 4686 1710 28670
internal_value=0 0.0404062 0.0162269 -0.00762529 0.049947 0.0147421 -0.0101347 0.000710609 -0.00716944 0.00223436 -0.00524964 0.00418809 -0.00434777 0.00527329
internal_weight=0 2393.8 1758.17 11791.4 903.661 572.761 11374.8 6535.24 6317.52 5608.98 5381.34 4707.19 4480.49 3932.93
internal_count=128675 34460 18021 94215 13283 7125 91215 52372 50484 44551 42577 37036 35066 30380
shrinkage=0.1


Tree=32
num_leaves=15
num_cat=0
split_feature=8 8 0 2 2 5 5 5 5 5 5 5 5 5
split_gain=397.734 412.588 217.152 155.282 407.005 138.065 161.535 358.58 166.133 318.536 164.357 342.244 175.521 678.141
threshold=1.0000000180025095e-35 0.010182159784130366 0.033266526023653556 1.0000000180025095e-35 0.010197987448642752 0.017542318106266427 0.14035539145293313 0.15770788144187783 0.15789625307309102 0.1754270399235654 0.17543875631721792 0.19265970315279787 0.19298751104701498 0.20976699272164254
decision_type=2 2 2 2 2 2 2 2 2 2 2 2 2 2
left_child=2 -2 -1 5 -5 -4 -7 -8 -9 -10 -11 -12 -13 -14
right_child=1 -3 3 4 -6 6 7 8 9 10 11 12 13 -15
leaf_value=-0.035725749288234833 0.10870999833250501 0.009776970615050784 0.056537558094431763 0.10680097684563286 0.0033031502193464771 -0.025669120014187492 0.1765921896467271 -0.06322089445234523 0.17278530190843652 -0.067628728995181145 0.18180198785247315 -0.065869848669949257 0.26108873587800846 -0.0019136508505576779
leaf_weight=2064.8884069519117 636.59042331576347 1247.7974279746413 316.0543673876673 450.30677863955498 2432.177933210507 3576.0796698722988 117.69426413625479 379.36818283423781 111.71265846211463 312.89793466031551 109.9296991173178 332.76253930851817 103.98390675894916 1714.9679966419935
leaf_count=22502 17258 11659 2118 10197 17635 25687 649 3039 624 2659 602 2291 527 11228
internal_value=0 0.0431989 -0.00621265 -9.27822e-05 0.0194718 -0.00806323 -0.0110838 0.00530104 -0.0012751 0.00747323 0.000300134 0.00969808 0.000905398 0.0131214
internal_weight=0 1884.39 12022.8 9957.94 2882.48 7075.45 6759.4 3183.32 3065.62 2686.25 2574.54 2261.64 2151.71 1818.95
internal_count=128675 28917 99758 77256 27832 49424 47306 21619 20970 17931 17307 14648 14046 11755
shrinkage=0.1


Tree=33
num_leaves=15
num_cat=0
split_feature=8 8 1 1 1 1 1 1 1 1 1 1 1 1
split_gain=334.496 388.472 208.494 342.333 165.862 260.197 197.223 393.973 211.431 333.74 152.737 265.582 171.482 286.257
threshold=1.0000000180025095e-35 0.010182159784130366 0.48543379928179042 0.47573025281562392 0.4756817148826194 0.46602385502233767 0.46601780811111043 0.45631181163717111 0.45630923554739594 0.44660230069745238 0.44615179710408809 0.43689549690772761 0.43635674578130856 0.42719068835757407
decision_type=2 2 2 2 2 2 2 2 2 2 2 2 2 2
left_child=2 -2 3 4 5 6 7 8 9 10 11 12 13 -1
right_child=1 -3 -4 -5 -6 -7 -8 -9 -10 -11 -12 -13 -14 -15
leaf_value=0.005850885054430442 0.10791409874968833 0.0088240100226535979 -0.020780773537941583 0.18911826736167892 -0.07852466544395699 0.16954196592927934 -0.085834702910665223 0.19434876680170937 -0.088535682263504917 0.19018915245900805 -0.072843527451500245 0.18175903353594608 -0.079581699326108687 0.19179720282400989
leaf_weight=4919.0107346270233 580.04261877946556 1244.4830042365938 5155.9602813813835 100.53757063485682 239.37974450737238 96.128495141863823 236.40304521657526 110.51364609599113 238.09069446381181 98.430587038397789 244.53876580297947 86.516819104552269 228.62629017233849 84.207989644259214
leaf_count=38535 17258 11659 46680 971 1884 968 1767 1059 1760 914 1799 860 1701 860
internal_value=0 0.0403262 -0.0056726 0.0059845 0.00318713 0.00627113 0.00375846 0.00728264 0.00377834 0.00766066 0.00443098 0.00798407 0.00511043 0.0089805
internal_weight=0 1824.53 11838.3 6682.38 6581.85 6342.47 6246.34 6009.94 5899.42 5661.33 5562.9 5318.36 5231.85 5003.22
internal_count=128675 28917 99758 53078 52107 50223 49255 47488 46429 44669 43755 41956 41096 39395
shrinkage=0.1


Tree=34
num_leaves=15
num_cat=0
split_feature=6 6 6 6 0 6 7 7 7 7 7 7 7 7
split_gain=327.13 362.66 168.54 185.038 156.859 153.553 143.554 1893.73 336.214 1105.08 219.041 566.771 181.924 147.444
threshold=1.0000000180025095e-35 0.010203942695819609 0.010204274168435336 0.020322351000948636 0.71926736555921078 0.020408717816329674 0.071434243465786487 0.14255557503506128 0.071427655486923647 1.0000000180025095e-35 0.14288448102738369 0.21426036293826137 0.21430070114087782 0.28570914190454139
decision_type=2 2 2 2 2 2 2 2 2 2 2 2 2 2
left_child=4 -2 -3 -4 6 -5 8 -8 9 -1 -9 -12 -13 -14
right_child=1 2 3 5 -6 -7 7 10 -10 -11 11 12 13 -15
leaf_value=-0.0097822877589578867 0.10666760036670542 -0.01896035130684702 0.10980114726870659 -0.067447908483118893 0.054683723432710322 0.046587745515313611 0.21610044402403458 -0.034345911799553736 -0.040735654893275963 0.22379024794996227 0.19651287826162611 -0.058647395353597899 0.1983927298604613 0.012676557433318428
leaf_weight=3928.7800882197917 542.16050538839772 842.34994358569384 285.14460158813745 173.02182795107365 404.69228462129831 371.85900745540857 388.56145605072379 2255.6114908205345 3242.2098381305113 213.57038294989616 157.42917270679027 390.44164278171957 51.953701342456043 241.28976683504879
leaf_count=32637 16439 4738 6158 1189 3000 5936 3416 18193 28291 2099 1378 2954 453 1794
internal_value=0 0.0355935 0.0125522 0.0445328 -0.00644632 0.0103768 -0.00872223 0.00800557 -0.0166172 0.00226019 -0.0181051 0.0254477 -0.0139427 0.0455797
internal_weight=0 2214.54 1672.38 830.025 11274.5 544.881 10869.8 3485.29 7384.56 4142.35 3096.73 841.114 683.685 293.243
internal_count=128675 34460 18021 13283 94215 7125 91215 28188 63027 34736 24772 6579 5201 2247
shrinkage=0.1


Tree=35
num_leaves=15
num_cat=0
split_feature=6 6 6 6 0 6 4 7 7 6 6 7 0 7
split_gain=276.659 338.299 142.636 172.815 139.786 124.647 117.278 121.055 289.317 91.408 119.724 89.7866 84.7979 67.2285
threshold=1.0000000180025095e-35 0.010203942695819609 0.010204274168435336 0.020322351000948636 0.029879645645899348 0.020408717816329674 0.38608400058534886 0.14288448102738369 0.21426036293826137 0.03045134222601029 0.030612747505581153 0.28586881064634334 0.71926736555921078 0.071434243465786487
decision_type=2 2 2 2 2 2 2 2 2 2 2 2 2 2
left_child=4 -2 -3 -4 -1 -5 12 -8 -9 -7 -11 -10 13 -6
right_child=1 2 3 5 6 9 7 8 11 10 -12 -13 -14 -15
leaf_value=-0.031033833785237622 0.1060509404797547 -0.017000133020168919 0.10886496843119911 -0.058647493997223382 -0.00022080711833010947 0.11096490088422971 -0.021872463381165969 0.18785446532309147 -0.024787024057718047 -0.12410931710965011 0.04589876790199323 0.086993794610808209 0.05939726634195857 0.028389473678947647
leaf_weight=1841.7074792450294 493.27433656062931 845.36147768422961 260.11497046519071 178.75596572458744 4148.6181191788055 128.91111775115132 3226.5141806229949 94.616014413535595 382.32997988164425 54.233563762158155 175.36797414999455 88.48976765293628 308.68132933601737 1024.0472176261246
leaf_count=21307 16439 4738 6158 1189 31933 2485 26359 917 2893 572 2879 666 2254 7886
internal_value=0 0.0334256 0.011618 0.0419581 -0.00586962 0.00956561 -0.000871922 -0.0143927 0.0282884 0.043577 0.00574161 -0.00377801 0.00848166 0.00544325
internal_weight=0 2136.02 1642.75 797.384 11115 537.269 9273.3 3791.95 565.436 358.513 229.602 470.82 5481.35 5172.67
internal_count=128675 34460 18021 13283 94215 7125 72908 30835 4476 5936 3451 3559 42073 39819
shrinkage=0.1


Tree=36
num_leaves=15
num_cat=0
split_feature=2 2 5 5 5 5 5 5 5 5 5 5 5 5
split_gain=249.702 488.591 150.957 431.107 175.236 140.61 1154.83 331.012 921.742 310.34 845.744 283.041 444.735 165.509
threshold=1.0000000180025095e-35 0.010197987448642752 0.035086295781965239 0.017545449789829838 0.017542318106266427 0.087721172224649493 0.1052610176622681 0.10526420338592855 0.12280282866640664 0.1228115765499575 0.14009757561173417 0.14035539145293313 0.15770788144187783 0.087615758561683535
decision_type=2 2 2 2 2 2 2 2 2 2 2 2 2 2
left_child=2 -2 3 4 -1 13 -7 -8 -9 -10 -11 -12 -13 -4
right_child=1 -3 5 -5 -6 6 7 8 9 10 11 12 -14 -15
leaf_value=0.05256766543193192 0.10595664528722887 0.0069111844275582734 -0.01802259768278075 0.20807991089736491 -0.052776874629444206 0.30202334132453151 -0.080609044021594925 0.25077513564577075 -0.077962697789059232 0.23799080489598229 -0.078016708646768046 0.17480442229450308 -0.0061613133153412287 -0.080445053773641848
leaf_weight=322.94511676300317 579.50310782296583 3543.6085521015339 1599.7835354935378 119.63319734111428 308.98827305343002 120.10516184847802 615.51809799764305 139.21396126691252 594.34575938340276 143.25227712094784 522.44145793281496 140.85948187950999 3782.8946134513244 578.30197874177247
leaf_count=2418 18790 34551 13691 1148 2048 1002 5592 947 5500 949 5141 987 30715 5196
internal_value=0 0.020832 -0.00889044 0.034012 0.00105871 -0.0128051 -0.00497115 -0.01118 -0.00315171 -0.00997107 -0.00116597 -0.00887138 0.000335205 -0.0345963
internal_weight=0 4123.11 8988.28 751.567 631.933 8236.72 6058.63 5938.53 5323.01 5183.79 4589.45 4446.2 3923.75 2178.09
internal_count=128675 53341 75334 5614 4466 69720 50833 49831 44239 43292 37792 36843 31702 18887
shrinkage=0.1


Tree=37
num_leaves=15
num_cat=0
split_feature=8 8 1 1 1 1 9 9 9 9 1 1 1 1
split_gain=222.141 348.962 156.562 286.546 140.407 273.145 138.432 1389.07 137.641 526.848 134.929 335.075 167.041 273.576
threshold=1.0000000180025095e-35 0.010182159784130366 0.42694928633213902 0.41747746387372614 0.41689033046543561 0.40777461519364455 0.049868416364522154 1.0000000180025095e-35 0.050000680790483629 0.09965952127230622 0.40776260498015099 0.39807273776742852 0.39805362090006652 0.38835004333241441
decision_type=2 2 2 2 2 2 2 2 2 2 2 2 2 2
left_child=2 -2 3 4 5 10 7 -4 -8 -10 11 12 13 -1
right_child=1 -3 6 -5 -6 -7 8 -9 9 -11 -12 -13 -14 -15
leaf_value=0.0068179228477040698 0.10715136931913 0.0056210370170293126 -0.02211682047659224 0.19223679534458937 -0.073144324471097838 0.19519397202152586 -0.057380319236972267 0.17576620752933658 0.16381466934933825 -0.030863663248896996 -0.073533111999675854 0.19325136834507139 -0.081631279391083056 0.18608069242517905
leaf_weight=3558.0317538240924 473.34217921737581 1188.5202897218987 3522.0055258246139 84.439506937284023 211.95934060774744 78.385193650610745 1174.8117913231254 394.46751189418137 153.54789001960307 1468.3613379499875 199.20650498382747 98.174104817211628 205.15493045561016 87.219930390827358
leaf_count=28537 17258 11659 32822 841 1618 858 10918 4206 1918 13010 1560 1002 1507 961
internal_value=0 0.0345395 -0.00463198 0.00974984 0.00627786 0.0102612 -0.0143208 -0.00218602 -0.0313141 -0.0124333 0.00676633 0.0108174 0.00616591 0.0111071
internal_weight=0 1661.86 11235.8 4522.57 4438.13 4226.17 6713.19 3916.47 2796.72 1621.91 4147.79 3948.58 3850.41 3645.25
internal_count=128675 28917 99758 36884 36043 34425 62874 37028 25846 14928 33567 32007 31005 29498
shrinkage=0.1


Tree=38
num_leaves=15
num_cat=0
split_feature=6 6 1 1 6 6 4 7 6 6 6 5 5 5
split_gain=193.083 308.352 133.659 240.092 110.235 159.681 99.874 99.7558 96.5169 84.7691 90.1599 76.7318 182.809 74.5788
threshold=1.0000000180025095e-35 0.010203942695819609 0.6116493727904978 0.60194518610436287 0.010204274168435336 0.020322351000948636 0.38608400058534886 0.28586881064634334 0.020408717816329674 0.03045134222601029 0.030612747505581153 0.15789625307309102 0.1754270399235654 0.17543875631721792
decision_type=2 2 2 2 2 2 2 2 2 2 2 2 2 2
left_child=2 -2 3 6 -3 -6 -1 11 -7 -10 -11 -8 -13 -14
right_child=1 4 -4 -5 5 8 7 -9 9 10 -12 12 13 -15
leaf_value=0.0076677936033472593 0.10546375652275425 -0.016172010611094398 -0.030784947937044234 0.25491223798974477 0.107799754415653 -0.052252339938583484 -0.032217433725099366 0.088369424866857699 0.10960524708351008 -0.10405009971784956 0.04069915001664659 0.15089159273443364 -0.065239296543304792 -0.00192308976351265
leaf_weight=5304.6218664096668 417.13510289695114 833.539584973827 1681.3564930297434 36.775696787051857 222.04807498445734 181.81800407543778 1655.7152181523852 93.227301508188248 111.18286456074566 58.382929789833724 163.64464800059795 74.321692457422614 209.57547845132649 1655.9260934358463
leaf_count=43174 16439 4738 18092 385 6158 1189 15514 724 2485 572 2879 816 2002 13508
internal_value=0 0.0290381 -0.00489736 -7.72593e-05 0.0087405 0.0369134 -0.00111996 -0.0137572 0.00635161 0.0383292 0.00263683 -0.0164052 -0.00290879 -0.0090362
internal_weight=0 1987.75 10711.5 9030.16 1570.62 737.077 8993.39 3688.77 515.028 333.21 222.028 3595.54 1939.82 1865.5
internal_count=128675 34460 94215 76123 18021 13283 75738 32564 7125 5936 3451 31840 16326 15510
shrinkage=0.1


Tree=39
num_leaves=15
num_cat=0
split_feature=0 9 9 9 9 9 9 9 9 1 1 2 1 1
split_gain=188.692 138.783 1744.3 237.099 859.232 211.295 670.959 112.813 380.711 69.6969 150.91 54.5261 53.8528 52.1348
threshold=0.71926736555921078 1.0000000180025095e-35 0.049868416364522154 0.050000680790483629 0.09965952127230622 0.10001222297154691 0.14993375425634115 0.15000534084025116 0.1992487505641721 0.6116493727904978 0.60194518610436287 1.0000000180025095e-35 0.5047959221467998 0.60181782254885874
decision_type=2 2 2 2 2 2 2 2 2 2 2 2 2 2
left_child=1 9 11 12 -5 -6 -7 -8 -9 10 13 -3 -4 -1
right_child=-2 2 3 4 5 6 7 8 -10 -11 -12 -13 -14 -15
leaf_value=-0.0071880515195946728 0.052746303642293185 0.17855510053238863 -0.025348970291846507 0.15169797027763254 -0.038076253573677887 0.16209123561859734 -0.040568647902396449 0.1854215125917357 -0.029382755297421473 -0.03344465819051673 0.22495171633159194 0.12010420916845883 -0.059239733613852222 -0.076097208599329585
leaf_weight=4452.6964463326149 652.98190195951611 443.26892038946971 1171.0110458685085 356.40454262169078 1557.396013002377 255.35903811035678 739.59673007205129 109.16012112889439 337.97536445176229 1333.2671171557158 27.766277595888823 249.38593184016645 781.94719246029854 112.5684464443475
leaf_count=39871 8787 3302 10279 5644 14184 4046 6602 1548 2827 15075 403 7037 8025 1045
internal_value=0 -0.00246147 0.00825743 -0.0112158 0.00490572 -0.0125364 0.0150455 -0.0165955 0.0230579 -0.0133164 -0.00747356 0.15751 -0.0389185 -0.00888719
internal_weight=0 11927.8 6001.5 5308.85 3355.89 2999.49 1442.09 1186.73 447.135 5926.3 4593.03 692.655 1952.96 4565.26
internal_count=128675 119888 63494 53155 34851 29207 15023 10977 4375 56394 41319 10339 18304 40916
shrinkage=0.1


Tree=40
num_leaves=15
num_cat=0
split_feature=0 8 8 7 7 7 7 7 7 7 7 4 7 3
split_gain=162.801 89.8674 120.713 82.6966 1241.44 178.811 685.46 148.698 336.909 110.903 120.527 82.162 81.8548 81.21
threshold=0.53413649668811214 1.0000000180025095e-35 0.010182159784130366 0.071434243465786487 0.14255557503506128 0.071427655486923647 1.0000000180025095e-35 0.14288448102738369 0.21426036293826137 0.21430070114087782 0.28570914190454139 0.25715343605899604 0.28586881064634334 0.25892244236502626
decision_type=2 2 2 2 2 2 2 2 2 2 2 2 2 2
left_child=3 -2 -3 5 -5 6 11 -6 -9 -10 -11 -1 -12 -7
right_child=1 2 -4 4 7 13 -8 8 9 10 12 -13 -14 -15
leaf_value=0.0072477518775870414 0.0085167291249684876 0.10607842190170358 0.022420387069991179 0.19723138608050425 -0.033560820982117663 -0.065689010826576841 0.20330395309130211 0.18026628803542488 -0.050466757020273291 0.18713959661642657 -0.05282638619490148 -0.028503648508204922 0.07383166172081411 -0.024327139821366139
leaf_weight=1304.3199770324863 3555.7999201458879 231.60603734757751 675.64179813116789 301.54984086286277 1726.5513306087814 639.31127838743851 159.43892339104787 111.97624441189691 304.17599146766588 45.245569412596524 108.39233095990494 1267.4629692584276 96.406957307364792 1843.4530996533576
leaf_count=13943 27632 10280 7794 3562 16604 7996 2226 1290 2723 491 883 13971 800 18480
internal_value=0 0.0156844 0.043777 -0.00820361 0.0060218 -0.0155545 0.00210185 -0.0180757 0.0220564 -0.00990873 0.0394295 -0.0103718 0.00679646 -0.0349778
internal_weight=0 4463.05 907.248 7908.28 2694.3 5213.99 2731.22 2392.75 666.197 554.221 250.045 2571.78 204.799 2482.76
internal_count=128675 45706 18074 82969 26353 56616 30140 22791 6187 4897 2174 27914 1683 26476
shrinkage=0.1


Tree=41
num_leaves=15
num_cat=0
split_feature=2 2 5 5 5 5 5 5 5 5 5 5 5 5
split_gain=153.109 420.599 104.822 358.847 137.073 141.005 133.835 522.486 185.97 749.568 312.258 897.894 240.619 872.456
threshold=1.0000000180025095e-35 0.010197987448642752 0.035086295781965239 0.017545449789829838 0.017542318106266427 1.0000000180025095e-35 0.035090904156830825 0.05262746104832431 0.052632601549423154 0.070160760217746337 0.070180320123022902 0.087615758561683535 0.087721172224649493 0.1052610176622681
decision_type=2 2 2 2 2 2 2 2 2 2 2 2 2 2
left_child=2 -2 3 4 5 -1 -4 -8 -9 -10 -11 -12 -13 -14
right_child=1 -3 6 -5 -6 -7 7 8 9 10 11 12 13 -15
leaf_value=0.0060609884952982605 0.1055048557011332 0.0045552240364849922 -0.071931656338616243 0.19781822750620567 -0.048588600631165303 0.15933775357348631 0.22689149612545259 -0.075611267412799318 0.28584262765192187 -0.086861834634050478 0.30001737439307452 -0.073968930919333473 0.26849929860111527 -0.0088765834040541013
leaf_weight=228.70582310389727 470.72336764563806 3349.6067184824497 339.72384536452591 107.54931449703872 299.26538479002193 81.372200893238187 93.704177452251315 416.80300946719944 86.414636778645217 496.77776538487524 95.357957235537469 524.76587901823223 115.7823171117343 5507.0719948890619
leaf_count=1503 18790 34551 2752 1148 2048 915 983 3654 834 4630 838 5196 1002 49831
internal_value=0 0.0169938 -0.00715558 0.0294133 -0.000310234 0.0462846 -0.0105707 -0.00772941 -0.0107648 -0.00680526 -0.0105575 -0.00448565 -0.00920891 -0.00316503
internal_weight=0 3820.33 8393.29 716.893 609.343 310.078 7676.4 7336.68 7242.97 6826.17 6739.76 6242.98 6147.62 5622.85
internal_count=128675 53341 75334 5614 4466 2418 69720 66968 65985 62331 61497 56867 56029 50833
shrinkage=0.1


Tree=42
num_leaves=15
num_cat=0
split_feature=0 9 9 9 9 9 9 9 9 0 1 1 1 1
split_gain=132.083 105.296 1428.52 183.479 713.238 164.454 552.9 88.5941 315.755 56.6868 56.6563 47.8104 58.6192 41.4249
threshold=0.71926736555921078 1.0000000180025095e-35 0.049868416364522154 0.050000680790483629 0.09965952127230622 0.10001222297154691 0.14993375425634115 0.15000534084025116 0.1992487505641721 0.024471993812993805 0.28155220882096926 0.57176675380061293 0.56311161400300491 0.52427148883206554
decision_type=2 2 2 2 2 2 2 2 2 2 2 2 2 2
left_child=1 9 -3 11 -5 13 -7 -8 -9 10 -1 12 -4 -6
right_child=-2 2 3 4 5 6 7 8 -10 -11 -12 -13 -14 -15
leaf_value=0.05297686822549437 0.045171125560016567 0.14969673937910444 -0.02795659064953784 0.14591844838355492 -0.027280567437275582 0.15478824941408587 -0.036532585657338357 0.17758824021276118 -0.026243450487230292 -0.0071522531974337073 -0.040432392754010407 -0.065567629934107474 0.27031798742627045 -0.07408151746997392
leaf_weight=69.989420596510172 624.05311318766326 628.9620551050175 1463.226356446743 320.69256025180221 1277.1315962579101 230.98215600149706 710.74609513953328 99.018917359411716 326.90224055061117 4768.5823949989863 898.86822496587411 401.04285540804267 6.6186217726208261 222.00179048348218
leaf_count=774 8787 10339 13569 5644 11939 4046 6602 1548 2827 43647 11973 4667 68 2245
internal_value=0 -0.00207443 0.00756802 -0.0101044 0.00448673 -0.0113345 0.0137414 -0.0149207 0.0211437 -0.0116327 -0.0336846 -0.0349637 -0.0266135 -0.0342112
internal_weight=0 11424.8 5687.33 5058.36 3187.48 2866.78 1367.65 1136.67 425.921 5737.44 968.858 1870.89 1469.84 1499.13
internal_count=128675 119888 63494 53155 34851 29207 15023 10977 4375 56394 12747 18304 13637 14184
shrinkage=0.1


Tree=43
num_leaves=15
num_cat=0
split_feature=8 8 4 5 5 5 5 5 5 5 5 5 5 5
split_gain=116.912 285.815 94.1642 109.61 162.352 83.6748 198.066 101.781 281.766 106.584 271.645 154.629 266.486 120.522
threshold=1.0000000180025095e-35 0.010182159784130366 0.38608400058534886 0.15789625307309102 0.1754270399235654 0.17543875631721792 0.19265970315279787 0.19298751104701498 0.20976699272164254 0.21052890736481222 0.22806720531643918 0.22807240313791741 0.24560535887439006 0.24561673357517536
decision_type=2 2 2 2 2 2 2 2 2 2 2 2 2 2
left_child=2 -2 -1 -4 -5 -6 -7 -8 -9 -10 -11 -12 -13 -14
right_child=1 -3 3 4 5 6 7 8 9 10 11 12 13 -15
leaf_value=0.004275807269461058 0.10583191848057823 0.0021398819513421285 -0.033521016812564801 0.1505572764394168 -0.064166714538945874 0.1652738801104339 -0.064632109188929518 0.1964389768333526 -0.069445600529460486 0.21843680628044373 -0.088771800571102233 0.22321297703900034 -0.081630860140065709 0.013227153778406131
leaf_weight=6332.609608579427 348.87664363416843 1116.6349687050097 1813.550833778223 68.991808127379045 217.06728325318545 70.96985122282058 247.79671908356249 72.805362707469612 219.38072981964797 57.471353814005852 183.53720939392224 55.836756854783744 157.51741087343544 894.96914138644934
leaf_count=59435 17258 11659 19616 865 2385 795 2161 766 1854 588 1554 575 1321 7843
internal_value=0 0.0268246 -0.00334584 -0.0152341 -0.000470374 -0.00525585 0.0012675 -0.00489321 0.00412473 -0.00480075 0.00570952 -0.00375414 0.0103247 -0.000969501
internal_weight=0 1465.51 10392.5 4059.89 2246.34 2177.35 1960.28 1889.31 1641.52 1568.71 1349.33 1291.86 1108.32 1052.49
internal_count=128675 28917 99758 40323 20707 19842 17457 16662 14501 13735 11881 11293 9739 9164
shrinkage=0.1


Tree=44
num_leaves=15
num_cat=0
split_feature=2 2 5 5 5 5 5 5 5 5 5 5 5 5
split_gain=109.604 373.743 82.7053 302.025 112.412 435.691 155.923 610.357 263.509 711.08 199.63 703.966 253.542 660.204
threshold=1.0000000180025095e-35 0.010197987448642752 0.035086295781965239 0.017545449789829838 0.035090904156830825 0.05262746104832431 0.052632601549423154 0.070160760217746337 0.070180320123022902 0.087615758561683535 0.087721172224649493 0.1052610176622681 0.10526420338592855 0.12280282866640664
decision_type=2 2 2 2 2 2 2 2 2 2 2 2 2 2
left_child=2 -2 3 -1 -4 -6 -7 -8 -9 -10 -11 -12 -13 -14
right_child=1 -3 4 -5 5 6 7 8 9 10 11 12 13 -15
leaf_value=-0.00022907215542413326 0.1050496578303079 0.0034198305759187892 -0.066675274396148995 0.18740833214313576 0.21574555599273865 -0.07044046849853558 0.26424372791563616 -0.081837820245316745 0.27044491128435155 -0.068935446514504436 0.24640747602204202 -0.072559829692503755 0.22320764223710185 -0.006415724414523297
leaf_weight=595.20174112031236 406.96208909736015 3264.471524250228 325.9386703716591 100.22923145163804 87.036816755775362 394.5814261585474 82.694574635010213 463.25500375265256 93.237474618479609 491.17007384449244 111.417291758582 539.50147125869989 128.66646999260411 4663.5896355211735
leaf_count=4466 18790 34551 2752 1148 983 3654 834 4630 838 5196 1002 5592 947 43292
internal_value=0 0.014685 -0.0061534 0.0268142 -0.00925954 -0.00660701 -0.00938435 -0.00571941 -0.0091588 -0.00357299 -0.00787822 -0.00236866 -0.00756732 -0.000250606
internal_weight=0 3671.43 8076.52 695.431 7381.09 7055.15 6968.11 6573.53 6490.84 6027.58 5934.34 5443.17 5331.76 4792.26
internal_count=128675 53341 75334 5614 69720 66968 65985 62331 61497 56867 56029 50833 49831 44239
shrinkage=0.1


Tree=45
num_leaves=15
num_cat=0
split_feature=0 9 9 9 9 9 9 9 9 4 0 5 5 4
split_gain=97.2742 81.3316 1180.11 144.461 589.937 129.379 452.771 70.0494 262.764 61.3469 52.8158 47.871 145.872 46.3308
threshold=0.71926736555921078 1.0000000180025095e-35 0.049868416364522154 0.050000680790483629 0.09965952127230622 0.10001222297154691 0.14993375425634115 0.15000534084025116 0.1992487505641721 0.22551435395463168 0.03561413011255924 0.070180320123022902 0.087615758561683535 0.052841676519916218
decision_type=2 2 2 2 2 2 2 2 2 2 2 2 2 2
left_child=1 9 -3 -4 -5 -6 -7 -8 -9 13 -11 -12 -13 -1
right_child=-2 2 3 4 5 6 7 8 -10 10 11 12 -14 -15
leaf_value=-0.059403868048695324 0.039536946337713118 0.14358607337108586 -0.031487377031125627 0.14067633745990488 -0.030569634355243056 0.14807372768451929 -0.032406482679201314 0.17052861589109705 -0.022932108883090864 -0.04138805442091123 -0.041493506258522189 0.20517233141269897 -0.0090081614787204441 0.0078772720895077374
leaf_weight=108.4155861902982 600.11404579272494 565.80998503998853 1800.8576601399109 287.04318072879687 1446.0536941615865 208.13156522880308 684.34823539853096 90.230502610793337 316.36976774921641 758.64389329170808 455.52366320206784 32.225652600638568 2401.8124904793222 1829.0044510937296
leaf_count=904 8787 10339 18304 5644 14184 4046 6602 1548 2827 10586 4346 489 21768 18301
internal_value=0 -0.00180897 0.0069434 -0.00905354 0.00427027 -0.00999295 0.0129117 -0.0128745 0.0199996 -0.0102687 -0.0179058 -0.0117407 -0.0061725 0.0041123
internal_weight=0 10984.5 5398.84 4833.03 3032.18 2745.13 1299.08 1090.95 406.6 5585.63 3648.21 2889.56 2434.04 1937.42
internal_count=128675 119888 63494 53155 34851 29207 15023 10977 4375 56394 37189 26603 22257 19205
shrinkage=0.1


Tree=46
num_leaves=15
num_cat=0
split_feature=0 7 7 7 7 7 7 7 7 7 4 0 0 5
split_gain=85.8989 57.9698 961.291 133.5 536.391 107.23 265.907 76.8369 95.6266 58.2167 55.0407 43.8601 108.714 129.916
threshold=0.53413649668811214 0.071434243465786487 0.14255557503506128 0.071427655486923647 1.0000000180025095e-35 0.14288448102738369 0.21426036293826137 0.21430070114087782 0.28570914190454139 0.28586881064634334 0.2404392037804878 0.71926696136207224 0.71926736555921078 0.05262746104832431
decision_type=2 2 2 2 2 2 2 2 2 2 2 2 2 2
left_child=1 3 -3 4 10 -4 -7 -8 -9 -10 -1 -2 13 -13
right_child=11 2 5 -5 -6 6 7 8 9 -11 -12 12 -14 -15
leaf_value=0.0078508510622014287 0.021125091237766826 0.1862683677120337 -0.029142558599123916 -0.030237980392791922 0.19472952726510018 0.17341692388875163 -0.043695146154308057 0.17873057711050885 -0.047633778867857551 0.062796326763820395 -0.022627536525917417 0.0069317771453980036 0.036103121671926496 -0.059742327620585373
leaf_weight=1144.5617987003643 2277.157159876544 264.64787369873375 1587.4308606206905 2269.4042707653716 138.21165577904321 95.556161996442825 278.66716411616653 38.272130187600851 99.100491587305441 92.110613617114723 1228.4702188698575 866.73703925171867 591.92115161754191 440.91463976586238
leaf_count=12927 24576 3562 16604 26476 2226 1290 2723 491 883 800 14987 8740 8787 3603
internal_value=0 -0.00624442 0.0062434 -0.0126593 0.00322646 -0.0155002 0.020372 -0.0084076 0.0344429 0.00556284 -0.00792719 0.0117657 0.000545892 -0.0155494
internal_weight=0 7236.43 2455.79 4780.65 2511.24 2191.14 603.707 508.15 229.483 191.211 2373.03 4176.73 1899.57 1307.65
internal_count=128675 82969 26353 56616 30140 22791 6187 4897 2174 1683 27914 45706 21130 12343
shrinkage=0.1


Tree=47
num_leaves=15
num_cat=0
split_feature=1 1 1 1 1 1 1 1 1 1 1 1 1 1
split_gain=81.4095 234.862 101.203 288.187 120.217 261.739 110.425 310.375 115.799 233.394 119.855 224.976 134.841 233.309
threshold=0.54368870938159153 0.53398262632011828 0.53364636912959373 0.52427319537384631 0.52427148883206554 0.51456676128130785 0.51455397910437828 0.50485558091311211 0.5047959221467998 0.49515136203703536 0.49436046298883057 0.485438267307709 0.48543379928179042 0.47573025281562392
decision_type=2 2 2 2 2 2 2 2 2 2 2 2 2 2
left_child=1 2 3 4 5 6 7 8 9 10 11 12 13 -1
right_child=-2 -3 -4 -5 -6 -7 -8 -9 -10 -11 -12 -13 -14 -15
leaf_value=0.0045641346472002379 -0.013400205060932159 0.19221566351817052 -0.068890267290303966 0.21163002647553381 -0.075176893936022365 0.19136402237432479 -0.069869356648921979 0.19444627078858454 -0.071893907361182549 0.17527592857755353 -0.070307676992356599 0.17372947338169453 -0.073959715975535856 0.16301741717388007
leaf_weight=6430.1988716165069 3123.7603685783688 66.873450269224122 185.90937857842073 67.412880661664531 187.26430362043902 75.360733667155728 196.71046105818823 86.419345734408125 196.58425360987894 80.444301068782806 210.71835997933522 79.290707584936172 213.21413269359618 94.286822885042056
leaf_count=70158 37875 1115 1724 1168 1748 1355 1799 1447 1781 1456 1952 1460 1969 1668
internal_value=0 0.00558005 0.00403991 0.00575228 0.00398439 0.00591884 0.00407704 0.00604508 0.00381618 0.00591003 0.00397134 0.00626736 0.00429663 0.00685398
internal_weight=0 8170.69 8103.81 7917.91 7850.49 7663.23 7587.87 7391.16 7304.74 7108.15 7027.71 6816.99 6737.7 6524.49
internal_count=128675 90800 89685 87961 86793 85045 83690 81891 80444 78663 77207 75255 73795 71826
shrinkage=0.1


Tree=48
num_leaves=15
num_cat=0
split_feature=8 8 4 7 7 7 7 3 5 5 5 5 5 5
split_gain=75.9138 243.985 66.7277 101.335 549.762 94.1851 181.85 64.1897 51.3709 451.238 206.662 372.371 169.494 317.876
threshold=1.0000000180025095e-35 0.010182159784130366 0.38608400058534886 0.071434243465786487 0.14255557503506128 0.14288448102738369 0.21426036293826137 0.46472425400544026 0.070180320123022902 0.087615758561683535 0.070160760217746337 0.052632601549423154 0.05262746104832431 0.035090904156830825
decision_type=2 2 2 2 2 2 2 2 2 2 2 2 2 2
left_child=2 -2 8 -4 -5 -6 -7 -8 10 -10 11 12 13 -1
right_child=1 -3 3 4 5 6 7 -9 9 -11 -12 -13 -14 -15
leaf_value=-0.0035902682674401084 0.10505099944025507 0.00072110254582926281 -0.029283686383093074 0.18128931689174257 -0.029488059506626058 0.16558967225298613 -0.058650379391602649 0.022271038282202577 0.20337534864482729 0.0043483301692627211 -0.075735690923968757 0.20242560640325513 -0.06620251108490656 0.18407248270851895
leaf_weight=970.52269959356636 283.23178625188302 1074.624319491908 1919.9844328676118 158.99850699235685 1144.0839293987956 75.074046382680535 140.34562451695092 325.07823168672621 117.19607043592259 4069.2152254392859 381.16551174642518 91.293837541947141 351.17498239455745 99.516622670460492
leaf_count=8198 17258 11659 21726 1893 11400 951 1557 2796 1402 40507 3637 1197 3102 1392
internal_value=0 0.022483 -0.00273981 -0.0132046 0.00354089 -0.0132358 0.0211657 -0.0021303 0.00373788 0.00991997 -0.00992909 0.00665476 -0.00592087 0.0138629
internal_weight=0 1357.86 9843.65 3763.56 1843.58 1684.58 540.498 465.424 6080.08 4186.41 1893.67 1512.51 1421.21 1070.04
internal_count=128675 28917 99758 40323 18597 16704 5304 4353 59435 41909 17526 13889 12692 9590
shrinkage=0.1


Tree=49
num_leaves=15
num_cat=0
split_feature=9 9 9 9 9 9 9 9 1 3 1 1 7 7
split_gain=69.6384 994.618 125.631 518.818 112.384 388.767 64.4948 216.424 42.6144 40.7474 62.2744 95.6771 38.1195 579.21
threshold=1.0000000180025095e-35 0.049868416364522154 0.050000680790483629 0.09965952127230622 0.10001222297154691 0.14993375425634115 0.15000534084025116 0.1992487505641721 0.5047959221467998 1.0000000180025095e-35 0.24271780728844186 0.23301249621749434 0.14255557503506128 0.071434243465786487
decision_type=2 2 2 2 2 2 2 2 2 2 2 2 2 2
left_child=9 -2 8 -4 -5 -6 -7 -8 -3 -1 11 -11 13 -12
right_child=1 2 3 4 5 6 7 -9 -10 10 12 -13 -14 -15
leaf_value=-0.053387804597284108 0.13736797332191369 -0.01478819659709507 0.13476607252983971 -0.025790461678379041 0.14021027223184776 -0.02763563525729917 0.1573214206601305 -0.016111731935806936 -0.046430263249820088 0.018943956428241704 -0.010605919496897792 0.21179923899014041 -0.023507700624537584 0.18990582065175399
leaf_weight=186.68911201925948 538.68008294177707 1133.998259560205 286.05699897313025 1459.6355904780794 207.29580597078893 694.45779322716407 92.234542269608937 327.1942203475628 681.35962908179499 153.81122148176655 3932.8979657914024 30.8907635724172 1204.2067300730851 149.5422583844047
leaf_count=1701 11527 11044 6528 15084 4650 7038 1818 3166 8217 1164 43063 341 11275 2059
internal_value=0 0.00841372 -0.00581442 0.00652721 -0.00666446 0.0144658 -0.00893536 0.0220271 -0.0266644 -0.00744634 -0.00587876 0.0511983 -0.00787289 -0.00326105
internal_weight=0 5420.91 4882.23 3066.87 2780.82 1321.18 1113.89 419.429 1815.36 5658.04 5471.35 184.702 5286.65 4082.44
internal_count=128675 69072 57545 38284 31756 16672 12022 4984 19261 59603 57902 1505 56397 45122
shrinkage=0.1


Tree=50
num_leaves=15
num_cat=0
split_feature=2 2 5 5 5 5 5 5 5 5 5 5 5 5
split_gain=64.4609 314.121 70.6698 119.14 76.8609 570.014 193.026 308.956 138.948 555.911 137.341 585.213 117.502 286.632
threshold=1.0000000180025095e-35 0.010197987448642752 0.017542318106266427 1.0000000180025095e-35 0.1228115765499575 0.14009757561173417 0.14035539145293313 0.15770788144187783 0.12280282866640664 0.10526420338592855 0.1052610176622681 0.087721172224649493 0.15789625307309102 0.1754270399235654
decision_type=2 2 2 2 2 2 2 2 2 2 2 2 2 2
left_child=2 -2 3 -1 8 -6 -7 -8 9 10 11 -4 -9 -14
right_child=1 -3 4 -5 5 6 7 12 -10 -11 -12 -13 13 -15
leaf_value=0.0067322850264390213 0.10467779192676857 0.0018312642815274814 -0.019310921244733555 0.15397149865251417 0.2189096870689165 -0.067460629397312566 0.16585466935582482 -0.05169003946143759 -0.06704556158431077 0.20476785518737431 -0.066538511723361088 0.22443133353443923 0.16670427132639232 -0.00070035410215079242
leaf_weight=222.61416734056547 328.60590630723163 3085.030346965068 2138.7907398371026 72.969176035607234 118.30021042260341 425.38461808953434 114.00555126857944 409.61605088692158 491.15152869559824 116.19594148756005 489.76389105664566 103.25926132139284 106.31250603473745 2696.4066570382565
leaf_count=1503 18790 34551 22083 915 949 5141 987 4675 5500 947 5592 1002 876 25164
internal_value=0 0.0117316 -0.00484333 0.0430805 -0.00680825 0.00278291 -0.00403204 0.00407944 -0.0179242 -0.00945305 -0.0185648 -0.00808519 -0.00166196 0.00564962
internal_weight=0 3413.64 7504.77 295.583 7209.19 3870.03 3751.73 3326.34 3339.16 2848.01 2731.81 2242.05 3212.34 2802.72
internal_count=128675 53341 75334 2418 72916 37792 36843 31702 35124 29624 28677 23085 30715 26040
shrinkage=0.1


Tree=51
num_leaves=15
num_cat=0
split_feature=1 1 4 3 5 5 5 5 5 5 5 5 5 5
split_gain=63.2003 144.317 59.5308 44.3901 40.7348 276.663 122.757 284.579 136.876 277.58 159.722 316.627 109.747 354.248
threshold=0.6116493727904978 0.60194518610436287 0.38608400058534886 0.38171252704113173 0.035086295781965239 0.017545449789829838 0.035090904156830825 0.05262746104832431 0.052632601549423154 0.070160760217746337 0.070180320123022902 0.087615758561683535 0.087721172224649493 0.1052610176622681
decision_type=2 2 2 2 2 2 2 2 2 2 2 2 2 2
left_child=1 2 4 -2 5 -1 -6 -8 -9 -10 -11 -12 -13 -14
right_child=3 -3 -4 -5 6 -7 7 8 9 10 11 12 13 -15
leaf_value=0.0028107681134536809 -0.031683465022258744 0.19607784850854715 -0.0078734797547062082 0.0034234808395466432 -0.055365029517208841 0.16744448724482675 0.16592483504267266 -0.054442233792066211 0.1685770227370923 -0.056208049012491448 0.16595417501327092 -0.042832775121300175 0.15991417754655302 0.0058796503855780974
leaf_weight=593.79935968481004 956.74757578619756 38.730471250135452 3396.5150907193311 577.59857604047284 309.63954268966336 123.26231707329862 113.69218683254439 348.95798799069598 108.52492431167047 369.33972193719819 130.1465693366481 391.14515578211285 156.73572888085619 3148.8294442222686
leaf_count=5322 14377 747 40822 6234 2611 2210 2455 3047 2499 3501 2762 3710 3249 35129
internal_value=0 0.00345001 0.00263825 -0.0184676 0.00880028 0.0311112 0.00564916 0.00961202 0.0057932 0.0106761 0.00659239 0.0126534 0.0072563 0.0131833
internal_weight=0 9229.32 9190.59 1534.35 5794.07 717.062 5077.01 4767.37 4653.68 4304.72 4196.2 3826.86 3696.71 3305.57
internal_count=128675 108064 107317 20611 66495 7532 58963 56352 53897 50850 48351 44850 42088 38378
shrinkage=0.1


Tree=52
num_leaves=15
num_cat=0
split_feature=7 7 3 7 7 4 3 1 1 3 3 5 5 5
split_gain=59.0758 595.753 166.762 77.2036 638.754 69.6797 63.9049 49.6469 45.5712 44.5287 41.4915 70.9843 39.4388 167.146
threshold=0.071427655486923647 1.0000000180025095e-35 0.31850794208354155 0.071434243465786487 0.14255557503506128 0.25715343605899604 0.66608287930279231 0.51455397910437828 0.50485558091311211 0.60734417779238881 1.0000000180025095e-35 0.017542318106266427 0.035086295781965239 0.017545449789829838
decision_type=2 2 2 2 2 2 2 2 2 2 2 2 2 2
left_child=1 5 -2 -4 -5 9 7 8 -6 10 11 -1 13 -12
right_child=2 -3 3 4 6 -7 -8 -9 -10 -11 12 -13 -14 -15
leaf_value=0.017961941871053443 -0.035373318467488889 0.16839859282977548 -0.011394412341751469 0.15851361506770861 -0.0024871082153107658 -0.01401506806019044 0.022859797006175738 -0.036575297409959337 0.18406721541980395 -0.053486346791024646 0.014041865652464521 -0.10204392844975847 0.011582833723377595 0.1685055064645358
leaf_weight=126.88125320803374 1478.8467884858837 222.69472598982975 2007.4332943981281 275.89396093355026 980.99207167595159 1851.78925423685 687.17905140784569 591.99439675849862 13.271375346113926 101.40746572217904 348.80351840192452 80.601160711143166 1813.4735927124275 87.662275734823197
leaf_count=1096 20605 4684 22405 4934 10267 23020 6698 6583 211 966 3285 788 21537 1596
internal_value=0 0.00881731 -0.00619538 0.00327399 0.0148244 0.000759961 -0.00261305 -0.0136481 3.00892e-06 0.0114524 0.0141322 -0.028657 0.0180781 0.0450652
internal_weight=0 4633.31 6035.61 4556.76 2549.33 4410.62 2273.44 1586.26 994.263 2558.83 2457.42 207.482 2249.94 436.466
internal_count=128675 56972 71703 51098 28693 52288 23759 17061 10478 29268 28302 1884 26418 4881
shrinkage=0.1


Tree=53
num_leaves=15
num_cat=0
split_feature=9 9 9 9 9 9 9 9 1 7 7 3 3 1
split_gain=54.3983 826.919 95.394 433.512 88.0128 325.761 49.8341 177.484 33.6803 32.2275 332.395 70.9536 31.5791 39.5929
threshold=1.0000000180025095e-35 0.049868416364522154 0.050000680790483629 0.09965952127230622 0.10001222297154691 0.14993375425634115 0.15000534084025116 0.1992487505641721 0.56217438538643083 0.071427655486923647 1.0000000180025095e-35 0.31612574856789327 1.0000000180025095e-35 0.24271780728844186
decision_type=2 2 2 2 2 2 2 2 2 2 2 2 2 2
left_child=9 -2 8 -4 -5 -6 -7 -8 -3 10 12 -11 -1 -14
right_child=1 2 3 4 5 6 7 -9 -10 11 -12 -13 13 -15
leaf_value=-0.046615403157283811 0.13358992505134057 -0.016233338128546874 0.13149464504468358 -0.023040499951299261 0.13677541027830145 -0.024375390947177653 0.15135090522193695 -0.013684139776425559 -0.049825396550128048 -0.04207675629226279 0.17834291058243443 -0.0049419437087509181 0.042484049107835292 -0.0064423156994721691
leaf_weight=177.02575410343707 473.64991884015035 1361.2326841061004 251.40568198863184 1407.6150075229816 182.77988546784036 669.13556527439505 82.055755290319212 316.546638477128 382.29600029368885 688.72834482742473 101.79463550075889 2034.3201134487754 178.3852104570251 2271.8854074503761
leaf_count=1701 11527 14075 6528 15084 4650 7038 1818 3166 5186 9363 1780 19946 1499 25314
internal_value=0 0.00771111 -0.00510247 0.00598144 -0.00588957 0.013416 -0.00770123 0.0202898 -0.0235989 -0.00663747 0.00104231 -0.0143343 -0.00582721 -0.00288037
internal_weight=0 5126.72 4653.07 2909.54 2658.13 1250.52 1067.74 398.602 1743.53 5452.14 2729.09 2723.05 2627.3 2450.27
internal_count=128675 69072 57545 38284 31756 16672 12022 4984 19261 59603 30294 29309 28514 26813
shrinkage=0.1


Tree=54
num_leaves=15
num_cat=0
split_feature=8 8 5 5 3 5 5 5 5 5 5 5 5 5
split_gain=51.938 200.249 42.4942 115.134 79.3792 47.3044 580.845 211.854 360.434 159.343 572.353 161.165 564.688 126.735
threshold=1.0000000180025095e-35 0.010182159784130366 0.017542318106266427 1.0000000180025095e-35 1.0000000180025095e-35 0.1228115765499575 0.14009757561173417 0.14035539145293313 0.15770788144187783 0.12280282866640664 0.10526420338592855 0.1052610176622681 0.087721172224649493 0.15789625307309102
decision_type=2 2 2 2 2 2 2 2 2 2 2 2 2 2
left_child=2 -2 3 -1 -4 9 -7 -8 -9 10 11 12 -6 -10
right_child=1 -3 4 -5 5 6 7 8 13 -11 -12 -13 -14 -15
leaf_value=0.00034726631659406091 0.10461802088377806 0.00068159843779795875 -0.092037040529447445 0.14768130711813818 -0.013479370454537884 0.18645727021512393 -0.063588060843077762 0.15061717473377151 -0.047626733100689267 -0.05904505693537683 0.17826652790171815 -0.059884760428508911 0.17957871003507569 0.0056124466430426383
leaf_weight=224.71977942856029 226.13945457234513 1028.1466615307145 100.14857286587358 69.424920794088393 2359.4579626830528 168.46616723679472 506.99721231963485 163.00771522184368 510.57237695506774 581.611404547235 166.7058755006874 571.81470393179916 161.90305273607373 3598.3600671494496
leaf_count=1552 17258 11659 1164 962 25813 2069 5958 2210 5649 6451 2129 6508 2174 37119
internal_value=0 0.0194206 -0.00227363 0.0351215 -0.00351106 -0.00250232 0.00396233 -0.00247095 0.00478248 -0.010828 -0.00222541 -0.011953 -0.00108262 -0.00100301
internal_weight=0 1254.29 9183.19 294.145 8889.05 8788.9 4947.4 4778.94 4271.94 3841.49 3259.88 3093.18 2521.36 4108.93
internal_count=128675 28917 99758 2514 97244 96080 53005 50936 44978 43075 36624 34495 27987 42768
shrinkage=0.1


Tree=55
num_leaves=15
num_cat=0
split_feature=1 1 1 1 1 1 7 7 7 7 3 3 7 5
split_gain=47.243 108.472 48.5486 90.4189 48.706 122.857 44.2341 371.953 101.348 648.339 72.5901 43.9419 32.0741 28.8578
