tree
version=v3
num_class=1
num_tree_per_iteration=1
label_index=0
max_feature_idx=9
objective=binary sigmoid:1
feature_names=Column_0 Column_1 Column_2 Column_3 Column_4 Column_5 Column_6 Column_7 Column_8 Column_9
feature_infos=[0:1] [0:1] [0:1] [0:1] [0:0.99929123711340195] [0:1] [0:1] [0:1] [0:1] [0:0.65000000000000002]
tree_sizes=1540 1731 1736 1738 1748 1743 1737 1743 1750 1739 1748 1736 1743 1743 1739 1740 1745 1738 1743 1737 1744 1742 1748 1742 1741 1739 1741 1745 1750 1747 1750 1739 1747 1731 1743 1731 1743 1741 1737 1739 1748 1733 1751 1743 1744 1744 1730 1755 1739 1733 1745 1754 1749 1750 1757 1739 1739 1746 1739 1740 1743 1741 1756 1757 1738 1755 1754 1761 1753 1741 1733 1764 1761 1749 1740 1756 1747 1753 1751 1747 1748 1744 1740 1761 1737 1745 1743 1742 1753 1732 1756 1721 1760 1737 1734 1735 1724 1740 1741 1759 1747 1754 1760 1754 1750 1735 1752 1742 1747 1739 1734 1711 1725 1747 1739 1747 1728 1756 1742 1727 1756 1736 1727 1726 1699 1729 1749 1711 1712 1735 1729 1721 1747 1742 1721 1728 1733 1712 1745 1729 1732 1728 1743 1738 1699 1728 1743 1739 1718 1763 1737 1737 1729 1764 1716 1699 1734 1716 1716 1708 1749 1756 1704 1742 1717 1724 1720 1742 1757 1756 1712 1688 1714 1712 1765 1705 1714 1723 1731 1742 1731 1756 1711 1744 1722 1733 1716 1751 1738 1761 1721 1762 1695 1757 1739 1697 1712 1708 1746 1738 1738 1719 1721 1722 1749 1733 1732 1731 1712 1716 1721 1714 1716 1701 1723 1747 1734 1731 1718 1754 1726 1741 1730 1748 1749 1734 1696 1716 1717 1725 1716 1755 1717 1761 1742 1710 1694 1706 1736 1708 1747 1745 1723 1711 1732 1737 1715 1741 1735 1711 1732 1716 1727 1722 1704 1729 1720 1695 1733 1725 1705 1709 1717 1704 1733 1739 1718 1687 1729 1712 1699 1725 1731 1715 1719 1714 1740 1707 1732 1719 1735 1724 1711 1725 1698 1719 1718 1741 1738 1730 1716 1748 1735 1732 1723 1711 1736 1711 1723 1724 1703 1730 1706 1722 1738 1720 1718 1719 1704 1723 1730 1711 1740 1719 1737 1720 1710 1719 1728 1726 1716 1700 1704 1700 1718 1724 1735 1729 1713 1731 1721 1715 1714 1710 1705 1706 1716 1722 1719 1732 1738 1716 1718 1733 1719 1701 1724 1720 1729 1708 1750 1726 1729 1725 1714 1723 1708 1730 1723 1728 1733 1708 1702 1715 1735 1708 1718 1710 1701 1727 1740 1758 1730 1722 1724 1739 1726 1718 1722 1726 1720 1719 1706 1728 1698 1730 1699 1703 1722 1705 1732 1738 1723 1718 1705 1729 1724 1717 1706 1721 1732 1724 1709 1722 1711 1699 1711 1709 1699 1707 1724 1724 1703 1715 1697 1727 1706 1712 1736 1706 1714 1721 1705 1711 1708 1716 1715 1727 1702 1733 1735 1729 1728 1708 1720 1715 1710 1724 1701 1723 1734 1730 1732 1702 1705 1705 1724 1727 1717 1712 1702 1712 1711 1724 1717 1720 1739 1738 1716 1699 1724 1734 1722 1719 1719 1749 1706 1709 1708 1696 1725 1732 1696 1707 1730 1727 1717 1722 1714 1745 1716 1713 1722 1711 1707 1718 1710 1740 1699 1711 1724 1713 1706 1725 1710 1732 1720 1721 1723 1713 1715 1707 1722 1724 1703 1709 1710 1717 1725 1706 1730 1729 1719 1726 1727 1727 1725 1724 1706 1699 1697 1709 1717 1714 1709 1699 1722 1709 1727 1725 1724 1716 1714 1724 1702 1707 1712 1732 1724 1729 1722 1707 1723 1696 1708 1730 1722 1705 1703 1715 1726 1698 1729 1710 1707 1716 1722 1714 1735 1702 1726 1711 1714 1734 1712 1701 1710 1707

Tree=0
num_leaves=15
num_cat=0
split_feature=6 8 0 8 8 0 9 9 9 9 6 6 5 5
split_gain=35337.4 13100.9 6562.93 1759.99 1008.65 686.293 603.79 2762.87 734.687 1688.24 553.586 1332.36 497.571 618.47
threshold=1.0000000180025095e-35 1.0000000180025095e-35 0.28768455845876401 0.010196369157048173 0.010208275396424374 0.084101411685004096 1.0000000180025095e-35 0.049927560076040524 0.050006160143662028 0.099991444220112316 0.010203346802689523 0.010204274168435336 0.14035539145293313 0.15760351426000022
decision_type=2 2 2 2 2 2 2 2 2 2 2 2 2 2
left_child=1 2 5 -3 -5 -1 -4 -8 -9 -10 -2 -12 -7 -14
right_child=10 3 6 4 -6 12 7 8 9 -11 11 -13 13 -15
leaf_value=-0.15223693643509373 0.1999860066859864 0.1999860066859864 -0.049551266505006832 -0.045274178872706627 0.15271327941325913 -0.14247133957644151 0.1999860066859864 -0.088720769248452944 0.1999860066859864 -0.029824681068626586 0.057616015211135588 0.18164763810592599 0.1999860066859864 -0.085547332678891919
leaf_weight=8091.75 4116 1763.5 3430.75 619.75 440 2036.75 631.25 1250.75 377.5 2086.5 1173 3310 78 2763.25
leaf_count=32367 16464 7054 13723 2479 1760 8147 2525 5003 1510 8346 4692 13240 312 11053
internal_value=-1.5543e-05 -0.0633218 -0.0908245 0.13878 0.0369287 -0.134377 -0.01819 0.00656677 -0.0263011 0.00538373 0.173506 0.149194 -0.10475 -0.0777087
internal_weight=0 23569.8 20746.5 2823.25 1059.75 12969.8 7776.75 4346 3714.75 2464 8599 4483 4878 2841.25
internal_count=128675 94279 82986 11293 4239 51879 31107 17384 14859 9856 34396 17932 19512 11365
shrinkage=1


Tree=1
num_leaves=15
num_cat=0
split_feature=6 8 0 8 8 0 6 6 7 7 9 9 7 7
split_gain=28840.1 10669.9 5407.91 1452.26 821.879 706.09 464.157 1102.57 401.695 2441.51 388.56 1014.18 363.521 917.119
threshold=1.0000000180025095e-35 1.0000000180025095e-35 0.2240684911828382 0.010196369157048173 0.010208275396424374 0.50554012529889947 0.010203346802689523 0.010204274168435336 0.071434243465786487 0.14284521270123393 1.0000000180025095e-35 0.049927560076040524 0.14288120810167124 0.21426036293826137
decision_type=2 2 2 2 2 2 2 2 2 2 2 2 2 2
left_child=1 2 8 -3 -5 -4 -2 -8 -1 -10 -7 -12 -11 -14
right_child=6 3 5 4 -6 10 7 -9 9 12 11 -13 13 -15
leaf_value=-0.1389700899182201 0.1818742260579839 0.1818742260579839 -0.05226824392207096 -0.040754422713939975 0.13828870166235807 -0.028804146740436576 0.05191305842484864 0.16489945078621865 0.21299594642413081 -0.13968094381209104 0.1818742260579839 0.0037370174271366095 0.21176212112441983 -0.10368486863812575
leaf_weight=8164.3308974057436 4075.1184918880463 1745.9843198359013 4371.9314311295748 619.43253782391548 437.44458675384521 2024.5070601403713 1172.0270454883575 3282.845407128334 234.71799577772617 2499.4094020575285 374.49309270083904 2180.334139585495 105.84799906611443 713.05382105708122
leaf_count=32827 16464 7054 17527 2479 1760 8103 4692 13240 943 10045 1513 8738 425 2865
internal_value=0 -0.0572189 -0.0820476 0.125871 0.0333521 -0.0235239 0.157485 0.135174 -0.126756 -0.0986888 0.00391856 0.0298488 -0.120736 -0.0629114
internal_weight=0 23471.5 20668.6 2802.86 1056.88 8951.27 8529.99 4454.87 11717.4 3553.03 4579.33 2554.83 3318.31 818.902
internal_count=128675 94279 82986 11293 4239 35881 34396 17932 47105 14278 18354 10251 13335 3290
shrinkage=0.1


Tree=2
num_leaves=15
num_cat=0
split_feature=2 8 0 2 2 8 8 2 2 0 3 0 8 8
split_gain=30737 5911.76 3093.96 3084.74 5327.86 1330.33 938.952 762.873 1376.78 724.258 579.283 452.444 356.695 280.564
threshold=1.0000000180025095e-35 1.0000000180025095e-35 0.59383505932532665 0.010203700571421207 0.010204439600757793 1.0000000180025095e-35 0.010196369157048173 0.020375240570948219 0.020409017063373471 0.21103755289313808 0.060874279104095562 0.65597173571721235 0.010208275396424374 0.010196369157048173
decision_type=2 2 2 2 2 2 2 2 2 2 2 2 2 2
left_child=1 2 9 -2 5 11 -3 -6 -9 -1 -4 -5 -8 -7
right_child=3 6 10 4 7 13 12 8 -10 -11 -12 -13 -14 -15
leaf_value=-0.13398518955176006 0.18352972574112658 0.16939176136316819 0.060440506614455519 -0.095596755797670796 0.17995810811512758 0.16994333316805735 -0.041979355052420425 -0.0088370080729653459 0.1421040087377726 -0.084046538661863929 -0.036016099963830601 0.012228870634154516 0.11907234244751881 0.037513115279077983
leaf_weight=9946.4374471604824 4576.4163412749767 913.11772041022778 901.02200295031071 1624.1619411408901 2400.6638557910919 275.03411720693111 422.6361203789711 794.63350312411785 2522.8495506793261 4101.7954795211554 2015.1054704040289 511.77674521505833 203.85047326982021 382.41111917793751
leaf_count=40561 18748 3779 3660 6580 9849 1137 1704 3227 10339 16505 8123 2071 837 1555
internal_value=0 -0.082919 -0.0999469 0.117321 0.0817225 -0.0314746 0.104706 0.137021 0.105949 -0.119404 -0.00621304 -0.0697614 0.0104247 0.0929137
internal_weight=0 18504 16964.4 13087.9 8511.53 2793.38 1539.6 5718.15 3317.48 14048.2 2916.13 2135.94 626.487 657.445
internal_count=128675 75169 68849 53506 34758 11343 6320 23415 13566 57066 11783 8651 2541 2692
shrinkage=0.1


Tree=3
num_leaves=15
num_cat=0
split_feature=2 6 2 2 8 6 0 8 2 2 6 6 6 8
split_gain=25418.2 9098.91 2617.98 4437.86 2155.72 1636.72 914.126 902.24 666.267 1158.79 499.879 470.918 566.128 348.346
threshold=1.0000000180025095e-35 1.0000000180025095e-35 0.010203700571421207 0.010204439600757793 1.0000000180025095e-35 1.0000000180025095e-35 0.21560315879250683 0.010196369157048173 0.020375240570948219 0.020409017063373471 1.0000000180025095e-35 0.010203346802689523 0.010204274168435336 1.0000000180025095e-35
decision_type=2 2 2 2 2 2 2 2 2 2 2 2 2 2
left_child=1 4 -2 5 6 13 -1 -6 -5 10 -10 -3 -13 -4
right_child=2 11 3 8 7 -7 -8 -9 9 -11 -12 12 -14 -15
leaf_value=-0.12908519208932298 0.169888783411203 0.16696175226892732 -0.092259405818193752 0.16706674283338555 0.15762278795993587 0.096832874615406753 -0.078614786658162683 -0.056997591101616542 -0.070236781045155336 0.13088194444943804 0.093023920672969065 -0.011778586582373025 0.13053780977738721 0.029010958353141478
leaf_weight=9517.1681361943483 4455.4066080302 1001.0937384814024 1737.4637685716152 2330.7739708870649 428.14212456345558 756.30629143118858 5760.9631704390049 361.06192268431187 491.58331350982189 2468.0183390676975 303.2268081754446 466.96787783503532 696.30506862699986 274.25347231328487
leaf_count=39680 18748 4186 7083 9849 1846 3128 23226 1461 1986 10339 1241 1875 2895 1132
internal_value=0 -0.0758009 0.107974 0.074984 -0.101729 -0.0285784 -0.110054 0.0594337 0.126232 0.0970628 -0.00795144 0.11668 0.0734083 -0.0757269
internal_weight=0 18231.7 12817 8361.63 16067.3 2768.02 15278.1 789.204 5593.6 3262.83 794.81 2164.37 1163.27 2011.72
internal_count=128675 75169 53506 34758 66213 11343 62906 3307 23415 13566 3227 8956 4770 8215
shrinkage=0.1


Tree=4
num_leaves=15
num_cat=0
split_feature=2 6 2 2 8 6 0 8 2 2 6 6 6 8
split_gain=21211.5 7561.32 2271.75 3738.88 1788.27 1346.7 835.943 770.222 596.675 980.901 417.816 479.147 409.428 287.115
threshold=1.0000000180025095e-35 1.0000000180025095e-35 0.010203700571421207 0.010204439600757793 1.0000000180025095e-35 1.0000000180025095e-35 0.22825812118591263 0.010196369157048173 0.020375240570948219 0.020409017063373471 0.010203346802689523 0.010204274168435336 1.0000000180025095e-35 1.0000000180025095e-35
decision_type=2 2 2 2 2 2 2 2 2 2 2 2 2 2
left_child=1 4 -2 5 6 13 -1 -6 -5 12 -3 -12 -10 -4
right_child=2 10 3 8 7 -7 -8 -9 9 -11 11 -13 -14 -15
leaf_value=-0.11937678878065393 0.15925286815843234 0.15671954543234287 -0.084150874007418414 0.15696569144256481 0.14921977049253929 0.088812252575277167 -0.070400913755203673 -0.051377076538251701 -0.063518472540031734 0.12139473476514706 -0.010595444764166153 0.12107433759403885 0.085052017875262828 0.026202881410673753
leaf_weight=9432.5593958497047 4286.2406318485737 961.8574842363596 1715.5325451642275 2237.4311687201262 408.05485090613365 742.85275360941887 5527.2462857216597 360.52931821346283 489.33361192047596 2398.4056904017925 467.18829099833965 676.67078940570354 298.71903218328953 273.33002433180809
leaf_count=40483 18748 4186 7083 9849 1846 3128 22423 1461 1986 10339 1875 2895 1241 1132
internal_value=0 -0.0698137 0.10031 0.0693329 -0.0936386 -0.0260741 -0.101282 0.0551233 0.117384 0.0895912 0.108143 0.0672962 -0.00720138 -0.0689849
internal_weight=0 17834.1 12441.8 8155.6 15728.4 2731.72 14959.8 768.584 5423.89 3186.46 2105.72 1143.86 788.053 1988.86
internal_count=128675 75169 53506 34758 66213 11343 62906 3307 23415 13566 8956 4770 3227 8215
shrinkage=0.1


Tree=5
num_leaves=15
num_cat=0
split_feature=2 6 2 2 8 6 3 8 2 2 6 6 5 6
split_gain=17806.4 6312.99 2008.11 3174.84 1489.74 1110.86 671.339 663.314 546.516 836.447 378.531 408.618 373.541 336.106
threshold=1.0000000180025095e-35 1.0000000180025095e-35 0.010203700571421207 0.010204439600757793 1.0000000180025095e-35 1.0000000180025095e-35 0.54647045399315763 0.010196369157048173 0.020375240570948219 0.020409017063373471 0.010203346802689523 0.010204274168435336 0.017542318106266427 1.0000000180025095e-35
decision_type=2 2 2 2 2 2 2 2 2 2 2 2 2 2
left_child=1 4 -2 5 6 -4 12 -6 -5 13 -3 -12 -1 -10
right_child=2 10 3 8 7 -7 -8 -9 9 -11 11 -13 -14 -15
leaf_value=0.040227995726888191 0.15075232432369701 0.14853375503343016 -0.062984347070369928 0.14886272327659114 0.14239691637280413 0.081661795993416872 -0.045714153637431504 -0.046369484552928913 -0.057541491278064676 0.1131806948196748 -0.0095322123200598432 0.11289440936402273 -0.10532051862694114 0.077956006729194616
leaf_weight=178.96361258625984 4085.4215358644724 915.7416178882122 1962.1531275510788 2128.8634433299303 385.9799921810627 727.89985011518002 2441.5316022783518 359.56679071485996 486.30436708033085 2319.3461033403873 467.35916395485401 654.29649411141872 11975.102799266577 293.59050709009171
leaf_count=721 18748 4186 8215 9849 1846 3128 10332 1461 1986 10339 1875 2895 51853 1241
internal_value=0 -0.0645576 0.0938105 0.064431 -0.0865221 -0.0238446 -0.093565 0.0513575 0.109852 0.0830557 0.10083 0.061883 -0.103177 -0.00653362
internal_weight=0 17378.5 12003.6 7918.16 15341.1 2690.05 14595.6 745.547 5228.1 3099.24 2037.4 1121.66 12154.1 779.895
internal_count=128675 75169 53506 34758 66213 11343 62906 3307 23415 13566 8956 4770 52574 3227
shrinkage=0.1


Tree=6
num_leaves=15
num_cat=0
split_feature=6 8 1 8 3 8 1 7 7 6 6 4 7 7
split_gain=12513.6 4282.94 1193 889.802 695.066 471.768 431.708 430.936 1138.33 389.083 755.628 357.196 310.925 795.056
threshold=1.0000000180025095e-35 1.0000000180025095e-35 0.59223068449506255 0.010196369157048173 0.52481547698033582 0.010208275396424374 0.58253615818851767 0.071427655486923647 1.0000000180025095e-35 0.010203346802689523 0.010204274168435336 0.25772966650330403 0.071434243465786487 0.14284521270123393
decision_type=2 2 2 2 2 2 2 2 2 2 2 2 2 2
left_child=1 2 4 -3 6 -5 7 8 11 -2 -11 -1 -6 -14
right_child=9 3 -4 5 12 -7 -8 -9 -10 10 -12 -13 13 -15
leaf_value=-0.015682200045361593 0.13951650555925399 0.13891147852381089 -0.098856274076839196 -0.040028909385278734 -0.037947380989174058 0.1014212067019042 0.20920068786706958 -0.07121552819568365 0.19918691659695345 0.02324295545606982 0.120906093968424 -0.07033060214439471 0.19486053286064578 0.0018866199486892847
leaf_weight=2535.96222910285 3311.5884286165237 1402.6400499641895 4562.6087152659893 604.63088919222355 1230.4580873996019 386.51962608098984 62.989268437027931 6084.5536641776562 204.96564066410065 1112.1434909850359 2754.0036538988352 2263.7070768922567 244.59415374696255 1679.5214317142963
leaf_count=10983 16464 7054 20444 2479 5277 1760 275 26908 887 4692 13240 9930 1050 7232
internal_value=0 -0.0383458 -0.0543311 0.0876607 -0.0401314 0.0151325 -0.0518543 -0.0533371 -0.0316009 0.11436 0.0928121 -0.0414565 0.00131165 0.0264175
internal_weight=0 21263.2 18869.4 2393.79 14306.8 991.151 11152.2 11089.2 5004.63 7177.74 3866.15 4799.67 3154.57 1924.12
internal_count=128675 94279 82986 11293 62542 4239 48983 48708 21800 34396 17932 20913 13559 8282
shrinkage=0.1


Tree=7
num_leaves=15
num_cat=0
split_feature=2 6 2 2 8 0 6 8 2 2 6 6 2 2
split_gain=13710.1 4488.01 1791.71 2521.18 1045.54 791.94 748.056 519.652 516.864 668.416 340.754 313.581 273.766 428.078
threshold=1.0000000180025095e-35 1.0000000180025095e-35 0.010203700571421207 0.010204439600757793 1.0000000180025095e-35 0.21103755289313808 1.0000000180025095e-35 0.010196369157048173 0.020375240570948219 0.020409017063373471 0.010203346802689523 0.010204274168435336 0.030523542519572539 0.030616229572702273
decision_type=2 2 2 2 2 2 2 2 2 2 2 2 2 2
left_child=1 4 -2 6 5 -1 -4 -6 -5 -10 -3 -12 -11 -14
right_child=2 10 3 8 7 -7 -8 -9 9 12 11 -13 13 -15
leaf_value=-0.10177910009161005 0.14236251059267185 0.13643994125823133 -0.054135915426258147 0.1402021740252942 0.13200100705400275 -0.053143502547977707 0.067474199897996301 -0.041046227385134471 -0.0073427628217987394 0.14391247671382848 -0.010908241377325836 0.098281066025406566 -0.036008142952078347 0.10336419735063868
leaf_weight=8353.8100430965424 3730.0786567628384 814.00929474830627 1912.7660477310419 1931.3697582036257 339.03209736943245 5587.1817029565573 687.66780842840672 355.49234853684902 757.10541670024395 901.48851057887077 467.13311482965946 601.95063436031342 285.25649413466454 968.96601575613022
leaf_count=39410 18748 4186 8215 9849 1846 23496 3128 1461 3227 4381 1875 2895 1274 4684
internal_value=0 -0.0576245 0.0857936 0.05745 -0.0763215 -0.0822872 -0.0219769 0.0434268 0.100088 0.0734894 0.0876898 0.0505711 0.101878 0.0716658
internal_weight=0 16518.6 11174.7 7444.62 14635.5 13941 2600.43 694.524 4844.19 2912.82 1883.09 1069.08 2155.71 1254.22
internal_count=128675 75169 53506 34758 66213 62906 11343 3307 23415 13566 8956 4770 10339 5958
shrinkage=0.1


Tree=8
num_leaves=15
num_cat=0
split_feature=2 6 2 2 0 6 2 2 8 8 8 6 6 2
split_gain=11607.6 3772.82 1632.66 2166.98 935.521 616.866 489.525 583.755 367.219 345.205 319.042 318.947 270.067 255.54
threshold=1.0000000180025095e-35 1.0000000180025095e-35 0.010203700571421207 0.010204439600757793 0.28768455845876401 1.0000000180025095e-35 0.020375240570948219 0.020409017063373471 1.0000000180025095e-35 1.0000000180025095e-35 0.010196369157048173 0.010203346802689523 0.010204274168435336 0.030523542519572539
decision_type=2 2 2 2 2 2 2 2 2 2 2 2 2 2
left_child=1 4 -2 5 9 -4 -5 -8 -6 -1 -11 -3 -13 -9
right_child=2 11 3 6 8 -7 7 13 -10 10 -12 12 -14 -15
leaf_value=-0.09304683419559874 0.13697225122140452 0.13181226233782242 -0.049317543032071018 0.13513015181301477 -0.043463299307496463 0.062234639862226437 -0.0066079545309638407 0.13819602147830684 0.059519421909970283 0.1280437586435953 -0.080433257058258087 -0.0098133470380420123 0.092450093028998551 0.066674940692181189
leaf_weight=8995.2327330112457 3500.9747596681118 761.05284710228443 1890.8628384023905 1809.7364950031042 4540.7018858790398 671.85510089993477 757.16303780674934 847.67005708813667 374.83930842578411 137.69409619271755 157.22317042946815 467.31649534404278 577.22772011160851 1216.4832371920347
leaf_count=43736 18748 4186 8215 9849 19170 3128 3227 4381 1853 805 649 1875 2895 5958
internal_value=0 -0.0535836 0.0809647 0.0537076 -0.0708897 -0.0200725 0.0945358 0.0684965 -0.0356103 -0.0895565 0.0169027 0.0825737 0.0466987 0.096046
internal_weight=0 16011.3 10694.7 7193.77 14205.7 2562.72 4631.05 2821.32 4915.54 9290.15 294.917 1805.6 1044.54 2064.15
internal_count=128675 75169 53506 34758 66213 11343 23415 13566 21023 45190 1454 8956 4770 10339
shrinkage=0.1


Tree=9
num_leaves=15
num_cat=0
split_feature=0 8 8 5 5 8 0 0 8 1 5 5 5 5
split_gain=6228.04 2077.18 1693.58 502.139 1292.95 494.816 395.598 390.838 336.941 306.849 305.079 532.75 337.337 792.829
threshold=0.34838302850708669 1.0000000180025095e-35 1.0000000180025095e-35 0.10526420338592855 0.12279702136968207 0.010196369157048173 0.061838309284081849 0.71926736584412498 0.010208275396424374 0.54368870938159153 0.14035539145293313 0.15760351426000022 0.15789625307309102 0.17543244164842564
decision_type=2 2 2 2 2 2 2 2 2 2 2 2 2 2
left_child=1 3 7 -1 -5 -3 -6 9 -7 -2 -8 -12 -13 -14
right_child=2 5 -4 4 6 8 10 -9 -10 -11 11 12 13 -15
leaf_value=-0.090825604473804222 0.029225918482730501 0.12740991321950765 0.10581430378610575 0.22394344698497234 -0.076206794128800159 -0.062972020426494552 -0.083369747613622938 0.091574650411327965 0.10159883055939133 -0.020821183730812352 0.19647134271219471 -0.11027706296843032 0.22156748784996513 -0.025360290831359884
leaf_weight=3654.9113277345896 6132.8379214555025 740.78402151167393 3909.9138451814651 173.22338408231735 3730.9186282753944 322.51852113008499 925.72571302950382 827.35153956711292 202.53239393234253 1530.8934206217527 111.21287417411804 416.71992370486259 136.08684933185577 2920.934366106987
leaf_count=18387 28715 4559 21960 845 18966 1415 4496 4164 1084 7051 541 1980 648 13864
internal_value=0 -0.0470954 0.0513549 -0.0598766 -0.0464341 0.0747733 -0.0521169 0.0262778 0.000509306 0.0192286 -0.0321915 -0.0189759 -0.0258735 -0.014368
internal_weight=0 13335.6 12401 12069.7 8414.82 1265.83 8241.6 8491.08 525.051 7663.73 4510.68 3584.95 3473.74 3057.02
internal_count=128675 66785 61890 59727 41340 7058 40495 39930 2499 35766 21529 17033 16492 14512
shrinkage=0.1


Tree=10
num_leaves=15
num_cat=0
split_feature=2 6 2 2 8 3 2 2 8 8 1 1 6 2
split_gain=9032.58 2929.35 1523.77 1771.57 601.748 517.634 488.137 489.456 466.513 417.689 333.601 360.652 307.538 253.173
threshold=1.0000000180025095e-35 1.0000000180025095e-35 0.010203700571421207 0.010204439600757793 1.0000000180025095e-35 0.54647045399315763 0.020375240570948219 0.020409017063373471 1.0000000180025095e-35 0.010196369157048173 0.42673473950116791 0.41747746387372614 0.010203346802689523 0.030523542519572539
decision_type=2 2 2 2 2 2 2 2 2 2 2 2 2 2
left_child=1 4 -2 8 5 10 -5 -8 -4 -6 11 -1 -3 -9
right_child=2 12 3 6 9 -7 7 13 -10 -11 -12 -13 -14 -15
leaf_value=-0.055868017723851832 0.13159172034504604 0.12712736042710912 -0.0430940214425031 0.12969334153484938 0.1228783274085042 -0.025130750780062612 -0.0083243042069938034 0.13168805777350523 0.059954462373898877 -0.040900983451609384 -0.090453623117064313 0.29399069321004706 0.040422860213077991 0.057334713928352543
leaf_weight=3568.7386809140444 3173.0551429986954 690.43911425769329 1918.5267273932695 1628.4900694042444 279.35302847623825 2273.7203943282366 749.26792076230049 762.8620543628931 569.79552753269672 351.83777242898941 6990.1673413813114 29.710047572851181 1003.9039257019758 1145.7353280037642
leaf_count=16978 18748 4186 8651 9849 1846 10332 3227 4381 2692 1461 35462 134 4770 5958
internal_value=0 -0.0481819 0.0744039 0.0476188 -0.0637442 -0.0684223 0.0865811 0.060166 -0.0194972 0.0315846 -0.0777184 -0.0529795 0.0757547 0.0870536
internal_weight=0 15187.9 9947.73 6774.68 13493.5 12862.3 4286.36 2657.87 2488.32 631.191 10588.6 3598.45 1694.34 1908.6
internal_count=128675 75169 53506 34758 66213 62906 23415 13566 11343 3307 52574 17112 8956 10339
shrinkage=0.1


Tree=11
num_leaves=15
num_cat=0
split_feature=2 6 2 2 0 2 6 2 6 1 2 2 6 6
split_gain=7661.92 2459.69 1413.38 1528.6 670.363 469.208 429.433 426.704 295.036 248.284 243.308 385.444 228.515 226.666
threshold=1.0000000180025095e-35 1.0000000180025095e-35 0.010203700571421207 0.010204439600757793 0.21560315879250683 0.020375240570948219 1.0000000180025095e-35 0.020409017063373471 0.010203346802689523 0.51456244262113138 0.030523542519572539 0.030616229572702273 0.010204274168435336 0.010203346802689523
decision_type=2 2 2 2 2 2 2 2 2 2 2 2 2 2
left_child=1 4 -2 6 -1 -5 -4 -7 -3 -6 -9 -12 -10 -8
right_child=2 8 3 5 9 7 13 10 12 -11 11 -13 -14 -15
leaf_value=-0.078963247810733786 0.12787857040851372 0.12391670937454652 -0.042400807709384647 0.12623162507654903 -0.01966743653882955 -0.007490979246457587 0.137012246771232 0.12791257495507535 -0.01425550064984153 -0.065394411690932061 -0.050267379097881627 0.086446653833961537 0.081916980546786616 0.010594906113924399
leaf_weight=7428.3909327238798 2950.1333654299378 640.08185793459415 1825.219485193491 1511.8301372528076 3980.0480946153402 749.3525358736515 213.44195504486561 709.58043847978115 465.06948027014732 1692.3037207424641 272.94633702933788 843.58492863178253 527.07042975723743 422.7429886162281
leaf_count=40959 18748 4186 8215 9849 17592 3227 1106 4381 1875 7662 1274 4684 2895 2022
internal_value=0 -0.0447738 0.0704073 0.0445171 -0.0591962 0.0820094 -0.017741 0.0560504 0.0709849 -0.0333097 0.0821248 0.0530257 0.0368358 0.0530083
internal_weight=0 14733 9498.83 6548.7 13100.7 4087.29 2461.4 2575.46 1632.22 5672.35 1826.11 1116.53 992.14 636.185
internal_count=128675 75169 53506 34758 66213 23415 11343 13566 8956 25254 10339 5958 4770 3128
shrinkage=0.1


Tree=12
num_leaves=15
num_cat=0
split_feature=2 6 2 2 0 2 6 6 6 2 2 7 7 2
split_gain=6507.1 2065.4 1312.55 1321.06 609.058 450.298 408.072 355.004 279.158 263.235 308.75 243.196 766.521 236.368
threshold=1.0000000180025095e-35 1.0000000180025095e-35 0.010203700571421207 0.010204439600757793 0.28768455845876401 0.020375240570948219 1.0000000180025095e-35 1.0000000180025095e-35 0.010203346802689523 0.020409017063373471 0.030523542519572539 0.14288120810167124 0.21426036293826137 0.030616229572702273
decision_type=2 2 2 2 2 2 2 2 2 2 2 2 2 2
left_child=1 4 -2 7 11 -5 9 -4 -3 -7 -11 -1 -13 -12
right_child=2 8 3 5 -6 6 -8 -9 -10 10 13 12 -14 -15
leaf_value=-0.076395266556251173 0.12467933254862769 0.12115149625321059 -0.038621220440848814 0.12324303006222703 -0.026407055252173774 -0.047016309147327691 0.092633359752846756 0.049055026615374295 0.033999638238492016 0.12993426223445345 -0.092004899115262273 0.2912760521576418 -0.053805309906963319 0.053024476936486542
leaf_weight=7455.1121651530266 2734.3366966769099 591.70491427183151 1804.5798978805542 1399.4152737855911 4741.4679692983627 472.63705731928349 1251.5501183643937 620.64923083782196 970.10735395550728 286.89871165156364 179.45597054064274 74.21110588312149 485.38673494756222 300.63907589018345
leaf_count=42226 18748 4186 8215 9849 21023 1986 7497 3128 4770 1736 772 354 2610 1575
internal_value=0 -0.0415264 0.0668006 0.0417429 -0.0548161 0.0778519 0.0523535 -0.0161837 0.0670178 0.0116863 0.0478601 -0.0716228 -0.00804232 -0.00118643
internal_weight=0 14318 9050.16 6315.83 12756.2 3890.6 2491.18 2425.23 1561.81 1239.63 766.994 8014.71 559.598 480.095
internal_count=128675 75169 53506 34758 66213 23415 13566 11343 8956 6069 4083 45190 2964 2347
shrinkage=0.1


Tree=13
num_leaves=15
num_cat=0
split_feature=2 6 2 2 0 2 6 8 6 8 8 1 1 2
split_gain=5530.23 1730.46 1222.25 1147.19 559.55 430.182 356.653 345.098 268.252 238.637 234.272 230.92 268.625 219.5
threshold=1.0000000180025095e-35 1.0000000180025095e-35 0.010203700571421207 0.010204439600757793 0.19012845176325688 0.020375240570948219 1.0000000180025095e-35 1.0000000180025095e-35 0.010203346802689523 1.0000000180025095e-35 0.010196369157048173 0.47572368740623 0.4660295640838264 0.020409017063373471
decision_type=2 2 2 2 2 2 2 2 2 2 2 2 2 2
left_child=1 4 -2 7 9 -5 13 -4 -3 -1 -9 12 -6 -7
right_child=2 8 3 5 11 6 -8 10 -10 -11 -12 -13 -14 -15
leaf_value=-0.074382415732265533 0.12190573195499242 0.11875589112188543 -0.035434324931426828 0.12064758630573924 -0.015097099237507808 -0.042693106352462568 0.087987253343962596 0.13738124200897395 0.030943917884373253 0.031582447420523165 0.0029838016985689838 -0.052696420033142538 0.24850293934565659 0.044707464854781921
leaf_weight=6336.4735826700926 2527.5105431452394 545.63911381363869 1845.8811255246401 1292.0759605839849 3491.5065506547689 468.66245302557945 1189.1568152606487 211.65885034203529 959.87468229234219 219.90243901312351 334.94704142212868 2338.0664733052254 39.092292338609695 742.72835516184568
leaf_count=38041 18748 4186 8651 9849 15786 1986 7497 1137 4770 1215 1555 10990 181 4083
internal_value=0 -0.0384824 0.0634535 0.0391748 -0.0507509 0.0741244 0.0490836 -0.0147671 0.0627694 -0.0708283 0.0550257 -0.0283207 -0.0121784 0.010894
internal_weight=0 13930.6 8612.62 6085.11 12425 3692.62 2400.55 2392.49 1505.51 6556.38 546.606 5868.67 3530.6 1211.39
internal_count=128675 75169 53506 34758 66213 23415 13566 11343 8956 39256 2692 26957 15967 6069
shrinkage=0.1


Tree=14
num_leaves=15
num_cat=0
split_feature=2 6 2 2 0 2 0 6 6 8 5 5 5 5
split_gain=4697.07 1449.99 1144.47 992.269 506.296 414.844 323.857 314.207 257.449 209.891 240.154 675.302 278.931 627.071
threshold=1.0000000180025095e-35 1.0000000180025095e-35 0.010203700571421207 0.010204439600757793 0.20264214290202151 0.020375240570948219 0.33883011398482726 1.0000000180025095e-35 0.010203346802689523 1.0000000180025095e-35 0.14035539145293313 0.15760351426000022 0.15789625307309102 0.17543244164842564
decision_type=2 2 2 2 2 2 2 2 2 2 2 2 2 2
left_child=1 4 -2 6 -1 -5 -4 -7 -3 10 -6 -12 -13 -14
right_child=2 8 3 5 9 7 -8 -9 -10 -11 11 12 13 -15
leaf_value=-0.066201111511235103 0.11948842794473798 0.11666997547532064 -0.056184731075315686 0.11838218833502506 -0.049004684104878654 0.0099788968364002313 0.018625781120797592 0.083566332912326402 0.028145095911834089 0.045355470512355507 0.26395724266504517 -0.10407526255168978 0.26663462397120724 -0.014751028680385884
leaf_weight=6431.1646077930927 2330.8649281486869 502.08652348071337 1012.4668300002813 1190.3374354317784 3004.9209512472153 1192.6793568432331 1350.5768246203661 1129.978258356452 950.3177046328783 392.35249368846416 89.0831688195467 314.40774567425251 82.874303489923477 1785.2021809518337
leaf_count=40101 18748 4186 4984 9849 13658 6069 6359 7497 4770 2056 381 1481 356 8180
internal_value=0 -0.0356637 0.0601964 0.0366769 -0.0469962 0.07038 -0.0134274 0.0457794 0.0587476 -0.0252087 -0.0304558 -0.00591853 -0.0169341 -0.00226779
internal_weight=0 13552.4 8206.9 5876.04 12100 3513 2363.04 2322.66 1452.4 5668.84 5276.49 2271.57 2182.48 1868.08
internal_count=128675 75169 53506 34758 66213 23415 11343 13566 8956 26112 24056 10398 10017 8536
shrinkage=0.1


Tree=15
num_leaves=15
num_cat=0
split_feature=2 6 2 2 0 2 3 2 0 2 2 6 5 7
split_gain=3979 1214.28 1079.97 854.943 468.333 404.425 307.004 305.036 271.944 248.275 294.855 246.63 232 227.873
threshold=1.0000000180025095e-35 1.0000000180025095e-35 0.010203700571421207 0.010204439600757793 0.076771634113175113 0.020375240570948219 0.65940366997905786 0.020409017063373471 0.64090174838829805 0.030523542519572539 0.030616229572702273 0.010203346802689523 0.017542318106266427 0.071434243465786487
decision_type=2 2 2 2 2 2 2 2 2 2 2 2 2 2
left_child=1 4 -2 8 -1 -5 12 -7 -4 -9 -11 -3 -6 -8
right_child=2 11 3 5 6 7 13 9 -10 10 -12 -13 -14 -15
leaf_value=-0.069724720529369622 0.11737211923421756 0.11484576219222789 -0.035542926333809385 0.11639629071416298 0.071594676604106608 -0.011573365112605462 -0.037098612335192044 0.12003568365249664 0.037480368390352535 -0.052866144800664761 0.070377831889659556 0.025582899657790134 -0.039876945911727052 0.058673449133496695
leaf_weight=4315.2753273919225 2145.1222831755877 461.15138755738735 1595.2793728262186 1094.4919346347451 192.46887497603893 716.70436425507069 403.96610793471336 566.68481096625328 749.62755544483662 266.52210696041584 714.62372825294733 941.43223458528519 6235.6929475963116 645.27812173217535
leaf_count=28417 18748 4186 7759 9849 840 3227 1934 4381 3584 1274 4684 4770 32021 3001
internal_value=0 -0.0330302 0.0568857 0.0341381 -0.0434921 0.0664854 -0.028353 0.0423625 -0.0121986 0.0673369 0.0368994 0.0549314 -0.0365393 0.0218006
internal_weight=0 13195.3 7849.06 5703.93 11792.7 3359.03 7477.41 2264.54 2344.91 1547.83 981.146 1402.58 6428.16 1049.24
internal_count=128675 75169 53506 34758 66213 23415 37796 13566 11343 10339 5958 8956 32861 4935
shrinkage=0.1


Tree=16
num_leaves=15
num_cat=0
split_feature=2 2 6 2 8 3 2 8 0 6 8 6 7 7
split_gain=3372.59 1016.2 1014.42 741.426 443.025 416.35 388.96 331.659 278.08 273.941 266.681 235.74 228.099 744.996
threshold=1.0000000180025095e-35 0.010203700571421207 1.0000000180025095e-35 0.010204439600757793 1.0000000180025095e-35 0.54647045399315763 0.020375240570948219 0.010196369157048173 0.13705640996029617 1.0000000180025095e-35 1.0000000180025095e-35 0.010203346802689523 0.071434243465786487 0.14284521270123393
decision_type=2 2 2 2 2 2 2 2 2 2 2 2 2 2
left_child=2 -2 4 10 5 8 -5 -6 -1 -8 -3 -4 -7 -14
right_child=1 3 11 6 7 12 9 -9 -10 -11 -12 -13 13 -15
leaf_value=-0.072160758010920478 0.11551211105795745 -0.029434866194290907 0.11324432957288569 0.11464890531498016 0.12296435976546208 -0.044684783639329789 0.006237081934884676 -0.024074751516959123 -0.036674847719613816 0.07702768871971466 0.051315314590269001 0.023238891611076409 0.25343842526621224 -0.0032956681327675898
leaf_weight=4379.1526534706354 1970.6332228258252 1798.1018995195627 422.86440499126911 1004.6550625860691 278.96554398536682 837.96752431988716 1162.6229461878538 340.80633300542831 4454.6854694485664 1031.7654621601105 529.3961486518383 933.20310698449612 125.89682824909687 1105.7852075695992
leaf_count=30383 18748 8651 4186 9849 1846 4282 6069 1461 22191 7497 2692 4770 536 5514
internal_value=0 0.0538576 -0.0305053 0.031873 -0.0401329 -0.0448076 0.0631153 0.042109 -0.0542661 0.0395217 -0.011068 0.0513054 -0.00443631 0.0229465
internal_weight=0 7497.17 12879.3 5526.54 11523.3 10903.5 3199.04 619.772 8833.84 2194.39 2327.5 1356.07 2069.65 1231.68
internal_count=128675 53506 75169 34758 66213 62906 23415 3307 52574 13566 11343 8956 10332 6050
shrinkage=0.1


Tree=17
num_leaves=15
num_cat=0
split_feature=2 2 6 2 1 1 2 5 5 0 5 5 2 2
split_gain=2857.33 959.157 849.843 636.827 418.081 433.012 377.991 277.37 665.282 329.627 280.332 742.733 266.329 244.751
threshold=1.0000000180025095e-35 0.010203700571421207 1.0000000180025095e-35 0.010204439600757793 0.47572368740623 0.4660295640838264 0.020375240570948219 0.15789625307309102 0.17543244164842564 0.59383505932532665 0.17543875631721792 0.19240497714062052 0.020409017063373471 0.030523542519572539
decision_type=2 2 2 2 2 2 2 2 2 2 2 2 2 2
left_child=2 -2 4 -3 5 7 -5 9 -9 -1 -10 -12 -8 -14
right_child=1 3 -4 6 -6 -7 12 8 10 -11 11 -13 13 -15
leaf_value=-0.054499063923541619 0.11387185857715498 -0.010057194968222346 0.047858435573563257 0.11310641635656245 -0.056225029636370244 0.26708933487342024 -0.013631925433472298 0.27094263161161786 -0.092130670333360518 0.0091928861197315536 0.31572161062224779 -0.0014124154541060559 0.11734579383545787 0.030849785943184063
leaf_weight=2666.7904141247272 1807.4674264118075 2304.9556813687086 1312.8089141398668 920.81000407785177 5684.1573445647955 52.911856316030025 709.11638529598713 94.948422789573669 280.95870493352413 1168.6308961510658 78.733977876603603 1190.3775897622108 504.73395451158285 929.74864851683378
leaf_count=15987 18748 11343 8956 9849 35767 267 3227 443 1570 5290 393 6496 4381 5958
internal_value=0 0.0508626 -0.0282681 0.029652 -0.0371773 -0.0176105 0.0595201 -0.0203592 0.0139922 -0.0350925 -0.00174715 0.0182622 0.0365014 0.0612841
internal_weight=0 7176.83 12530.3 5369.36 11217.5 5533.35 3064.41 5480.44 1645.02 3835.42 1550.07 1269.11 2143.6 1434.48
internal_count=128675 53506 75169 34758 66213 30446 23415 30179 8902 21277 8459 6889 13566 10339
shrinkage=0.1


Tree=18
num_leaves=15
num_cat=0
split_feature=2 2 0 6 5 5 2 2 5 5 5 5 8 6
split_gain=2415.02 906.457 715.376 599.434 358.819 1125.64 302.791 386.356 301.525 1075.74 369.391 1122.05 289.919 267.594
threshold=1.0000000180025095e-35 0.010203700571421207 0.59383505932532665 1.0000000180025095e-35 0.14035539145293313 0.15760351426000022 0.010204439600757793 0.020375240570948219 0.15789625307309102 0.17543244164842564 0.17543875631721792 0.19240497714062052 1.0000000180025095e-35 0.010203346802689523
decision_type=2 2 2 2 2 2 2 2 2 2 2 2 2 2
left_child=2 -2 4 6 12 -6 -3 -8 -7 -10 -11 -12 -1 -5
right_child=1 3 -4 13 5 8 7 -9 9 10 11 -13 -14 -15
leaf_value=-0.065013222628633779 0.11242117472814811 -0.027866915804314954 0.018282974186710817 0.11903180674308672 0.2618896321723394 -0.090577724555999259 0.11453540826741902 0.0026957914743024535 0.25635925398123621 -0.1010726192745314 0.27582631154461462 -0.026463625438827007 0.040433448986134185 0.042723802422363927
leaf_weight=4428.4482583627105 1655.4851072654128 1705.3906651735306 2803.649677708745 732.34782925993204 137.7078024148941 664.37876927852631 424.14258163422346 1136.6788391619921 138.15114465355873 581.43178205192089 127.86018957942724 3096.9813746958971 277.05466258525848 1233.7282365784049
leaf_count=29389 18748 8215 14846 6949 761 4339 4203 6069 717 3685 702 18977 1753 9322
internal_value=0 0.0479275 -0.0260778 0.0275218 -0.0392361 -0.0198365 0.00126128 0.0330874 -0.0282543 -0.0177569 -0.0277061 -0.0144783 -0.0588046 0.0711479
internal_weight=0 6887.77 12255.7 5232.29 9452.01 4746.51 3266.21 1560.82 4608.8 3944.42 3806.27 3224.84 4705.5 1966.08
internal_count=128675 53506 75169 34758 60323 29181 18487 10272 28420 24081 23364 19679 31142 16271
shrinkage=0.1


Tree=19
num_leaves=15
num_cat=0
split_feature=2 2 6 8 1 1 8 0 8 6 0 6 5 5
split_gain=2042.9 854.408 652.846 545.601 360.539 442.387 335.942 299.183 296.792 234.945 232.599 210.609 157.55 202.145
threshold=1.0000000180025095e-35 0.010203700571421207 1.0000000180025095e-35 1.0000000180025095e-35 0.59223068449506255 0.58253615818851767 0.010196369157048173 0.48010525891745387 0.010208275396424374 0.010203346802689523 0.28768455845876401 0.010204274168435336 0.17543875631721792 0.19240497714062052
decision_type=2 2 2 2 2 2 2 2 2 2 2 2 2 2
left_child=2 -2 4 7 5 10 -5 -3 -8 -4 -1 -11 -12 -14
right_child=1 3 9 6 -6 -7 8 -9 -10 11 12 -13 13 -15
leaf_value=-0.039297917645885888 0.11113486899586136 -0.027353095918362675 0.11119568110895078 0.1195146625948425 -0.064945601560261357 0.34824315707318171 -0.030676882185386667 0.03290943702751753 0.07879102680841682 -0.031462238545915552 -0.017079541274956006 0.065077119435702074 0.20994151149644305 0.018028419136349085
leaf_weight=4300.2487134039402 1514.3935589790344 1722.1121289208531 366.90158621966839 776.79891248047352 2547.1678742542863 32.169723391532898 431.93202508613467 1579.4109847173095 580.58182305470109 456.62025719881058 2888.8010327368975 447.39004261046648 58.467875622212887 895.67256571352482
leaf_count=30012 18748 9807 4186 7713 18002 172 2431 9948 4859 1875 13666 2895 255 4106
internal_value=0 0.0451926 -0.024062 0.0255765 -0.0320943 -0.021859 0.0700454 0.00147581 0.0320927 0.043706 -0.0233211 0.0163146 -0.00544297 0.0297885
internal_weight=0 6605.23 11993.4 5090.84 10722.5 8175.36 1789.31 3301.52 1012.51 1270.91 8143.19 904.01 3842.94 954.14
internal_count=128675 53506 75169 34758 66213 48211 15003 19755 7290 8956 48039 4770 18027 4361
shrinkage=0.1


Tree=20
num_leaves=15
num_cat=0
split_feature=6 2 2 6 6 8 3 8 1 1 2 2 6 6
split_gain=1755.29 810.324 822.509 489.142 607.435 328.256 326.776 276.075 242.419 288.5 236.181 358.995 188.674 373.528
threshold=1.0000000180025095e-35 1.0000000180025095e-35 0.010203700571421207 0.010203346802689523 0.010204274168435336 1.0000000180025095e-35 0.54647045399315763 0.010196369157048173 0.42673473950116791 0.41747746387372614 0.010204439600757793 0.020375240570948219 0.020407829663893727 0.020408717816329674
decision_type=2 2 2 2 2 2 2 2 2 2 2 2 2 2
left_child=1 5 -3 -2 -5 6 8 -7 9 -1 -4 -12 -6 -14
right_child=3 2 10 4 12 7 -8 -9 -10 -11 11 -13 13 -15
leaf_value=-0.02311514593667606 0.11247712967253226 0.11197748841874107 -0.025600429508716122 -0.029500695557782144 0.11763619940982957 0.12075094582559148 0.0026795510731120156 -0.017125651522304428 -0.056161444973856091 0.2935076673422109 0.11302603080191938 0.00051678086199461782 -0.094800975880898253 0.077863199769074798
leaf_weight=2900.6143316328526 1289.7930718585849 830.03382977470756 1677.2390846312046 883.7976810336113 618.14185949042439 257.23172800242901 1966.8924904018641 333.5274508446455 5028.5607950687408 29.066458225250244 379.83357286080718 1119.430083706975 155.90711560472846 638.01182283088565
leaf_count=16978 16464 9579 8215 4692 6203 1846 10332 1461 35462 134 4203 6069 1108 5929
internal_value=0 -0.0149281 0.023341 0.0631999 0.0355164 -0.0295085 -0.033819 0.0429094 -0.0428396 -0.0199738 0.000179927 0.0290206 0.0762101 0.043956
internal_weight=0 14522.4 4006.54 3585.65 2295.86 10515.9 9925.13 590.759 7958.24 2929.68 3176.5 1499.26 1412.06 793.919
internal_count=128675 94279 28066 34396 17932 66213 62906 3307 52574 17112 18487 10272 13240 7037
shrinkage=0.1


Tree=21
num_leaves=15
num_cat=0
split_feature=8 2 2 8 8 1 1 5 3 2 2 8 5 5
split_gain=1551.41 737.702 823.639 626.175 400.751 371.261 441.124 290.774 226.181 216.758 390.188 183.929 176.486 220.789
threshold=1.0000000180025095e-35 1.0000000180025095e-35 0.010203700571421207 0.010196369157048173 0.010208275396424374 0.60188998934218796 0.59223519769423716 0.017542318106266427 0.55076536093296102 0.010204439600757793 0.020375240570948219 0.020408065519690415 0.10526420338592855 0.12279702136968207
decision_type=2 2 2 2 2 2 2 2 2 2 2 2 2 2
left_child=1 5 -3 -2 -5 6 7 -1 -9 -4 -11 -6 -10 -14
right_child=3 2 9 4 11 -7 -8 8 12 10 -12 -13 13 -15
leaf_value=0.07304010799162243 0.11539427938933976 0.11038008055441371 -0.024010495094833488 -0.025119647828952592 0.12505428422897824 -0.0636745820533587 0.37996185138523964 -0.030914472480249058 -0.060517893341346933 0.11134805920811937 -0.0033701352954928383 0.025212843756251508 0.26943384559007294 0.018665645584318376
leaf_weight=333.10302343219519 1394.3377918414772 859.07381429150701 1722.6261387765408 817.48207730427384 379.46742768213153 2159.8553483150899 27.873936835676432 6367.278945479542 290.63963329792023 408.45156152918935 1081.6255125701427 359.14461691305041 36.045876353979111 1352.4907322898507
leaf_count=1961 17290 11053 8651 4704 4017 16596 176 41383 1596 4895 6209 3007 176 6961
internal_value=0 -0.0127591 0.0234047 0.0667268 0.0231183 -0.0266937 -0.0171934 -0.0185145 -0.0223046 0.000147526 0.0280758 0.0765071 0.0103433 0.0251755
internal_weight=0 14639.1 4071.78 2950.43 1556.09 10567.3 8407.43 8379.56 8046.46 3212.7 1490.08 738.612 1679.18 1388.54
internal_count=128675 99657 30808 29018 11728 68849 52253 52077 50116 19755 11104 7024 8733 7137
shrinkage=0.1


Tree=22
num_leaves=15
num_cat=0
split_feature=6 0 6 6 2 2 8 8 9 9 2 0 9 9
split_gain=1348.87 597.793 474.011 509.043 237.017 217.808 216.173 304.31 210.359 3722.04 518.346 200.722 196.046 1636.56
threshold=1.0000000180025095e-35 0.35871273435703116 0.010203346802689523 0.010204274168435336 1.0000000180025095e-35 0.010203700571421207 1.0000000180025095e-35 0.010196369157048173 1.0000000180025095e-35 0.049927560076040524 1.0000000180025095e-35 0.19466597050520948 0.050006160143662028 0.099991444220112316
decision_type=2 2 2 2 2 2 2 2 2 2 2 2 2 2
left_child=1 6 -2 -4 -3 -6 8 -8 -1 10 11 -10 -11 -14
right_child=2 4 3 -5 5 -7 7 -9 9 12 -12 -13 13 -15
leaf_value=-0.05039098300780475 0.11108585816622318 -0.0036817503817481029 -0.027681902033796259 0.071004878867507934 0.10848103601471587 0.023677461058815349 0.11749514758647782 -0.035589942006712456 0.501330726634447 -0.077800951538329666 0.14421140463176171 0.30068399543321039 0.29986152349239376 -0.054377121962297929
leaf_weight=4033.3695522919297 1117.9985496997833 3619.0345701649785 880.27240347862244 1286.6698724292219 367.94681100174785 1712.1773668117821 231.10928500816226 296.37550598755479 105.77109824866056 1370.1056544817984 120.48623898997903 94.315024167299271 140.82099083438516 1765.5659676156938
leaf_count=30670 16464 17508 4692 13240 5485 10497 2714 1587 671 10129 1107 439 971 12501
internal_value=0 -0.0130708 0.0582008 0.0309156 0.0117791 0.0386781 -0.030431 0.0314819 -0.034711 -0.0171291 0.308076 0.406751 -0.0489472 -0.0282102
internal_weight=0 13857.1 3284.94 2166.94 5699.16 2080.12 8157.92 527.485 7630.43 3597.06 320.572 200.086 3276.49 1906.39
internal_count=128675 94279 34396 17932 33490 15982 60789 4301 56488 25818 2217 1110 23601 13472
shrinkage=0.1


Tree=23
num_leaves=15
num_cat=0
split_feature=8 0 8 8 9 9 2 2 2 9 9 9 9 8
split_gain=1192.48 613.073 588.133 329.429 216.209 2758.27 216.173 207.89 264.819 203.575 1285.96 255.626 1010.3 180.955
threshold=1.0000000180025095e-35 0.34838302850708669 0.010196369157048173 0.010208275396424374 1.0000000180025095e-35 0.049927560076040524 1.0000000180025095e-35 1.0000000180025095e-35 0.010203700571421207 0.050006160143662028 0.099991444220112316 0.10001222297154691 0.14999529317913343 0.020408065519690415
decision_type=2 2 2 2 2 2 2 2 2 2 2 2 2 2
left_child=1 4 -2 -4 -1 6 -6 -3 -9 -7 -11 -12 -13 -5
right_child=2 7 3 13 5 9 -8 8 -10 10 11 12 -14 -15
leaf_value=-0.04591587022162269 0.11341377027331112 -0.0016269116683794245 -0.023751418608817514 0.1230694725309429 0.29180562345247002 -0.072232642920073475 0.13611323704812581 0.10736176327992093 0.019845063183771314 0.24205227696301043 -0.080329083726460138 0.26831105507702036 -0.050793012824349761 0.019710980079109132
leaf_weight=4056.0811765082181 1205.0772564969957 4001.1643208563328 807.56652189046144 334.97363327071071 256.98557553812861 1345.0107641555369 136.57426615431905 425.64653562009335 1842.0940648056567 168.91478022560477 996.74242974817753 116.09827952831984 682.35813145712018 342.65701940283179
leaf_count=31906 17290 20670 4704 4017 1351 10417 1514 7131 12129 1315 7322 895 5007 3007
internal_value=0 -0.0111749 0.061507 0.0193902 -0.0299664 -0.0124947 0.237777 0.0120827 0.0362716 -0.04226 -0.0217349 -0.0465553 -0.0043942 0.0708043
internal_weight=0 14027.7 2690.27 1485.2 7758.77 3702.68 393.56 6268.9 2267.74 3309.12 1964.11 1795.2 798.456 677.631
internal_count=128675 99657 29018 11728 59727 27821 2865 39930 19260 24956 14539 13224 5902 7024
shrinkage=0.1


Tree=24
num_leaves=15
num_cat=0
split_feature=2 2 0 0 5 5 5 5 5 5 5 5 5 5
split_gain=923.737 666.892 371.592 303.466 285.345 810.586 246.659 764.601 304.8 726.375 238.348 987.663 211.785 682.566
threshold=1.0000000180025095e-35 0.010203700571421207 0.59383505932532665 0.51030463035367446 0.14035539145293313 0.15760351426000022 0.15789625307309102 0.17543244164842564 0.17543875631721792 0.19240497714062052 0.19298759633159998 0.20981060336540761 0.21052890736481222 0.22773988242999835
decision_type=2 2 2 2 2 2 2 2 2 2 2 2 2 2
left_child=2 -2 4 -3 -1 -6 -7 -8 -9 -10 -11 -12 -13 -14
right_child=1 3 -4 -5 5 6 7 8 9 10 11 12 13 -15
leaf_value=-0.04618501048744858 0.10732376215281277 -0.0098388317477468012 0.016201555957178849 0.042100103418762302 0.23540328101248878 -0.078681670473604859 0.22748711270392882 -0.08974199619743381 0.23322296562616329 -0.081101357551954009 0.2917766064646557 -0.085409962619285115 0.29942260883448668 -0.014602041021177549
leaf_weight=3984.9587016440928 1007.9272062871605 2148.9551448114216 2626.8743940405548 2360.6946018785238 131.65669618546963 554.60648092254996 133.85158888995647 482.97315125912428 123.64232084155083 450.04434279352427 109.35252534225583 367.56783736869693 72.059371493756771 1755.2569043263793
leaf_count=31142 18748 14804 14846 19954 761 4339 717 3685 702 3207 634 2606 428 12102
internal_value=0 0.033786 -0.0165136 0.01735 -0.0270376 -0.00878806 -0.0167275 -0.00689549 -0.0162301 -0.00389328 -0.0145377 -0.00153698 -0.0161503 -0.00221862
internal_weight=0 5517.58 10792.8 4509.65 8165.97 4181.01 4049.35 3494.75 3360.9 2877.92 2754.28 2304.24 2194.88 1827.32
internal_count=128675 53506 75169 34758 60323 29181 28420 24081 23364 19679 18977 15770 15136 12530
shrinkage=0.1


Tree=25
num_leaves=15
num_cat=0
split_feature=8 8 0 8 6 6 8 6 6 6 5 5 5 5
split_gain=950.972 559.573 457.958 270.708 235.05 324.587 173.478 173.245 157.353 192.965 148.512 381.218 203.982 519.034
threshold=1.0000000180025095e-35 0.010196369157048173 0.15844190095671154 0.010208275396424374 1.0000000180025095e-35 0.010203346802689523 0.020408065519690415 0.010204274168435336 0.020407829663893727 0.020408717816329674 0.17543875631721792 0.19240497714062052 0.19298759633159998 0.20981060336540761
decision_type=2 2 2 2 2 2 2 2 2 2 2 2 2 2
left_child=2 -2 -1 -3 10 -6 -5 -7 -9 -10 -4 -12 -13 -14
right_child=1 3 4 6 5 7 -8 8 9 -11 11 12 13 -15
leaf_value=-0.03415374110482821 0.11205250150006774 -0.022319698917410445 -0.013476624550983037 0.12059805452168511 0.11089635454507435 -0.03375234975205442 0.015522703815627932 0.11664031595771258 -0.13275299024859183 0.053505350189243461 0.17694307094650727 -0.06915091498225806 0.21060676337017586 0.0048704898441567571
leaf_weight=4971.8213607165962 1064.8022505939007 799.81213729456067 4773.6090051550418 298.6512104794383 454.12519015185535 485.52642218768597 331.56267166137695 207.37338371947408 77.252597834914923 198.65280957706273 140.65739597007632 302.26777208968997 131.93473681807518 1737.5254009217024
leaf_count=43602 17290 4704 27930 4017 7195 2427 3007 2340 515 1900 954 1661 858 10275
internal_value=0 0.0571685 -0.0100416 0.0163018 0.00404726 0.0411368 0.0653167 0.00843711 0.0508228 0.00135363 -0.00340064 0.0173999 0.00706666 0.0193901
internal_weight=0 2494.83 13480.7 1430.03 8508.92 1422.93 630.214 968.805 483.279 275.905 7085.99 2312.39 2171.73 1869.46
internal_count=128675 29018 99657 11728 56055 14377 7024 7182 4755 2415 41678 13748 12794 11133
shrinkage=0.1


Tree=26
num_leaves=15
num_cat=0
split_feature=6 6 6 0 0 6 6 7 7 7 7 7 7 7
split_gain=820.344 445.592 368.053 345.44 224.211 198.685 276.705 176.864 1715.85 281.477 953.654 218.676 545.922 162.505
threshold=1.0000000180025095e-35 0.010203346802689523 0.010204274168435336 0.049266022358070059 0.71926736584412498 0.020407829663893727 0.020408717816329674 0.071434243465786487 0.14284521270123393 0.071427655486923647 1.0000000180025095e-35 0.14288120810167124 0.21426036293826137 0.21430070114087782
decision_type=2 2 2 2 2 2 2 2 2 2 2 2 2 2
left_child=3 -2 -3 -1 7 -4 -7 9 -9 10 -5 -10 -13 -14
right_child=1 2 5 4 -6 6 -8 8 11 -11 -12 12 13 -15
leaf_value=-0.040350706907413263 0.10896887167117482 -0.025962792199714625 0.11308280450068785 -0.0086757198734370398 0.0680815440551997 -0.08924179463182666 0.06282526746493465 0.21006806327207059 -0.030229555960042079 -0.038382887023148862 0.21090428002098369 0.19358839910114434 -0.058630103926069703 0.048863027908355609
leaf_weight=2941.5384730082005 866.15339056029916 864.21304747834802 442.16890237666667 3362.5481617990881 444.57778924331069 157.39775447547436 499.06815981119871 393.63185752741992 2013.008497800678 2735.758879089728 210.15198167040944 165.1502533480525 329.14985482208431 245.56349057517946
leaf_count=27380 16464 4692 6203 22200 3014 1108 5929 3031 13257 18629 1820 1261 2051 1636
internal_value=0 0.0492243 0.0228606 -0.0102619 -0.00132129 0.0612663 0.0263649 -0.00458465 0.0147812 -0.0142439 0.00424033 -0.0131427 0.0333468 -0.0127004
internal_weight=0 2829 1962.85 12841.1 9899.54 1098.63 656.466 9454.96 3146.5 6308.46 3572.7 2752.87 739.864 574.713
internal_count=128675 34396 17932 94279 66899 13240 7037 63885 21236 42649 24020 18205 4948 3687
shrinkage=0.1


Tree=27
num_leaves=15
num_cat=0
split_feature=8 8 1 1 0 8 8 8 9 9 9 9 9 9
split_gain=742.709 523.471 348.439 287.161 227.498 214.66 165.815 138.549 115.995 801.452 205.741 1573.8 174.17 765.634
threshold=1.0000000180025095e-35 0.010196369157048173 0.59223068449506255 0.58253615818851767 0.36329590774597614 0.010208275396424374 0.020408065519690415 0.020408562658459296 0.099991444220112316 0.050006160143662028 0.049927560076040524 1.0000000180025095e-35 0.10001222297154691 0.14999529317913343
decision_type=2 2 2 2 2 2 2 2 2 2 2 2 2 2
left_child=2 -2 3 4 8 -3 -7 -8 9 10 11 -1 -10 -14
right_child=1 5 -4 -5 -6 6 7 -9 12 -11 -12 -13 13 -15
leaf_value=-0.030172012124208725 0.11080699834929884 -0.020276899707532423 -0.041763447549701044 0.20831317039505026 0.013004239554146242 0.11884283069148652 -0.07535924327456392 0.061376494025220843 -0.069630717035137707 0.22059885333665427 -0.057019418954352689 0.21099262194679247 0.24405100301129773 -0.045866198412657433
leaf_weight=2327.360389072448 929.58586904779077 791.20734036713839 2566.9222898054868 65.347223917022347 5142.9246072806418 261.39948185347021 116.70005205273628 203.01723120734096 859.39131858386099 148.69756051152945 922.03907543048263 306.19812331721187 106.87639780715108 616.71581962890923
leaf_count=18658 17290 4704 22375 538 34326 4017 727 2280 6913 1248 7521 2317 884 4877
internal_value=0 0.0528661 -0.00873811 -0.000661029 -0.00197029 0.013618 0.0597668 0.0114666 -0.016536 -0.00685346 -0.0163657 -0.00213232 -0.0391938 -0.0030447
internal_weight=0 2301.91 13062.5 10495.6 10430.2 1372.32 581.117 319.717 5287.28 3704.3 3555.6 2633.56 1582.98 723.592
internal_count=128675 29018 99657 77282 76744 11728 7024 3007 42418 29744 28496 20975 12674 5761
shrinkage=0.1


Tree=28
num_leaves=15
num_cat=0
split_feature=8 8 0 2 2 8 8 9 9 9 9 9 9 8
split_gain=634.628 491.61 309.664 198.799 475.762 183.109 154.613 128.35 2034.25 204.459 1172.87 182.753 982.597 113.419
threshold=1.0000000180025095e-35 0.010196369157048173 0.029846837329260304 1.0000000180025095e-35 0.010203700571421207 0.010208275396424374 0.020408065519690415 0.049927560076040524 1.0000000180025095e-35 0.050006160143662028 0.099991444220112316 0.10001222297154691 0.14999529317913343 0.020408562658459296
decision_type=2 2 2 2 2 2 2 2 2 2 2 2 2 2
left_child=2 -2 -1 7 -5 -3 -7 8 -4 -9 -11 -12 -13 -8
right_child=1 5 3 4 -6 6 13 9 -10 10 11 12 -14 -15
leaf_value=-0.04240207379966876 0.10980349019128011 -0.018218740638889831 -0.021225350078116358 0.10718482930807166 0.0027896527337827447 0.11723586587174556 -0.065768571061582695 -0.055243635631371017 0.21467744936069236 0.21894378433839165 -0.058582993998438443 0.24426155920454559 -0.042535581473316791 0.057818399658594748
leaf_weight=2173.7065221145749 848.4189089294523 792.46026282384992 3700.9349270444363 522.77322671748698 2646.61186286062 239.60071510635316 120.14741815626621 1306.9524001069367 405.60487145558 210.69790332205594 1018.8960062265396 142.30799253471196 744.08573392033577 194.41820776462555
leaf_count=21363 17290 4704 25342 10236 17834 4017 727 9179 2145 1098 6792 781 4887 2280
internal_value=0 0.0501814 -0.00799235 -0.00100127 0.0200091 0.0126176 0.0567137 -0.00984516 0.00207488 -0.0241458 -0.00493799 -0.0296961 0.00350888 0.0106147
internal_weight=0 2195.05 12872.6 10698.9 3169.39 1346.63 554.166 7529.48 4106.54 3422.94 2115.99 1905.29 886.394 314.566
internal_count=128675 29018 99657 78294 28070 11728 7024 50224 27487 22737 13558 12460 5668 3007
shrinkage=0.1


Tree=29
num_leaves=15
num_cat=0
split_feature=8 8 1 1 4 5 5 8 0 8 5 5 5 5
split_gain=541.691 461.355 277.6 239.403 200.617 179.824 310.105 156.106 151.505 144.135 135.491 269.401 171.714 257.794
threshold=1.0000000180025095e-35 0.010196369157048173 0.59223068449506255 0.58253615818851767 0.38659682511859822 0.14035539145293313 0.15760351426000022 0.010208275396424374 0.71926736584412498 0.020408065519690415 0.15789625307309102 0.17543244164842564 0.17543875631721792 0.19240497714062052
decision_type=2 2 2 2 2 2 2 2 2 2 2 2 2 2
left_child=2 -2 3 4 8 -6 -7 -3 -1 -9 -8 -12 -13 -14
right_child=1 7 -4 -5 5 6 10 9 -10 -11 11 12 13 -15
leaf_value=0.0062335831842267641 0.10889322452616622 -0.01637348224835531 -0.037443475071984866 0.19683823725361066 -0.044877311325682616 0.18230977116604774 -0.074481491303923522 0.11575549185410108 0.072367303553798598 0.0098115529872062762 0.17152962012764333 -0.085975911615727083 0.18052252246315487 -0.0047028213886415073
leaf_weight=5713.6537867365405 773.77106231637299 793.53193078190088 2463.8120939433575 61.393727988004684 1576.5070960056037 88.370573101565242 274.94641240313649 219.43091961927712 368.75949397310615 309.59671691805124 87.906323024071753 243.87767459452152 78.636959597468376 1689.7092006057501
leaf_count=42744 17290 4704 22375 538 12454 710 2155 4017 3111 3007 745 1865 661 12299
internal_value=0 0.047561 -0.00732339 -3.62759e-05 -0.00123035 -0.0185043 -0.00162671 0.0116782 0.0102431 0.0537551 -0.00847052 0.000171549 -0.00731443 0.003534
internal_weight=0 2096.33 12647.6 10183.8 10122.4 4039.95 2463.45 1322.56 6082.41 529.028 2375.08 2100.13 2012.22 1768.35
internal_count=128675 29018 99657 77282 76744 30889 18435 11728 45855 7024 17725 15570 14825 12960
shrinkage=0.1


Tree=30
num_leaves=15
num_cat=0
split_feature=6 6 6 1 1 6 6 9 9 9 9 9 9 9
split_gain=523.588 421.657 272.194 217.697 295.819 197.462 207.108 138.204 1058.88 341.551 1843.64 247.481 1066.35 191.283
threshold=1.0000000180025095e-35 0.010203346802689523 0.010204274168435336 0.58212194957715979 0.57282143289931964 0.020407829663893727 0.020408717816329674 0.099991444220112316 0.050006160143662028 0.049927560076040524 1.0000000180025095e-35 0.10001222297154691 0.14999529317913343 0.15000534084025116
decision_type=2 2 2 2 2 2 2 2 2 2 2 2 2 2
left_child=3 -2 -3 4 7 -4 -7 8 9 10 -1 -9 -13 -14
right_child=1 2 5 -5 -6 6 -8 11 -10 -11 -12 12 13 -15
leaf_value=-0.01375630332743266 0.10801452032054373 -0.024750678850803523 0.11162416861971072 -0.033829489463298515 0.24228214050596664 -0.078539221927387104 0.053895635413961002 -0.04871537230708553 0.1767434468342611 -0.044083359615738664 0.17903190864450835 0.19559915387384941 -0.063189779169010918 0.023454194028296363
leaf_weight=4049.5501380506903 699.20593380462378 846.85822745412588 359.67420297674835 2595.8488259799778 49.664388008415699 162.35996621474624 433.02069346047938 1502.4834160357714 342.59927878249437 1574.235363887623 565.27902296185493 252.53099712729454 710.40839502774179 397.29919678159058
leaf_count=29242 16464 4692 6203 23767 467 1108 5929 11045 3079 11483 4923 2213 5054 3006
internal_value=0 0.0421006 0.0165237 -0.00818147 -0.0011317 0.0531222 0.0177807 -0.00241854 0.00561124 -0.00386188 0.00985868 -0.0207395 0.0101619 -0.0321134
internal_weight=0 2501.12 1801.91 12039.9 9444.05 955.055 595.381 9394.39 6531.66 6189.06 4614.83 2862.72 1360.24 1107.71
internal_count=128675 34396 17932 94279 70512 13240 7037 70045 48727 45648 34165 21318 10273 8060
shrinkage=0.1


Tree=31
num_leaves=15
num_cat=0
split_feature=6 6 6 0 6 6 0 5 5 5 5 5 5 5
split_gain=444.387 395.548 231.147 200.926 186.149 168.515 147.024 186.484 588.498 290.727 565.195 307.451 456.2 279.27
threshold=1.0000000180025095e-35 0.010203346802689523 0.010204274168435336 0.029846837329260304 0.020407829663893727 0.020408717816329674 0.71926736584412498 0.14035539145293313 0.15760351426000022 0.15789625307309102 0.17543244164842564 0.17543875631721792 0.19240497714062052 0.13992429415290644
decision_type=2 2 2 2 2 2 2 2 2 2 2 2 2 2
left_child=3 -2 -3 -1 -4 -6 7 13 -9 -10 -11 -12 -13 -5
right_child=1 2 4 6 5 -7 -8 8 9 10 11 12 -14 -15
leaf_value=-0.03611216857095037 0.10726956843341283 -0.022146548950132842 0.11050425565227991 -0.009019742054665025 -0.067803309309096504 0.05065969482682247 0.056246633262616468 0.17995827736819803 -0.067258480571423501 0.17430909621429624 -0.073331302903958659 0.17127317198937886 0.0050155481607409829 -0.082939288461005276
leaf_weight=2029.0714984834194 636.83738976530731 851.53092375770211 328.57636136747897 4132.841855071485 168.88261862844229 415.54623837955296 421.34526915661991 195.28451581485569 525.52803188189864 203.28295708633959 461.4489082954824 174.29469741974026 3108.6466462677345 583.22706729639322
leaf_count=21355 16464 4692 6203 30205 1108 5929 3014 1724 3985 1755 3456 1573 22939 4273
internal_value=0 0.0397125 0.0153305 -0.00746843 0.0502842 0.0164274 -0.00154137 -0.00413592 0.0100323 0.00261396 0.0119156 0.00309928 0.0138423 -0.0181612
internal_weight=0 2401.37 1764.54 11835 913.005 584.429 9805.9 9384.55 4668.49 4473.2 3947.67 3744.39 3282.94 4716.07
internal_count=128675 34396 17932 94279 13240 7037 72924 69910 35432 33708 29723 27968 24512 34478
shrinkage=0.1


Tree=32
num_leaves=15
num_cat=0
split_feature=8 8 0 5 5 2 2 5 5 5 5 5 5 5
split_gain=386.111 418.913 197.638 134.287 162.892 158.763 399.142 190.5 934.678 299.672 430.507 171.722 999.824 162.75
threshold=1.0000000180025095e-35 0.010196369157048173 0.029846837329260304 0.017542318106266427 1.0000000180025095e-35 1.0000000180025095e-35 0.010203700571421207 0.12280763299779413 0.13992429415290644 0.14035539145293313 0.15760351426000022 0.12279702136968207 0.10526420338592855 0.1049219672702735
decision_type=2 2 2 2 2 2 2 2 2 2 2 2 2 2
left_child=2 -2 -1 4 -4 7 -7 11 -9 -10 -11 12 13 -5
right_child=1 -3 3 5 -6 6 -8 8 9 10 -12 -13 -14 -15
leaf_value=-0.034883415006486861 0.10800814339807084 0.0087182404573953771 0.018169766410888622 -0.019396957124327228 0.17141462061739365 0.10646512707960659 0.001709005532495653 0.30115074999348673 -0.082742574680696027 0.19364786754606667 -0.00075069988415506553 -0.08507849958599184 0.2844417141303523 -0.083487337550665258
leaf_weight=1991.1646175999194 643.78264005109668 1249.9523279834539 248.69599803164601 2074.3259411640465 96.191557442769408 424.9260042225942 2525.186230963096 103.20652199536562 426.71128944680095 118.36930584535003 3029.6091015683487 466.26648009195924 104.14003790915012 489.76879571378231
leaf_count=21363 17290 11728 1559 14332 941 9942 17732 560 3466 636 21270 3566 591 3699
internal_value=0 0.0424722 -0.00608728 -0.000414417 0.0609108 -0.0025809 0.0167978 -0.0109729 0.00446483 -0.00410093 0.00655901 -0.0290868 -0.0193024 -0.0316389
internal_weight=0 1893.73 12098.6 10107.4 344.888 9762.51 2950.11 6812.4 3677.9 3574.69 3147.98 3134.5 2668.23 2564.09
internal_count=128675 29018 99657 78294 2500 75794 27674 48120 25932 25372 21906 22188 18622 18031
shrinkage=0.1


Tree=33
num_leaves=15
num_cat=0
split_feature=8 8 1 1 1 1 1 1 1 1 1 1 1 1
split_gain=325.094 394.076 203.983 361.227 178.767 283.852 185.88 419.909 203.404 337.465 152.965 263.373 209.856 311.367
threshold=1.0000000180025095e-35 0.010196369157048173 0.48543379928179042 0.47573025281562392 0.47572368740623 0.4660295640838264 0.46601940937437109 0.45631181163717111 0.45631058574902633 0.44660230069745238 0.44619713821968104 0.43689549690772761 0.43679858395815169 0.42718892853717227
decision_type=2 2 2 2 2 2 2 2 2 2 2 2 2 2
left_child=2 -2 3 4 5 6 7 8 9 10 11 12 13 -1
right_child=1 -3 -4 -5 -6 -7 -8 -9 -10 -11 -12 -13 -14 -15
leaf_value=0.0056392325044265093 0.10727308605072301 0.0078664420287521009 -0.020433574846701857 0.19698208469950124 -0.081551418616337509 0.17592338706070823 -0.083732580323801306 0.2010812941589093 -0.08708186684385362 0.18941715598718933 -0.07468193740275289 0.18354480840429646 -0.089982072920628986 0.19763611115200228
leaf_weight=4976.0525326803327 586.3067879229784 1246.9373532766476 5205.5892667863518 97.532659064978361 240.29710035771132 97.16392882540822 234.1673043332994 109.53845859318972 238.00670423172414 99.935379143804312 236.50941183045506 83.6498321313411 224.13932745158672 85.925122828222811
leaf_count=38500 17290 11728 46680 950 1902 946 1763 1045 1796 932 1769 841 1666 867
internal_value=0 0.0396586 -0.00557259 0.00593435 0.00312193 0.00630853 0.00368756 0.00706909 0.00349389 0.00727181 0.00402496 0.00749157 0.00470563 0.00889831
internal_weight=0 1833.24 11928.5 6722.92 6625.39 6385.09 6287.92 6053.76 5944.22 5706.21 5606.28 5369.77 5286.12 5061.98
internal_count=128675 29018 99657 52977 52027 50125 49179 47416 46371 44575 43643 41874 41033 39367
shrinkage=0.1


Tree=34
num_leaves=15
num_cat=0
split_feature=6 6 6 6 9 9 9 9 9 9 9 9 6 4
split_gain=311.424 369.943 182.581 177.702 150.264 2138.21 260.438 1092.24 221.474 884.841 144.037 453.737 131.983 112.946
threshold=1.0000000180025095e-35 0.010203346802689523 0.010204274168435336 0.020407829663893727 1.0000000180025095e-35 0.049927560076040524 0.050006160143662028 0.099991444220112316 0.10001222297154691 0.14999529317913343 0.15000534084025116 0.19996705775014637 0.020408717816329674 0.24046078634394266
decision_type=2 2 2 2 2 2 2 2 2 2 2 2 2 2
left_child=4 -2 -3 -4 13 -6 -7 -8 -9 -10 -11 -12 -5 -1
right_child=1 2 3 12 5 6 7 8 9 10 11 -13 -14 -15
leaf_value=0.00071832696505430864 0.1066198096787693 -0.021375522262584996 0.10935267190024132 -0.060947045502723632 0.17579493093521001 -0.046145361604315073 0.17076352071998352 -0.04585108339803249 0.1861618690305536 -0.055436685350922249 0.22524222376622183 -0.035673979038583041 0.044509612642451644 -0.028541365194723868
leaf_weight=2087.8491678750142 541.00972936674953 841.04165234044194 281.3310824399814 172.10202054493129 650.94673944357783 1889.3622958837077 337.64360512141138 1499.7343710176647 235.16749086044729 688.75842280033976 84.841168647632003 310.85435380600393 382.31263747438788 3583.7185382526368
leaf_count=16577 16464 4692 6203 1108 6185 15508 3342 11840 2277 5287 783 2315 5929 30165
internal_value=0 0.0347175 0.0115185 0.044621 -0.00624747 0.00522312 -0.0167795 0.000795028 -0.0195603 0.010319 -0.0278132 0.0202691 0.0117736 -0.0177701
internal_weight=0 2217.8 1676.79 835.746 11368.9 5697.31 5046.36 3157 2819.36 1319.62 1084.45 395.696 554.415 5671.57
internal_count=128675 34396 17932 13240 94279 47537 41352 25844 22502 10662 8385 3098 7037 46742
shrinkage=0.1


Tree=35
num_leaves=15
num_cat=0
split_feature=0 7 7 7 7 7 7 7 7 3 0 0 7 3
split_gain=278.409 133.075 1439.37 204.67 865.51 169.78 412.071 155.498 125.921 107.198 100.989 130.003 98.6706 92.4855
threshold=0.59383505932532665 0.071434243465786487 0.14284521270123393 0.071427655486923647 1.0000000180025095e-35 0.14288120810167124 0.21426036293826137 0.21430070114087782 0.2831873258546303 0.25863099994944799 0.71926736584412498 0.719235952398526 0.28586881064634334 0.060874279104095562
decision_type=2 2 2 2 2 2 2 2 2 2 2 2 2 2
left_child=1 3 -3 4 -1 -4 -7 -8 -9 -5 11 -2 -10 -13
right_child=10 2 5 9 -6 6 7 8 12 -11 -12 13 -14 -15
leaf_value=-0.013466193775937116 0.031714589928891104 0.19381935472757636 -0.03289087938606567 -0.069946182794581577 0.20607462081881001 0.1835277658550597 -0.057093285740579126 0.19176499294952595 -0.049880301288088624 -0.025805098766186137 0.056871522390898502 0.022696993199752189 0.084830655624245854 -0.028488732052653565
leaf_weight=3041.286618932616 1977.9512580018491 366.08013274520636 1958.2202312871814 740.94081255979836 190.84151389356703 131.98759192740545 333.86859297007322 48.123331683687866 116.35263902787119 2136.9281491106376 691.97609367500991 596.12387082818896 102.07229248154908 865.53974667936563
leaf_count=30089 19272 4004 17513 8094 2550 1417 2792 483 909 19577 8703 4827 839 7606
internal_value=0 -0.00925147 0.00778325 -0.0177736 -0.000503372 -0.0175284 0.0235461 -0.0116221 0.0453333 -0.0371697 0.0220147 0.0150023 0.0130716 -0.00761318
internal_weight=0 9166.7 3056.7 6110 3232.13 2690.62 732.404 600.417 266.548 2877.87 4131.59 3439.61 218.425 1461.66
internal_count=128675 88267 27957 60310 32639 23953 6440 5023 2231 27671 40408 31705 1748 12433
shrinkage=0.1


Tree=36
num_leaves=15
num_cat=0
split_feature=6 6 6 6 9 9 9 9 9 9 9 9 6 6
split_gain=243.663 342.249 149.411 167.54 116.83 1791.42 207.976 910.481 177.769 738.85 116.68 371.355 105.357 104.808
threshold=1.0000000180025095e-35 0.010203346802689523 0.010204274168435336 0.020407829663893727 1.0000000180025095e-35 0.049927560076040524 0.050006160143662028 0.099991444220112316 0.10001222297154691 0.14999529317913343 0.15000534084025116 0.19996705775014637 0.020408717816329674 0.030605993936255745
decision_type=2 2 2 2 2 2 2 2 2 2 2 2 2 2
left_child=4 -2 -3 -4 -1 -6 -7 -8 -9 -10 -11 -12 -5 -14
right_child=1 2 3 12 5 6 7 8 9 10 11 -13 13 -15
leaf_value=-0.015728419929425485 0.10584838805290851 -0.019633683989811957 0.10835504225879147 -0.05400107381470233 0.16707081702989537 -0.042061932570735448 0.16211955533540076 -0.041827261252990473 0.176084699179828 -0.050984864475436348 0.20928950239751387 -0.03240332825260224 0.1108973224179501 -0.0005795297608488149
leaf_weight=5557.7069263877347 479.39942658925429 839.98559548892081 251.38837655354291 175.98588269203901 605.37714017368853 1822.4398803273216 313.25639716954902 1450.3779635820538 219.88254575105384 662.44971273466945 80.464235077612102 302.80428476259112 133.11644116416574 230.16023217700422
leaf_count=46742 16464 4692 6203 1108 6185 15508 3342 11840 2277 5287 783 2315 2530 3399
internal_value=0 0.0315712 0.00973401 0.0409342 -0.00552325 0.00487015 -0.0153688 0.000690321 -0.0179287 0.00945914 -0.0255771 0.0183382 0.00950455 0.0402692
internal_weight=0 2110.04 1630.64 790.651 11014.8 5457.05 4851.68 3029.24 2715.98 1265.6 1045.72 383.269 539.263 363.277
internal_count=128675 34396 17932 13240 94279 47537 41352 25844 22502 10662 8385 3098 7037 5929
shrinkage=0.1


Tree=37
num_leaves=15
num_cat=0
split_feature=8 8 1 1 4 5 5 5 5 5 5 5 5 5
split_gain=220.246 344.664 157.614 213.362 156.413 108.388 306.481 92.2052 230.838 150.033 219.653 120.554 217.902 109.164
threshold=1.0000000180025095e-35 0.010196369157048173 0.63105937853027549 0.62136311230255448 0.38659682511859822 0.19298759633159998 0.20981060336540761 0.21052890736481222 0.22773988242999835 0.22807240313791741 0.24561256715419991 0.24561673357517536 0.26303919604731962 0.26317520467677774
decision_type=2 2 2 2 2 2 2 2 2 2 2 2 2 2
left_child=2 -2 3 4 -1 -6 -7 -8 -9 -10 -11 -12 -13 -14
right_child=1 -3 -4 -5 5 6 7 8 9 10 11 12 13 -15
leaf_value=0.0092746348489619324 0.10661582208628557 0.0056670289769863687 -0.036140915346568402 0.25360831643511056 -0.029764403310570654 0.19909329980594548 -0.069127375478125683 0.20425362114489098 -0.09302956372391763 0.21286991217098425 -0.088934834220889075 0.22307162183220566 -0.08741391187171664 0.016787935255249516
leaf_weight=5908.2392059694976 473.31758671719581 1184.9042808189988 1385.5031451657414 33.032762791961432 2389.956297878176 76.846534512937069 198.66224131267518 55.148296033963561 166.37040050141513 50.451939031481743 134.54823400638998 46.659528772346675 119.25641239527613 640.52460492961109
leaf_count=49818 17290 11728 14857 313 22415 724 1563 521 1263 480 1053 442 918 5290
internal_value=0 0.0344815 -0.0045667 -0.000111762 -0.000968139 -0.0165716 0.00461146 -0.00597584 0.00436732 -0.00515357 0.00959261 -0.00130628 0.0133139 0.000432251
internal_weight=0 1658.22 11205.2 9819.7 9786.66 3878.42 1488.47 1411.62 1212.96 1157.81 991.441 940.989 806.441 759.781
internal_count=128675 29018 99657 84800 84487 34669 12254 11530 9967 9446 8183 7703 6650 6208
shrinkage=0.1


Tree=38
num_leaves=15
num_cat=0
split_feature=6 6 1 1 6 6 1 1 1 1 1 1 1 1
split_gain=189.918 316.938 133.22 281.899 123.595 156.991 116.269 326.252 132.969 269.401 132.298 254.799 141.323 249.571
threshold=1.0000000180025095e-35 0.010203346802689523 0.41694815051805328 0.407767610566167 0.010204274168435336 0.020407829663893727 0.40776353227594225 0.39806985485449203 0.39804773046750636 0.38836089414859382 0.38779125447304197 0.37864120463541401 0.37863969777512002 0.36893687925281382
decision_type=2 2 2 2 2 2 2 2 2 2 2 2 2 2
left_child=2 -2 3 6 -3 -6 7 8 9 10 11 12 13 -1
right_child=1 4 -4 -5 5 -7 -8 -9 -10 -11 -12 -13 -14 -15
leaf_value=0.0072803041289297632 0.10532082116702646 -0.018312200029166212 -0.013477869155681013 0.20431169338663868 0.10757415080284941 0.0076842116097662911 -0.069115475813177854 0.20062471296376067 -0.07364398130232544 0.19257562804749337 -0.071258158268887414 0.19249619806882357 -0.077056323775491722 0.20227081298731453
leaf_weight=2836.3446197975427 425.00092854443938 837.61674547195435 6708.0686328858137 72.966512194368988 224.49884733371437 525.92195357568562 196.0984710380435 87.569313882384449 201.55817241594195 78.898854729253799 209.80084807984531 75.294905996415764 190.78529206477106 67.194871001876891
leaf_count=21635 16464 4692 62947 738 6203 7037 1504 873 1480 768 1573 690 1432 639
internal_value=0 0.0286206 -0.00485364 0.00954989 0.00809361 0.0375677 0.00594626 0.00987413 0.00531007 0.00991168 0.00564705 0.0107375 0.00631472 0.0117929
internal_weight=0 2013.04 10724.6 4016.51 1588.04 750.421 3943.55 3747.45 3659.88 3458.32 3379.42 3169.62 3094.32 2903.54
internal_count=128675 34396 94279 31332 17932 13240 30594 29090 28217 26737 25969 24396 23706 22274
shrinkage=0.1


Tree=39
num_leaves=15
num_cat=0
split_feature=0 5 5 5 5 5 5 5 5 5 5 5 5 5
split_gain=188.107 129.245 858.719 291.607 971.665 313.231 505.609 201.89 939.213 187.903 547.003 219.597 433.444 182.263
threshold=0.6074295001737291 0.10526420338592855 0.12279702136968207 0.12280763299779413 0.13992429415290644 0.14035539145293313 0.15760351426000022 0.1049219672702735 0.087721172224649493 0.15789625307309102 0.17543244164842564 0.17543875631721792 0.19240497714062052 0.19298759633159998
decision_type=2 2 2 2 2 2 2 2 2 2 2 2 2 2
left_child=1 7 -3 -4 -5 -6 -7 8 -1 -8 -11 -12 -13 -14
right_child=-2 2 3 4 5 6 9 -9 -10 10 11 12 13 -15
leaf_value=-0.030628680829173735 0.019042359863652904 0.2147026132569414 -0.072147285150653551 0.2311502221707612 -0.076831048636274948 0.16876321380499881 -0.059838671821612101 -0.078029242857923106 0.23163288705295024 0.17351050353219283 -0.069423876618223787 0.16767565753647409 -0.062559810031365709 0.0057087954440093701
leaf_weight=1848.6142374458723 3793.8014335050248 181.21432178281248 603.91187120880932 177.6001618844457 567.63578089373186 174.65980446850881 542.56718197651207 585.66622069524601 147.44196561770514 179.4357544942759 466.48847439792007 154.00228834850714 456.7602098248899 2719.2525393771939
leaf_count=19480 39094 2277 5923 2254 5681 2372 5398 5890 2120 2193 4580 1981 4033 25399
internal_value=0 -0.00759331 0.000209899 -0.00622293 0.0010977 -0.00666868 0.00181742 -0.0264038 -0.0112563 -0.00463576 0.00289738 -0.00516638 0.0038352 -0.0041093
internal_weight=0 8805.25 6223.53 6042.31 5438.4 5260.8 4693.17 2581.72 1996.06 4518.51 3975.94 3796.5 3330.02 3176.01
internal_count=128675 89581 62091 59814 53891 51637 45956 27490 21600 43584 38186 35993 31413 29432
shrinkage=0.1


Tree=40
num_leaves=15
num_cat=0
split_feature=8 8 1 1 4 7 7 7 7 7 8 8 5 5
split_gain=161.598 308.287 119.514 179.237 114.357 101.848 564.192 98.0188 190.011 80.1703 78.3794 131.111 76.2833 390.134
threshold=1.0000000180025095e-35 0.010196369157048173 0.62135239426215894 0.61165087415701269 0.38659682511859822 0.071434243465786487 0.14284521270123393 0.14288120810167124 0.21426036293826137 0.28586881064634334 0.010208275396424374 0.020408065519690415 0.035086295781965239 0.017546344935868759
decision_type=2 2 2 2 2 2 2 2 2 2 2 2 2 2
left_child=2 -2 3 4 12 -6 -7 -8 -9 -10 -3 -12 13 -1
right_child=1 10 -4 -5 5 6 7 8 9 -11 11 -13 -14 -15
leaf_value=0.0051575215864987931 0.1059229165170488 -0.015450345778296889 -0.030428811576254319 0.21459091482943557 -0.031128426460676276 0.18010541627083251 -0.031725645640085877 0.16723920329063327 -0.027210337642184185 0.078513371325224207 0.11380227278167115 -0.0028398730883421298 0.0040002068565736263 0.20951008456670817
leaf_weight=544.33049953356385 402.18896533129737 734.33670637570322 1471.069994055666 38.846411448903382 1831.2856356401462 162.46978726703674 1124.7364482874982 75.856748589780182 334.58204764360562 91.295947516802698 149.67039464041591 270.58542701881379 5027.4062196062878 112.77924104034901
leaf_count=3903 17290 4704 16487 384 17594 1719 10046 839 2904 727 4017 3007 43753 1301
internal_value=0 0.0305243 -0.00393509 0.000236128 -0.000658783 -0.0145505 0.00241975 -0.0153294 0.0214258 -0.00454623 0.00426007 0.0387012 0.00818829 0.0402304
internal_weight=0 1556.78 10814.7 9343.59 9304.74 3620.23 1788.94 1626.47 501.735 425.878 1154.59 420.256 5684.52 657.11
internal_count=128675 29018 99657 83170 82786 33829 16235 14516 4470 3631 11728 7024 48957 5204
shrinkage=0.1


Tree=41
num_leaves=15
num_cat=0
split_feature=0 1 1 1 1 1 1 1 1 1 1 1 1 5
split_gain=149.134 109.568 244.343 94.6887 247.792 118.763 184.079 111.952 213.196 109.936 260.505 102.286 244.586 82.1666
threshold=0.71926736584412498 0.6116493727904978 0.60195210487862372 0.60188998934218796 0.59223519769423716 0.59223068449506255 0.58253615818851767 0.58212194957715979 0.57282143289931964 0.57197789866893956 0.56311447952212024 0.56222526056844913 0.55340184642698487 0.10526420338592855
decision_type=2 2 2 2 2 2 2 2 2 2 2 2 2 2
left_child=1 2 3 4 5 6 7 8 9 10 11 12 -1 -3
right_child=-2 13 -4 -5 -6 -7 -8 -9 -10 -11 -12 -13 -14 -15
leaf_value=0.0018190240036831567 0.047708085395069565 -0.057724440395679026 0.23297885361917059 -0.07628996561239082 0.2084607776893945 -0.084435562852643212 0.17888354228377742 -0.081247029324266792 0.2035632885347104 -0.076166356215301489 0.21966436011817703 -0.072698881509795518 0.20282542635805265 -0.010725414068367932
leaf_weight=8701.370723496424 631.82907272828743 540.0970288044773 45.54556731460616 156.70077575836331 57.824203073512763 160.62493994506076 58.654026391450316 161.94839372625574 52.500904375687242 178.82464687386528 55.161255379673094 181.1470917807892 60.959902748465538 1195.0156130236574
leaf_count=87301 8703 6617 694 1589 766 1593 780 1512 780 1582 771 1607 781 13599
internal_value=0 -0.00218023 0.00189331 0.000822145 0.00207186 0.000830155 0.00227936 0.00117644 0.00262263 0.00147313 0.00301601 0.00167977 0.00321743 -0.025355
internal_weight=0 11606.4 9871.26 9825.72 9669.02 9611.19 9450.57 9391.91 9229.96 9177.46 8998.64 8943.48 8762.33 1735.11
internal_count=128675 119972 99756 99062 97473 96707 95114 94334 92822 92042 90460 89689 88082 20216
shrinkage=0.1


Tree=42
num_leaves=15
num_cat=0
split_feature=8 8 5 5 3 1 1 9 9 9 9 9 9 1
split_gain=128.603 283.273 98.9514 142.559 127.354 90.2713 226.457 130.196 1020.28 94.7173 439.055 99.3994 299.853 90.9061
threshold=1.0000000180025095e-35 0.010196369157048173 0.017542318106266427 1.0000000180025095e-35 0.0012408623044054504 0.41694815051805328 0.407767610566167 0.049927560076040524 1.0000000180025095e-35 0.050006160143662028 0.099991444220112316 0.10001222297154691 0.14999529317913343 0.40776353227594225
decision_type=2 2 2 2 2 2 2 2 2 2 2 2 2 2
left_child=2 -2 3 -1 -4 6 13 8 -7 -9 -11 -12 -13 -6
right_child=1 -3 4 -5 5 7 -8 9 -10 10 11 12 -14 -15
leaf_value=0.012504779758441121 0.10527455548072882 0.0033414331742412681 -0.088460047941108177 0.16647529754185308 0.0085918135462944006 -0.016523205567272783 0.18427174129904131 -0.050330242333323762 0.15844767456356593 0.15050396963229112 -0.053773660593169341 0.16311676832437197 -0.028206216798334651 -0.06354445910820089
leaf_weight=237.91769300401211 358.93954738974571 1133.800703865476 180.41626187693328 80.473844460211694 3570.2368334475905 3275.1642374633811 71.861643708776683 1097.172724546399 371.01723781134933 150.29767048754729 765.36704936344177 95.436469665262848 578.27313960995525 183.68511372711509
leaf_count=1559 17290 11728 1848 941 29899 32065 862 10983 4300 1993 7175 1215 5284 1533
internal_value=0 0.0278519 -0.00348803 0.051421 -0.00517898 -0.0036999 0.00842826 -0.0110269 0.00128096 -0.027731 -0.0121304 -0.029116 -0.00110375 0.00506208
internal_weight=0 1492.74 10657.3 318.392 10338.9 10158.5 3825.78 6332.73 3646.18 2686.55 1589.37 1439.08 673.71 3753.92
internal_count=128675 29018 99657 2500 97157 95309 32294 63015 36365 26650 15667 13674 6499 31432
shrinkage=0.1


Tree=43
num_leaves=15
num_cat=0
split_feature=0 9 9 9 9 9 9 9 9 4 5 5 5 5
split_gain=116.638 94.9438 1341.38 178.552 663.394 145.11 530.292 84.7654 287.839 70.0641 77.5785 347.065 106.851 318.295
threshold=0.71926736584412498 1.0000000180025095e-35 0.049927560076040524 0.050006160143662028 0.099991444220112316 0.10001222297154691 0.14999529317913343 0.15000534084025116 0.19996705775014637 0.22510271924436709 0.087721172224649493 0.1049219672702735 0.10526420338592855 0.12279702136968207
decision_type=2 2 2 2 2 2 2 2 2 2 2 2 2 2
left_child=1 9 -3 -4 -5 -6 -7 -8 -9 -1 -11 -12 -13 -14
right_child=-2 2 3 4 5 6 7 8 -10 10 11 12 13 -15
leaf_value=0.0041269021467160482 0.042828294194007521 0.14506024071518284 -0.034537840826241221 0.14071330347239205 -0.032691181199940876 0.14983566525570899 -0.037536484609381922 0.16970812381303391 -0.026489178657682473 -0.045343236682731339 0.25717303092693594 -0.07944713299695226 0.21622306419123458 -0.015179539166426951
leaf_weight=2001.726376458304 613.58676176518202 627.91959915496409 1862.0265288832597 321.18466257769614 1470.0718738394789 233.25682273390703 691.10812200373039 97.730217683594674 318.37216274719685 863.36916490131989 47.405486782081425 240.3182979086414 60.871873499825597 2530.5282803906593
leaf_count=19215 8703 10380 18405 5612 14171 4123 6537 1561 2798 8720 678 2485 782 24505
internal_value=0 -0.00193259 0.00730619 -0.0100152 0.00456528 -0.0109935 0.012802 -0.016067 0.0195918 -0.0109743 -0.0190513 -0.0111671 -0.0156594 -0.0097439
internal_weight=0 11365.9 5621.67 4993.75 3131.72 2810.54 1340.47 1107.21 416.102 5744.22 3742.49 2879.12 2831.72 2591.4
internal_count=128675 119972 63587 53207 34802 29190 15019 10896 4359 56385 37170 28450 27772 25287
shrinkage=0.1


Tree=44
num_leaves=15
num_cat=0
split_feature=2 2 5 5 5 5 5 5 5 5 5 5 5 5
split_gain=106.875 425.954 118.796 336.698 142.328 801.674 251.08 640.962 252.348 765.201 227.384 381.141 147.98 1010.39
threshold=1.0000000180025095e-35 0.010203700571421207 0.035086295781965239 0.017546344935868759 0.087721172224649493 0.1049219672702735 0.10526420338592855 0.12279702136968207 0.12280763299779413 0.13992429415290644 0.14035539145293313 0.15760351426000022 0.087594212101842886 0.070176331267112632
decision_type=2 2 2 2 2 2 2 2 2 2 2 2 2 2
left_child=2 -2 3 -1 12 -6 -7 -8 -9 -10 -11 -12 13 -4
right_child=1 -3 4 -5 5 6 7 8 9 10 11 -13 -14 -15
leaf_value=0.0045569047265759978 0.10590418047562791 0.0018989745558262102 -0.03801362466145769 0.20061123985010576 0.26385649304871467 -0.072065912508201782 0.22367873054590609 -0.071568721433514629 0.24785147109766092 -0.070510903036265768 0.17864994359552736 -0.0024780379485054571 -0.077409594612781032 0.29572459706030113
leaf_weight=600.44656734308228 447.36976512079127 3287.2288457439281 1386.1532333288342 102.55856614047661 111.63776948396116 532.07141490839422 125.16282343026251 515.84042316582054 123.43809297960252 466.94897576980293 120.38026487850584 3325.9457972284872 537.66570312576368 97.066826002206653
leaf_count=4470 18748 34758 12753 1143 977 5640 992 5416 936 5152 966 30597 5249 878
internal_value=0 0.0143578 -0.0061121 0.0331585 -0.00987214 -0.00129218 -0.0069739 0.000430049 -0.0057077 0.0027085 -0.00502415 0.00384877 -0.032465 -0.0161727
internal_weight=0 3734.6 8045.32 703.005 7342.31 5321.43 5209.79 4677.72 4552.55 4036.71 3913.28 3446.33 2020.89 1483.22
internal_count=128675 53506 75169 5613 69556 50676 49699 44059 43067 37651 36715 31563 18880 13631
shrinkage=0.1


Tree=45
num_leaves=15
num_cat=0
split_feature=0 5 5 5 5 5 5 5 5 5 5 5 5 5
split_gain=97.3943 79.3073 584.908 201.762 693.44 220.318 371.83 142.922 450.261 167.399 358.06 139.065 648.24 144.067
threshold=0.6074295001737291 0.10526420338592855 0.12279702136968207 0.12280763299779413 0.13992429415290644 0.14035539145293313 0.15760351426000022 0.15789625307309102 0.17543244164842564 0.17543875631721792 0.19240497714062052 0.1049219672702735 0.087721172224649493 0.087594212101842886
decision_type=2 2 2 2 2 2 2 2 2 2 2 2 2 2
left_child=1 11 -3 -4 -5 -6 -7 -8 -9 -10 -11 12 13 -1
right_child=-2 2 3 4 5 6 7 8 9 10 -12 -13 -14 -15
leaf_value=-0.0062113702052895431 0.014051897568200279 0.19112656577581633 -0.063339804262137131 0.20856647181092589 -0.068300018410384203 0.15849013776532728 -0.053772637564438397 0.16905835041691455 -0.0629323242033719 0.16409778139416387 -0.0032350571454231487 -0.068019657925210156 0.20904754938582651 -0.070467559541036104
leaf_weight=1200.1099458201788 3583.6047874924261 156.64875226002187 532.50263968389481 156.52957150898874 497.81356717040762 146.58680725633167 498.96239613927901 156.81999387475662 425.51410404453054 133.59784994949587 2986.477722185431 500.92406455986202 127.36206711526029 491.96491815010086
leaf_count=14025 39094 2277 5923 2254 5681 2372 5398 2193 4580 1981 29432 5890 2120 5455
internal_value=0 -0.00578093 0.000571758 -0.00482142 0.00140795 -0.00528374 0.00193122 -0.00353116 0.00323973 -0.00409436 0.00392993 -0.021363 -0.00851756 -0.0248936
internal_weight=0 8011.81 5691.45 5534.8 5002.3 4845.77 4347.96 4201.37 3702.41 3545.59 3120.08 2320.36 1819.44 1692.07
internal_count=128675 89581 62091 59814 53891 51637 45956 43584 38186 35993 31413 27490 21600 19480
shrinkage=0.1


Tree=46
num_leaves=15
num_cat=0
split_feature=0 1 1 1 1 1 1 1 1 1 1 1 1 1
split_gain=85.4707 74.0489 232.4 107.968 306.88 104.18 293.27 118.206 279.807 108.05 258.26 137.673 247.327 109.72
threshold=0.71926736584412498 0.54368870938159153 0.53398262632011828 0.53383765794438387 0.52427319537384631 0.52427148883206554 0.51457001099817923 0.51456244262113138 0.50485558091311211 0.50480210163174533 0.49516039549070706 0.49514195891067325 0.4854380301044155 0.48543379928179042
decision_type=2 2 2 2 2 2 2 2 2 2 2 2 2 2
left_child=1 2 3 4 5 6 7 8 9 10 11 12 13 -1
right_child=-2 -3 -4 -5 -6 -7 -8 -9 -10 -11 -12 -13 -14 -15
leaf_value=0.0043716353671146204 0.037229122716333378 -0.014920541005334778 0.19030325349897537 -0.074002744415032948 0.21697136967011788 -0.071907198236793049 0.20205503367074906 -0.07559350393927261 0.19321045534363288 -0.071917537538959783 0.18485837872647923 -0.08096751777976352 0.17668495146356239 -0.069763805067591514
leaf_weight=6170.3346924572252 595.02243525255471 3044.1268996018916 66.01802966510877 183.05908517725766 66.884364837082103 186.89762182720006 73.787052957341075 192.69406128791161 77.132319209165871 193.84671147912741 77.877002944471315 195.58196857431903 82.069087561452761 206.30893989372998
leaf_count=65319 8703 36763 995 1638 1083 1714 1239 1741 1279 1746 1338 1779 1459 1879
internal_value=0 -0.0016996 0.00347843 0.00187798 0.0037243 0.0018115 0.00370676 0.00167287 0.00379888 0.00168948 0.00380893 0.00169006 0.00419308 0.00197307
internal_weight=0 10816.6 7772.49 7706.47 7523.41 7456.53 7269.63 7195.84 7003.15 6926.02 6732.17 6654.29 6458.71 6376.64
internal_count=128675 119972 83209 82214 80576 79493 77779 76540 74799 73520 71774 70436 68657 67198
shrinkage=0.1


Tree=47
num_leaves=15
num_cat=0
split_feature=8 8 5 5 3 5 5 5 5 5 5 5 5 5
split_gain=80.9527 239.841 73.0789 125.176 103.574 68.8136 647.39 232.431 568.113 221.374 670.881 238.941 379.868 192.772
threshold=1.0000000180025095e-35 0.010196369157048173 0.017542318106266427 1.0000000180025095e-35 0.0012408623044054504 0.087721172224649493 0.1049219672702735 0.10526420338592855 0.12279702136968207 0.12280763299779413 0.13992429415290644 0.14035539145293313 0.15760351426000022 0.087594212101842886
decision_type=2 2 2 2 2 2 2 2 2 2 2 2 2 2
left_child=2 -2 3 -1 -4 13 -7 -8 -9 -10 -11 -12 -13 -6
right_child=1 -3 4 -5 5 6 7 8 9 10 11 12 -14 -15
leaf_value=0.0093914379303486669 0.10447344931690193 0.0015898263290700734 -0.083185826844130034 0.15886771360151314 -0.0022115906794254372 0.1933604861396577 -0.062080470374066936 0.17749819838348779 -0.059801081933074977 0.1912318304872585 -0.065259364014615559 0.15412235159554666 -0.0005563567023234953 -0.066995090974712332
leaf_weight=234.36417292337865 286.47612122027203 1083.8167242081836 163.85615352727473 73.624321857932955 2056.7967466413975 172.87792918644845 598.87720665661618 181.45403834059834 598.3568302267231 185.40326050925069 540.8843935392797 164.73970050993375 4382.2111521172337 591.38607685174793
leaf_count=1559 17290 11728 1848 941 19381 2117 6530 2186 6340 2047 5969 2182 42656 5901
internal_value=0 0.0230989 -0.00282739 0.0451236 -0.00435988 -0.00299641 0.00231271 -0.00265246 0.00322723 -0.00215838 0.00438236 -0.00242653 0.00504778 -0.0166789
internal_weight=0 1370.29 9944.83 307.988 9636.84 9472.99 6824.8 6651.93 6053.05 5871.6 5273.24 5087.84 4546.95 2648.18
internal_count=128675 29018 99657 2500 97157 95309 70027 67910 61380 59194 52854 50807 44838 25282
shrinkage=0.1


Tree=48
num_leaves=15
num_cat=0
split_feature=4 7 7 7 7 3 8 0 5 5 5 5 5 5
split_gain=77.4237 88.3128 506.215 106.227 193.125 78.2266 53.0937 52.5429 57.351 533.908 205.342 450.218 188.217 368.025
threshold=0.38659682511859822 0.071434243465786487 0.14284521270123393 0.14288120810167124 0.21426036293826137 0.46424576789767452 1.0000000180025095e-35 0.71926736584412498 0.070176331267112632 0.087594212101842886 0.070160760217746337 0.052632731477402377 0.05262746104832431 0.035089619903279946
decision_type=2 2 2 2 2 2 2 2 2 2 2 2 2 2
left_child=7 6 -3 -4 -5 -6 -2 8 10 -10 11 12 13 -1
right_child=1 2 3 4 5 -7 -8 -9 9 -11 -12 -13 -14 -15
leaf_value=-0.004429720368702485 -0.030116724898441471 0.16725019605427024 -0.02751753910428989 0.16376329764971143 -0.06096003459021359 0.026410478644778763 0.016907745308992736 0.03985869560882134 0.20488312954052779 0.0047326937439366914 -0.070821084671446252 0.20539439315417166 -0.066152285359076524 0.18898945745073772
leaf_weight=1075.3048145906068 1924.4622783674859 175.0052724997513 1226.9708212625701 84.946174082346261 145.79355036909692 344.90905615710653 274.3274006517604 448.70386104332283 137.57371823303401 4266.7247588982573 429.01547953835689 106.77755998983048 399.02854828210548 108.27933265361935
leaf_count=10190 21765 2938 12990 1417 1591 3317 5252 6669 2414 48627 3894 2087 3475 2049
internal_value=0 -0.010459 0.0048741 -0.01089 0.0245509 0.000451665 -0.0242498 0.0067585 0.0044815 0.0109846 -0.00903893 0.00665046 -0.00675863 0.0132651
internal_weight=0 4176.41 1977.62 1802.62 575.649 490.703 2198.79 6971.41 6522.7 4404.3 2118.41 1689.39 1582.61 1183.58
internal_count=128675 49270 22253 19315 6325 4908 27017 79405 72736 51041 21695 17801 15714 12239
shrinkage=0.1


Tree=49
num_leaves=15
num_cat=0
split_feature=1 1 1 1 1 1 1 1 1 1 1 1 1 1
split_gain=66.9731 189.483 71.0815 184.919 79.7567 141.502 78.1132 162.697 79.9048 202.686 69.7839 189.786 66.3936 223.274
threshold=0.6116493727904978 0.60195210487862372 0.60188998934218796 0.59223519769423716 0.59223068449506255 0.58253615818851767 0.58212194957715979 0.57282143289931964 0.57197789866893956 0.56311447952212024 0.56222526056844913 0.55340184642698487 0.55238859885361469 0.54369098170483265
decision_type=2 2 2 2 2 2 2 2 2 2 2 2 2 2
left_child=1 2 3 4 5 6 7 8 9 10 11 12 13 -1
right_child=-2 -3 -4 -5 -6 -7 -8 -9 -10 -11 -12 -13 -14 -15
leaf_value=0.0030336944557721023 -0.018803118630153277 0.21855955063603877 -0.068331728517217 0.18992498032799521 -0.071276212767028876 0.16553871457010208 -0.07001054947365884 0.18575878530640538 -0.066738317510983067 0.19877882923183932 -0.061668696291180186 0.1863198467478408 -0.058147887617754683 0.2118558766583695
leaf_weight=8175.701865089708 1572.8953172706533 40.784873938187957 139.38493753550574 52.968991042580456 144.06946474243887 53.716183160431683 145.16333517222665 48.945391487097368 161.59445780538954 53.223717073677108 163.54013111162931 56.887174764880911 173.6134772778023 51.524332288186997
leaf_count=92317 20553 751 1619 876 1632 875 1551 881 1624 887 1647 893 1672 897
internal_value=0 0.00348101 0.00254984 0.00361437 0.00254494 0.00371573 0.00275312 0.00394193 0.0029348 0.00423272 0.00303168 0.00428274 0.00305006 0.00434148
internal_weight=0 9461.12 9420.33 9280.95 9227.98 9083.91 9030.19 8885.03 8836.09 8674.49 8621.27 8457.73 8400.84 8227.23
internal_count=128675 108122 107371 105752 104876 103244 102369 100818 99937 98313 97426 95779 94886 93214
shrinkage=0.1


Tree=50
num_leaves=15
num_cat=0
split_feature=9 9 9 9 9 9 9 9 4 4 5 5 5 5
split_gain=63.6154 998.92 129.486 531.991 112.427 411.557 72.8051 218.381 52.4512 66.3585 50.4024 212.79 60.2155 204.126
threshold=1.0000000180025095e-35 0.049927560076040524 0.050006160143662028 0.099991444220112316 0.10001222297154691 0.14999529317913343 0.15000534084025116 0.19996705775014637 0.22510271924436709 0.052841676519916218 0.070176331267112632 0.087594212101842886 0.087721172224649493 0.1049219672702735
decision_type=2 2 2 2 2 2 2 2 2 2 2 2 2 2
left_child=8 -2 -3 -4 -5 -6 -7 -8 9 -1 -10 -12 -13 -14
right_child=1 2 3 4 5 6 7 -9 10 -11 11 12 13 -15
leaf_value=-0.071523915020396386 0.13557307513371872 -0.027674879280240747 0.13297956498665808 -0.02699439344916707 0.13959532395765667 -0.031677005925803629 0.15564943292758049 -0.017779706470021785 -0.04130324618606529 0.0099783249508855788 0.22042872341637049 -0.064549663685280742 0.19580668514027608 -0.012072248792792124
leaf_weight=105.43011838570237 551.28574197203852 1808.1448277665768 298.14374838827644 1435.2677581452299 216.17961061908863 675.82406524871476 93.923322781338356 319.89629686949775 586.33538664760999 1903.897985701682 39.807128234766424 205.42405862687156 48.08467116241809 2677.999481773586
leaf_count=907 11526 19371 6508 15075 4745 6961 1818 3146 6356 19764 724 2324 819 28631
internal_value=0 0.00802109 -0.00648522 0.00612124 -0.00767693 0.0135555 -0.0114502 0.021583 -0.007214 0.00570188 -0.0145088 -0.00922137 -0.0123398 -0.00840553
internal_weight=0 5398.67 4847.38 3039.23 2741.09 1305.82 1089.64 413.82 5566.98 2009.33 3557.65 2971.32 2931.51 2726.08
internal_count=128675 69150 57624 38253 31745 16670 11925 4964 59525 20671 38854 32498 31774 29450
shrinkage=0.1


Tree=51
num_leaves=15
num_cat=0
split_feature=5 5 5 5 5 5 5 5 5 5 5 5 5 5
split_gain=61.1678 347.782 164.196 447.206 199.275 594.659 246.645 626.851 202.224 550.39 200.676 511.287 202.754 581.217
threshold=0.035086295781965239 0.017546344935868759 0.035089619903279946 0.05262746104832431 0.052632731477402377 0.070160760217746337 0.070176331267112632 0.087594212101842886 0.087721172224649493 0.1049219672702735 0.10526420338592855 0.12279702136968207 0.12280763299779413 0.13992429415290644
decision_type=2 2 2 2 2 2 2 2 2 2 2 2 2 2
left_child=1 -1 -2 -4 -5 -6 -7 -8 -9 -10 -11 -12 -13 -14
right_child=2 -3 3 4 5 6 7 8 9 10 11 12 13 -15
leaf_value=-0.0019324229233278773 -0.063991336448971134 0.17180696298283749 0.17882580908438758 -0.062444122301984498 0.19850445869664862 -0.06354766304270866 0.18469939947053304 -0.055091120742540835 0.16715565613036198 -0.054658451168855648 0.15977458422128163 -0.054598999636375538 0.17185717365400982 -0.0012166779970211943
leaf_weight=716.80264339363202 408.32337570749223 137.28129917918704 138.99371910141781 513.40642032539472 150.82065812475048 601.71020066342317 185.14477327698842 645.38403075677343 199.41546472592745 641.06917360331863 204.05111450329423 635.92164788022637 201.227020895225 5427.4349801305216
leaf_count=6412 3616 2517 2915 4818 3194 5972 3888 6994 4301 7374 4085 7006 3655 61928
internal_value=0 0.0259936 -0.00189254 0.000764086 -0.00186727 0.00163025 -0.00176656 0.00280051 -0.00143328 0.00330463 -0.00129112 0.00399781 -0.00107618 0.00497078
internal_weight=0 854.084 9952.9 9544.58 9405.59 8892.18 8741.36 8139.65 7954.5 7309.12 7109.7 6468.63 6264.58 5628.66
internal_count=128675 8929 119746 116130 113215 108397 105203 99231 95343 88349 84048 76674 72589 65583
shrinkage=0.1


Tree=52
num_leaves=15
num_cat=0
split_feature=4 3 1 1 5 5 3 5 5 5 5 5 5 5
split_gain=56.8458 72.1206 48.3045 64.0904 41.6116 95.0407 87.1721 45.5201 300.258 114.158 311.274 147.823 323.436 154.73
threshold=0.38659682511859822 0.46772588192237791 0.66019268077014326 0.65048688714565894 0.017542318106266427 1.0000000180025095e-35 0.00062540832059098707 0.017546344935868759 0.035086295781965239 0.035089619903279946 0.05262746104832431 0.052632731477402377 0.070160760217746337 0.070176331267112632
decision_type=2 2 2 2 2 2 2 2 2 2 2 2 2 2
left_child=2 -2 3 4 5 -1 -6 -8 -9 -10 -11 -12 -13 -14
right_child=1 -3 -4 -5 6 -7 7 8 9 10 11 12 13 -15
leaf_value=0.015269436223861319 -0.01722438108838251 0.013430467224527027 -0.022088489319177701 0.23048894854118762 -0.089300369919242256 0.14845215383556565 -0.03360301457706906 0.16904190723605328 -0.053869449850027777 0.17479332659113966 -0.054816872908718423 0.18232399061851992 -0.053534275688755933 0.012584764172316472
leaf_weight=259.36133328499272 2917.4422895127209 1041.4305950949201 561.99703964334913 12.983586969319729 94.200037458445877 67.532998157199472 254.93763990607113 115.64106278843246 298.94409621041268 111.71622180473059 369.74554765201174 107.50598998460919 388.03823274886236 4026.9505626937607
leaf_count=2276 38201 11069 8005 172 897 1024 1885 2193 2464 2505 3170 2565 3546 48703
internal_value=0 -0.00916024 0.00596664 0.00854818 0.00807537 0.0427836 0.00610821 0.00769234 0.00963525 0.00615904 0.00974524 0.0059763 0.0109466 0.00677349
internal_weight=0 3958.87 6669.55 6107.56 6094.57 326.894 5767.68 5673.48 5418.54 5302.9 5003.96 4892.24 4522.49 4414.99
internal_count=128675 49270 79405 71400 71228 3300 67928 67031 65146 62953 60489 57984 54814 52249
shrinkage=0.1


Tree=53
num_leaves=15
num_cat=0
split_feature=7 7 3 7 7 3 1 2 0 5 5 3 3 1
split_gain=52.8606 651.842 184.754 90.0333 650.614 63.0621 55.0624 48.5901 54.1162 46.3163 110.485 69.67 48.0241 42.7045
threshold=0.071427655486923647 1.0000000180025095e-35 0.31818569776458289 0.071434243465786487 0.14284521270123393 0.6659840430639864 0.51456244262113138 1.0000000180025095e-35 0.12301494514090082 0.017542318106266427 1.0000000180025095e-35 1.0000000180025095e-35 0.037993231265459691 0.50485558091311211
decision_type=2 2 2 2 2 2 2 2 2 2 2 2 2 2
left_child=1 9 -2 -4 -5 6 13 8 -3 10 12 -11 -1 -6
right_child=2 7 3 4 5 -7 -8 -9 -10 11 -12 -13 -14 -15
leaf_value=0.017532099699458355 -0.036614262384024869 0.33946833776471613 -0.011833881909169676 0.16126539183550384 -0.0001654316359503969 0.024321759631481532 -0.036661698784833663 0.12746791108116007 0.18127979753434989 -0.080936427539888611 0.14658862212097798 -0.00090813071560278508 -0.15009798071621469 0.18551574290737341
leaf_weight=267.10810394771397 1474.3215745073976 28.978558677015826 1966.9554152161581 277.11526232073084 969.47753527574241 677.08367198065389 579.56716574833263 106.28013297158759 85.235143331578001 111.88954149978235 70.51912763225846 3917.3699699713616 18.258802528493106 12.546497366391121
leaf_count=2358 20570 247 22330 4998 10267 6679 6626 3544 878 1244 1172 47440 110 212
internal_value=0 0.00835981 -0.00590587 0.00419375 0.0167249 -0.00116715 -0.0122188 0.176132 0.221416 -7.61128e-05 0.0345045 -0.00313046 0.00680652 0.00220686
internal_weight=0 4605.64 5957.07 4482.75 2515.79 2238.67 1561.59 220.494 114.214 4385.15 355.886 4029.26 285.367 982.024
internal_count=128675 56993 71682 51112 28782 23784 17105 4669 1125 52324 3640 48684 2468 10479
shrinkage=0.1


Tree=54
num_leaves=15
num_cat=0
split_feature=2 2 2 2 5 5 5 5 5 5 5 5 5 5
split_gain=47.5492 112.119 81.8871 189.025 50.1351 395.766 188.147 380.38 160.058 308.764 125.358 538.144 117.114 336.728
threshold=0.040785649364159633 0.030616229572702273 0.030523542519572539 0.020409017063373471 0.22807240313791741 0.24561256715419991 0.22773988242999835 0.21052890736481222 0.24561673357517536 0.26303919604731962 0.20981060336540761 0.19298759633159998 0.19240497714062052 0.17543875631721792
decision_type=2 2 2 2 2 2 2 2 2 2 2 2 2 2
left_child=1 2 3 4 6 -6 7 10 -7 -10 11 12 13 -1
right_child=-2 -3 -4 -5 5 8 -8 -9 9 -11 -12 -13 -14 -15
leaf_value=-0.0036156055302142237 -0.045682145864848395 0.11515680830188946 -0.060160953928515504 0.11272204178494966 0.22127074923534812 -0.071831438941172721 -0.080887519471842237 0.19068684335138153 0.20443850950657377 0.0051416642712180487 -0.059018627728080912 0.19262166711633033 -0.05395519609030941 0.15826453076761748
leaf_weight=6682.1163486284204 220.13271968043409 85.751151988049969 218.96904452051967 150.92415067413822 88.779472875408828 235.03515650611371 300.60617509949952 102.94254419323988 83.013340502744541 1222.9650123537285 377.4731883922359 142.33927913964726 436.13270304817706 131.01635675539728
leaf_count=85095 2667 2017 1274 4381 1268 2194 2742 1497 1186 12378 3553 1900 4249 2274
internal_value=0 0.00128995 0.00033007 0.00166085 -4.91219e-05 0.0159656 -0.00324279 -0.000277795 0.00413772 0.0178098 -0.00280813 6.24153e-05 -0.00371848 -0.000502655
internal_weight=0 10258.1 10172.3 9953.34 9802.42 1629.79 8172.63 7872.02 1541.01 1305.98 7769.08 7391.6 7249.27 6813.13
internal_count=128675 126008 123991 122717 118336 17026 101310 98568 15758 13564 97071 93518 91618 87369
shrinkage=0.1


Tree=55
num_leaves=15
num_cat=0
split_feature=7 7 3 7 7 7 7 1 7 7 7 1 5 5
split_gain=45.6763 550.305 147.617 69.233 554.062 53.3205 210.055 60.5702 58.5992 77.1989 54.2277 41.9293 41.3674 263.305
threshold=0.071427655486923647 1.0000000180025095e-35 0.31818569776458289 0.071434243465786487 0.14284521270123393 0.14288120810167124 0.21426036293826137 0.51456244262113138 0.21430070114087782 0.2831873258546303 0.28586881064634334 0.50485558091311211 0.035086295781965239 0.017546344935868759
decision_type=2 2 2 2 2 2 2 2 2 2 2 2 2 2
left_child=1 12 -2 -4 -5 7 -7 11 -8 -10 -11 -6 13 -1
right_child=2 -3 3 4 5 6 8 -9 9 10 -12 -13 -14 -15
leaf_value=-0.0023700567918939161 -0.033455188824674846 0.1681779661465721 -0.010599617603408912 0.15536669770299738 0.00091867743130809917 0.15203305846782586 -0.032525668442925919 -0.03815927223754581 0.16519406683570537 -0.041758241132540189 0.060276554323106281 0.18873804150916917 -0.0043278118227894997 0.16347243932930916
