tree
version=v3
num_class=1
num_tree_per_iteration=1
label_index=0
max_feature_idx=9
objective=binary sigmoid:1
feature_names=Column_0 Column_1 Column_2 Column_3 Column_4 Column_5 Column_6 Column_7 Column_8 Column_9
feature_infos=[0:0.99949027632104104] [0.20388349514563101:1] [0:1] [0:1] [0:0.99929123711340195] [0:1] [0:1] [0:1] [0:1] [0:1]
tree_sizes=8819 10156 10217 10213 10222 10252 10225 10231 10239 10252 10269 10246 10250 10226 10240 10216 10200 10291 10224 10199 10199 10222 10258 10266 10193 10205 10132 10209 10143 10168 10212 10104 10311 10241 10092 10066 10154 10187 10068 10090 10030 10152 10093 10017 10024 10035 10014 10099 10134 10126 10032 10128 10029 10054 10011 10080 9999 10116 10053 10022 10053 10033 10094 10035 10013 10047 10143 10070

Tree=0
num_leaves=95
num_cat=0
split_feature=2 6 8 2 2 6 0 8 2 2 6 8 6 6 8 1 1 0 2 2 6 6 5 5 5 5 5 5 5 3 6 0 8 0 7 7 8 5 0 5 5 8 8 8 3 0 0 6 6 2 6 6 6 7 7 5 5 0 8 0 0 7 9 1 4 9 1 0 8 0 7 7 3 9 9 6 6 5 5 5 0 3 3 0 7 0 1 9 3 1 1 3 7 7
split_gain=39767.5 14418.6 3893.53 3340.12 6736.69 2710.44 1988.11 1354.08 802.218 1655.84 748.788 646.489 601.988 831.062 362.433 352.998 263.512 257.088 247.6 521.624 245.598 332.491 238.053 302.829 432.639 273.639 384.905 223.57 328.916 216.616 205.935 195.271 193.101 182.959 126.255 356.929 116.941 115.562 111.696 107.185 139.457 102.466 108.09 101.607 100.664 95.4355 105.609 91.7662 93.7617 90.2457 150.924 88.069 165.575 83.5043 283.748 78.9637 533.306 80.8054 75.0856 61.6796 59.7541 58.2872 73.6289 57.5088 57.2911 57.1051 60.3942 56.7413 55.4385 53.1973 52.9427 123.832 52.1799 69.4424 74.6003 50.6265 51.1646 49.3958 53.315 49.5215 46.7713 45.6944 66.5428 45.0502 44.2046 43.7599 43.564 42.4307 45.3657 42.146 140.181 40.8502 40.6804 162.213
threshold=1.0000000180025095e-35 1.0000000180025095e-35 1.0000000180025095e-35 0.010197987448642752 0.010204723813225255 1.0000000180025095e-35 0.2141343746630254 0.010182159784130366 0.020406438860566867 0.020410805580943391 1.0000000180025095e-35 1.0000000180025095e-35 0.010203942695819609 0.010204274168435336 0.010182159784130366 0.48543379928179042 0.47573025281562392 0.44121286592244402 0.03061153123818941 0.030621294114086244 0.010203942695819609 0.010204274168435336 0.017542318106266427 0.14035539145293313 0.15770788144187783 0.15789625307309102 0.1754270399235654 0.17543875631721792 0.19265970315279787 0.55080192075980039 7.1229382163050234e-05 0.59011148876907848 0.010208275396424374 0.6088333310034052 0.072691038337850206 0.14255557503506128 0.020323585293002381 1.0000000180025095e-35 0.43621416811264074 0.24561673357517536 0.26315753614740339 0.00041268053237182752 0.010182159784130366 0.010208275396424374 0.65282006057344366 0.71926736555921078 0.71926696136207224 0.010203942695819609 0.010204274168435336 0.040812568363590609 1.0000000180025095e-35 0.020322351000948636 0.020408717816329674 0.14288448102738369 0.21426036293826137 0.14035539145293313 0.15770788144187783 0.07627108871173896 0.0002167692207205551 0.45782337691878044 0.35241353764981653 0.072013602450609684 0.049868416364522154 0.4756817148826194 0.25129039816762994 1.0000000180025095e-35 0.26213392868275565 0.53413649668811214 1.0000000180025095e-35 0.52966573513933446 0.21430070114087782 0.28570914190454139 0.29873574682788384 0.09965952127230622 0.050000680790483629 0.020322351000948636 0.020408717816329674 0.19298751104701498 0.20976699272164254 0.22807240313791741 0.18078637696378538 0.088640829774995641 1.0000000180025095e-35 0.49459698811113045 0.14255557503506128 0.62728940414926171 0.36893166392575083 0.0086334716787883955 0.50489569416822433 0.60181782254885874 0.59223519769423716 0.41265740951051122 0.071427655486923647 1.0000000180025095e-35
decision_type=2 2 2 2 2 2 2 2 2 2 2 2 2 2 2 2 2 2 2 2 2 2 2 2 2 2 2 2 2 2 2 2 2 2 2 2 2 2 2 2 2 2 2 2 2 2 2 2 2 2 2 2 2 2 2 2 2 2 2 2 2 2 2 2 2 2 2 2 2 2 2 2 2 2 2 2 2 2 2 2 2 2 2 2 2 2 2 2 2 2 2 2 2 2
left_child=1 2 6 -2 5 11 29 -4 -6 10 41 17 -3 33 -13 16 22 80 -11 30 -7 68 37 31 -25 -26 -27 -28 -29 55 67 91 38 58 -31 -36 -34 -8 -9 89 -41 59 -43 -16 60 46 61 -12 -49 -21 69 -15 -53 -37 -55 -1 -57 -58 -14 -10 -30 62 65 72 -19 66 -33 -20 -22 -51 -56 -72 -59 74 -74 -23 -77 -46 -79 -80 -5 82 -48 -42 -63 -66 -62 -86 -89 90 92 -24 93 -17
right_child=3 12 7 4 8 20 15 32 9 18 47 14 13 51 43 39 -18 64 19 49 21 75 23 24 25 26 27 28 44 34 -32 45 36 -35 35 53 -38 -39 -40 40 83 42 -44 -45 77 -47 81 48 -50 50 -52 52 -54 54 70 56 57 63 -60 -61 86 84 -64 -65 85 -67 -68 -69 -70 -71 71 -73 73 -75 -76 76 -78 78 79 -81 -82 -83 -84 -85 87 -87 -88 88 -90 -91 -92 -93 -94 -95
leaf_value=-0.35570576317710745 0.40001244359324939 0.40001244359324939 0.40001244359324939 -0.31632193905802736 0.40001244359324939 0.40001244359324939 -0.0049015613207555406 -0.297235262828769 -0.27515839923135199 0.40001244359324939 0.40001244359324939 0.40001244359324939 -0.20771287829516263 0.40001244359324939 -0.167628881942813 -0.22298220881316777 0.40001244359324939 -0.046618572449531374 -0.20216146945022892 0.40001244359324939 -0.11856463150556487 0.40001244359324939 -0.28652843690989527 0.40001244359324939 -0.32606350577383925 0.40001244359324939 -0.30799337882305339 0.40001244359324939 -0.22125398412479128 -0.33056044353097075 0.24603754819575985 0.096082312588882557 0.40001244359324939 0.095905471291434674 0.40001244359324939 -0.28323079964999387 -0.10685778541438423 0.40001244359324939 -0.049511365930560151 0.40001244359324939 -0.21762357892082196 0.40001244359324939 -0.093947287950374797 0.16970941329021907 -0.238371394790589 0.03522689054584531 -0.35687378395166086 0.01506620703410959 0.28285763187776819 0.0027151462959520765 0.34792345824327653 0.045096376446966402 0.3396615664002669 0.40001244359324939 -0.31280806922726345 0.40001244359324939 -0.34554343789692377 -0.31814317600329245 0.12122456480537058 -0.11296465564339186 0.010734093077785457 0.40001244359324939 -0.23144156234146873 -0.31795656399000155 -0.24446308088227511 0.40001244359324939 -0.14599774316396627 0.019367282302926794 0.11453526517001285 0.221634065214871 0.40001244359324939 -0.20984262887051877 -0.14119423163139763 -0.30948981885018956 0.40001244359324939 0.066679110259916033 0.29453299153845486 0.40001244359324939 -0.13868102374343405 0.10023030851699664 -0.23307112989378234 -0.29038755640675062 -0.053813413926539551 -0.063344530402022509 -0.27776533418452842 -0.1084452678495367 -0.13921922113317672 -0.15812709129047156 0.20672385298922255 -0.30375611369643468 0.40001244359324939 -0.20299960459952171 -0.2736457920637525 0.40001244359324939
leaf_weight=4918.5 4697.5 1043 460 714.75 2474.25 287 101.75 163.5 219.5 1096 97.5 101.5 174.75 340.75 128.25 374 35.5 233.75 92 497.25 126.5 114 795 70.25 197.5 65.5 171.75 58.5 209.25 440.75 119.5 57.25 41 261.75 38.25 416.25 32.75 39 131.25 17.75 266.5 23.25 74.5 49.5 24.75 110.75 41.75 93 119.5 74 460.75 104.25 285 34 117 41 2556.75 173.5 33 163.75 121.25 12.249999999999998 168.5 758.25 178.75 10.499999999999998 147.25 93 60.25 111 15.749999999999998 86.25 194.75 110.5 10.749999999999998 54 146 17 49.75 114.75 433.75 250 94.75 105.75 18 201 214.75 21.5 37.25 656.75 13.499999999999998 332 810.5 17.5
leaf_count=19674 18790 4172 1840 2859 9897 1148 407 654 878 4384 390 406 699 1363 513 1496 142 935 368 1989 506 456 3180 281 790 262 687 234 837 1763 478 229 164 1047 153 1665 131 156 525 71 1066 93 298 198 99 443 167 372 478 296 1843 417 1140 136 468 164 10227 694 132 655 485 49 674 3033 715 42 589 372 241 444 63 345 779 442 43 216 584 68 199 459 1735 1000 379 423 72 804 859 86 149 2627 54 1328 3242 70
internal_value=1.5543e-05 -0.187101 -0.251437 0.264282 0.190467 -0.0626245 -0.27365 0.171165 0.313729 0.249705 -0.00302169 -0.184237 0.288886 0.192259 0.0984905 -0.181193 -0.142184 -0.229045 0.3283 0.274002 0.252504 0.167961 -0.147602 -0.158118 -0.0828773 -0.11013 -0.0694075 -0.100726 -0.0567777 -0.328218 0.0413918 -0.205305 -0.114506 -0.015323 -0.246537 -0.194193 0.174928 0.107295 -0.186926 -0.243064 -0.14768 -0.159239 0.0235419 -0.0736866 -0.0923362 -0.139508 -0.162036 0.239367 0.16566 0.33597 0.286656 0.325766 0.26077 -0.228153 -0.137537 -0.33892 -0.31745 -0.325181 -0.155463 -0.205858 -0.137356 -0.0986119 -0.132452 -0.283458 -0.124519 -0.0548713 -0.0782272 -0.0907984 -0.0433611 0.134066 -0.220992 -0.115674 -0.230018 -0.181633 -0.112883 0.293643 0.233012 0.0266791 0.0628224 0.027976 -0.284881 -0.239574 -0.146508 -0.173795 0.0472035 -0.172469 -0.0851066 -0.00910808 0.0732039 -0.262933 -0.240876 -0.261922 -0.248074 -0.195134
internal_weight=0 18833.5 16591 13335.2 8637.75 2829 15762.5 828.5 5808.75 3334.5 791 2041.25 2242.5 1199.5 279.25 5850.25 3588 1762 2543.5 1447.5 787.75 500.75 3552.5 3411.75 1315 1244.75 1047.25 981.75 810 9912.25 304.5 2096.75 368.5 469.5 1148.25 707.5 73.75 140.75 294.75 2262.25 390 481 97.75 177.75 751.5 969.75 859 310 212.5 1143 645.75 730 389.25 669.25 253 8764 3845.5 3804.5 207.75 383.25 545.25 472.5 383.5 1247.75 613.5 215 204.5 185 186.75 185 219 102 489.5 316 205.5 314 200 206.25 181.5 164.5 1148.5 386.5 136.5 372.25 89 379.75 336 76.75 58.75 1872.25 1215.5 1127 1202 391.5
internal_count=128675 75334 66364 53341 34551 11316 63050 3314 23235 13338 3164 8165 8970 4798 1117 23401 14352 7048 10174 5790 3151 2003 14210 13647 5260 4979 4189 3927 3240 39649 1218 8387 1474 1878 4593 2830 295 563 1179 9049 1560 1924 391 711 3006 3879 3436 1240 850 4572 2583 2920 1557 2677 1012 35056 15382 15218 831 1533 2181 1890 1534 4991 2454 860 818 740 747 740 876 408 1958 1264 822 1256 800 825 726 658 4594 1546 546 1489 356 1519 1344 307 235 7489 4862 4508 4808 1566
shrinkage=1


Tree=1
num_leaves=95
num_cat=0
split_feature=2 6 8 2 2 6 0 8 2 2 6 6 6 8 8 1 7 7 2 2 1 0 6 6 5 5 5 6 8 0 0 3 0 8 5 5 5 3 9 9 0 5 5 8 8 2 2 8 3 6 6 6 5 6 5 1 1 5 5 4 3 5 5 8 9 9 1 1 9 9 4 7 7 5 5 3 0 9 0 0 1 0 4 1 6 6 9 9 1 7 7 7 7 3
split_gain=26353.8 9515.32 2565.88 2294.11 4501.4 1777.63 1377.53 909.255 562.011 1113.54 489.136 422.246 558.04 421.845 243.167 231.246 199.596 691.066 177.398 354.272 176.979 174.471 171.689 220.762 151.349 170.126 153.805 133.92 126.066 118.881 99.8904 94.0705 86.0534 78.6838 77.7477 231.133 77.4912 77.1548 76.3943 314.39 74.8956 68.961 230.517 66.7476 71.9927 66.2838 128.008 65.5672 65.4654 64.7032 63.9728 112.881 63.159 62.2546 56.0078 54.9777 96.119 81.534 184.926 70.8253 58.5028 56.3214 153.168 52.7438 51.2157 526.558 47.562 101.282 47.2421 183.552 51.1887 45.9181 94.8755 44.8116 175.472 44.4004 42.1289 47.5133 42.0207 41.5192 41.3527 40.6584 38.0674 39.1604 37.2084 36.6569 36.6434 87.9435 36.4287 36.3378 84.1774 36.0319 57.7331 36.0056
threshold=1.0000000180025095e-35 1.0000000180025095e-35 1.0000000180025095e-35 0.010197987448642752 0.010204723813225255 1.0000000180025095e-35 0.28641245759572037 0.010182159784130366 0.020406438860566867 0.020410805580943391 1.0000000180025095e-35 0.010203942695819609 0.010204274168435336 1.0000000180025095e-35 0.010182159784130366 0.4756817148826194 0.14288448102738369 0.21426036293826137 0.03061153123818941 0.030621294114086244 0.46602385502233767 0.44121286592244402 0.010203942695819609 0.010204274168435336 0.17543875631721792 0.017542318106266427 0.19265970315279787 7.1229382163050234e-05 0.010208275396424374 0.65731457364330648 0.099032371617182688 0.55080192075980039 0.71926736555921078 0.020323585293002381 0.19298751104701498 0.20976699272164254 1.0000000180025095e-35 0.66608287930279231 0.14993375425634115 0.10001222297154691 0.43621416811264074 0.14035539145293313 0.15770788144187783 0.00041268053237182752 0.010182159784130366 0.040812568363590609 0.040819789291365698 0.010208275396424374 0.69492517314642444 0.010203942695819609 0.020322351000948636 0.020408717816329674 0.17543875631721792 0.010204274168435336 0.19265970315279787 0.40776260498015099 0.39807273776742852 0.1228115765499575 0.14009757561173417 0.1803924328019976 0.52891854852470976 0.14035539145293313 0.15770788144187783 0.0002167692207205551 0.049868416364522154 1.0000000180025095e-35 0.59223068449506255 0.58253615818851767 0.09965952127230622 0.050000680790483629 0.39950442973408512 0.072013602450609684 0.14255557503506128 0.15789625307309102 0.1754270399235654 0.55978136689104352 0.71926736555921078 0.15282571674285927 0.43621416811264074 0.71926736555921078 0.66019268077014326 0.71926736555921078 0.27086556686757651 0.40776260498015099 0.010203942695819609 0.020322351000948636 0.15000534084025116 0.1992487505641721 0.5820259308087149 0.071427655486923647 1.0000000180025095e-35 0.21430070114087782 0.28570914190454139 0.55080192075980039
decision_type=2 2 2 2 2 2 2 2 2 2 2 2 2 2 2 2 2 2 2 2 2 2 2 2 2 2 2 2 2 2 2 2 2 2 2 2 2 2 2 2 2 2 2 2 2 2 2 2 2 2 2 2 2 2 2 2 2 2 2 2 2 2 2 2 2 2 2 2 2 2 2 2 2 2 2 2 2 2 2 2 2 2 2 2 2 2 2 2 2 2 2 2 2 2
left_child=1 2 6 -2 5 13 16 -4 -6 10 43 -3 29 21 -15 20 30 -18 -11 27 24 86 -7 -24 25 36 -26 81 40 63 80 64 38 -30 -28 -36 -8 -19 39 55 -9 -32 -43 78 -45 -21 -47 -16 -37 -12 -14 -52 79 -51 -54 56 57 59 -59 75 -61 -60 -63 -13 65 -17 67 68 69 70 82 -56 -73 -64 -75 -27 77 89 -10 -33 93 -20 83 -44 -29 -25 -5 -88 -74 90 -23 -39 -93 -1
right_child=3 11 7 4 8 22 15 28 9 18 49 12 50 14 47 31 17 37 19 45 -22 76 23 85 26 32 34 84 33 -31 41 52 -34 -35 35 48 -38 91 -40 -41 -42 42 66 44 -46 46 -48 -49 -50 53 51 -53 54 -55 71 -57 -58 58 61 60 -62 62 73 -65 -66 -67 -68 -69 -70 -71 -72 72 88 74 -76 -77 -78 -79 -80 -81 -82 -83 -84 -85 -86 -87 87 -89 -90 -91 -92 92 -94 -95
leaf_value=-0.2822440634747217 0.3340623357607917 0.3340623357607917 0.3340623357607917 -0.24081942763973216 0.3340623357607917 0.3340623357607917 -0.0040322381594374646 -0.24353527322264445 -0.22646910281298852 0.3340623357607917 0.3340623357607917 -0.1605569628991721 0.3340623357607917 0.3340623357607917 -0.13513874223468084 -0.22785676765914303 0.40008199268196165 -0.27430836353715166 -0.10591033326272055 0.3340623357607917 0.41078876183658991 -0.10575227138213278 -0.034831501825391541 0.3340623357607917 0.3340623357607917 -0.078220249261788471 -0.20797009350883219 0.35637856217553876 0.3340623357607917 0.084305845402360788 -0.27304094133751006 -0.2204557973652731 0.022847177285898371 -0.085763345687454112 0.39206429536563236 -0.10926851389819491 0.3340623357607917 -0.20549834948779644 -0.25861233635243297 0.39794374359521417 -0.039647848925182694 0.34504750848384336 -0.11745594752111077 0.3340623357607917 -0.075350095491961033 0.046852597058067262 0.27838717661012463 0.13681673319546714 0.073620377382029561 0.01204126501944742 0.036084519166424217 0.28029389451682601 0.44577636174243618 0.23121159284479342 -0.18478309279365129 -0.21144700490185594 0.38912993488957826 0.42250635991335117 -0.22524879362392358 -0.2389332185355566 -0.04848094526616966 0.3340623357607917 -0.23590929578933448 0.10265902059205639 -0.26669135329230359 0.43363568957126103 -0.28335102179442989 0.46403491706742062 -0.2695872478596279 0.39832474675821594 -0.25772577133018421 0.41729868691726085 0.0007259117572795496 0.3340623357607917 -0.22859525444094009 -0.30191052781452404 0.052747594037019264 0.11601195100481741 -0.092371474260558264 0.17842752038348408 -0.31390488247838966 0.19614505983466626 -0.10261580667336917 -0.30157335630258914 0.11917391549032053 0.18972472661158818 0.46312478999706341 -0.19940817859351731 -0.19323360536069814 -0.18570322531947117 0.42248124519054298 0.34281183363456624 -0.098302454907296222 -0.22642840908915229
leaf_weight=4859.7294892370701 4514.48829382658 1002.3653625249863 442.07868337631226 1075.5603275895119 2377.8547442257404 275.81865680217743 99.749399498105049 159.94125786423683 210.49062636494637 1053.3005151748657 93.701460063457489 187.09587639570236 327.47458991408348 97.545622527599335 127.3532629609108 775.4518761485815 77.881363824009895 456.30581277608871 164.05952972173691 477.87744632363319 26.911150887608528 240.57647056877613 186.10930481553078 109.5586302280426 46.610469877719879 350.20918077230453 95.874639049172401 40.139474391937256 39.402665257453918 243.43978309631348 1445.6356900632381 205.1007277071476 119.41876544058323 32.656688004732132 50.837840422987938 294.27923148870468 37.24032387137413 85.052942156791687 236.70680284500122 42.781969055533409 131.16959407925606 29.120373278856277 82.023506045341492 22.344194322824478 74.335855215787888 117.34486582875252 513.38598977029324 49.14528751373291 106.66486723721027 92.994722843170166 104.19701506197453 276.93540394306183 8.5584034919738752 117.14126405119896 98.262444853782654 445.11997187137604 14.118048161268232 30.067075341939926 94.836682870984077 467.64217767119408 74.840431720018387 36.279283255338669 73.771761640906334 36.371024012565613 524.56472301483154 51.320056661963463 389.20987483859062 9.0503905713558179 343.29718129336834 21.308844313025475 320.28581653535366 18.22849839925766 120.00691351294518 34.357202023267746 62.505916595458984 39.496876493096352 64.388449907302856 32.550332263112068 168.13524588942528 10.997701182961462 1562.216213837266 19.998124837875366 255.86825306713581 105.82396329939365 77.570149898529053 196.81887876987457 10.056324884295462 39.460317209362984 57.192223712801933 259.91938279569149 12.704364120960234 14.483893424272535 65.715708300471306 510.89393135905266
leaf_count=20040 18790 4172 1840 4392 9897 1148 399 654 858 4384 390 756 1363 406 513 3159 321 1872 660 1989 109 966 747 456 194 1422 386 163 164 976 5941 837 479 131 206 1183 155 348 964 175 525 121 334 93 298 477 2106 198 428 372 417 1140 35 478 399 1813 58 122 385 1901 303 151 303 146 2135 209 1594 37 1404 88 1306 74 487 143 256 160 258 131 675 45 6442 80 1043 432 315 800 41 161 232 1048 51 60 266 2094
internal_value=0 -0.153784 -0.206583 0.219084 0.157277 -0.0510151 -0.2248 0.141437 0.260208 0.206053 -0.0023501 0.238696 0.157376 -0.149954 0.0806434 -0.135254 -0.264799 -0.161533 0.271961 0.225582 -0.0997003 -0.186373 0.207729 0.136975 -0.104515 -0.128139 -0.014706 0.0334566 -0.093041 -0.0123843 -0.272069 -0.190026 -0.142083 0.143801 -0.0443893 -0.00967512 0.087878 -0.231903 -0.151918 -0.137617 -0.151667 -0.24159 -0.21237 -0.129048 0.0192712 0.277879 0.235311 -0.0594139 -0.0606138 0.195849 0.269233 0.21353 -0.117591 0.134219 -0.0585602 -0.150913 -0.129832 -0.135628 -0.0504895 -0.165934 -0.212659 -0.0976198 -0.0391226 -0.117716 -0.21781 -0.186796 -0.223002 -0.202355 -0.207699 -0.180645 -0.196793 -0.073257 -0.0171809 -0.118467 -0.0290215 -0.100891 -0.100255 -0.118306 -0.166921 -0.200156 -0.285265 -0.0730916 -0.152809 -0.221179 0.200062 0.241339 -0.233075 -0.0648545 -0.0618758 -0.133168 -0.0792565 -0.114812 -0.0186381 -0.276934
internal_weight=0 18367 16189.2 12912.7 8398.24 2777.57 15383.9 805.249 5620.67 3242.82 779.143 2177.88 1175.51 2009.26 274.044 4750 10633.9 699.44 2463.68 1410.38 2880.32 1735.22 768.305 492.487 2853.41 2259.14 594.267 301.767 363.17 466.907 9934.46 1869.68 2122.15 72.0594 547.657 451.782 136.99 621.558 2002.73 1766.03 291.111 3001.62 1555.99 475.306 96.68 1108.61 630.731 176.499 400.944 303.837 708.607 381.132 518.347 210.136 302.248 1723.24 1278.12 1264.01 331.818 932.189 542.483 301.751 206.914 223.467 1351.34 826.772 1526.87 1137.66 1128.61 785.31 764.002 293.69 195.428 170.635 96.8631 389.706 610.139 545.751 378.626 216.098 6932.84 184.058 443.716 187.847 117.71 306.378 1125.08 49.5166 177.199 513.2 253.281 165.253 80.1996 5370.62
internal_count=128675 75334 66364 53341 34551 11316 63050 3314 23235 13338 3164 8970 4798 8165 1117 19307 43743 2867 10174 5790 11695 7048 3151 2003 11586 9189 2397 1218 1474 1878 40876 7612 8635 295 2203 1817 554 2546 8156 7192 1179 12300 6359 1924 391 4572 2583 711 1611 1240 2920 1557 2109 850 1227 7017 5204 5146 1360 3786 2204 1238 853 902 5503 3368 6238 4644 4607 3203 3115 1192 793 702 399 1582 2454 2196 1533 882 28576 740 1809 766 478 1256 4594 202 719 2065 1017 674 326 22134
shrinkage=0.2


Tree=2
num_leaves=95
num_cat=0
split_feature=2 6 8 2 2 6 0 8 2 2 6 6 6 8 8 1 1 2 2 0 6 6 3 5 5 3 5 7 7 8 0 8 7 7 5 5 9 9 0 7 7 2 6 5 8 0 6 6 3 6 4 7 7 8 8 1 1 5 6 8 7 7 0 9 9 0 9 9 9 9 0 0 8 8 4 9 3 8 0 3 5 5 7 7 4 6 6 1 0 5 8 8 0 5
split_gain=18333.1 6549.48 1759.79 1739.75 3193.64 1205.21 1064.74 653.495 446.651 800.365 335.117 400.289 328.855 283.381 174.429 166.783 237.559 148.802 259.278 137.016 136.287 153.498 134.214 153.171 268.214 128.835 126.656 99.0172 210.25 90.4741 88.1836 84.7905 80.3227 502.419 64.6006 318.901 66.1524 614.83 65.327 60.9661 218.839 59.2131 102.674 57.2451 56.8218 54.8719 54.727 83.723 54.4159 51.7962 48.8229 47.462 280.904 44.6369 50.7938 44.3936 189.546 43.5686 43.417 42.7904 39.3005 149.873 38.8552 38.5909 114.463 38.1884 38.0577 467.063 42.4776 1097.83 37.8186 36.3074 35.6579 39.8575 35.3567 37.8831 38.8529 35.3408 35.1637 35.0582 34.2518 140.107 33.5297 70.1076 32.5476 31.6613 36.641 31.528 30.504 30.1423 34.8929 53.3699 30.1149 41.7484
threshold=1.0000000180025095e-35 1.0000000180025095e-35 1.0000000180025095e-35 0.010197987448642752 0.010204723813225255 1.0000000180025095e-35 0.2141343746630254 0.010182159784130366 0.020406438860566867 0.020410805580943391 0.010203942695819609 0.010204274168435336 1.0000000180025095e-35 1.0000000180025095e-35 0.010182159784130366 0.51455397910437828 0.50485558091311211 0.03061153123818941 0.030621294114086244 0.33771819360246802 0.010203942695819609 0.010204274168435336 0.58049580762415032 0.035086295781965239 0.017545449789829838 0.41561362368732785 0.017542318106266427 0.071434243465786487 0.14255557503506128 0.00011050928826051924 0.32787156153155078 0.010208275396424374 0.071434243465786487 0.14255557503506128 0.070180320123022902 0.087615758561683535 0.049868416364522154 1.0000000180025095e-35 0.72010163125626248 0.14288448102738369 0.21426036293826137 0.040812568363590609 1.0000000180025095e-35 1.0000000180025095e-35 0.020323585293002381 0.3855407867862512 0.020322351000948636 0.020408717816329674 0.65940694995582028 0.010203942695819609 0.46656324364872298 0.14255557503506128 0.072013602450609684 0.00041268053237182752 0.010182159784130366 0.59223068449506255 0.58253615818851767 0.1228115765499575 0.010204274168435336 0.010208275396424374 0.071427655486923647 1.0000000180025095e-35 0.53413649668811214 1.0000000180025095e-35 0.049868416364522154 0.39519915744445189 0.09965952127230622 0.050000680790483629 0.049868416364522154 1.0000000180025095e-35 0.65731457364330648 0.59011148876907848 1.0000000180025095e-35 0.010182159784130366 0.32636793108542522 0.15282571674285927 0.11257110335705572 0.010182159784130366 0.65731457364330648 0.088640829774995641 0.035090904156830825 0.05262746104832431 0.14288448102738369 0.21426036293826137 0.48053028348813048 0.020322351000948636 0.020408717816329674 0.30096823638564013 0.45782337691878044 0.017542318106266427 5.3635130976215127e-05 0.010182159784130366 0.56824298494532899 0.15789625307309102
decision_type=2 2 2 2 2 2 2 2 2 2 2 2 2 2 2 2 2 2 2 2 2 2 2 2 2 2 2 2 2 2 2 2 2 2 2 2 2 2 2 2 2 2 2 2 2 2 2 2 2 2 2 2 2 2 2 2 2 2 2 2 2 2 2 2 2 2 2 2 2 2 2 2 2 2 2 2 2 2 2 2 2 2 2 2 2 2 2 2 2 2 2 2 2 2
left_child=1 2 6 -2 5 13 25 -4 -6 12 -3 30 53 19 -15 16 22 -11 29 -5 -7 72 23 24 26 55 43 57 -29 62 -12 45 -27 -34 38 -36 37 50 79 -35 -41 -20 78 -8 -33 -9 -13 -48 51 -14 65 52 60 88 -55 56 66 -24 -51 -16 61 -17 -19 -42 -65 -37 67 68 69 -1 74 -38 -22 -74 75 76 -21 -31 -43 80 -25 -82 -50 -84 -66 -23 -87 -59 -10 -32 -91 -92 93 -30
right_child=3 10 7 4 8 20 15 31 9 17 11 46 49 14 59 48 -18 18 41 70 21 85 27 34 -26 32 -28 28 92 77 89 44 33 39 35 36 71 -39 -40 40 63 42 -44 -45 -46 -47 47 -49 82 58 -52 -53 -54 54 -56 -57 -58 87 -60 -61 -62 -63 -64 64 84 -67 -68 -69 -70 -71 -72 -73 73 -75 -76 -77 -78 -79 -80 -81 81 -83 83 -85 -86 86 -88 -89 -90 90 91 -93 -94 -95
leaf_value=-0.24568890047412292 0.29598987049796133 0.29598987049796133 0.29598987049796133 -0.20600394633592739 0.29598987049796133 0.29598987049796133 -0.0016376185518138268 -0.21338174303487489 -0.18875609299890392 0.29598987049796133 -0.14503519908394696 0.29598987049796133 0.29598987049796133 0.29598987049796133 -0.11002968735885682 -0.16709025157806268 0.46867322130509664 -0.16541585470277062 0.29598987049796133 0.11121141099317343 -0.088476304461448566 0.29598987049796133 -0.20709434648294872 -0.24995338548254989 0.43483983157150691 -0.23525292182975199 -0.18859560432583922 0.38223984384592813 -0.19419216769136333 0.33756716692505739 0.15048754912851384 0.29598987049796133 0.42670789470895204 -0.2175678908221772 0.44506777681984833 -0.18200761142879077 -0.18504932176531508 0.39738474849834526 0.033135718902456687 0.31542082999383858 -0.24615824807618389 -0.0044677733213628326 0.25307809948616111 0.29594568242081898 -0.069101694855912277 -0.037278114039184476 0.0289042449644983 0.24125578799385941 -0.130605556075546 0.0096343716379167499 -0.23776154126931678 -0.25010381364622458 0.45297447954403824 0.29598987049796133 -0.060613140882072238 -0.26716389964271264 0.49957124811875525 0.14975114782216017 0.19454459219964926 0.11144461112153894 -0.22600070883905807 0.42717294210379775 0.024108771347427185 0.41026014529754584 -0.27948281846074668 -0.079082261208714949 -0.26554183158639311 0.48748756159228901 -0.27243173537879828 0.52307679621661751 -0.036902406023834121 -0.10498596356158769 0.384677968829652 0.0060553071551663305 -0.18314310957056154 0.26077442993015509 -0.13081132327415859 0.094513669648408738 0.17465194858282332 -0.24262984693687334 0.45438572914120351 -0.16475734339153003 0.43456109684880578 -0.077199013421501622 -0.096603110282311888 0.015923887824126452 0.21144574393279322 -0.085193769530364394 -0.072815721812145351 -0.038448095357677091 0.36537327087540744 0.0023765735803434845 0.058105116734675326 -0.010386730836805302
leaf_weight=2102.3335489481688 4117.4511969089508 914.21002626419067 403.19905281066895 935.98556341230869 2168.7288182973862 251.56114816665649 106.20764580368996 141.64012567698956 206.38758221268654 960.66556930541992 136.4618768543005 298.67408096790314 85.460668802261353 88.966747522354126 125.35521224141121 504.49964238703251 29.261200740933418 81.810217261314392 435.8494108915329 31.738850370049477 125.75875890254974 99.923243522644043 119.63607320189476 67.209999412298203 49.277447611093521 905.79101096093655 162.35864794254303 60.04177537560463 68.849769562482834 32.644989863038063 83.075451657176018 35.937306880950928 56.334456548094749 768.1224921643734 39.080644384026527 240.09868258237839 836.39193373918533 92.468998566269875 47.273100763559341 41.213075816631317 155.23301927745342 102.33826950192451 421.05141739547253 34.178165927529335 32.448087811470032 141.45552523434162 104.07842499017715 259.27867770195007 219.46678222715855 92.982915759086609 184.70754490792751 384.26993070542812 28.358146026730537 20.379082560539246 73.968715310096741 2611.811153203249 14.039289414882658 26.169698044657707 111.94016420841217 48.355236142873764 488.9494895786047 17.566769972443581 91.845930770039558 15.437418654561041 58.546868979930878 360.99169728159904 1270.4759847968817 36.432402461767197 798.81480775773525 77.025620594620705 305.42033052444458 310.73428571224213 14.726599171757696 45.427814394235611 227.53677362203598 13.064448356628416 161.7308414876461 89.630005836486816 76.69374130666256 420.66300031542778 17.280708163976669 94.939939364790916 13.7366985976696 48.558176055550575 116.1583506166935 53.122106552124023 137.76430320739746 179.92597073316574 162.03601039946079 170.14308039844036 24.773124381899834 46.823236882686615 126.18635052442551 175.23583732545376
leaf_count=9243 18790 4172 1840 4014 9897 1148 426 609 878 4384 563 1363 390 406 513 2143 122 336 1989 129 506 456 502 280 201 3948 675 255 289 139 335 164 234 3325 161 1019 3545 390 190 185 666 418 1843 156 131 570 417 1140 921 372 778 1634 119 93 298 11574 60 112 478 198 2087 72 373 67 252 1512 5596 158 3508 334 1234 1304 59 182 950 53 668 370 322 1776 71 399 56 202 499 216 584 756 655 691 100 189 522 726
internal_value=0 -0.130816 -0.175572 0.190627 0.13558 -0.0424629 -0.190984 0.122225 0.226623 0.177229 0.206081 0.132908 -0.00164439 -0.124887 0.0682564 -0.122087 -0.0990189 0.235994 0.192719 -0.155167 0.176888 0.11404 -0.103368 -0.12199 0.00212664 -0.233375 -0.0683057 -0.0278996 0.0350726 0.027617 -0.0101217 -0.0771073 -0.190205 -0.156512 -0.138102 -0.120816 -0.131735 -0.0904263 -0.193226 -0.184966 -0.120188 0.239884 0.199133 0.0708117 0.122758 -0.125387 0.232565 0.180431 -0.174152 0.165191 -0.14783 -0.190046 -0.167842 -0.106331 0.016413 -0.246598 -0.234104 -0.11109 0.110642 -0.0483786 -0.185255 -0.147094 -0.0651772 -0.172168 -0.111762 -0.120195 -0.236508 -0.224272 -0.232979 -0.218518 -0.0908221 -0.163362 -0.0278979 0.0987472 -0.128761 -0.0688488 -0.0911073 0.159404 0.0722635 -0.211058 -0.137041 -0.0694163 -0.0938481 0.0356497 -0.157889 0.204779 0.157034 -0.0553608 -0.137764 0.0465584 0.0108424 0.127977 -0.0212226 -0.0622331
internal_weight=0 17374.5 15337 11998.3 7880.85 2666.44 14582.3 754.68 5214.41 3045.68 2037.52 1123.31 753.155 1938.15 262.677 5554.57 3849.17 2292.53 1331.86 1675.48 728.284 476.723 3819.91 3063.86 352.022 9027.77 302.744 756.045 430.314 295.931 461.277 351.481 2116.84 1211.05 2711.84 2064.47 2025.39 878.267 647.367 1154.71 386.589 1035.93 600.083 140.386 68.3854 283.096 662.031 363.357 1705.41 290.384 785.798 1423.64 1039.37 462.771 94.3478 6910.93 4299.12 325.732 204.923 173.71 1011.02 522.066 173.656 345.376 190.143 601.09 4285.08 3014.61 2978.17 2179.36 739.491 1147.13 185.913 60.1544 434.071 206.534 193.47 122.275 179.032 600.094 179.431 112.221 281.762 62.2949 174.705 290.81 190.886 206.096 368.424 324.815 241.739 71.5964 370.272 244.086
internal_count=128675 75334 66364 53341 34551 11316 63050 3314 23235 13338 8970 4798 3164 8165 1117 23401 16167 10174 5790 7048 3151 2003 16045 12883 1458 39649 1257 3162 1792 1218 1878 1474 9176 5228 11425 8709 8548 3699 2716 4994 1669 4572 2583 582 295 1179 2920 1557 7234 1240 3309 6055 4421 1924 391 30473 18899 1370 850 711 4302 2215 709 1484 818 2531 18839 13243 13085 9577 3034 4849 747 241 1800 850 797 509 740 2526 750 470 1179 258 751 1256 800 868 1533 1315 980 289 1537 1015
shrinkage=0.2


Tree=3
num_leaves=95
num_cat=0
split_feature=2 6 2 2 8 0 6 8 2 2 6 6 6 8 1 1 2 2 8 0 6 6 3 5 5 0 5 5 6 7 7 3 0 8 2 2 3 6 6 0 1 1 6 1 1 7 7 8 0 5 9 9 4 1 5 5 7 7 0 5 5 1 0 7 0 0 3 5 3 7 5 5 7 7 1 2 6 0 5 4 6 0 6 8 3 3 8 8 0 3 9 4 5 5
split_gain=13106.6 4614.64 1397.31 2342.46 1234.33 868.34 832.886 489.034 380.675 597.497 284.171 296.828 224.211 192.906 136.928 261.84 134.793 199.658 130.134 115.777 114.078 109.673 109.012 80.1144 169.902 117.042 84.6926 135.73 72.9633 60.2146 341.11 58.6786 58.164 57.871 56.5684 91.3257 54.1008 50.6586 64.6914 48.9217 48.8247 99.5332 44.1087 43.8265 83.7762 43.2041 155.085 42.8055 40.5039 40.3585 39.9394 391.044 39.7332 38.0687 38.7993 279.967 40.1723 186.475 37.6233 37.0599 63.4799 42.2934 36.7433 36.2083 34.5461 34.1134 33.7708 51.4681 33.4495 33.2808 33.1486 56.7255 43.7206 42.4666 32.354 31.8204 59.374 32.2027 31.5128 31.2383 30.9711 29.9216 28.8709 28.0583 28.0331 27.7809 31.8209 27.7097 26.7111 28.4632 26.6488 26.6421 26.6191 122.693
threshold=1.0000000180025095e-35 1.0000000180025095e-35 0.010197987448642752 0.010204723813225255 1.0000000180025095e-35 0.2141343746630254 1.0000000180025095e-35 0.010182159784130366 0.020406438860566867 0.020410805580943391 0.010203942695819609 0.010204274168435336 1.0000000180025095e-35 1.0000000180025095e-35 0.46601780811111043 0.45631181163717111 0.03061153123818941 0.030621294114086244 0.010182159784130366 0.18473560873353909 0.010203942695819609 0.010204274168435336 0.41561362368732785 0.15789625307309102 0.1754270399235654 0.59011148876907848 0.17543875631721792 0.19265970315279787 7.1229382163050234e-05 0.071434243465786487 0.14255557503506128 0.65282006057344366 0.32787156153155078 0.010208275396424374 0.040812568363590609 0.040819789291365698 0.051146619351442719 0.020322351000948636 0.020408717816329674 0.71926696136207224 0.45630923554739594 0.44660230069745238 0.010203942695819609 0.60181782254885874 0.59223519769423716 0.14288448102738369 0.21426036293826137 0.020323585293002381 0.3855407867862512 0.31579882696288369 0.049868416364522154 1.0000000180025095e-35 0.2404392037804878 0.64831980295435543 0.17543875631721792 0.19265970315279787 0.071427655486923647 0.0016237573857941629 0.71926736555921078 0.070180320123022902 0.087615758561683535 0.26213392868275565 0.65731457364330648 0.071427655486923647 0.39519915744445189 0.04938047188315603 1.0000000180025095e-35 0.017542318106266427 0.49311006038271726 0.28586881064634334 0.19298751104701498 0.20976699272164254 0.071434243465786487 0.14255557503506128 0.59223068449506255 0.049578907075648604 7.1229382163050234e-05 0.65392132753595045 0.21250255637951421 0.34149603611024398 0.010204274168435336 0.43621416811264074 0.020322351000948636 0.010208275396424374 0.1291792757997404 0.43285935832525829 0.010208275396424374 0.020323585293002381 0.0053285974971968514 0.58049580762415032 0.15000534084025116 0.25715343605899604 0.22806720531643918 0.21052890736481222
decision_type=2 2 2 2 2 2 2 2 2 2 2 2 2 2 2 2 2 2 2 2 2 2 2 2 2 2 2 2 2 2 2 2 2 2 2 2 2 2 2 2 2 2 2 2 2 2 2 2 2 2 2 2 2 2 2 2 2 2 2 2 2 2 2 2 2 2 2 2 2 2 2 2 2 2 2 2 2 2 2 2 2 2 2 2 2 2 2 2 2 2 2 2 2 2
left_child=1 4 -2 6 5 22 13 -6 -5 12 -3 32 64 19 15 23 -11 28 -15 -4 -8 -22 53 25 -25 -7 -26 -28 -18 -24 -31 43 -12 48 -19 -36 66 -13 -39 59 41 49 -14 44 50 74 -47 -35 -9 92 51 52 63 54 56 -56 57 91 -41 61 -61 -38 79 -16 -10 -57 67 -27 -62 -48 81 -72 -73 -74 88 -37 77 -77 -75 90 -44 -33 -23 -20 -30 86 -66 -85 -32 -90 -21 -1 93 -29
right_child=2 10 3 8 7 14 20 33 9 16 11 37 42 18 31 -17 17 34 83 62 21 82 29 24 26 36 27 40 84 30 45 70 -34 47 35 75 39 38 -40 58 -42 -43 80 -45 -46 46 69 -49 -50 -51 -52 -53 -54 -55 55 65 -58 -59 -60 60 68 -63 -64 -65 85 -67 -68 -69 -70 -71 71 72 73 78 -76 76 -78 -79 -80 -81 -82 -83 -84 87 -86 -87 -88 -89 89 -91 -92 -93 -94 -95
leaf_value=-0.17664385678625563 0.27139676196603318 0.27139676196603318 -0.19722110039203308 0.27139676196603318 0.27139676196603318 -0.14761924356123571 0.27139676196603318 -0.18389336229849249 -0.14603532171617525 0.27139676196603318 -0.1194091938504066 0.27139676196603318 0.27139676196603318 0.27139676196603318 -0.01202631992172864 0.40043840760577709 -0.05545761991411137 0.27139676196603318 -0.0899606784969776 -0.083600145566293568 -0.022470353081977097 0.27139676196603318 -0.20547005881713867 0.31805281757270676 -0.19441642381495552 0.035995920067507015 0.30544819043341109 -0.064201828829279731 -0.19444019774908816 0.35290796794462753 -0.2692386269634176 -0.23129120309886689 0.037845112338264847 0.27139676196603318 0.011229789406155004 0.29479743610173992 0.085446759422122112 0.023159126796801585 0.21227980073066949 -0.17632571817851073 -0.27179289409468865 0.39785692009513918 0.0077088284813313411 -0.19970927937250899 0.38369426065542389 0.28558323741873992 -0.17539792332353865 -0.055766606851910067 -0.029909706720876901 0.10413748387494631 -0.17428258252385689 0.37890560931018469 -0.18226396681491278 -0.24670855685731563 0.5265164737668443 -0.2235728572293684 -0.24097517494608678 0.56475799595945753 -0.023739151212881761 0.35061030945771127 -0.072823624661208869 -0.20194671122104202 -0.02962705850147165 -0.22827964898389583 -0.12605449974635508 -0.1582557159025049 0.081449261123281366 -0.25772333059611197 0.069006659858317956 -0.0025007474317809172 0.40897499656503583 -0.19348365101533332 0.35696485213275886 -0.30293598134087801 -0.26599940872072775 -0.1169708311067645 0.22335647619636545 0.15858519184309278 0.013938874915283153 -0.15587522382904395 0.16597779817083591 -0.065964869298287807 0.13216644925993834 0.33167628699185797 0.18091189436296443 0.042367426275055936 0.23939264407446437 -0.0060594283070848007 -0.18960532923938542 -0.090417751762947474 0.15963196916776706 -0.22788507308917039 -0.11727507391028597 0.45788924035848633
leaf_weight=757.50897352397442 3642.7219726145267 808.80447417497635 630.77866558730602 1918.6811795085669 356.71146512031555 1100.4534977823496 222.55693584680557 132.50024306774139 215.06369931995869 849.90383863449097 132.99408526718616 264.23789508640766 75.607321411371231 78.70916023850441 121.20899179577827 45.76474404335022 180.36617344617844 385.59733919799328 122.93800185620785 309.41682992875576 184.06672438979149 88.402406573295593 837.21710400283337 52.773288503289223 138.82977914810181 70.227515146136284 46.887472733855247 231.33676345646381 8.6389697641134244 54.611013442277908 83.196657985448837 73.060198947787285 321.5611120313406 31.793847978115082 113.01488189399242 132.20494005084038 26.855310454964638 103.93479336798191 238.06169718503952 253.59052632749081 36.568575173616409 20.631919473409653 92.968619763851166 574.99444615840912 12.402388110756872 36.874231800436974 272.66405014693737 32.195507884025574 141.0870299488306 60.679648086428642 643.59436422586441 60.882692471146584 459.46922063827515 1481.0110243111849 22.018894791603088 677.4139703810215 1875.9359008222818 12.716271162033079 86.748693972826004 19.358671873807907 190.63892613351345 86.310492590069771 304.45287446677685 41.599134534597397 118.73144267499447 605.92158079147339 160.78617131710052 36.145903706550598 102.15595836937428 53.225525885820389 11.846004307270048 55.1375892162323 13.224649906158445 13.974254146218298 163.63238067924976 36.095493957400322 248.11051543056965 32.00668229162693 123.49209754168987 340.61608272790909 105.67038756608963 109.29313018918037 182.67810440063477 13.645315825939177 101.10439810156822 103.49343673884869 10.362459093332289 33.754202306270599 265.07362195849419 205.39814877510071 19.131624117493629 874.34481137990952 234.70487061142921 19.524348393082619
leaf_count=3647 18790 4172 2903 9897 1840 4900 1148 609 961 4384 563 1363 390 406 532 193 740 1989 513 1332 747 456 3948 235 618 289 213 977 36 234 388 321 1315 164 477 617 111 417 1140 1118 154 85 372 2620 52 185 1252 131 570 251 2875 264 2047 7276 97 3266 9059 57 350 81 816 379 1234 188 491 2849 685 162 437 232 50 236 57 59 768 149 1197 143 516 1500 478 474 800 57 442 430 42 141 1236 933 79 4222 976 80
internal_value=0 -0.113401 0.17032 0.119596 -0.152013 -0.165279 -0.0356777 0.108108 0.202729 0.155824 0.182099 0.114014 -0.00101522 -0.105051 -0.102358 -0.0743147 0.210074 0.167945 0.0587164 -0.130473 0.154051 0.096672 -0.205827 -0.0816174 -0.0293765 -0.102235 -0.05261 -0.0223379 0.0227795 -0.164783 -0.134762 -0.138966 -0.00816447 -0.0644371 0.212415 0.171906 -0.0538791 0.205624 0.154805 -0.0809179 -0.0478067 -0.0333577 0.141388 -0.153525 -0.133695 -0.15942 -0.103172 0.106788 -0.104485 -0.0496448 -0.138531 -0.104851 -0.152181 -0.21866 -0.210052 -0.180601 -0.220972 -0.198154 -0.137433 -0.0356947 -0.000148088 -0.133746 -0.0872282 -0.0672812 -0.0882564 -0.192734 0.023612 -0.0638105 -0.0233391 -0.14716 -0.0693012 -0.0166061 -0.0410995 0.0146576 -0.187867 0.212401 0.177952 0.0125351 -0.0182733 -0.113435 0.0919035 -0.132203 0.177571 -0.0395585 0.151364 -0.0348307 -0.0967198 0.0911675 -0.164775 -0.146302 -0.0694366 -0.204099 -0.0688625 -0.0235678
internal_weight=0 16177.8 10901.5 7258.77 14308.2 13613.9 2531.15 694.288 4727.62 2808.94 1869.59 1060.79 721.897 1853.44 5335.15 3020.97 2087.04 1237.14 249.047 1604.4 677.704 455.147 8278.76 2975.21 841.937 2133.27 789.163 650.334 290.11 1971.89 1134.68 2314.18 454.555 337.577 947.03 561.433 1032.82 606.234 341.996 765.659 603.446 566.878 274.246 1914.15 1339.16 1080.06 362.764 63.9894 273.587 546.246 1326.75 683.16 622.277 6306.87 4825.86 1305.35 3520.51 1644.57 340.339 425.319 312.154 113.166 973.617 162.808 447.651 1283.34 267.16 106.373 292.795 325.89 400.028 217.675 205.829 150.691 717.301 448.418 316.213 68.1022 137.466 669.165 198.639 182.353 271.081 170.338 109.743 232.587 129.094 47.3995 553.668 470.472 328.548 1631.85 485.566 250.861
internal_count=128675 75334 53341 34551 66364 63050 11316 3314 23235 13338 8970 4798 3164 8165 23401 13110 10174 5790 1117 7048 3151 2003 39649 12917 3589 9328 3354 2736 1218 9176 5228 10291 1878 1474 4572 2583 4428 2920 1557 3292 2523 2369 1240 8578 5958 4994 1669 295 1179 2284 5906 3031 2767 30473 23197 6212 16985 7926 1468 1824 1334 490 4145 720 1924 6115 1136 451 1253 1484 1713 918 868 632 3325 2106 1489 292 575 2911 850 795 1256 711 478 963 533 198 2557 2169 1411 7869 2033 1057
shrinkage=0.2


Tree=4
num_leaves=95
num_cat=0
split_feature=2 6 2 2 8 0 6 8 2 2 6 6 6 8 2 2 6 1 1 8 3 0 6 0 7 7 4 5 5 1 1 2 2 3 8 6 6 5 5 5 5 5 5 9 9 9 5 5 5 8 6 7 7 9 9 9 9 5 8 3 1 5 7 7 5 5 3 8 8 1 3 9 9 0 9 9 9 0 5 5 5 6 6 1 1 0 5 5 5 5 5 3 6 6
split_gain=9497.61 3283.61 1167.66 1753.17 873.868 715.258 578.805 376.015 339.596 459.597 251.579 224.983 153.388 132.363 126.347 157.775 99.8146 99.6596 177.481 99.5081 95.6761 91.0503 78.9633 69.4841 67.6978 239.88 64.493 61.8496 298.078 66.8905 96.3383 55.1657 71.8798 51.6843 50.8692 48.6898 50.8811 48.4149 97.8687 47.7247 116.625 44.916 82.0022 44.3364 161.285 44.1602 43.6461 40.2236 43.1757 39.7979 38.6944 36.6293 169.428 36.2007 320.901 55.4793 86.4135 35.8122 35.5164 34.6294 49.9422 40.0964 34.3386 311.481 48.1505 99.4193 34.9711 33.4864 33.1746 32.8285 32.016 31.9872 45.1125 30.6968 30.3813 166.282 30.3 30.0555 30.7965 67.3272 29.7071 29.0695 36.0197 29.0105 30.2299 28.8793 28.6401 28.5906 74.9454 37.806 106.273 28.4644 27.5832 28.4399
threshold=1.0000000180025095e-35 1.0000000180025095e-35 0.010197987448642752 0.010204723813225255 1.0000000180025095e-35 0.2141343746630254 1.0000000180025095e-35 0.010182159784130366 0.020406438860566867 0.020410805580943391 0.010203942695819609 0.010204274168435336 1.0000000180025095e-35 1.0000000180025095e-35 0.03061153123818941 0.030621294114086244 0.010203942695819609 0.46601780811111043 0.45631181163717111 0.010182159784130366 0.31612574856789327 0.18473560873353909 0.010204274168435336 0.35241353764981653 0.071434243465786487 0.14255557503506128 0.19290191239528173 0.10526420338592855 0.12280282866640664 0.4756817148826194 0.46602385502233767 0.040812568363590609 0.040819789291365698 0.43285935832525829 0.00011050928826051924 0.020322351000948636 0.020408717816329674 0.14035539145293313 0.15770788144187783 0.22807240313791741 0.24560535887439006 0.24561673357517536 0.26315753614740339 0.09965952127230622 0.050000680790483629 0.09965952127230622 0.05262746104832431 0.19298751104701498 0.20976699272164254 0.010208275396424374 0.010203942695819609 0.071427655486923647 1.0000000180025095e-35 0.049868416364522154 1.0000000180025095e-35 0.10329813947511558 0.14993375425634115 0.035090904156830825 5.3635130976215127e-05 0.094848700190832427 0.22334584677552377 0.19298751104701498 0.071427655486923647 1.0000000180025095e-35 0.24561673357517536 0.26315753614740339 0.026385631717257364 0.010182159784130366 0.020323585293002381 0.24271780728844186 0.60734417779238881 0.15000534084025116 0.1992487505641721 0.44121286592244402 0.049868416364522154 1.0000000180025095e-35 0.050846484393681037 0.07627108871173896 0.20976699272164254 0.19298751104701498 0.31579882696288369 0.03045134222601029 0.030612747505581153 0.24271780728844186 0.23301249621749434 0.0047553706046146206 0.42105419070656575 0.1228115765499575 0.14009757561173417 0.12280282866640664 0.10526420338592855 0.044749845681341709 0.020322351000948636 0.020408717816329674
decision_type=2 2 2 2 2 2 2 2 2 2 2 2 2 2 2 2 2 2 2 2 2 2 2 2 2 2 2 2 2 2 2 2 2 2 2 2 2 2 2 2 2 2 2 2 2 2 2 2 2 2 2 2 2 2 2 2 2 2 2 2 2 2 2 2 2 2 2 2 2 2 2 2 2 2 2 2 2 2 2 2 2 2 2 2 2 2 2 2 2 2 2 2 2 2
left_child=1 4 -2 6 5 20 13 -6 -5 12 -3 46 -10 21 -11 34 -8 18 23 -15 62 -4 -18 33 26 -26 59 -22 -29 30 37 -17 -33 -7 -16 -13 -37 -30 -39 51 -41 -42 -43 44 77 76 57 70 -49 73 -14 52 -19 54 -23 -55 -57 -12 -48 60 -25 83 63 66 -64 -66 -1 -60 -51 85 -27 -58 -73 -9 75 -44 -35 -40 79 -79 -50 -38 -83 84 -61 -68 -45 89 -89 90 91 -28 -24 -94
right_child=2 10 3 8 7 17 16 49 9 14 11 35 50 19 15 31 22 39 -20 -21 27 53 92 24 25 47 87 28 29 -31 -32 32 -34 45 -36 36 81 38 43 40 41 42 74 86 -46 -47 58 48 80 68 -52 -53 -54 55 -56 56 71 -59 67 61 -62 -63 64 -65 65 -67 69 -69 -70 -71 -72 72 -74 -75 -76 -77 -78 78 -80 -81 -82 82 -84 -85 -86 -87 -88 88 -90 -91 -92 -93 93 -95
leaf_value=-0.21825035542436033 0.25442675666086184 0.25442675666086184 -0.17238848369778337 0.25442675666086184 0.25442675666086184 -0.16292547704842986 0.25442675666086184 -0.15440225430003773 -0.072788740431323398 0.25442675666086184 0.042322173066480388 0.25442675666086184 0.25442675666086184 0.25442675666086184 -0.050634102384736493 0.25442675666086184 -0.018003023182009522 -0.11815585001751067 0.33931123278088293 -0.032242253903417041 -0.21626298170932043 -0.082260287155900058 0.25442675666086184 -0.16880089610279136 0.37344828565329824 -0.13119461909038493 -0.026916393971217867 0.6193452175111327 -0.18791289245804033 -0.17646075509969161 0.49224752486206108 0.0090055047885817686 0.18942008146154068 -0.015279932293324286 0.12196192384578664 0.018556550251738066 0.26836264105081425 0.40077287245793242 -0.14613399973026553 0.44413530426406767 -0.23058063350098876 0.36511705267556094 -0.10368742332897066 -0.17798868625611508 0.43936355340697236 -0.1639432097481564 -0.095256198257582816 0.35192057690038242 -0.040768390852881323 0.25442675666086184 0.076515189012318921 -0.1562965554375832 0.38301070146588445 -0.15353462205278531 0.51782110058921338 0.55319657685873935 -0.13430229372848682 0.36662572731426019 0.33510009041480926 -0.0049401315114181556 0.082508305607821297 0.19832134690342573 -0.2314684496753352 0.57875150391963104 0.55648901445243193 -0.1632854232781889 0.29573874683572582 -0.012530186167046424 -0.045016009661165687 -0.17429397253783005 0.010046153981826117 0.38756642059654367 -0.035253818492186111 -0.017945508901486856 -0.14684178395813308 0.36672745512951171 0.38920991933745797 -0.011202878925832369 -0.11761989896414311 0.58794253114244099 0.18270319233540455 -0.07349433948740651 0.18453753899827796 -0.098604777273256047 0.40361109628217373 -0.143909143551568 0.26712695819059634 0.40384446748865455 -0.074920887887300405 -0.2570283049844978 0.49407110966061518 -0.14441483163190069 -0.013692026172289068 0.16278718589277566
leaf_weight=1093.0503544956446 3159.6842414140701 701.55415940284729 582.6992225497961 1664.2573143839836 309.41027164459229 452.94089026749134 193.04510426521301 134.13719563186169 436.52458295226097 737.20360374450684 167.95414061844349 229.19902187585831 65.581524968147278 68.272049069404602 169.39670689404011 334.46577733755112 183.82277853786945 598.84891150891781 43.426022097468376 166.69293442368507 536.95848202705383 427.20545662939548 76.67993688583374 37.652404874563217 64.799921721220016 188.84712480008602 102.43171508610249 20.439636066555977 265.38470038771629 1367.4737933427095 10.567839093506334 112.77296245098114 407.59659084677696 184.27581618726254 114.45737963914871 103.78865137696266 99.480042695999146 16.020007431507111 204.93686974048615 17.507408663630486 68.980871334671974 17.698423236608505 191.24574385583401 241.85523797571659 24.271012037992477 98.137031778693199 212.3514174669981 16.203432902693748 110.81791250407696 27.577872037887573 192.22866234183311 1084.7223421037197 28.255593538284302 343.3192807585001 38.891126468777657 10.312865272164343 74.003720745444298 14.822364419698713 15.427542671561239 42.143623530864716 197.78456555306911 23.141454875469208 1857.382561892271 21.172719061374664 7.8925665020942679 279.80949749052525 11.227015897631647 39.367372959852219 31.938373818993568 1320.1146143972874 97.257109194993973 13.314739301800726 41.722255766391754 129.70573917031288 145.47716090083122 35.661626651883125 7.7180317491292945 113.66002942621708 110.15809185802937 8.0323320478200895 30.300491631031036 28.666958868503571 88.279045522212982 285.85168614983559 8.7482347637414914 12.778693601489065 5.9237679392099372 13.527288138866423 394.25913207232952 78.432451516389847 11.46227768063545 423.19348187744617 51.850057125091553 123.58695197105408
leaf_count=5922 18790 4172 2903 9897 1840 2138 1148 657 1924 4384 691 1363 390 406 709 1989 747 2798 193 711 2823 1865 456 168 293 865 443 103 1376 7055 50 477 2106 827 509 417 524 77 1045 75 328 75 860 1227 111 450 901 68 460 164 850 5214 121 1515 166 45 324 61 66 183 853 95 10017 98 35 1476 58 159 131 6992 428 54 176 522 658 162 35 533 519 36 124 151 465 1282 37 67 29 56 1757 356 50 1949 216 584
internal_value=0 -0.0989935 0.154372 0.106688 -0.132543 -0.144033 -0.0300531 0.0968162 0.184041 0.138465 0.162624 0.0981773 -0.00054724 -0.0887178 0.189918 0.148154 0.1347 -0.0862157 -0.0619888 0.0510531 -0.18321 -0.110162 0.0816822 -0.0680611 -0.0496667 0.0140119 -0.0696609 -0.15493 -0.141142 -0.147706 -0.108416 0.191054 0.150321 -0.12071 0.0189611 0.184053 0.133681 -0.114826 -0.088068 -0.118468 -0.0624918 -0.0818132 -0.0555057 -0.099116 -0.0624476 -0.0548052 -0.00668749 -0.0385142 0.0427178 -0.0539954 0.121772 -0.134052 -0.0955747 -0.0719449 -0.0321895 -0.110335 -0.00390626 0.0686218 -0.0582127 -0.0173202 0.0423175 -0.0563352 -0.201183 -0.185048 -0.219675 -0.14354 -0.191683 0.0853453 0.0937359 -0.170079 -0.0831818 -0.0484296 0.0670363 -0.0873198 -0.0754967 -0.0297552 0.000980305 -0.0903318 -0.0410073 0.0283439 0.00721471 0.18889 0.121286 -0.0738356 0.0652892 0.0617059 -0.167347 -0.100111 -0.0590391 -0.127321 -0.10838 -0.121517 0.154364 0.110629
internal_weight=0 14964.5 9789.59 6629.9 13263.6 12630.9 2395.42 632.769 4234.49 2570.23 1700.89 999.337 694.335 1766.43 1875.89 1138.69 628.985 5101.75 2913.35 234.965 7529.11 1531.47 435.94 2869.93 2126.85 508.226 1618.63 2925.68 2388.72 2368.28 1000.81 854.835 520.37 743.072 283.854 549.414 320.215 990.242 724.857 2188.4 476.571 459.064 390.083 708.837 461.058 290.131 449.923 443.426 157.322 323.359 257.81 1711.83 627.105 948.769 466.097 482.673 139.354 182.777 267.146 595.322 235.437 359.885 4603.43 2458.34 2145.08 287.702 2437.17 54.7949 59.5162 1344.12 286.104 129.041 55.037 263.843 372.385 226.907 191.994 436.787 231.85 121.692 141.118 216.426 116.946 336.744 50.8919 24.0057 247.779 1023.31 407.786 615.52 537.087 525.625 252.117 175.437
internal_count=128675 75334 53341 34551 66364 63050 11316 3314 23235 13338 8970 4798 3164 8165 10174 5790 3151 23401 13110 1117 39649 7048 2003 12917 9467 2238 7229 14984 12161 12058 5003 4572 2583 3450 1218 2920 1557 4953 3577 10291 2158 2083 1755 3500 2244 1312 1878 1945 652 1474 1240 8133 2919 4145 2031 2114 599 752 1126 2618 1021 1597 24665 13137 11528 1511 13039 225 295 7117 1293 554 230 1179 1680 1022 862 2133 1088 569 584 1140 616 1502 220 125 1256 4611 1813 2798 2442 2392 1256 800
shrinkage=0.2


Tree=5
num_leaves=95
num_cat=0
split_feature=2 6 2 2 0 6 2 2 8 6 8 6 8 8 2 6 7 7 7 7 6 0 6 1 1 5 5 5 5 5 5 3 8 3 2 2 5 5 5 5 5 5 5 5 5 5 5 5 3 6 8 8 7 7 5 5 5 5 1 0 6 8 3 5 5 5 5 8 8 6 1 1 3 9 9 4 0 5 8 8 9 3 5 5 5 7 0 8 8 8 1 8 8 3
split_gain=6923.58 2348.56 1005.65 1322.86 696.567 404.884 315.379 357.523 304.534 225.763 203.746 171.536 159.455 142.728 123.316 127.801 119.434 1142.77 113.992 294.511 103.615 97.2694 88.2979 88.0132 71.5338 70.7956 291.386 99.3149 162.577 97.3546 137.998 83.335 69.7788 69.0493 65.0847 78.3662 60.4371 183.95 65.3257 138.009 77.3469 116.706 69.4077 76.5345 53.6013 380.161 80.6808 373.882 53.4798 47.1591 46.909 67.2771 46.6589 608.743 46.1788 73.4142 52.5595 53.2035 42.185 42.1202 40.5587 37.1275 37.0661 35.9202 201.958 45.6248 422.147 35.8612 42.9574 34.9262 34.3244 34.2385 32.7562 32.5426 36.7566 32.4189 32.3686 31.8615 33.333 46.5318 31.7843 42.0531 31.0449 29.8186 152.677 29.2186 30.0018 28.8073 32.6086 28.3434 27.8385 27.4107 36.9616 26.8645
threshold=1.0000000180025095e-35 1.0000000180025095e-35 0.010197987448642752 0.010204723813225255 0.28641245759572037 1.0000000180025095e-35 0.020406438860566867 0.020410805580943391 1.0000000180025095e-35 0.010203942695819609 1.0000000180025095e-35 0.010204274168435336 0.010182159784130366 0.010182159784130366 0.03061153123818941 1.0000000180025095e-35 0.071434243465786487 0.14255557503506128 0.14288448102738369 0.21426036293826137 1.0000000180025095e-35 0.65731457364330648 0.010203942695819609 0.5820259308087149 0.57282143289931964 0.14035539145293313 0.15770788144187783 0.15789625307309102 0.1754270399235654 0.17543875631721792 0.19265970315279787 0.051146619351442719 1.0000000180025095e-35 0.41561362368732785 0.030621294114086244 0.040812568363590609 0.19298751104701498 0.20976699272164254 0.21052890736481222 0.22806720531643918 0.22807240313791741 0.24560535887439006 0.24561673357517536 0.26315753614740339 0.14009757561173417 0.1228115765499575 0.12280282866640664 0.10526420338592855 0.66608287930279231 0.020322351000948636 5.3635130976215127e-05 0.010182159784130366 0.071427655486923647 1.0000000180025095e-35 0.26316624938090888 0.27928790307687679 0.28071816925040588 0.2969653295628249 0.24271780728844186 0.040763785328813355 0.020408717816329674 0.010208275396424374 0.57511779654846296 0.070180320123022902 0.087615758561683535 0.1052610176622681 0.087721172224649493 0.010182159784130366 0.010208275396424374 0.010203942695819609 0.23301249621749434 0.6116493727904978 0.7739385449225723 0.09965952127230622 0.050846484393681037 0.36688303864204413 0.72010163125626248 0.017542318106266427 5.3635130976215127e-05 0.010182159784130366 0.00056235330887355827 1.0000000180025095e-35 0.38613807429906749 0.070160760217746337 0.052632601549423154 0.00084594367393521486 0.53413649668811214 0.00011050928826051924 0.010182159784130366 1.0000000180025095e-35 0.59223068449506255 0.00041268053237182752 0.010182159784130366 0.2914045721488972
decision_type=2 2 2 2 2 2 2 2 2 2 2 2 2 2 2 2 2 2 2 2 2 2 2 2 2 2 2 2 2 2 2 2 2 2 2 2 2 2 2 2 2 2 2 2 2 2 2 2 2 2 2 2 2 2 2 2 2 2 2 2 2 2 2 2 2 2 2 2 2 2 2 2 2 2 2 2 2 2 2 2 2 2 2 2 2 2 2 2 2 2 2 2 2 2
left_child=1 4 -2 5 8 21 -5 20 16 -3 23 77 -10 -12 -9 34 52 33 62 -20 91 50 -7 24 25 31 -27 -28 -29 -30 -31 75 76 -18 -16 -36 -32 -38 -39 -40 -41 -42 -43 -44 45 46 47 58 -21 -13 59 -52 53 71 -45 -56 -57 -58 70 -4 -51 -14 -19 83 -65 66 -66 -34 -69 -22 -33 -1 -46 74 82 80 -24 -11 85 -80 81 -6 -59 84 -60 -79 -87 -37 -89 -23 -64 -8 -93 -54
right_child=2 9 3 6 10 22 7 14 12 11 13 49 61 -15 15 -17 17 18 19 48 69 89 32 -25 -26 26 27 28 29 30 36 44 67 -35 35 87 37 38 39 40 41 42 43 54 72 -47 -48 -49 -50 60 51 -53 93 -55 55 56 57 73 63 -61 -62 -63 90 64 65 -67 -68 68 -70 -71 -72 -73 -74 -75 -76 -77 -78 78 79 -81 -82 -83 -84 -85 -86 86 -88 88 -90 -91 -92 92 -94 -95
leaf_value=-0.15289112047692055 0.24220036971517184 0.24220036971517184 -0.18800695232044579 0.24220036971517184 -0.15353136547882809 0.24220036971517184 -0.085710817718115104 0.24220036971517184 0.24220036971517184 0.10862858047508428 0.24220036971517184 0.24220036971517184 -0.14246269039187778 -0.018245106333227651 -0.04390011421179222 0.19105534518340941 0.63816941478517986 -0.19404974215993059 0.32849543120287839 -0.17011279219470554 0.24220036971517184 -0.011995131907756952 -0.037015525753965252 -0.13478383978481157 0.53089521649541604 0.37673414079878043 -0.1741656567085195 0.32720022176332914 -0.18037424592210435 0.31999346336492063 -0.15261637548093276 -0.019705050959331061 0.28005134914207647 0.33512867119056389 0.24220036971517184 -0.049230196805439962 0.33477276513589982 -0.16794984947527694 0.38472807296152883 -0.20670524479381866 0.39823095377800988 -0.22197884006617163 0.37541214299782366 -0.17815586887238519 -0.21392644471222969 0.40353162065950121 -0.21526653334689946 0.44803400279514194 -0.023415947632707299 0.014867252921752106 0.24220036971517184 -0.070512449870674732 -0.21521666242052095 0.49855599290410535 0.38924470999883742 -0.21494639946408212 0.40154068885903788 -0.043780816601923858 -0.14681128726212364 -0.094630189038907062 0.16957127986453535 0.1448848782067535 -0.089315957434702914 0.37933665769160108 -0.16666147553725064 -0.17779901663613917 0.50271410395267069 -0.023710346737474779 0.20804220485574323 0.062481127284857066 0.35319418394104601 -0.20098160778283508 0.044112413216220031 -0.12733137949285392 0.39164475327065751 -0.14665244755946172 0.18206586372521219 -0.12620560806621003 0.30049994775161404 -0.019439362526788285 0.11010095644048759 0.040555458624112299 0.17232916972290055 -0.21847811417236157 0.52269522792911927 -0.067639079078908745 0.13135845841382549 0.29049529597041979 0.012999259719058888 0.12722829458441076 -0.23128612924293326 0.28374904517101401 -0.028009054876035517 -0.17496924367114583
leaf_weight=1665.7805206179619 2703.4821419417858 600.26224035024643 244.91798269748688 1423.968214944005 63.747632727026939 165.17283123731613 337.47963213920593 630.76454019546509 114.52750319242477 80.321181505918503 150.20943886041641 196.10676740109921 96.295661926269531 191.42715921998024 178.28915883600712 597.59525997936726 57.277297899127007 1333.3838165998459 64.207576230168343 341.99795877933502 56.112721413373947 298.72915802896023 192.94634854793549 607.02664639055729 8.3945476412773115 70.798625305294991 188.45841813087463 52.26014655828476 155.44196800887585 48.263673365116119 131.01543205976486 63.556384816765785 64.031072154641151 63.329643249511719 109.77950368821621 93.175353810191154 58.587056770920753 120.78983671963215 34.007415160536766 84.103568911552429 27.942997135221958 60.471282884478569 21.536213062703609 56.5223618298769 197.4093731790781 61.750062569975853 218.21049530804157 50.777934551239014 140.13713380694389 103.65173064172268 36.113571986556053 115.63590861856937 1222.7155946344137 55.652833074331284 20.016369804739952 41.266191825270653 14.518638946115969 84.599033191800117 325.98421117663383 915.58267326653004 195.90183463692665 22.117395833134651 261.42749826610088 35.665465325117111 232.01064440608025 234.58248506486416 44.995082437992096 61.542615234851837 66.629642501473427 188.74321219325066 11.689751252532004 918.82457026839256 21.856804579496384 53.791065633296967 11.939594924449919 47.908236145973206 31.360209628939629 145.17256359755993 26.199759989976883 59.428180336952209 123.10096641629934 149.09223601222038 38.776012569665909 185.67184868454933 14.218860894441603 84.277864053845406 47.32047763466835 27.480078890919685 44.156761676073074 72.731492534279823 70.051373466849327 19.279918387532234 72.088812470436096 1450.1662126854062
leaf_count=9454 18790 4172 1327 9897 291 1148 1533 4384 796 335 1044 1363 512 841 740 3547 282 7683 321 1872 390 1234 883 3072 38 315 932 256 773 246 602 278 348 293 763 410 262 546 144 382 121 277 95 253 950 272 1068 222 674 417 251 495 7414 258 96 182 66 380 1582 4487 1140 121 1311 155 1112 1128 195 283 338 850 51 5609 97 236 51 219 151 610 121 241 540 659 173 928 62 378 193 135 195 371 391 93 298 8181
internal_value=0 -0.0865313 0.140806 0.0954541 -0.115689 -0.0253898 0.167898 0.122969 -0.151328 0.146413 -0.0520882 0.0851406 0.0739439 0.0962665 0.172299 0.130327 -0.158192 -0.120458 -0.153157 -0.0738873 -0.000134667 -0.0750871 0.118462 -0.0645327 -0.0522282 -0.053644 -0.0184265 -0.0398761 -0.0171956 -0.0341177 -0.00908388 -0.0769017 0.0693913 0.479045 0.0501932 0.111287 -0.0275544 -0.00507425 -0.0347792 -0.00550541 -0.0312499 0.00295765 -0.0244199 0.0104134 -0.0959231 -0.0822431 -0.103407 -0.0830516 -0.127474 0.165955 -0.100663 0.00390742 -0.174753 -0.155895 -0.014042 0.0209745 -0.00912646 0.0325847 -0.106535 -0.114337 0.11604 -0.0887914 -0.179171 -0.116685 -0.0808161 -0.112896 -0.0579323 0.157825 0.0967649 0.103667 0.0382262 -0.169987 -0.188205 0.004258 0.0565682 0.00726045 -0.00638584 -0.00533784 -0.0305971 0.0784531 0.0292098 -0.0175755 0.0241412 -0.154012 -0.118829 -0.0643352 0.00391698 0.0240868 0.119447 0.0152646 -0.119318 -0.0594013 0.0377757 -0.193381
internal_weight=0 13830.9 8747.79 6044.31 12292.3 2265.39 3778.91 2354.94 7877.89 1538.64 4414.39 938.38 232.941 341.637 1681.24 1050.48 7644.95 2331.81 2211.21 546.343 673.704 1683.71 581.683 4072.76 3465.73 3457.33 1375.11 1304.31 1115.85 1063.59 908.147 2082.23 416.51 120.607 452.881 274.592 859.883 728.868 670.281 549.491 515.483 431.38 403.437 342.965 1698.38 1479.11 1417.36 1199.15 482.135 495.66 1312.25 151.749 5313.14 2640.26 321.429 264.907 244.891 203.624 1148.37 1160.5 299.554 118.413 1664.86 1073.13 547.254 511.588 277.006 192.203 128.172 244.856 75.2461 2584.61 219.266 189.106 135.315 383.849 224.307 442.72 362.399 85.6279 335.941 212.84 123.375 525.875 340.203 276.771 131.598 164.812 71.6368 371.461 331.479 428.848 91.3687 2672.88
internal_count=128675 75334 53341 34551 66364 11316 23235 13338 45172 8970 21192 4798 1429 1885 10174 5790 43743 12827 12252 2867 3164 8165 3151 19307 16235 16197 6388 6073 5141 4885 4112 9809 2003 575 2243 1503 3866 3264 3002 2456 2312 1930 1809 1532 8100 7053 6781 5713 2546 2920 6560 746 30916 15321 1437 1184 1088 906 5491 5814 1557 633 9385 5162 2590 2435 1307 969 621 1240 329 15063 1047 840 604 1709 1034 1878 1543 362 1490 950 553 2572 1644 1181 571 740 330 1605 1702 1924 391 15595
shrinkage=0.2


Tree=6
num_leaves=95
num_cat=0
split_feature=2 6 2 2 0 2 6 2 8 6 8 8 6 2 2 8 5 5 6 0 0 5 5 5 5 7 7 1 1 2 6 3 6 3 4 5 6 5 5 5 5 0 0 8 5 5 0 3 1 5 6 7 6 1 5 5 6 6 0 3 4 8 3 5 5 5 3 5 5 5 5 5 5 5 5 5 5 5 5 3 7 8 8 1 4 0 9 1 8 1 7 7 5 5
split_gain=5087.29 1697.52 882.376 1007.52 549.038 294.896 281.125 278.35 216.439 204.452 161.767 132.426 130.017 120.485 108.016 107.409 87.5494 627.437 79.3239 76.43 71.6752 68.117 712.813 101.414 369.244 75.171 424.305 59.64 77.7883 58.0557 55.5115 53.5506 51.2789 50.6369 79.4879 48.0637 46.1972 42.4865 40.5274 40.0309 610.522 37.5091 37.1664 36.3478 35.752 648.79 34.4425 34.2385 36.0192 32.4246 31.8647 31.0675 29.5463 29.4603 33.4324 462.69 29.2504 27.2958 25.7293 27.0941 26.6768 25.4174 25.4094 25.2847 24.9401 112.506 50.7006 30.3504 174.241 38.8707 203.286 52.3378 200.16 54.1927 191.532 39.9622 126.937 40.9675 93.0272 27.3103 24.8103 24.6562 29.1435 24.5725 24.4723 23.7261 22.6418 22.3627 23.1227 22.1593 33.3369 96.9279 29.7206 25.1038
threshold=1.0000000180025095e-35 1.0000000180025095e-35 0.010197987448642752 0.010204723813225255 0.2141343746630254 0.020406438860566867 1.0000000180025095e-35 0.020410805580943391 1.0000000180025095e-35 0.010203942695819609 1.0000000180025095e-35 0.010182159784130366 0.010204274168435336 0.03061153123818941 0.030621294114086244 0.010182159784130366 0.10526420338592855 0.12280282866640664 0.010203942695819609 0.52449674955960857 0.28641245759572037 0.1228115765499575 0.14009757561173417 0.14035539145293313 0.15770788144187783 0.071434243465786487 0.14255557503506128 0.5820259308087149 0.57282143289931964 0.040812568363590609 1.0000000180025095e-35 0.67291188174109851 0.010204274168435336 0.5376597158153692 0.19290191239528173 0.088563070275385555 0.020322351000948636 0.1052610176622681 0.20976699272164254 0.1052610176622681 0.087721172224649493 0.07627108871173896 0.71926736555921078 0.0002167692207205551 0.087615758561683535 0.070180320123022902 0.53413649668811214 0.082678300604464267 0.22334584677552377 0.19298751104701498 0.020408717816329674 1.0000000180025095e-35 0.03045134222601029 0.59223068449506255 0.070160760217746337 0.052632601549423154 0.030612747505581153 0.020322351000948636 0.55874841696994637 0.4894171433871955 0.15089355873455704 0.010208275396424374 0.74340203647167835 0.090350704187442746 0.070180320123022902 0.087615758561683535 0.020964258523313104 0.087721172224649493 0.1052610176622681 0.10526420338592855 0.12280282866640664 0.1228115765499575 0.14009757561173417 0.14035539145293313 0.15770788144187783 0.15789625307309102 0.1754270399235654 0.17543875631721792 0.19265970315279787 0.41836505626619841 0.076446231645014504 1.0000000180025095e-35 0.010182159784130366 0.41689033046543561 0.50347955551800527 0.27690617183407751 0.0031887180293808373 0.53364636912959373 0.00016825976048131106 0.3487987695880333 0.071434243465786487 0.14255557503506128 0.19298751104701498 0.20976699272164254
decision_type=2 2 2 2 2 2 2 2 2 2 2 2 2 2 2 2 2 2 2 2 2 2 2 2 2 2 2 2 2 2 2 2 2 2 2 2 2 2 2 2 2 2 2 2 2 2 2 2 2 2 2 2 2 2 2 2 2 2 2 2 2 2 2 2 2 2 2 2 2 2 2 2 2 2 2 2 2 2 2 2 2 2 2 2 2 2 2 2 2 2 2 2 2 2
left_child=1 4 -2 6 8 -5 20 19 16 -3 27 -12 85 -9 46 -10 39 51 -8 -7 -4 -19 80 -24 -25 41 -27 28 33 -16 -31 -28 86 34 47 -35 -14 -37 49 40 44 -26 87 -21 45 53 -15 48 -6 62 81 -18 -52 54 55 -1 -54 -34 59 60 -49 -17 -33 -50 66 -66 -36 79 -69 -70 -71 -72 -73 -74 -75 -76 -77 -78 -79 -67 -23 -38 -83 -62 -13 -11 -20 -22 -89 -39 -91 -92 -93 -94
right_child=2 9 3 5 10 7 18 13 15 12 11 84 36 14 29 61 17 21 32 43 42 22 23 24 25 26 31 -29 -30 30 -32 38 57 35 64 37 50 89 -40 -41 -42 -43 -44 -45 -46 -47 -48 58 63 -51 52 -53 56 -55 -56 -57 -58 -59 -60 -61 83 -63 -64 -65 65 67 -68 68 69 70 71 72 73 74 75 76 77 78 -80 -81 -82 82 -84 -85 -86 -87 -88 88 -90 90 91 92 93 -95
leaf_value=-0.17364791759756806 0.23312302540253227 0.23312302540253227 -0.10996624730057857 0.23312302540253227 -0.12472610622673899 -0.071266695073713693 0.23312302540253227 0.23312302540253227 0.23312302540253227 -0.083874511305475033 0.23312302540253227 0.0063432095295945252 0.23312302540253227 -0.078000454002101927 0.23420924244625391 -0.1223182913389057 0.83473182296491943 -0.20448461468535736 -0.10382143979813555 0.012590454306739702 -0.020320425422983419 0.86255540230467964 -0.22059278051256365 0.43349967902252501 -0.18316052379126901 0.39399724647460532 -0.14195275030872304 -0.11452807611324455 0.45046389253693819 0.020188277023253792 0.16658691333698711 0.1672703965253842 0.23792037706707109 -0.14611668350333243 -0.010079653121174828 0.38605313940413349 -0.064711747613187362 0.06620616979193876 -0.10689771097911818 -0.22853337089857895 0.78684478642503519 -0.11908922574875327 0.098746984277991223 0.14645941049577935 -0.22623077040532094 0.84984423430644529 0.066898126919011217 -0.2110053323724797 0.059251908678097404 0.50591400756666161 0.24411906903123115 0.48880523813591453 -0.096871989314894588 -0.23395812620911924 -0.21359212773687025 0.81467206105703027 0.14599100546330876 0.080034615069190407 -0.00029959507429353025 0.12758704333850454 0.018599362698405578 0.14449291842885251 -0.059992715149177159 0.32015841611474061 0.34438781679633879 -0.19679117228638077 -0.16383540981883982 0.42149277325824763 -0.16634257591454937 0.43038109848647105 -0.18615390816234512 0.39341090566403553 -0.18753425950862573 0.32513744199690148 -0.17862756443953071 0.32647432927735476 -0.18864051427440798 0.3015151541894977 -0.078338917533094576 0.0080986208615017093 0.53585558528992761 0.36929609633566957 0.0095276328317906861 -0.23082733210283268 -0.19600682231177632 0.023280716290266665 0.039302436913090565 -0.13020078296195581 0.059241917062003983 -0.077358277472904149 0.30120579980756923 -0.079082592606424251 0.30093156631079415 0.013567444238749966
leaf_weight=373.33083361387253 2290.4270758479834 508.55038639903069 719.93968188762665 1206.4053629413247 41.715999707579613 311.46188719570637 139.93668350577354 534.39235234260559 87.643271289765835 111.15125381946564 136.64548972994089 178.71991151571274 166.14433764666319 110.68478775024414 247.97400414198637 78.025014236569405 16.940496936440468 543.29153236746788 75.74929367005825 203.18046227842569 621.11036919057369 22.639728501439095 506.2941250950098 46.813913464546204 1071.3484532982111 66.844791226089001 1025.5537715777755 727.13049169629812 12.280753955245016 162.32287009060383 286.38993670046329 35.024192534387112 60.240753315389156 99.556533709168434 113.14451524615288 11.28603273630142 64.054141849279404 147.19266514480114 115.03159895539284 526.51488395035267 26.509808525443077 554.7282696813345 87.309533953666687 135.05779189616442 482.84428851306438 24.821675837039948 161.16235269606113 78.701488152146339 219.63527064025402 6.4448897317051879 77.586169719696045 26.835212826728821 27.300164103507996 332.06495904922485 283.41430446505547 19.960678443312645 72.559139505028725 160.48186625540257 230.02000588178635 18.503024205565453 59.577223300933838 17.481635630130768 44.914144560694695 15.935592144727705 25.261436656117439 143.46468338370323 354.75659741461277 28.119936212897301 186.84676641225815 31.835285484790802 165.61054523289204 36.738826751708984 162.99852207303047 48.323910549283028 148.01328362524509 31.74952308088541 120.10440556704998 27.108086213469505 530.02863407880068 31.788269460201263 15.778169259428976 13.903224587440489 25.572002366185188 21.500238686800003 27.599096685647964 322.37078867852688 106.19683238863945 156.92128220200539 30.8359200283885 253.43622523546219 42.36471676081419 175.53418037295341 12.818817190825937 236.61848768591881
leaf_count=2420 18790 4172 4016 9897 199 1535 1148 4384 719 512 1121 803 1363 491 1989 447 94 3621 309 956 2876 130 3376 222 7111 311 6342 3958 54 740 1843 184 456 504 515 49 258 705 614 3555 151 3326 383 673 3263 144 727 407 976 32 524 132 151 2327 1864 109 465 800 1088 89 303 100 241 70 116 766 1910 120 1001 149 920 172 881 230 815 162 672 149 2654 163 80 56 103 116 124 1366 438 734 156 1258 236 874 65 1055
internal_value=0 -0.0764577 0.12877 0.085453 -0.102141 0.153965 -0.0211536 0.109602 -0.141021 0.132157 -0.0520815 0.0804143 0.0738507 0.156888 0.114825 0.0732392 -0.147383 -0.130451 0.103406 0.000218192 -0.0629739 -0.138582 -0.128385 -0.137863 -0.123744 -0.132678 -0.096703 -0.0619822 -0.0520904 0.156546 0.113627 -0.123436 0.0583259 -0.0536933 -0.0670843 -0.0144089 0.149521 0.000504266 -0.0291541 -0.180916 -0.164667 -0.161303 -0.0252229 0.066044 -0.181301 -0.160311 0.00790148 -0.00766742 0.0465678 0.0743726 0.100086 0.622673 0.151532 -0.185167 -0.161225 -0.123488 0.0795956 0.123126 -0.0444998 -0.101527 -0.128059 -0.0734809 0.0395804 0.0769014 -0.08572 -0.0745711 -0.126655 -0.0808234 -0.0717224 -0.0810346 -0.0687971 -0.0813034 -0.06559 -0.0813746 -0.0622613 -0.0841055 -0.0643725 -0.0826957 -0.0598567 -0.159627 0.72838 0.0119096 0.136239 -0.047544 -0.020725 -0.00419295 -0.0202841 -0.0386042 -0.099088 -0.00450897 -0.0189501 0.0127247 -0.0160336 0.0283354
internal_weight=0 12673 7808.18 5517.75 11283.8 3359.03 2158.72 2152.63 6351.09 1389.19 4932.67 342.964 880.641 1502.93 968.534 183.15 6167.94 4098.48 542.605 649.7 1616.12 4054.71 3511.42 3473 2966.7 2919.89 1293.81 4589.7 3862.57 696.687 448.713 1226.97 402.669 3850.29 2871.48 978.808 447.119 879.251 201.415 2069.46 1542.95 1626.08 896.177 338.238 1516.44 1033.59 271.847 685.589 277.287 86.3832 280.975 43.7757 177.445 1008.77 676.706 393.292 99.8593 220.723 408.302 178.282 159.779 95.5066 79.9383 235.571 2185.89 1717.99 467.901 1692.73 1517.48 1489.36 1302.51 1270.68 1105.07 1068.33 905.328 857.004 708.991 677.241 557.137 175.253 38.4179 103.529 39.4752 81.0775 206.319 433.522 181.946 808.868 187.757 867.965 720.772 467.336 424.971 249.437
internal_count=128675 75334 53341 34551 66364 23235 11316 13338 40915 8970 25449 2048 4798 10174 5790 1266 39649 25816 3151 3164 8165 25590 21969 21759 18383 18161 7724 23401 19443 4572 2583 7413 2003 19389 14643 4746 2920 4242 1071 13833 10278 10437 4149 1629 10127 6864 1218 3248 1245 457 1557 226 1140 6720 4393 2529 616 1256 2003 915 826 547 425 1046 11395 8970 2425 8854 7925 7805 6804 6655 5735 5563 4682 4452 3637 3475 2803 929 210 417 159 419 927 1878 747 3766 890 4193 3488 2230 1994 1120
shrinkage=0.2


Tree=7
num_leaves=95
num_cat=0
split_feature=2 6 2 2 0 2 2 6 6 8 2 5 5 8 6 8 5 5 5 5 5 5 5 5 8 8 5 5 5 5 5 5 6 5 5 6 5 5 0 0 8 8 8 6 1 5 5 5 5 5 5 5 5 5 5 5 5 5 5 5 5 5 5 0 0 5 5 5 5 6 8 3 8 5 5 5 5 5 5 9 9 9 9 0 5 5 5 5 5 9 9 5 5 5
split_gain=3742.46 1229.02 787.781 765.546 460.014 281.288 219.814 194.552 186.686 176.695 117.828 117.281 562.708 115.981 100.015 89.5794 89.4262 554.51 145.158 331.436 95.1221 765.148 94.2386 531.894 82.0821 81.1492 76.7573 465.829 79.7979 495.537 94.1179 356.357 70.7143 66.1916 295.923 59.2438 58.4895 309.446 56.7788 53.8479 48.3161 57.6933 46.9863 44.2756 41.4693 47.0497 364.175 51.0763 304.937 41.0401 175.616 77.4731 164.452 67.1298 172.839 55.8965 184.159 66.2871 88.3004 53.1225 110.572 73.9471 85.3156 42.9124 40.8699 37.1565 302.266 34.7793 204.329 33.1876 31.5646 31.3923 30.7321 30.1601 150.981 40.609 65.0159 47.6374 45.9064 29.9468 210.883 39.3467 56.2035 31.2913 29.9088 45.8951 34.8472 47.0139 29.7814 28.4452 30.7974 28.1949 155.134 29.8506
threshold=1.0000000180025095e-35 1.0000000180025095e-35 0.010197987448642752 0.010204723813225255 0.35778159069607324 0.020406438860566867 0.020410805580943391 1.0000000180025095e-35 0.010203942695819609 1.0000000180025095e-35 0.03061153123818941 0.10526420338592855 0.12280282866640664 0.010182159784130366 0.010204274168435336 1.0000000180025095e-35 0.1228115765499575 0.14009757561173417 0.14035539145293313 0.15770788144187783 0.15789625307309102 0.1754270399235654 0.17543875631721792 0.19265970315279787 1.0000000180025095e-35 0.010182159784130366 0.19298751104701498 0.20976699272164254 0.21052890736481222 0.22806720531643918 0.22807240313791741 0.24560535887439006 0.010203942695819609 0.24561673357517536 0.26315753614740339 1.0000000180025095e-35 0.26316624938090888 0.27928790307687679 0.18078637696378538 0.2141343746630254 0.010182159784130366 0.010208275396424374 1.0000000180025095e-35 0.020322351000948636 0.59223068449506255 0.1052610176622681 0.087721172224649493 0.087615758561683535 0.070180320123022902 0.1228115765499575 0.14009757561173417 0.12280282866640664 0.10526420338592855 0.14035539145293313 0.15770788144187783 0.035086295781965239 0.017545449789829838 0.017542318106266427 1.0000000180025095e-35 0.15789625307309102 0.1754270399235654 0.17543875631721792 0.19265970315279787 0.71926736555921078 0.51001120572251157 0.070160760217746337 0.052632601549423154 0.28071816925040588 0.2969653295628249 0.010203942695819609 0.010182159784130366 0.61992988758724044 0.010208275396424374 0.19298751104701498 0.20976699272164254 0.22807240313791741 0.24560535887439006 0.24561673357517536 0.26315753614740339 0.049868416364522154 1.0000000180025095e-35 0.10111691746311387 0.14993375425634115 0.65392132753595045 0.26316624938090888 0.27928790307687679 0.28071816925040588 0.2969653295628249 0.31579882696288369 0.15000534084025116 0.1992487505641721 0.035090904156830825 0.05262746104832431 0.070180320123022902
decision_type=2 2 2 2 2 2 2 2 2 2 2 2 2 2 2 2 2 2 2 2 2 2 2 2 2 2 2 2 2 2 2 2 2 2 2 2 2 2 2 2 2 2 2 2 2 2 2 2 2 2 2 2 2 2 2 2 2 2 2 2 2 2 2 2 2 2 2 2 2 2 2 2 2 2 2 2 2 2 2 2 2 2 2 2 2 2 2 2 2 2 2 2 2 2
left_child=1 4 -2 7 9 -5 35 38 -3 11 -8 44 -13 -11 -10 64 -14 -18 -19 -20 -21 39 -23 -24 49 -26 -25 -28 -29 -30 -31 -32 -9 -33 -35 -7 -36 -38 -4 -22 -17 -42 -34 -16 45 46 47 48 65 51 -51 52 55 -52 -55 56 57 58 -6 -56 -61 -62 -63 91 -12 66 -1 -39 -69 -37 -44 -65 -72 -64 -75 -76 -77 -78 -79 80 83 -81 -83 -40 -80 -86 -87 -88 -89 -84 -91 -57 -93 -94
right_child=2 8 3 5 24 6 10 32 14 13 15 12 16 -15 43 40 17 18 19 20 21 22 23 26 25 -27 27 28 29 30 31 33 42 34 36 69 37 67 79 -41 41 -43 70 -45 -46 -47 -48 -49 -50 50 53 -53 -54 54 59 63 -58 -59 -60 60 61 62 73 71 -66 -67 -68 68 -70 -71 72 -73 -74 74 75 76 77 78 84 81 -82 82 89 -85 85 86 87 88 -90 90 -92 92 93 -95
leaf_value=-0.15164090098292415 0.22623529206560083 0.22623529206560083 -0.1073602092991553 0.22623529206560083 -0.02789787877197521 -0.045216342349739785 0.22623529206560083 0.22623529206560083 -0.0034395619701513939 0.22623529206560083 -0.053818023991213652 0.45049527987590071 -0.18989926576673888 -0.070275698425942598 0.22623529206560083 0.24367370218788956 0.46073459267349026 -0.21239698148866892 0.35175911059722814 -0.18698854246197552 0.69108095250520774 -0.1957438512341419 0.46108036297049138 -0.19062316365011306 0.22623529206560083 -0.0037822075536724691 0.51160598368087729 -0.20159228787189051 0.55823466280107514 -0.22012579837590462 0.4890342017990677 -0.20805870724290876 -0.012432335860756172 0.46709798835839617 -0.21556601290172583 0.23242845801247755 0.58382352632094003 -0.19497361682798356 -0.07130849116590196 0.33125965850969386 -0.016292111787425269 0.16454689352041088 0.25843238820268238 0.086973124793573137 -0.20621008941639218 -0.2053439294510756 0.46680007788902711 -0.21121012699242742 0.48401703062566598 0.34618348360185525 -0.14052407750928281 -0.18399751481195631 0.35534708376635998 0.33376633164490788 -0.13738895812048679 -0.17405688585271359 0.37524372507528142 -0.13187099135070182 0.33989279730647409 0.3380949932169896 -0.16648475535604565 0.30293047444774635 -0.10951747050314098 0.0045007401221493605 0.079907725389992482 -0.19871921309377172 0.51006500408908284 0.59134037202149714 -0.10735367096566482 0.043277130309579373 -0.029298737160963192 0.3387318135113816 0.17459760791454207 0.33908515570665232 -0.097055527664356656 0.35579693724282602 -0.18533733210394615 0.33681530507568996 -0.13636826170759053 -0.096031800191620387 0.39859403431851681 0.36274348061496897 -0.098313645462299426 0.034010970014562346 0.34786655800929489 -0.17456385824472476 0.37735057373079356 -0.10666084211106147 0.067690598038185418 0.33092999606475637 0.0024846835841402706 0.45204125793035588 -0.13546614627247994 -0.058068513093971041
leaf_weight=413.71210715174675 1926.2917950749397 427.70033895969391 506.72167441248894 1014.6093611419201 123.50756095349789 410.53261920809746 449.433913230896 117.6893550157547 429.82190375030041 94.00796040892601 149.83107440173626 71.36179256439209 566.14413011074066 120.28319066762924 139.73047986626625 167.39746490865946 68.126764833927155 527.92845662683249 63.815808914601803 520.29573033004999 44.079670675098896 437.33568139374256 66.932498335838318 398.91896594315767 94.623061567544937 174.47831478714943 49.462362855672836 317.40392451733351 45.569086171686649 262.00311551988125 41.35556323081255 216.97230236232281 217.18629805743694 37.226886421442032 166.00190164148808 46.579209893941879 26.735811099410057 149.42709697782993 309.61842297017574 26.72112063318491 98.899185530841351 246.32711824774742 51.639888912439346 263.57031020522118 631.09512017667294 390.64218535274267 40.140545025467873 338.31629441678524 32.247441068291664 52.446374222636223 180.00787048041821 178.20296384394169 40.049524918198586 55.92474577948451 149.72088022530079 139.88042014837265 48.381051987409592 164.73391965031624 33.110870145261288 35.302667755633593 123.64567251503468 35.475464880466461 113.4037701934576 76.606286436319351 234.49217797070742 298.87944994866848 29.588208884000778 17.245107896625996 574.2351910918951 182.39307004213333 60.095915406942368 13.173576176166533 58.209144622087479 49.194961830973625 206.94372141361237 20.889713674783707 51.493894517421722 17.509183809161186 50.71119949221611 365.63421296328306 49.944661021232605 17.381844222545624 78.572311282157898 177.54907634109259 17.147364422678947 35.181247502565384 15.373125180602072 57.028276413679123 125.26926930248737 15.140857644379137 46.461964443325996 21.594872355461121 347.47006687521935 467.49933004751801
leaf_count=2866 18790 4172 3097 9897 528 1924 4384 1148 1878 917 806 336 4171 717 1363 1316 312 3925 319 3594 241 3013 348 2651 923 757 255 2129 229 1762 202 1465 1034 181 1094 390 131 979 1536 151 536 1743 348 1557 5032 2856 183 2501 144 262 993 1027 186 290 855 753 210 817 183 199 721 216 577 334 1389 2185 129 86 3632 850 283 56 338 242 1036 97 267 83 248 1781 229 92 372 786 90 169 75 271 576 68 204 95 1966 2526
internal_value=0 -0.0676558 0.11735 0.0759992 -0.0902631 0.140564 0.0967933 -0.0175046 0.118826 -0.119041 0.142652 -0.124619 -0.106835 0.0598015 0.0636846 0.10077 -0.115437 -0.105048 -0.114709 -0.099811 -0.108292 -0.094063 -0.110442 -0.0946983 -0.028783 0.0770979 -0.110854 -0.094138 -0.110297 -0.0914408 -0.111294 -0.0880966 0.0904742 -0.10819 -0.0858709 0.000245501 -0.107919 -0.0846407 -0.0522902 0.55528 0.155497 0.112741 0.0492023 0.135223 -0.163017 -0.145357 -0.125031 -0.146381 -0.11806 -0.0381345 -0.0128369 -0.0594323 -0.0443931 -0.0268863 -0.00925539 -0.0555421 0.0114667 -0.0433016 0.0498571 -0.0266271 -0.00925448 -0.0225938 -0.000231997 -0.0787786 0.0277738 -0.14422 -0.107475 -0.108762 -0.0869827 0.0817557 0.12797 0.0535431 0.0710235 -0.0143804 0.00230156 -0.0254252 0.0125249 -0.00687081 0.0220084 -0.025972 0.00720117 -0.0600279 0.0235244 -0.0329246 0.00367845 0.0320863 0.00883201 0.0414726 0.0131481 -0.0185391 0.0832106 -0.090945 -0.0770481 -0.0910677
internal_weight=0 11661 6998.63 5072.34 10400.2 3000.5 1985.89 2071.85 1260.82 7084.21 1346.38 6869.92 4695.3 214.291 833.123 896.947 4623.94 4057.79 3989.67 3461.74 3397.92 2877.63 2806.83 2369.49 3315.98 269.101 2302.56 1903.64 1854.18 1536.77 1491.2 1229.2 504.821 1187.84 970.872 639.505 933.645 767.643 1567.03 70.8008 512.624 345.226 387.131 403.301 2174.62 1543.53 1152.88 1112.74 774.427 3046.88 1392.67 1654.21 1476.01 1340.22 1160.22 1435.96 369.733 321.352 156.618 1104.29 954.57 919.267 795.621 1066.22 384.323 742.18 443.3 740.907 591.48 228.972 169.945 89.7799 118.305 760.146 646.742 597.547 390.603 369.714 318.22 1060.3 537.112 523.191 157.557 487.167 300.71 249.999 232.852 197.671 182.298 140.175 61.6028 976.445 836.564 814.969
internal_count=128675 75334 53341 34551 66364 23235 13338 11316 8970 48736 10174 47102 31206 1634 4798 5790 30870 26699 26387 22462 22143 18549 18157 15144 17628 1680 14796 12145 11890 9761 9532 7770 3151 7568 6103 3164 5922 4828 8165 392 3595 2279 2003 2920 15896 10864 8008 7825 5324 15948 7267 8681 7654 7005 6012 7468 1738 1528 711 5722 4867 4668 3947 5730 2195 5180 2995 4697 3718 1240 969 390 621 3731 3154 2912 1876 1779 1512 5068 2551 2517 736 2322 1429 1181 1091 922 847 644 272 5340 4587 4492
shrinkage=0.2


Tree=8
num_leaves=95
num_cat=0
split_feature=2 6 2 2 0 2 6 2 8 8 2 5 5 8 8 2 6 5 5 2 5 5 5 5 5 5 8 8 0 5 5 4 5 5 8 8 8 2 6 2 2 0 1 5 5 9 9 5 5 8 1 0 1 1 5 5 5 0 6 6 5 5 5 5 1 1 4 5 5 0 1 1 1 1 1 9 9 9 9 3 1 1 1 1 9 9 9 9 7 7 7 8 8 4
split_gain=2767.27 896.113 704.76 578.603 373.886 267.851 172.609 169.144 153.355 134.118 116.089 95.3266 491.399 92.828 91.4687 79.9695 74.2315 74.0381 371.835 63.0301 59.0184 317.698 63.1683 325.689 77.8498 243.452 57.4856 68.2568 54.6931 54.1595 202.949 53.8606 49.1124 194.206 48.9668 48.0783 56.0383 46.8913 43.981 40.7454 46.4402 39.0047 34.7571 32.6695 235.064 54.9828 117.092 34.7531 290.856 31.8682 31.0832 30.7765 29.838 63.6622 32.6128 29.2747 128.015 28.5582 27.3899 28.8822 26.9914 262.504 34.4596 184.388 26.0061 84.8168 24.9064 24.1555 121.683 24.0311 23.8044 22.9723 70.1022 40.4278 76.5181 33.555 115.886 34.8044 117.155 22.7964 22.5884 72.313 27.6481 63.5408 25.1376 240.128 43.823 130.805 26.8898 67.5287 22.3226 21.8025 29.5037 21.0758
threshold=1.0000000180025095e-35 1.0000000180025095e-35 0.010197987448642752 0.010204723813225255 0.35778159069607324 0.020406438860566867 0.010203942695819609 0.020410805580943391 1.0000000180025095e-35 1.0000000180025095e-35 0.03061153123818941 0.15789625307309102 0.1754270399235654 0.010182159784130366 0.010182159784130366 0.030621294114086244 0.010204274168435336 0.17543875631721792 0.19265970315279787 0.040812568363590609 0.19298751104701498 0.20976699272164254 0.21052890736481222 0.22806720531643918 0.22807240313791741 0.24560535887439006 1.0000000180025095e-35 0.010182159784130366 0.33771819360246802 0.24561673357517536 0.26315753614740339 0.42264861931942443 0.26316624938090888 0.27928790307687679 0.010208275396424374 1.0000000180025095e-35 0.010182159784130366 0.040819789291365698 0.020322351000948636 0.049578907075648604 0.051031191407322263 0.26759347946465906 0.28155220882096926 0.087721172224649493 0.1052610176622681 0.10208726798183322 0.14993375425634115 0.10526420338592855 0.12280282866640664 0.020323585293002381 0.27184729216094555 0.72010163125626248 0.41689033046543561 0.40777461519364455 0.36842776726988374 0.28071816925040588 0.2969653295628249 0.72612208066275907 0.020408717816329674 0.03045134222601029 0.1228115765499575 0.14009757561173417 0.14035539145293313 0.15770788144187783 0.40776260498015099 0.39807273776742852 0.35438216561511876 0.29829430810606211 0.31578420332977453 0.40485818674004259 0.54662068138644815 0.39805362090006652 0.38835004333241441 0.38765840411216917 0.37864120463541401 1.0000000180025095e-35 0.049868416364522154 0.050000680790483629 0.09965952127230622 0.1155533998261729 0.41747746387372614 0.42694928633213902 0.42719068835757407 0.43635674578130856 0.049868416364522154 1.0000000180025095e-35 0.050000680790483629 0.09965952127230622 0.14255557503506128 0.072013602450609684 0.54531426018793583 0.010208275396424374 0.020323585293002381 0.25129039816762994
decision_type=2 2 2 2 2 2 2 2 2 2 2 2 2 2 2 2 2 2 2 2 2 2 2 2 2 2 2 2 2 2 2 2 2 2 2 2 2 2 2 2 2 2 2 2 2 2 2 2 2 2 2 2 2 2 2 2 2 2 2 2 2 2 2 2 2 2 2 2 2 2 2 2 2 2 2 2 2 2 2 2 2 2 2 2 2 2 2 2 2 2 2 2 2 2
left_child=1 4 -2 8 9 -5 -3 35 28 11 -9 31 -13 -10 -11 79 -8 -14 -19 -17 -20 -22 -23 -24 -25 -26 52 -28 -4 -27 -31 42 -32 -34 -15 69 -37 -21 -18 -39 -41 -42 50 45 -45 -44 -47 -46 -49 -36 93 -30 53 64 80 -35 -57 91 -40 -60 -50 -62 -63 -64 65 71 -58 -68 -69 -7 -61 72 73 74 75 -6 -77 -78 -79 -12 -54 -82 -83 -84 85 88 -86 -88 89 -85 -70 -38 -93 -1
right_child=2 6 3 5 26 7 16 10 13 14 15 12 17 34 -16 19 38 18 20 37 21 22 23 24 25 29 27 -29 51 30 32 -33 33 55 49 36 57 39 58 40 41 -43 43 44 47 46 -48 48 60 -51 -52 -53 54 -55 -56 56 66 -59 59 70 61 62 63 -65 -66 -67 67 68 90 -71 -72 -73 -74 -75 -76 76 77 78 -80 -81 81 82 83 84 86 -87 87 -89 -90 -91 -92 92 -94 -95
leaf_value=-0.028160854194909043 0.22092345611982767 0.22092345611982767 -0.084469066679464425 0.22092345611982767 -0.048381504067589287 -0.092716554838317478 -0.002751917233808372 0.22092345611982767 0.23507821594665021 0.22092345611982767 -0.19867154078567006 0.42653920770356635 -0.18070852913247817 -0.034486180674138923 -0.058139502531601363 0.2239051598931516 0.22092345611982767 0.3918187828548475 -0.17437356861853212 -0.032051530866880597 0.42241654739218454 -0.1860795991715895 0.44182816179356427 -0.2064731641851667 0.40742479562668471 -0.19290967740953954 0.22092345611982767 -0.0030268872407730307 -0.023038430067350166 0.39274283651884839 -0.20100844104822801 -0.17173505841157227 0.4438930756058751 -0.17882665724351243 0.26155471494207311 0.26140018422365741 -0.076930336035724509 0.24388925777594542 -0.0075267569589855966 -0.11367747733352314 -0.25990264898055437 0.14925768915562093 -0.16998411431596896 0.41962028239464061 -0.17977715794900173 0.67989758128929134 -0.089674341177176653 0.36945859520978763 -0.17659060901651133 0.045149676048927681 0.44089740223456553 0.095120380125186699 -0.18001600912432839 0.34992372270271876 0.10645617948936692 0.45139024315648762 -0.15760647783918375 0.22096541372188644 0.23168362122763542 0.078289092766803958 0.3712225192413855 -0.19272437359681141 0.32202335190298492 -0.15225189722743049 -0.15024040128410854 0.34281163073579279 -0.17164739171348412 0.57436275963747951 -0.072394599932450232 0.0035132679984592723 -0.38407898312592881 -0.14175667301793279 0.36564596872692623 -0.17433593095827077 0.3763452170113698 0.33939084414413601 -0.083587527415163912 0.35071451277388588 -0.017407744050103501 0.013523566897568201 0.34613445751965188 -0.19066714493960379 0.32764482625433961 -0.055868890462801746 -0.15008982227872417 0.34445789941956029 0.38369710036902771 -0.076660693296687371 -0.13292313893456439 0.35674211664610023 0.36867397024490517 0.31343605889761994 -0.035273453114912652 -0.19327620952629057
leaf_weight=185.78665540367365 1611.040320545435 357.70410948991776 705.44733892381191 848.56125877797604 590.37233857065439 181.48843570053577 429.78534570336342 375.88082838058472 127.87869779020548 78.622883126139641 22.115583702921867 72.965393926948309 384.72325740754604 178.51661542057991 116.74105571210384 187.99991382658482 116.86258418858051 63.37242790684104 353.83349094539881 104.02786858379841 48.037718936800957 279.25417833775282 45.936709381639957 227.20307961851358 39.84128512442112 190.12679251283407 79.137318566441536 174.42087543010712 759.30765397846699 35.572874017059803 144.71786311268806 1124.7025876790285 27.912887051701546 132.22235575318336 46.177854284644127 51.349973872303963 84.442940182983875 81.945999249815941 101.96214953064919 40.885811522603035 9.9186080247163755 154.27105394005775 818.35196686163545 33.134640857577324 297.44803860038519 9.2861882522702199 53.300678044557571 49.725299447774887 298.49255610257387 66.301010370254517 5.1596123501658431 99.759957626461983 57.298396579921246 19.30336744338274 50.556921035051346 17.94263332337141 160.8109013736248 23.584222979843616 61.859375953674316 85.139229938387871 43.3340063393116 261.68152974545956 37.414770033210516 265.22893108427525 55.251199170947075 26.671486828476191 68.171300455927849 12.374881602823733 296.17692191898823 242.50932388752699 4.6997617334127417 56.928301408886909 19.37177737057209 62.579718101769686 20.225331000983715 42.170114159584045 156.1796402707696 40.132220722734928 250.00151213631034 240.25620459020138 18.02254419028759 59.32466234266758 17.482821475714445 490.23937895148993 252.0683012381196 62.193482007831335 26.851349603384733 306.50108752772212 177.76712670922279 16.396627701818943 4.6620409041643134 15.946425050497053 24.797590099275112 37.09641445428133
leaf_count=1286 18790 4172 4387 9897 3085 964 1878 4384 1146 917 95 392 3013 833 717 1989 1363 348 2651 477 255 2129 229 1762 202 1465 923 757 3750 181 1094 9520 131 979 342 333 380 617 417 248 48 1193 6884 159 2540 51 426 248 2476 341 26 517 322 98 232 86 1109 120 524 587 204 2222 198 2022 303 139 474 60 1964 1163 29 322 102 346 106 231 844 214 1367 1123 90 333 87 2826 1518 344 132 1788 1039 80 25 90 114 291
internal_value=0 -0.0606283 0.106851 0.0675273 -0.0809793 0.127955 0.105426 0.085113 -0.0144278 -0.108963 0.128516 -0.114165 -0.0851681 0.093051 0.0541675 0.0872352 0.0538039 -0.0999089 -0.0854382 0.128739 -0.0999456 -0.0847314 -0.0992076 -0.0819248 -0.0996451 -0.0781758 -0.0244178 0.0668696 -0.0432035 -0.0959141 -0.0754364 -0.135631 -0.0946903 -0.0733288 0.0306367 0.000459003 0.081258 0.0829869 0.119405 0.124681 0.0770471 0.124541 -0.118679 -0.126494 -0.106174 -0.156166 0.0245092 -0.120075 -0.101497 0.133994 -0.0444079 -0.00931714 -0.0324719 -0.0106561 -0.0515085 -0.0941809 -0.0742 0.0190801 0.0726355 0.126516 -0.127341 -0.103148 -0.139575 -0.0936189 -0.0159296 -0.0100616 -0.0915931 -0.0637586 -0.0402765 -0.037677 0.0541012 -0.0176642 -0.0116827 -0.017975 -0.00907205 -0.0162975 0.0224787 -0.00746489 0.0335121 -0.00436257 -0.0568895 -0.0519451 -0.0570375 -0.0511631 -0.056135 -0.0318058 -0.0871624 -0.0395791 -0.0659978 -0.0425153 -0.0655594 -0.0189535 0.101205 -0.0556425
internal_weight=0 10606.8 6284.41 4673.37 9448.81 2689.98 1158.01 1841.42 1983.39 6321.37 1217.3 6126 2605.86 418.874 195.364 841.421 800.308 2532.89 2148.17 579.049 2084.8 1730.96 1682.93 1403.67 1357.74 1130.53 3127.45 253.558 1564.51 1090.69 900.565 3520.14 864.992 720.274 290.995 624.119 200.121 391.049 370.523 287.021 205.075 164.19 2395.44 2167.4 1286.46 880.939 62.5869 1253.33 955.877 112.479 228.043 859.068 2873.89 1339.19 1534.7 692.361 560.139 148.771 253.661 151.698 906.152 607.659 564.325 302.644 1319.88 1264.63 542.196 381.385 313.214 423.998 89.839 1237.96 1181.03 1161.66 1099.08 1078.86 488.483 446.313 290.134 262.372 1484.15 1426.85 1408.82 1349.5 1332.02 746.597 585.421 333.352 684.403 506.636 300.839 125.187 40.744 222.883
internal_count=128675 75334 53341 34551 66364 23235 8970 13338 11316 48736 10174 47102 18549 2662 1634 5790 4798 18157 15144 4572 14796 12145 11890 9761 9532 7770 17628 1680 8654 7568 6103 28553 5922 4828 1516 3164 1037 2583 2920 2106 1489 1241 19033 17430 10069 7361 477 9910 7370 683 1603 4267 15948 7157 8791 4697 3718 704 1557 1140 7122 4646 4442 2220 7059 6756 3632 2523 2049 2127 616 6617 6295 6193 5847 5741 2656 2425 1581 1218 8559 8237 8147 7814 7727 4289 3438 1920 3945 2906 1989 584 204 1577
shrinkage=0.2


Tree=9
num_leaves=95
num_cat=0
split_feature=6 2 2 0 6 6 2 2 8 6 6 5 5 0 8 8 8 6 6 0 9 9 9 9 8 9 9 5 5 0 4 1 1 5 3 8 8 8 8 8 3 7 7 4 9 9 9 9 7 9 9 9 9 5 5 1 0 4 1 5 3 5 5 4 5 0 7 0 9 9 0 5 5 1 5 5 7 1 8 8 5 4 4 3 5 5 8 8 1 0 5 5 6 5
split_gain=2057.27 936.027 575.884 304.779 300.443 267.694 195.83 216.569 94.2129 93.6053 101.841 59.7252 206.323 57.3538 56.2791 77.9252 52.896 47.4235 76.8568 47.2975 46.3558 446.548 55.644 300.847 42.3097 41.8733 202.351 40.5397 77.1913 38.6244 37.1233 36.9501 54.2734 32.9993 31.0807 29.8549 35.1068 28.148 34.1173 27.2302 26.9579 29.6253 101.636 30.1958 28.0364 100.311 29.0578 36.3555 26.1427 25.3351 208.617 40.8897 321.632 24.3523 205.543 24.2871 24.066 23.9182 33.6168 37.3161 27.3153 23.4791 145.712 22.0544 22.3655 21.9858 63.0595 33.8066 23.6622 24.7726 23.2669 21.8834 121.696 21.6453 21.6122 94.6541 23.0322 21.3671 20.702 67.2225 22.7038 21.9697 20.5433 34.5426 28.0656 55.0397 20.5148 36.4032 20.4643 20.2265 25.5648 37.4915 19.9397 19.2296
threshold=1.0000000180025095e-35 1.0000000180025095e-35 0.010197987448642752 0.2141343746630254 0.010203942695819609 0.010204274168435336 0.010204723813225255 0.020406438860566867 1.0000000180025095e-35 0.020322351000948636 0.020408717816329674 0.10526420338592855 0.12280282866640664 0.55874841696994637 1.0000000180025095e-35 0.010182159784130366 0.010182159784130366 0.03045134222601029 0.030612747505581153 0.029879645645899348 0.049868416364522154 1.0000000180025095e-35 0.050000680790483629 0.09965952127230622 0.010208275396424374 0.10001222297154691 0.14993375425634115 0.14035539145293313 0.15770788144187783 0.34738267143718693 0.096517628906302735 0.56217438538643083 0.55340184642698487 0.67566178944311461 0.49724263922193718 1.0000000180025095e-35 0.010182159784130366 5.3635130976215127e-05 0.010182159784130366 0.020323585293002381 0.018619059316826812 0.071427655486923647 1.0000000180025095e-35 0.24909830375727512 0.10208726798183322 0.14993375425634115 0.15000534084025116 0.1992487505641721 0.42881500825830177 0.09965952127230622 0.050000680790483629 0.049868416364522154 1.0000000180025095e-35 0.1052610176622681 0.087721172224649493 0.59223068449506255 0.72612208066275907 0.052841676519916218 0.30096823638564013 0.035090904156830825 0.16283165326672455 0.087615758561683535 0.070180320123022902 0.10851450878575457 0.035086295781965239 0.71926696136207224 0.071427655486923647 0.71926736555921078 0.00056235330887355827 0.049868416364522154 0.75350438650608542 0.14009757561173417 0.1228115765499575 0.4756817148826194 0.31579882696288369 0.33329117035437733 0.28586881064634334 0.33009569010613121 1.0000000180025095e-35 0.010182159784130366 0.019135064688323749 0.397237125499522 0.42856179580604947 0.66608287930279231 0.14035539145293313 0.15770788144187783 1.0000000180025095e-35 0.010182159784130366 0.59223068449506255 0.71453854489269852 0.070180320123022902 0.087615758561683535 0.040425761756301373 0.052632601549423154
decision_type=2 2 2 2 2 2 2 2 2 2 2 2 2 2 2 2 2 2 2 2 2 2 2 2 2 2 2 2 2 2 2 2 2 2 2 2 2 2 2 2 2 2 2 2 2 2 2 2 2 2 2 2 2 2 2 2 2 2 2 2 2 2 2 2 2 2 2 2 2 2 2 2 2 2 2 2 2 2 2 2 2 2 2 2 2 2 2 2 2 2 2 2 2 2
left_child=1 3 -3 8 -2 29 31 -8 11 -7 86 30 -13 20 34 -16 -10 -12 -19 74 21 48 -22 -24 -17 -25 -27 71 -29 -6 57 32 37 49 56 65 -37 40 -39 -26 -4 42 43 63 -43 -46 -47 -48 82 50 51 52 -30 54 55 61 -9 -1 59 -59 93 62 -32 -42 -65 89 67 68 -67 -70 -69 72 -21 -53 76 -76 77 -14 81 -80 -81 -31 84 -84 -5 -86 -11 -88 -77 90 -15 -92 -20 -61
right_child=4 2 6 13 5 9 7 14 16 10 17 12 19 35 15 24 -18 18 92 27 22 -23 23 25 39 26 -28 28 33 78 53 -33 -34 -35 -36 36 -38 38 -40 -41 41 44 -44 -45 45 46 47 -49 -50 -51 -52 73 -54 -55 -56 -57 -58 58 -60 60 -62 -63 -64 64 -66 66 -68 70 69 -71 -72 -73 -74 -75 75 88 -78 -79 79 80 -82 -83 83 -85 85 -87 87 -89 -90 -91 91 -93 -94 -95
leaf_value=-0.1579464826438387 0.21859393120901893 0.21677596521952913 -0.20995967115834135 -0.086183351873243677 -0.064373857766734793 0.22170638599247444 0.21677596521952913 -0.05640431254374953 0.21677596521952913 -0.060964456518006131 0.22706299141710362 0.33231112164369131 -0.033851782428304326 -0.073696177062440582 0.23366153555219565 -0.062302758029796491 -0.040517969240481178 -0.059714462645053673 0.23045039911333226 -0.14758747637195063 -0.13932335033236251 0.31766952526158793 0.35653493761240029 -0.13991206318040436 0.2637275436563094 0.35077430648512259 -0.10937264533869751 0.29163760813966089 -0.090544738304301139 0.027400437433187569 -0.13458164756913879 -0.098488878558722751 0.52961256479009611 0.52175356962645947 0.051996929181968125 0.21677596521952913 0.017177709272316467 0.22789208452224707 0.0044796912125261599 0.016510929404562148 -0.11548279593265938 -0.083227121908949708 0.49034530719362057 -0.076799142927358774 0.5816744585938376 -0.12917047720884917 0.42761694163368147 -0.007441382353307738 0.3941472490623763 -0.12444186922349812 0.39334731785306765 -0.072829983996171951 0.40535784597414937 -0.20205221506486359 0.38324989552000277 -0.2022694279443461 0.13810016732650748 -0.13727867781479206 -0.1037525506825028 0.74932455439659273 -0.056998313137029792 -0.1905281390257883 0.38413698840650529 0.26793051415090374 0.042346016129688996 -0.0692836685814818 -0.14013903287433238 0.14416785066794419 0.34105292214572747 0.0093617363274094735 -0.082327298436067259 -0.19060233103802326 0.34087117182636623 -0.1881771363415625 0.8348776709142508 -0.0085946477628065163 0.088774952111311145 -0.1525394152740692 0.24497279536636835 -0.23379675708286582 0.032247064026458321 -0.09490068318626399 -0.14244867450154672 0.047617099294377664 0.3037886127265963 -0.030710995994858582 0.26829239157886908 -0.01131095372377482 -0.20866846103839679 0.13409218724550559 0.29908189603177188 0.0086515468557927765 0.12123847496610973 0.30147578273563691
leaf_weight=37.638318784534931 1225.9684447497129 682.36504497379065 35.103440508246422 451.01724376529455 219.91263620555401 482.14130317419767 303.30508643388748 389.00180864334106 51.336242265999317 122.00114040821791 219.78623084723949 44.247022021561861 64.572870600968599 154.35725503414869 103.30117782950401 109.3274188414216 84.684752628207207 83.084654964506626 100.18448546528816 192.64454302936792 425.62262634932995 134.58159689977765 66.610817641019821 326.50299392640591 34.402875669300556 45.646000731736422 235.20129917562008 23.731393970549107 673.55627425387502 348.83552197366953 430.72628789395094 318.99582525342703 7.1030037552118293 3.7310536652803412 201.57783128321171 49.122857689857483 124.79605169594288 34.658843114972115 129.50108443200588 36.977960348129272 30.699351906776428 446.66963554918766 16.97688752412796 155.26385243237019 11.723417744040487 58.451541528105736 9.6713002026081067 37.372858911752701 4.870685786008834 306.18367886357009 39.245468342676759 107.28951334953308 56.720585633069277 332.01286724209785 29.203657817095518 302.29524379223585 27.226053051650524 10.184511020779608 32.278448097407818 5.6459586620330873 5.7489542588591567 201.59332849085331 22.808660309761763 19.900577232241631 150.76571670174599 248.27012488991022 185.75692998617887 84.435928706079721 9.5712052732706052 152.69954696297646 23.106466397643089 178.12356552481651 22.818983912467957 165.38523501157761 4.6913674697279921 51.656803458929062 17.072716750204563 1004.5487961024046 69.614950507879257 14.178020864725111 135.02490355819464 70.651365593075752 259.44258757680655 44.861526474356651 20.947748094797134 324.19827300496399 25.3366484567523 70.321387834846973 33.848900705575943 47.470198038965464 18.257111143320799 679.00345873087645 201.1034703925252 11.956366442143915
leaf_count=328 16439 9557 197 2889 1125 6158 4248 2292 719 604 2485 226 540 894 1146 518 547 572 1053 1887 2859 892 402 2168 336 272 1546 142 5425 1803 3927 1918 41 22 1235 688 536 332 580 187 150 2594 74 823 57 341 45 184 22 2563 215 773 307 3462 144 3285 167 81 307 42 47 2046 103 84 745 1334 1170 397 55 788 106 1818 122 1432 31 390 93 9540 652 58 766 334 1777 242 136 2029 201 384 290 263 97 3887 1826 61
