tree
version=v3
num_class=1
num_tree_per_iteration=1
label_index=0
max_feature_idx=9
objective=binary sigmoid:1
feature_names=Column_0 Column_1 Column_2 Column_3 Column_4 Column_5 Column_6 Column_7 Column_8 Column_9
feature_infos=[0:1] [0:0.99029126213592222] [0:1] [0:1] [0:0.99929123711340195] [0:0.98245614035087725] [0:1] [0:1] [0:1] [0:1]
tree_sizes=1552 1735 1729 1748 1746 1747 1743 1737 1743 1745 1750 1741 1745 1746 1746 1750 1738 1758 1744 1738 1742 1736 1745 1737 1745 1749 1750 1751 1743 1730 1743 1741 1752 1739 1738 1745 1745 1742 1742 1743 1750 1741 1745 1737 1740 1753 1738 1753 1758 1742 1755 1743 1740 1750 1747 1761 1731 1745 1751 1751 1759 1759 1744 1746 1744 1758 1751 1757 1767 1748 1739 1750 1756 1758 1761 1739 1753 1745 1751 1757 1738 1746 1737 1754 1752 1753 1738 1763 1741 1754 1740 1737 1738 1759 1766 1744 1742 1769 1742 1744 1733 1754 1743 1734 1756 1740 1743 1746 1739 1730 1736 1749 1744 1744 1759 1731 1745 1744 1756 1735 1708 1733 1747 1747 1740 1740 1745 1765 1708 1739 1766 1733 1755 1723 1727 1712 1739 1717 1750 1743 1700 1701 1738 1747 1727 1751 1696 1721 1709 1706 1736 1749 1719 1719 1741 1748 1734 1725 1717 1711 1723 1707 1702 1704 1750 1743 1723 1718 1705 1716 1729 1727 1744 1720 1727 1714 1708 1731 1729 1729 1731 1714 1717 1707 1704 1742 1757 1730 1762 1752 1736 1713 1717 1715 1747 1703 1729 1719 1692 1709 1701 1737 1726 1715 1712 1741 1764 1727 1716 1712 1731 1729 1747 1731 1722 1728 1726 1722 1737 1724 1730 1729 1732 1696 1715 1738 1690 1706 1728 1714 1703 1730 1710 1721 1707 1735 1738 1718 1718 1737 1717 1715 1736 1707 1739 1715 1699 1711 1710 1736 1694 1700 1718 1696 1699 1728 1717 1716 1720 1728 1727 1715 1709 1722 1730 1691 1732 1754 1694 1713 1755 1714 1720 1719 1716 1706 1720 1726 1737 1714 1737 1721 1730 1732 1713 1712 1740 1729 1723 1704 1759 1691 1709 1722 1715 1731 1733 1699 1724 1732 1719 1719 1718 1746 1719 1684 1708 1735 1703 1717 1705 1717 1712 1728 1734 1694 1720 1737 1719 1747 1731 1712 1708 1733 1685 1712 1730 1707 1737 1720 1717 1728 1711 1735 1718 1713 1710 1711 1727 1716 1714 1727 1722 1721 1709 1700 1712 1690 1724 1730 1736 1732 1720 1732 1718 1702 1719 1721 1717 1713 1726 1694 1721 1718 1732 1703 1727 1723 1709 1736 1715 1724 1730 1717 1720 1716 1728 1710 1688 1707 1729 1754 1725 1730 1736 1702 1720 1735 1722 1705 1735 1725 1732 1724 1721 1717 1703 1723 1723 1697 1721 1712 1719 1733 1697 1726 1735 1716 1725 1700 1718 1716 1725 1724 1727 1718 1739 1712 1710 1692 1718 1701 1693 1692 1703 1713 1694 1734 1725 1702 1710 1704 1711 1696 1728 1702 1731 1727 1732 1726 1717 1719 1706 1684 1719 1693 1712 1732 1701 1728 1708 1732 1708 1696 1726 1725 1728 1719 1717 1715 1725 1719 1729 1744 1712 1706 1729 1711 1715 1701 1727 1726 1728 1718 1703 1709 1707 1711 1712 1698 1731 1698 1710 1690 1731 1701 1709 1743 1718 1694 1727 1708 1702 1728 1705 1730 1705 1719 1709 1715 1715 1721 1699 1713 1720 1712 1714 1707 1718 1712 1710 1707 1718 1725 1713 1730 1717 1715 1720 1695 1738 1720 1725 1724 1707 1722 1697 1733 1718 1715 1697 1733 1713 1703 1735 1728 1736 1704 1707 1710 1706 1725 1730 1704 1695 1700 1711 1714 1712 1737 1722 1735 1728 1695 1728 1715 1695 1694 1717 1721 1710 1706 1705 1708 1722 1708 1702 1719 1704 1692 1728 1708 1710 1713 1724 1714 1703 1701 1725 1695 1720 1737 1701 1719 1706 1717 1727 1706 1685 1699 1723 1734 1728 1712 1717 1724 1737 1710 1723 1704 1733 1707 1724 1711 1696 1695 1700 1706 1694 1714 1729 1714 1698 1708 1703 1715 1721 1691 1718 1729 1716 1715 1706 1720 1715 1701 1738 1697 1703 1714 1694 1687 1706 1704 1714 1728 1722 1723 1718 1712 1712 1719 1708 1695 1694 1725 1732 1714 1710 1713 1698 1718 1721 1735 1726 1733 1685 1696 1714 1706 1727 1740 1687 1716 1718 1749 1717 1722 1741 1714 1714 1708 1711 1727 1724 1736 1707 1722 1723 1713 1709 1736 1713 1698 1712 1726 1730 1710 1718 1710 1707 1721 1721 1701 1719 1738 1705 1702 1722 1711 1726 1701 1716 1703 1734 1717 1701 1733 1719 1723 1693 1715 1720 1715 1703 1721 1735 1726 1713 1720 1707 1699 1716 1725 1716 1704 1699 1722 1729 1714 1727 1715 1722 1722 1709 1710 1704 1727 1714 1702 1715 1697 1713 1716 1723 1709 1716 1721 1707 1729 1696 1699 1703 1721 1709 1724 1694 1703 1701 1725 1738 1703 1719 1696 1723 1693 1699 1705 1726 1717 1727 1716 1712 1703 1712 1712 1720 1713 1711 1721 1696 1720 1714 1708 1709 1703 1717 1733 1733 1704 1702 1721 1717 1701 1714 1696 1702 1721 1691 1694 1725 1704 1722 1733 1705 1711 1715 1715 1710 1717 1705 1706 1724 1690 1703 1715 1720 1705 1703 1711 1716 1704 1718 1709 1703 1690 1707 1731 1715 1712 1717 1739 1701 1732 1716 1711 1733 1725 1708 1709 1698 1721 1717 1717 1718 1716 1715 1715 1714 1718 1709 1702 1705 1702 1712 1712 1710 1716 1710 1713 1727 1729 1717 1722 1713 1714 1698 1724 1719 1724 1719 1703 1707 1705 1711 1702 1726 1715 1695 1696 1699 1712 1710 1732 1703 1715 1698 1721 1707 1704 1701 1728 1736 1713 1721 1718 1712 1731 1710 1715 1724 1708 1697 1725 1715 1721 1706 1704 1721 1716 1721 1701 1735 1722 1720 1722 1715 1719 1706 1719 1701 1717 1712 1711 1698 1716 1713 1709 1713 1704 1721 1712 1700 1720 1720 1704 1708 1694 1721 1732 1720 1691 1704 1724 1722 1713 1725 1738 1742 1709 1713 1703 1716 1688 1710 1695 1686 1703 1702 1725 1716 1726 1708 1726 1701 1710 1692 1692 1712 1703 1727 1698 1694 1703 1732 1707 1704 1714 1707 1717 1719 1722 1707 1697 1703 1701 1718 1710 1726 1721 1693 1693 1712 1708 1715 1702 1732 1717 1711 1717 1714 1716 1721 1724 1702 1715 1715 1715 1726 1703 1733 1734 1723 1699 1724 1723 1688 1726 1713 1729 1705 1712 1713 1704 1705 1706 1723 1710 1699 1723 1719 1711 1694 1702 1713 1729 1710 1699 1722 1715 1706 1714 1704 1720 1723 1690 1708 1722 1730 1712 1722 1727 1716 1708 1710 1694 1715 1733 1723 1704 1710 1707 1727 1685 1711 1713 1718 1730 1721 1718 1727 1723 1701 1721 1720 1718 1737 1710 1722 1712 1715 1696 1726 1699 1715 1716 1701 1721 1728 1711 1704 1702 1715 1706 1722 1715 1717 1707 1715 1725 1697 1722 1702 1704 1704 1715 1727 1710 1704 1739 1729 1710 1725 1709 1709 1698 1705 1719 1717 1713 1720 1725 1700 1712 1717 1717 1708 1721 1701 1695 1701 1709 1710 1714 1708 1730 1725 1703 1724 1716 1710 1719 1705 1713 1701 1720 1705 1706 1724 1715 1726 1705 1722 1705 1727 1709 1719 1713 1722 1715 1707 1705 1719 1714 1727 1704 1712 1715 1715 1707 1710 1717 1700 1704 1702 1708 1732 1715 1718 1701 1717 1707 1703 1716 1708 1713 1710 1707 1701 1712 1713 1714 1707 1721 1722 1734 1727 1696 1724 1705 1715 1713 1726 1714 1708 1717 1718 1700 1710 1719 1712 1700 1711 1727 1721 1723 1728 1714

Tree=0
num_leaves=15
num_cat=0
split_feature=2 8 0 2 2 8 5 8 2 2 0 8 0 3
split_gain=40044.4 8676.25 4978.47 3293.96 6633.43 1948.62 1645.25 1140.04 813.387 1660.19 695.845 450.097 378.023 354.488
threshold=1.0000000180025095e-35 1.0000000180025095e-35 0.29297781734630063 0.010190167955222975 0.010204439600757793 1.0000000180025095e-35 0.035086295781965239 0.010191311153557203 0.020372297381331266 0.020409017063373471 0.65736234258157056 0.010213238437682825 0.52719095355582046 0.42128955279453956
decision_type=2 2 2 2 2 2 2 2 2 2 2 2 2 2
left_child=1 2 13 -2 5 10 -4 -3 -6 12 -5 -9 -10 -1
right_child=3 7 6 4 8 -7 -8 11 9 -11 -12 -13 -14 -15
leaf_value=-0.16350730566649199 0.1999860066859864 0.1999860066859864 0.077578318269193286 -0.10788019157275806 0.1999860066859864 0.11883301333787111 -0.063866829287442306 -0.033228702685306602 -0.071204774363949577 0.16395874281062126 0.023581512303963929 0.14533347429493809 0.065849944073102601 -0.12225338257148884
leaf_weight=8579.25 4667.25 943.5 988.5 1636.75 2492.75 676.5 4892.5 421.5 390.5 2567.5 534 212.25 415.25 2750.75
leaf_count=34317 18669 3774 3954 6547 9971 2706 19570 1686 1562 10270 2136 849 1661 11003
internal_value=-1.5543e-05 -0.0941712 -0.114743 0.132193 0.0958802 -0.0293581 -0.0400922 0.130308 0.156669 0.124658 -0.0755409 0.0265738 -0.000572479 -0.153491
internal_weight=0 18788.2 17211 13380.5 8713.25 2847.25 5881 1577.25 5866 3373.25 2170.75 633.75 805.75 11330
internal_count=128675 75153 68844 53522 34853 11389 23524 6309 23464 13493 8683 2535 3223 45320
shrinkage=1


Tree=1
num_leaves=15
num_cat=0
split_feature=2 6 8 6 2 2 0 8 2 2 6 6 8 8
split_gain=32652.8 13307.6 3295.52 2840.54 4013.83 4077.98 1483.24 1120.06 1031.78 1212.06 580.329 716.799 575.281 356.482
threshold=1.0000000180025095e-35 1.0000000180025095e-35 1.0000000180025095e-35 1.0000000180025095e-35 0.010190167955222975 0.010204439600757793 0.21083630298109401 0.010191311153557203 0.020372297381331266 0.020409017063373471 0.010183700647738535 0.010204274168435336 1.0000000180025095e-35 0.010191311153557203
decision_type=2 2 2 2 2 2 2 2 2 2 2 2 2 2
left_child=1 2 6 4 -2 12 -1 -4 -7 -10 -3 -12 -6 -14
right_child=3 10 7 -5 5 8 -8 -9 9 -11 11 -13 13 -15
leaf_value=-0.15038509958851845 0.1818742260579839 0.1971017540933373 0.1818742260579839 0.1682399424622408 -0.10520234987591526 0.1818742260579839 -0.086710831015879786 -0.053231791978586733 -0.074632632501236182 0.11643279987735425 -0.00011932508981530058 0.15813635177014418 0.18879561022569158 -0.040583701102110882
leaf_weight=9790.875385850668 2351.905728250742 1053.7904406636953 461.86656376719475 6346.6969602257013 1760.7497388422489 1048.4816527962685 5840.6878328174353 361.03127831220627 499.40193939208984 990.57777783274651 474.61748014390469 720.96650516986847 110.11081475019455 176.12747970223427
leaf_count=39400 9502 4234 1866 25586 7060 4236 23408 1446 2000 3989 1904 2895 442 707
internal_value=0 -0.0851382 -0.116325 0.119894 0.0756646 0.0211891 -0.126593 0.0787258 0.105874 0.0523927 0.142999 0.0953127 -0.0838278 0.0476545
internal_weight=0 18703.8 16454.5 13284.1 6937.36 4585.45 15631.6 822.898 2538.46 1489.98 2249.37 1195.58 2046.99 286.238
internal_count=128675 75153 66120 53522 27936 18434 62808 3312 10225 5989 9033 4799 8209 1149
shrinkage=0.1


Tree=2
num_leaves=15
num_cat=0
split_feature=2 6 6 2 2 0 2 2 6 6 1 2 2 0
split_gain=26929.1 10921.5 2369.83 3373.44 3352.33 1728.46 878.358 994.116 485.063 590.51 394.365 356.334 399.658 353.832
threshold=1.0000000180025095e-35 1.0000000180025095e-35 1.0000000180025095e-35 0.010190167955222975 0.010204439600757793 0.27903774308113244 0.020372297381331266 0.020409017063373471 0.010183700647738535 0.010204274168435336 0.48543379928179042 0.030507512302545135 0.030616229572702273 0.32006027643808205
decision_type=2 2 2 2 2 2 2 2 2 2 2 2 2 2
left_child=1 5 3 -2 13 -1 -6 -8 -3 -10 -7 -9 -13 -5
right_child=2 8 -4 4 6 10 7 11 9 -11 -12 12 -14 -15
leaf_value=-0.12885228467201226 0.16825903696850783 0.1798589776884284 0.1547263612052249 -0.11612460678073484 0.16825903696850783 -0.038634568156315885 -0.067315251202044943 0.17554879166239915 -0.00010739016805869664 0.14381900160853903 -0.095149317236279229 -0.065661606707101 0.11387485443826824 -0.032614757166748679
leaf_weight=10928.610598385334 2290.9647502601147 1039.9133361577988 6217.1821957528591 1055.9591029733419 1021.3141109347343 3369.6417861431837 498.3644106388092 421.65792286396027 474.61679598689079 713.78026306629181 1948.8588410764933 186.55911587178707 369.68613237142563 976.6021066904068
leaf_count=44700 9502 4234 25586 4271 4236 13572 2000 1720 1904 2895 7848 761 1508 3938
internal_value=0 -0.0776248 0.11007 0.0693683 0.0193577 -0.106098 0.0969608 0.0476351 0.129983 0.0863383 -0.0593433 0.106217 0.0536601 -0.0759999
internal_weight=0 18475.4 13038.3 6821.11 4530.14 16247.1 2497.58 1476.27 2228.31 1188.4 5318.5 977.903 556.245 2032.56
internal_count=128675 75153 53522 27936 18434 66120 10225 5989 9033 4799 21420 3989 2269 8209
shrinkage=0.1


Tree=3
num_leaves=15
num_cat=0
split_feature=2 6 8 2 2 6 0 8 2 2 8 6 6 6
split_gain=22386.9 9019.13 2704.32 2107.85 3933.89 1451.35 1126.51 919.015 558.368 1012.95 462.826 430.702 421.624 494.618
threshold=1.0000000180025095e-35 1.0000000180025095e-35 1.0000000180025095e-35 0.010190167955222975 0.010204439600757793 1.0000000180025095e-35 0.21083630298109401 0.010191311153557203 0.020372297381331266 0.020409017063373471 1.0000000180025095e-35 1.0000000180025095e-35 0.010183700647738535 0.010204274168435336
decision_type=2 2 2 2 2 2 2 2 2 2 2 2 2 2
left_child=1 2 6 -2 5 10 -1 -4 -6 11 -5 -10 -3 -14
right_child=3 12 7 4 8 -7 -8 -9 9 -11 -12 -13 13 -15
leaf_value=-0.12803785208422355 0.15847101885296988 0.16680892774374714 0.17445065175631258 -0.088444557445452696 0.1586046265423095 0.092547958960097529 -0.071901748068676691 -0.039405489041593043 -0.060854918558963481 0.12623290146203878 0.049000354990426341 0.091521990699697645 -9.6652430408198755e-05 0.13215001998902584
leaf_weight=9400.6324124336243 4346.4041730463505 1010.5874911993742 456.23510253429413 1730.9333889335394 2322.7785622477531 768.04493607580662 5768.3226980268955 359.11671105027199 496.25021696090698 2439.9322274029255 285.39146158099174 296.22689560055733 474.61618201434612 699.82446381449699
leaf_count=39400 18669 4234 1866 7060 9971 3180 23408 1446 2000 10270 1149 1223 1904 2895
internal_value=0 -0.0711055 -0.0971547 0.102008 0.0725804 -0.0244315 -0.106691 0.080259 0.121205 0.0943296 -0.0689905 -0.00389663 0.119454 0.0787064
internal_weight=0 18169.3 15984.3 12686 8339.56 2784.37 15169 815.352 5555.19 3232.41 2016.32 792.477 2185.03 1174.44
internal_count=128675 75153 66120 53522 34853 11389 62808 3312 23464 13493 8209 3223 9033 4799
shrinkage=0.1


Tree=4
num_leaves=15
num_cat=0
split_feature=2 6 8 2 2 6 0 8 2 2 8 6 6 6
split_gain=18755.1 7504.64 2249.07 1870.76 3335.27 1195.32 1014.14 775.961 511.386 861.738 381.026 377.105 419.341 353.844
threshold=1.0000000180025095e-35 1.0000000180025095e-35 1.0000000180025095e-35 0.010190167955222975 0.010204439600757793 1.0000000180025095e-35 0.21546601872509727 0.010191311153557203 0.020372297381331266 0.020409017063373471 1.0000000180025095e-35 0.010183700647738535 0.010204274168435336 1.0000000180025095e-35
decision_type=2 2 2 2 2 2 2 2 2 2 2 2 2 2
left_child=1 2 6 -2 5 10 -1 -4 -6 13 -5 -3 -13 -10
right_child=3 11 7 4 8 -7 -8 -9 9 -11 -12 12 -14 -15
leaf_value=-0.11888918437536694 0.14990261534627525 0.15661712947384238 0.16254149954811778 -0.080752188690875693 0.15000994881979687 0.084934518049334426 -0.06503281641640013 -0.035579951291705665 -0.055103308372141648 0.1174352130886049 0.044248265373968115 -8.6987319698659106e-05 0.12235032966179181 0.083938215597512633
leaf_weight=9178.4312825202942 4145.6277935057878 970.73840908706188 441.43613263964653 1707.4666441679001 2215.7473956942558 753.94486221671104 5647.9372501224279 358.01442398130894 493.39292669296265 2364.3706124722958 284.48437522351742 474.61563129723072 681.24573005735874 290.96856614947319
leaf_count=39679 18669 4234 1866 7060 9971 3180 23129 1446 2000 10270 1149 1904 2895 1223
internal_value=0 -0.0655776 -0.0895636 0.0952564 0.067324 -0.0223089 -0.0983732 0.0738176 0.113204 0.0873038 -0.0629 0.110667 0.0720756 -0.00352414
internal_weight=0 17752.4 15625.8 12256 8110.38 2745.9 14826.4 799.451 5364.48 3148.73 1991.95 2126.6 1155.86 784.361
internal_count=128675 75153 66120 53522 34853 11389 62808 3312 23464 13493 8209 9033 4799 3223
shrinkage=0.1


Tree=5
num_leaves=15
num_cat=0
split_feature=2 6 8 2 2 6 0 8 2 2 6 6 1 8
split_gain=15793.5 6272.73 1877.71 1684.78 2847.29 986.645 926.471 664.266 477.143 738.161 344.48 358.662 319.471 314.485
threshold=1.0000000180025095e-35 1.0000000180025095e-35 1.0000000180025095e-35 0.010190167955222975 0.010204439600757793 1.0000000180025095e-35 0.20231439076657798 0.010191311153557203 0.020372297381331266 0.020409017063373471 0.010183700647738535 0.010204274168435336 0.51456244262113138 1.0000000180025095e-35
decision_type=2 2 2 2 2 2 2 2 2 2 2 2 2 2
left_child=1 2 6 -2 5 13 -1 -4 -6 -10 -3 -12 -8 -5
right_child=3 10 7 4 8 -7 12 -9 9 -11 11 -13 -14 -15
leaf_value=-0.11169325418186977 0.14295628478343111 0.14846522356438038 0.15316594395822916 -0.073893445880839445 0.14304403145742392 0.078115609116616344 -0.04416115934975999 -0.032138039331250486 -0.0031900441091213144 0.1097577470188989 -7.8291364610086955e-05 0.11391282380834994 -0.094915810489032484 0.039986891590561902
leaf_weight=8667.440695554018 3923.7564334273338 924.02859397232533 422.57289123535156 1680.7716923505068 2097.3648293018341 738.59713791310787 3974.8329662084579 356.78717677295208 775.27669106423855 2281.131456553936 474.61512383818626 659.65901052951813 1802.5818292051554 283.38013149797916
leaf_count=38844 18669 4234 1866 7060 9971 3180 16437 1446 3223 10270 1904 2895 7527 1149
internal_value=0 -0.0607071 -0.0828591 0.0894435 0.0627178 -0.0204128 -0.0910166 0.0683347 0.106313 0.0811078 0.10314 0.0662154 -0.0599969 -0.0574632
internal_weight=0 17282.5 15224.2 11780.3 7856.52 2702.75 14444.9 779.36 5153.77 3056.41 2058.3 1134.27 5777.41 1964.15
internal_count=128675 75153 66120 53522 34853 11389 62808 3312 23464 13493 9033 4799 23964 8209
shrinkage=0.1


Tree=6
num_leaves=15
num_cat=0
split_feature=2 6 8 2 2 0 6 8 2 2 6 3 6 0
split_gain=13344.5 5260.78 1572.2 1538.72 2437.04 853.214 815.561 574.91 455.707 641.218 319.632 312.731 308.7 291.983
threshold=1.0000000180025095e-35 1.0000000180025095e-35 1.0000000180025095e-35 0.010190167955222975 0.010204439600757793 0.22843841104478121 1.0000000180025095e-35 0.010191311153557203 0.020372297381331266 0.020409017063373471 0.010183700647738535 0.65848204000346133 0.010204274168435336 0.50284819709923689
decision_type=2 2 2 2 2 2 2 2 2 2 2 2 2 2
left_child=1 2 5 -2 6 -1 13 -4 -6 -10 -3 -7 -12 -5
right_child=3 10 7 4 8 11 -8 -9 9 -11 12 -13 -14 -15
leaf_value=-0.10373075466208348 0.13723456067680156 0.14182174639398701 0.14562099789529168 -0.079919508606166964 0.13730734392274421 -0.062889726426299891 0.071942959086034999 -0.029035335526469433 -0.0028709701867441935 0.10292825389783167 -7.0461387837409298e-05 0.0059840345928124667 0.10649346080388743 0.0026159271854750269
leaf_weight=8702.4204142838717 3690.6065111160278 873.1950321495533 401.12114533782005 1293.2725814729929 1972.8952918797731 4567.2429001778364 722.62329925596714 355.49203492701054 775.29477225244045 2193.8214212208986 474.61467225849628 770.4891063272953 636.28001250326633 641.10142752528191
leaf_count=40476 18669 4234 1866 5545 9971 19105 3180 1446 3223 10270 1904 3227 2895 2664
internal_value=0 -0.0563545 -0.0768574 0.0842597 0.0585314 -0.0844243 -0.0187027 0.0635593 0.100055 0.075302 0.0965502 -0.052948 0.0609655 -0.0525651
internal_weight=0 16780.9 14796.8 11289.6 7599.01 14040.2 2657 756.613 4942.01 2969.12 1984.09 5337.73 1110.89 1934.37
internal_count=128675 75153 66120 53522 34853 62808 11389 3312 23464 13493 9033 22332 4799 8209
shrinkage=0.1


Tree=7
num_leaves=15
num_cat=0
split_feature=2 6 2 2 8 0 8 8 2 6 2 2 2 8
split_gain=11301.6 4421.7 1420.54 2095.13 1318.61 788.193 680.719 502.02 439.58 586.529 386.681 365.639 373.531 315.23
threshold=1.0000000180025095e-35 1.0000000180025095e-35 0.010190167955222975 0.010204439600757793 1.0000000180025095e-35 0.20231439076657798 1.0000000180025095e-35 0.010191311153557203 0.020372297381331266 1.0000000180025095e-35 0.020409017063373471 0.030507512302545135 0.030616229572702273 0.010191311153557203
decision_type=2 2 2 2 2 2 2 2 2 2 2 2 2 2
left_child=1 4 -2 6 5 -1 -4 -6 -5 10 -10 -12 -13 -8
right_child=2 -3 3 8 7 -7 13 -9 9 -11 11 12 -14 -15
leaf_value=-0.098606503899654183 0.13246012774789759 0.090673286093857053 -0.045543458452257872 0.13252120501960782 0.1394427972167035 -0.049770417813575468 0.15616446084696778 -0.026234523975824948 -0.049385152550205869 0.11174655241448772 0.14016017647781731 -0.11306066241607221 0.070622087472753059 0.012220207599291636
leaf_weight=7995.5504306554794 3453.4667027294636 1906.9150772243738 1995.9311840832233 1846.2481276094913 378.18344451487064 5633.2743068635464 267.88357980549335 354.17184627056122 489.63746523857117 1552.5788028687239 351.62095665931702 170.3409345895052 316.25865978002548 352.11210611462593
leaf_count=38844 18669 9033 8683 9971 1866 23964 1185 1446 2000 7504 1720 761 1508 1521
internal_value=0 -0.0523991 0.079568 0.0546912 -0.0713967 -0.0784208 -0.0171124 0.0593202 0.09443 0.070015 0.021221 0.0624648 0.00632139 0.0744147
internal_weight=0 16268.1 10796.1 7342.61 14361.2 13628.8 2615.93 732.355 4726.68 2880.44 1327.86 838.221 486.6 619.996
internal_count=128675 75153 53522 34853 66120 62808 11389 3312 23464 13493 5989 3989 2269 2706
shrinkage=0.1


Tree=8
num_leaves=15
num_cat=0
split_feature=6 2 2 8 2 0 2 6 6 8 2 2 7 7
split_gain=9634.09 4775.81 1647.96 1107.04 1058.77 731.169 546.097 468.923 857.394 441.6 322.81 326.484 302.444 1012.93
threshold=1.0000000180025095e-35 1.0000000180025095e-35 0.010190167955222975 1.0000000180025095e-35 0.010204439600757793 0.28872383460633799 0.020372297381331266 0.010183700647738535 0.010204274168435336 0.010191311153557203 0.020409017063373471 0.030507512302545135 0.14288120810167124 0.21425752031130285
decision_type=2 2 2 2 2 2 2 2 2 2 2 2 2 2
left_child=1 3 -3 5 -4 12 -6 -2 -9 -5 -8 -12 -1 -14
right_child=7 2 4 9 6 -7 10 8 -10 -11 11 -13 13 -15
leaf_value=-0.094644492614550005 0.13330656166482763 0.12805106409517591 -0.045684170215886041 0.13431225418657222 0.12803808018928051 -0.040027526042482942 -0.044799522601569663 0.0040408432934377261 0.11158520817214682 -0.023703774929035401 0.13490797424947787 0.0058646607842197523 0.34555769928167268 -0.067956606376044879
leaf_weight=8172.7393919676542 3050.3676566332579 1625.5409286022186 1884.9784877747297 354.58074513077736 724.47929209470749 4475.3570023477077 485.97721934318542 1050.8856837153435 2516.5507970303297 352.85834972560406 329.89666342735291 483.27669996023178 67.117624431848526 504.55599543452263
leaf_count=40934 16610 9502 8209 1866 4236 19049 2000 4811 13198 1446 1720 2269 327 2498
internal_value=0 -0.0351522 0.0434336 -0.0663792 0.00824223 -0.0729012 0.0584738 0.10452 0.0799051 0.0554966 0.0196809 0.0582163 -0.0897258 -0.0194078
internal_weight=0 19461.4 5534.15 13927.2 3908.61 13219.8 2023.63 6617.8 3567.44 707.439 1299.15 813.173 8744.41 571.674
internal_count=128675 94056 27936 66120 18434 62808 10225 34619 18009 3312 5989 3989 43759 2825
shrinkage=0.1


Tree=9
num_leaves=15
num_cat=0
split_feature=6 2 2 8 2 0 2 6 6 8 5 5 5 5
split_gain=8237.07 4021.23 1478.11 930.398 888.216 694.538 498.715 457.228 769.92 390.837 339.311 975.321 340.594 339.719
threshold=1.0000000180025095e-35 1.0000000180025095e-35 0.010190167955222975 1.0000000180025095e-35 0.010204439600757793 0.10216713968020824 0.020372297381331266 0.010183700647738535 0.010204274168435336 0.010191311153557203 0.14035539145293313 0.15750753687007549 0.017542318106266427 0.15789625307309102
decision_type=2 2 2 2 2 2 2 2 2 2 2 2 2 2
left_child=1 3 -3 5 -4 -1 -6 -2 -9 -5 12 -12 -7 -13
right_child=7 2 4 9 6 10 -8 8 -10 -11 11 13 -14 -15
leaf_value=-0.093455689362574063 0.12921377659884248 0.12467955561791927 -0.041596927152015774 0.1300023231282173 0.12466847005163897 0.073093492145436284 0.0181932517387236 0.003640622757062967 0.10643474042565225 -0.021415573490676219 0.29099777049179582 -0.11290879806601993 -0.07324642183953986 -0.018876056860719522
leaf_weight=5793.2271727919579 2842.9540373831987 1508.5575906932354 1864.2962328791618 330.91926980018616 672.33363443613052 166.29762928187847 1272.458036288619 1049.8283808678389 2381.5400441288948 351.57454533874989 96.120036050677299 448.85119159519672 3645.1111517250538 2667.5565657168627
leaf_count=30721 16610 9502 8209 1866 4236 693 5989 4811 13198 1446 428 2084 16543 12339
internal_value=0 -0.0327523 0.0409027 -0.0617658 0.00772362 -0.0678237 0.0550028 0.0995565 0.0749848 0.0520021 -0.0466829 -0.0227427 -0.0668614 -0.0324194
internal_weight=0 18817.3 5317.65 13499.7 3809.09 12817.2 1944.79 6274.32 3431.37 682.494 7023.94 3212.53 3811.41 3116.41
internal_count=128675 94056 27936 66120 18434 62808 10225 34619 18009 3312 32087 14851 17236 14423
shrinkage=0.1


Tree=10
num_leaves=15
num_cat=0
split_feature=6 2 2 0 2 2 6 6 3 8 8 8 0 8
split_gain=7052.29 3383.36 1334.8 813.133 738.966 463.042 448.778 692.912 415.562 300.343 296.342 293.665 257.037 250.501
threshold=1.0000000180025095e-35 1.0000000180025095e-35 0.010190167955222975 0.35980796812420773 0.010204439600757793 0.020372297381331266 0.010183700647738535 0.010204274168435336 0.54188400271961945 1.0000000180025095e-35 1.0000000180025095e-35 5.3458858767145227e-05 0.34006702414417583 0.010191311153557203
decision_type=2 2 2 2 2 2 2 2 2 2 2 2 2 2
left_child=1 3 -3 8 12 -6 -2 -8 11 -5 -7 -1 -4 -13
right_child=6 2 4 9 5 10 7 -9 -10 -11 -12 13 -14 -15
leaf_value=-0.086366422525833209 0.12572479256523106 0.12178661627433254 -0.073446578973041743 -0.02781900919457583 0.12177705321330937 -0.019678815067713108 0.0032797200409070424 0.10169562569337015 -0.022740323340662425 0.072023924479951609 0.081159690325325481 0.12728629152682427 0.0013053931631474315 -0.067760485267098144
leaf_weight=7524.9386429786682 2640.0884612947702 1395.7435364723206 966.43447425961494 3612.8517838120461 622.04854077100754 813.68355283141136 1048.8708672076464 2250.1317460685968 1356.3122565895319 328.70066677033901 454.06439396739006 120.38000003993511 877.79164887964725 145.35219068825245
leaf_count=40518 16610 9502 4428 15728 4236 3749 4811 13198 6886 1669 2240 715 3781 604
internal_value=0 -0.0304839 0.0383523 -0.0574627 0.00716525 0.0511117 0.0949965 0.0704057 -0.0738245 -0.0194927 0.0164381 -0.082718 -0.0378671 0.0205981
internal_weight=0 18218.3 5129.77 13088.5 3734.02 1889.8 5939.09 3299 9146.98 3941.55 1267.75 7790.67 1844.23 265.732
internal_count=128675 94056 27936 66120 18434 10225 34619 18009 48723 17397 5989 41837 8209 1319
shrinkage=0.1


Tree=11
num_leaves=15
num_cat=0
split_feature=6 2 2 0 2 6 6 2 7 7 1 2 2 2
split_gain=6043.34 2843.79 1207.81 724.446 617.2 442.489 624.309 429.038 288.03 739.941 276.048 259.672 299.853 297.414
threshold=1.0000000180025095e-35 1.0000000180025095e-35 0.010190167955222975 0.28872383460633799 0.010204439600757793 0.010183700647738535 0.010204274168435336 0.020372297381331266 0.14288120810167124 0.21425752031130285 0.48543379928179042 0.020409017063373471 0.030507512302545135 0.030616229572702273
decision_type=2 2 2 2 2 2 2 2 2 2 2 2 2 2
left_child=1 3 -3 8 -4 -2 -7 -6 -1 -10 -5 -9 -13 -14
right_child=5 2 4 10 7 6 -8 11 9 -11 -12 12 13 -15
leaf_value=-0.076827512399826881 0.12272815731693792 0.11928849804389399 -0.034577233175512471 -0.0040017291413391078 0.11928023123807732 0.002954322792077857 0.097277420737129916 -0.042535808993949181 0.27741659285650982 -0.049738582211978466 -0.054598291781116498 0.12911651528452747 -0.10242764782599728 0.061777949569966795
leaf_weight=7459.9685123413801 2444.1561223119497 1288.0014075040817 1820.267452865839 3005.4907549768686 574.02552580833435 1048.0042650997639 2123.7037426382303 483.66214361786842 80.843523412942886 477.28966514766216 1681.6487428694963 299.94547235965729 174.49088969826698 299.84758573770523
leaf_count=42241 16610 9502 8209 13295 4236 4811 13198 2000 374 2595 7615 1720 761 1508
internal_value=0 -0.0283532 0.0360266 -0.0533863 0.0066634 0.0907521 0.0661109 0.0476405 -0.0716433 -0.00235137 -0.0221547 0.01495 0.0508589 0.00137302
internal_weight=0 17645.5 4940.24 12705.2 3652.24 5615.86 3171.71 1831.97 8018.1 558.133 4687.14 1257.95 774.284 474.338
internal_count=128675 94056 27936 66120 18434 34619 18009 10225 45210 2969 20910 5989 3989 2269
shrinkage=0.1


Tree=12
num_leaves=15
num_cat=0
split_feature=6 2 2 8 3 8 6 6 8 0 0 8 7 7
split_gain=5180.05 2387.21 1093.01 666.492 629.095 578.947 437.549 562.615 405.03 389.584 369.282 319.359 281.917 1000.15
threshold=1.0000000180025095e-35 1.0000000180025095e-35 0.010190167955222975 1.0000000180025095e-35 0.54188400271961945 1.0000000180025095e-35 0.010183700647738535 0.010204274168435336 0.010191311153557203 0.50284819709923689 0.59125244399356791 0.010191311153557203 0.071441563348531578 0.14269531208659084
decision_type=2 2 2 2 2 2 2 2 2 2 2 2 2 2
left_child=1 3 -3 4 10 9 -2 -8 -7 -4 -1 -5 -6 -14
right_child=6 2 5 11 12 8 7 -9 -10 -11 -12 -13 13 -15
leaf_value=-0.074145992797045146 0.12013791583733419 0.11711954643212047 -0.04800341943298251 0.12523573758619977 -0.04862144523173869 0.14094273650915301 0.0026609893961835446 0.093110262580705649 0.0074385546172018886 0.030599202314548435 -0.019579387268573289 -0.015839440035277822 0.3178251668271953 -0.002472875037891481
leaf_weight=8129.3347093164921 2256.7808472216129 1185.9009653031826 1616.7916836589575 298.81932602822781 892.28893205523491 460.98118452727795 1047.2204353511333 2003.179318651557 448.18588449060917 1033.7181845903397 1463.5159071832895 346.5690869987011 106.67064327001572 1132.6380081623793
leaf_count=45901 16610 9502 8216 1866 4389 2782 4811 13198 2196 5240 6442 1446 499 5577
internal_value=0 -0.0263239 0.0339721 -0.0494559 -0.0549019 0.0062717 0.0867557 0.0620585 0.0751301 -0.0173478 -0.0658211 0.0494793 -0.00576217 0.025096
internal_weight=0 17115.4 4745.58 12369.8 11724.4 3559.68 5307.18 3050.4 909.167 2650.51 9592.85 645.388 2131.6 1239.31
internal_count=128675 94056 27936 66120 62808 18434 34619 18009 4978 13456 52343 3312 10465 6076
shrinkage=0.1


Tree=13
num_leaves=15
num_cat=0
split_feature=6 2 2 0 8 6 6 8 1 1 0 8 8 0
split_gain=4442.17 2004.65 996.399 637.239 487.106 433.333 506.728 369.419 326.425 385.975 326.357 274.078 209.488 206.101
threshold=1.0000000180025095e-35 1.0000000180025095e-35 0.010190167955222975 0.084103860474045666 1.0000000180025095e-35 0.010183700647738535 0.010204274168435336 0.010191311153557203 0.47572368740623 0.46602385502233767 0.35475385020363909 0.010213238437682825 1.0000000180025095e-35 0.34970204774424885
decision_type=2 2 2 2 2 2 2 2 2 2 2 2 2 2
left_child=1 3 -3 12 10 -2 13 -6 9 -5 -4 -9 -1 -7
right_child=5 2 4 8 7 6 -8 11 -10 -11 -12 -13 -14 -15
leaf_value=-0.078713382576702323 0.11788669350632777 0.11522746386980853 -0.052231207113381986 -0.012176493656091058 0.13649707785109225 -0.07530467036009357 0.089139904491477726 -0.060132461184864407 -0.051579791725399032 0.28446132837657062 0.018203226319290684 0.098334480459780937 0.037067178739660887 0.027742528237047506
leaf_weight=4526.127567127347 2079.0026533603668 1089.7596565186977 1268.9353370368481 4099.2497472465038 429.99243116378784 257.40447053313255 1889.1332856416702 258.77074996381998 3184.4605744481087 44.338254079222679 1366.0200613066554 188.75612802058458 161.86312725394964 789.1073407381773
leaf_count=28573 16610 9502 6498 19982 2782 1125 13198 1150 16483 216 6958 1046 866 3686
internal_value=0 -0.0244292 0.0316915 -0.0459238 0.0057741 0.0829554 0.0582173 0.0703043 -0.0275047 -0.00900234 -0.0157164 0.0067051 -0.0747158 0.0023966
internal_weight=0 16618.3 4602.23 12016 3512.47 5014.65 2935.65 877.519 7328.05 4143.59 2634.96 447.527 4687.99 1046.51
internal_count=128675 94056 27936 66120 18434 34619 18009 4978 36681 20198 13456 2196 29439 4811
shrinkage=0.1


Tree=14
num_leaves=15
num_cat=0
split_feature=6 2 2 0 2 6 6 2 3 8 1 1 5 5
split_gain=3809.32 1677.94 908.727 576.469 447.776 428.321 454.786 394.31 345.179 252.943 225.768 341.14 225.094 564.624
threshold=1.0000000180025095e-35 1.0000000180025095e-35 0.010190167955222975 0.076721661781235004 0.010204439600757793 0.010183700647738535 0.010204274168435336 0.020372297381331266 0.65848204000346133 1.0000000180025095e-35 0.48543379928179042 0.47573061204473716 0.15789625307309102 0.17543244164842564
decision_type=2 2 2 2 2 2 2 2 2 2 2 2 2 2
left_child=1 3 -3 -1 -4 -2 -7 -6 9 10 11 12 -5 -14
right_child=5 2 4 8 7 6 -8 -9 -10 -11 -12 -13 13 -15
leaf_value=-0.071480951824757583 0.11592090211653792 0.11357016869799824 -0.029973270643696759 -0.041934156002748219 0.11627661209376049 0.00218318664460472 0.085324228388089549 0.010730527239861209 0.028379912505598456 0.043799427723172329 -0.062685667716053578 0.32690692780327679 0.3278700786428923 -0.0038243737454386785
leaf_weight=4323.7986274212599 1911.416623570025 999.70441733300686 1762.7752689868212 2506.7369572967291 502.79691410064697 1043.0542772859335 1781.8752077817917 1195.7363220453262 1023.8357018008828 390.49850630015135 2438.3299997150898 27.622892647981644 54.243520304560661 952.03342558443546
leaf_count=28465 16610 9502 8209 12309 4236 4811 13198 5989 4857 2066 13243 131 258 4791
internal_value=0 -0.022605 0.0295885 -0.0424765 0.00533274 0.0793623 0.0546259 0.0419741 -0.0255139 -0.0341769 -0.0392697 -0.0231438 -0.0258963 0.0140557
internal_weight=0 16178.1 4461.01 11717.1 3461.31 4736.35 2824.93 1698.53 7393.3 6369.47 5978.97 3540.64 3513.01 1006.28
internal_count=128675 94056 27936 66120 18434 34619 18009 10225 37655 32798 30732 17489 17358 5049
shrinkage=0.1


Tree=15
num_leaves=15
num_cat=0
split_feature=6 8 0 8 2 2 6 6 8 5 5 5 5 5
split_gain=3265.3 1479.23 935.614 627.423 442.433 439.814 424.253 408.407 401.747 235.549 674.486 273.846 741.887 292.68
threshold=1.0000000180025095e-35 1.0000000180025095e-35 0.14743348695401678 0.010191311153557203 1.0000000180025095e-35 0.010190167955222975 0.010183700647738535 0.010204274168435336 0.010213238437682825 0.14035539145293313 0.15750753687007549 0.15789625307309102 0.17543244164842564 0.17543875631721792
decision_type=2 2 2 2 2 2 2 2 2 2 2 2 2 2
left_child=1 2 -1 -3 9 -6 -2 -8 -5 -4 -11 -12 -13 -14
right_child=6 3 4 8 5 -7 7 -9 -10 10 11 12 13 -15
leaf_value=-0.061655942775102723 0.11419733867362435 0.12430156210517335 -0.042858319848242683 -0.046812269580475789 0.11211328866552839 0.0050598440150369352 0.0019660248565852379 0.081630788718851655 0.098926936334754384 0.26280116981553564 -0.095588872310711337 0.28072230166547207 -0.10023286006313314 0.0049648561316809276
leaf_weight=5979.4567353054881 1754.2818414419889 897.40187016874552 3131.2989627420902 544.30848805606365 483.78422781825066 1856.2834439724684 1042.4733893573284 1681.514384187758 289.88030985742807 92.725899890065193 337.68589644134045 90.986660048365593 312.20449358224869 1729.8567129671574
leaf_count=40220 16610 7066 15310 2435 5020 9689 4811 13198 1742 397 1758 402 1544 8473
internal_value=0 -0.0209304 -0.0317043 0.0662657 -0.00941455 0.027192 0.0758434 0.051143 0.00383205 -0.0244568 -0.00197905 -0.0119162 0.00133017 -0.0111185
internal_weight=0 15745.9 14014.3 1731.59 8034.83 2340.07 4478.27 2723.99 834.189 5694.76 2563.46 2470.73 2133.05 2042.06
internal_count=128675 94056 82813 11243 42593 14709 34619 18009 4177 27884 12574 12177 10419 10017
shrinkage=0.1


Tree=16
num_leaves=15
num_cat=0
split_feature=8 0 8 8 2 5 5 2 5 5 5 5 5 5
split_gain=2834.43 1453.04 631.083 569.73 419.511 385.503 1256.95 366.823 300.711 296.212 1284.49 427.7 964.73 290.161
threshold=1.0000000180025095e-35 0.35980796812420773 0.010191311153557203 0.010213238437682825 1.0000000180025095e-35 0.10526420338592855 0.12269934903232442 0.010190167955222975 0.017542318106266427 0.12280763299779413 0.14006335347507068 0.14035539145293313 0.15750753687007549 0.15789625307309102
decision_type=2 2 2 2 2 2 2 2 2 2 2 2 2 2
left_child=1 5 -2 -4 8 -1 -7 -6 -3 -8 -11 -12 -13 -14
right_child=2 4 3 -5 7 6 9 -9 -10 10 11 12 13 -15
leaf_value=-0.075034281005657899 0.11889098352598909 0.08395400939895506 -0.022086301799748836 0.09145268224753024 0.11263360425217617 0.30024497641233167 -0.096443219505583336 0.026895579125417637 -0.011255667028089666 0.29679107617674189 -0.10831102479698285 0.24844200570217942 -0.094695764971608032 -0.022157383706794837
leaf_weight=2751.9678734615445 1930.0432592779398 364.44807466864586 860.84277597814798 908.25136388093233 666.24989111721516 113.01729446649551 723.13411831110716 1987.9548686444759 3695.3911795169115 118.86280687153339 702.93493323773146 125.84646001458168 639.6920597627759 3997.431332051754
leaf_count=18635 17364 2126 4677 7015 7055 848 4766 11924 18067 891 4586 873 4209 25639
internal_value=0 -0.0178467 0.0793466 0.0362045 0.0175024 -0.0437203 -0.0302994 0.0484173 -0.00270878 -0.0362217 -0.028424 -0.0354962 -0.0247499 -0.0321641
internal_weight=0 15886.9 3699.14 1769.09 6714.04 9172.89 6420.92 2654.2 4059.84 6307.9 5584.77 5465.9 4762.97 4637.12
internal_count=128675 99619 29056 11692 39172 60447 41812 18979 20193 40964 36198 35307 30721 29848
shrinkage=0.1


Tree=17
num_leaves=15
num_cat=0
split_feature=6 8 0 8 6 6 2 2 8 5 5 0 5 5
split_gain=2475.64 1051.12 714.242 546.106 434.333 354.534 338.024 457.726 286.933 268.525 578.274 266.974 253.472 757.754
threshold=1.0000000180025095e-35 1.0000000180025095e-35 0.084103860474045666 0.010191311153557203 0.010183700647738535 0.010204274168435336 1.0000000180025095e-35 0.010190167955222975 0.010213238437682825 0.14035539145293313 0.15750753687007549 0.71926736555921078 0.15789625307309102 0.17543244164842564
decision_type=2 2 2 2 2 2 2 2 2 2 2 2 2 2
left_child=1 2 -1 -3 -2 -6 9 -8 -5 11 -11 -4 -12 -14
right_child=4 3 6 8 5 -7 7 -9 -10 10 12 -13 13 -15
leaf_value=-0.060264885600949593 0.11199272585771024 0.11970549354067249 -0.047691641566976452 -0.040144639838442978 -0.00095661076924236955 0.075214595185499458 0.11025834349949877 -0.00024040955524441549 0.085730654541644538 0.22772364503285167 -0.086068317183809237 0.10018653130736564 0.26093764693751947 -0.0099110251395816348
leaf_weight=4420.8784584328532 1522.4044993594289 763.33684509247541 3325.3444123417139 541.52055131644011 1025.4932925999165 1511.9750101342797 459.69029430299997 2031.8904533535242 272.07863356173038 106.21865323185921 379.29076471924782 126.73775757849216 107.85910323262215 2440.4885947853327
leaf_count=32387 16610 7066 17718 2435 4811 13198 5504 10687 1742 440 2241 582 469 12785
internal_value=0 -0.018274 -0.027363 0.058951 0.0697657 0.0444307 -0.0111609 0.0201463 0.00194977 -0.0231876 -0.00148315 -0.0422625 -0.00979908 0.00155268
internal_weight=0 14975.3 13398.4 1576.94 4059.87 2537.47 8977.52 2491.58 813.599 6485.94 3033.86 3452.08 2927.64 2548.35
internal_count=128675 94056 82813 11243 34619 18009 50426 16191 4177 34235 15935 18300 15495 13254
shrinkage=0.1


Tree=18
num_leaves=15
num_cat=0
split_feature=8 6 1 8 6 8 1 3 2 2 7 7 4 6
split_gain=2132.39 941.292 617.407 594.241 486.839 443.189 441.511 376.861 319.673 395.882 245.566 496.015 238.812 204.544
threshold=1.0000000180025095e-35 1.0000000180025095e-35 0.59223068449506255 0.010191311153557203 0.010183700647738535 0.010213238437682825 0.58253615818851767 0.53754998296905721 1.0000000180025095e-35 0.010190167955222975 0.071441563348531578 0.14269531208659084 0.19276835773536713 0.010204274168435336
decision_type=2 2 2 2 2 2 2 2 2 2 2 2 2 2
left_child=1 2 6 -2 -3 -5 7 8 12 -10 -9 -12 -1 -6
right_child=3 4 -4 5 13 -7 -8 10 9 -11 11 -13 -14 -15
leaf_value=0.0069523211639196799 0.11576877165443998 0.11154675788166023 -0.065359345532049917 -0.019515315730102401 -0.027063107211862295 0.083542728988586001 0.3015117844832802 -0.019378473722821237 0.11001265610732432 -0.010361559250795951 0.21598579871901924 0.026323291612783319 -0.045961841026147532 0.052985455117021435
leaf_weight=1033.3360387459397 1646.5812155902386 755.042579844594 2965.2753646224737 849.54588263481855 683.29035674035549 820.08344314992428 44.302445732057095 891.22882576286793 328.9912600889802 1611.4178701341152 155.95315571129322 1190.4885941520333 4885.4189624264836 599.08698204159737
leaf_count=5960 17364 8557 20360 4677 3058 7015 313 5010 4100 8519 942 6761 30848 5191
internal_value=0 -0.0153917 -0.0252214 0.0731424 0.0478416 0.0311044 -0.0134851 -0.0148672 -0.025176 0.0100476 0.0213394 0.0482912 -0.0367237 0.0103331
internal_weight=0 15143.8 13106.4 3316.21 2037.42 1669.63 10141.1 10096.8 7859.16 1940.41 2237.67 1346.44 5918.76 1282.38
internal_count=128675 99619 82813 29056 16806 11692 62453 62140 49427 12619 12713 7703 36808 8249
shrinkage=0.1


Tree=19
num_leaves=15
num_cat=0
split_feature=8 0 8 8 5 5 6 5 5 5 5 5 5 5
split_gain=1828.4 1001.89 572.195 382.18 321.23 1053.87 286.142 253.506 1079.78 372.218 747.289 239.727 1043.97 285.733
threshold=1.0000000180025095e-35 0.35980796812420773 0.010191311153557203 0.010213238437682825 0.10526420338592855 0.12269934903232442 1.0000000180025095e-35 0.12280763299779413 0.14006335347507068 0.14035539145293313 0.15750753687007549 0.15789625307309102 0.17543244164842564 0.17543875631721792
decision_type=2 2 2 2 2 2 2 2 2 2 2 2 2 2
left_child=1 4 -2 -4 -1 -6 -3 -7 -9 -10 -11 -12 -13 -14
right_child=2 6 3 -5 5 7 -8 8 9 10 11 12 13 -15
leaf_value=-0.066960293971123977 0.11422550730464316 0.0041971264420084982 -0.017516617723904206 0.079413794157323636 0.28853263550952812 -0.088966231837410439 0.054569802232909206 0.28561802920897578 -0.10173581796081682 0.22998624909075971 -0.08652552161416692 0.25170684571328672 -0.0950208128411624 -0.015529644178811149
leaf_weight=2484.4690881893039 1508.9858929030597 4898.4899550750852 851.7120973020792 778.63874637335539 105.87033013254404 644.69499902427197 1464.9451363161206 111.31200335547328 621.51770889014006 117.24372182413936 566.53131330758333 139.49177093058825 528.76606996357441 3122.5011043325067
leaf_count=18635 17364 26311 4677 7015 848 4766 12861 891 4586 873 4209 950 3555 21134
internal_value=0 -0.0141691 0.0698492 0.0287763 -0.0367534 -0.0241571 0.0157936 -0.029814 -0.0224906 -0.0292206 -0.0191482 -0.0258517 -0.016784 -0.0270413
internal_weight=0 14805.8 3139.34 1630.35 8442.4 5957.93 6363.44 5852.06 5207.36 5096.05 4474.53 4357.29 3790.76 3651.27
internal_count=128675 99619 29056 11692 60447 41812 39172 40964 36198 35307 30721 29848 25639 24689
shrinkage=0.1


Tree=20
num_leaves=15
num_cat=0
split_feature=8 0 8 9 9 2 9 9 8 9 9 2 0 8
split_gain=1568.05 862.451 550.538 336.326 4262.62 559.404 345.193 1984.24 329.12 276.606 1205.52 244.602 194.944 188.481
threshold=1.0000000180025095e-35 0.50284819709923689 0.010191311153557203 1.0000000180025095e-35 0.049999544495928867 1.0000000180025095e-35 0.050000680790483629 0.099934704012156053 0.010213238437682825 0.10001440476138009 0.14999529317913343 1.0000000180025095e-35 0.71926736555921078 0.020306902447688169
decision_type=2 2 2 2 2 2 2 2 2 2 2 2 2 2
left_child=1 3 -2 -1 5 -5 -6 11 -4 -9 -11 -8 -3 -10
right_child=2 12 8 4 6 -7 7 9 13 10 -12 -13 -14 -15
leaf_value=-0.047828337997459835 0.11284411448619598 0.014745946345660782 -0.015728194253713978 0.34759519718419829 -0.078121018900506115 0.13773104191479557 0.34810855072644353 -0.079696132347157139 0.12274906624652659 0.24935897701176746 -0.055436704529573069 0.14423498069254345 0.077208195342693423 0.02162735135271443
leaf_weight=5055.3798781111836 1381.2455187551677 4094.0814497917891 853.59732069075108 301.52382879331708 1737.4171472862363 219.4570449590683 128.99505649879575 1277.1935900002718 393.53197947144508 152.57698743417859 867.92437018454075 108.22015341371298 569.11831834167242 346.71875500679016
leaf_count=36378 17364 25581 4677 1709 12036 2191 726 8682 3997 1174 5916 1084 4142 3018
internal_value=0 -0.0130593 0.0666346 -0.0298342 -0.0108562 0.259192 -0.0437867 -0.0202541 0.026589 -0.0486818 -0.00986616 0.255099 0.0223691 0.0753857
internal_weight=0 14511.9 2975.09 9848.69 4793.31 520.981 4272.33 2534.91 1593.85 2297.69 1020.5 237.215 4663.2 740.251
internal_count=128675 99619 29056 69896 33518 3900 29618 17582 11692 15772 7090 1810 29723 7015
shrinkage=0.1


Tree=21
num_leaves=15
num_cat=0
split_feature=6 2 2 6 1 1 6 6 6 7 7 2 2 5
split_gain=1406.4 603.469 604.692 442.382 393.423 366.939 262.222 247.047 536.723 238.767 1102.27 234.631 359.199 208.67
threshold=1.0000000180025095e-35 1.0000000180025095e-35 0.010190167955222975 0.010183700647738535 0.47572368740623 0.46602385502233767 0.010204274168435336 0.020407829663893727 0.020408717816329674 0.071441563348531578 0.14269531208659084 0.010204439600757793 0.020372297381331266 0.017542318106266427
decision_type=2 2 2 2 2 2 2 2 2 2 2 2 2 2
left_child=1 4 -3 -2 5 9 -5 -8 -9 13 -11 -4 -13 -1
right_child=3 2 11 6 -6 -7 7 8 -10 10 -12 12 -14 -15
leaf_value=0.097264808307997608 0.10880168053728559 0.10855359494164206 -0.024077783106439876 -0.0060768641944297054 -0.046568737502027113 0.25833892170035505 0.11232447363087313 -0.16571187721585143 0.064486054201793888 0.27912501091347758 -0.0055374713059248978 0.11342852287931414 0.0014992163580027648 -0.028559292656641255
leaf_weight=137.19032517820597 1145.4566842876375 644.13732467591763 1629.475782096386 988.6367277354002 4975.3952563256025 51.66055453568697 557.71729803457856 123.87128269672394 555.4987390935421 152.37709419429302 1267.8045867756009 388.99862614646554 1090.3909273147583 3357.7541995048523
leaf_count=634 16610 9502 8209 4811 35872 266 6169 1103 5926 778 7642 4236 5989 20928
internal_value=0 -0.0137964 0.0203697 0.058306 -0.0266935 -0.00678377 0.0323187 0.0630031 0.0225135 -0.00957035 0.0250051 0.00209855 0.0309305 -0.0236202
internal_weight=0 13695.2 3753 3371.18 9942.18 4966.79 2225.72 1237.09 679.37 4915.13 1420.18 3108.87 1479.39 3494.94
internal_count=128675 94056 27936 34619 66120 30248 18009 13198 7029 29982 8420 18434 10225 21562
shrinkage=0.1


Tree=22
num_leaves=15
num_cat=0
split_feature=8 0 8 5 5 5 5 5 5 5 5 5 5 5
split_gain=1235.05 663.592 524.429 340.553 754.802 304.202 941.622 402.236 1208.6 335.694 1002.52 270.739 720.473 394.394
threshold=1.0000000180025095e-35 0.59125244399356791 0.010191311153557203 0.14035539145293313 0.15750753687007549 0.15789625307309102 0.17543244164842564 0.17543875631721792 0.19297746399089144 0.19298751104701498 0.20981389810372245 0.21052890736481222 0.22806369950247277 0.22807240313791741
decision_type=2 2 2 2 2 2 2 2 2 2 2 2 2 2
left_child=1 3 -2 -1 -5 -6 -7 -8 -9 -10 -11 -12 -13 -14
right_child=2 -3 -4 4 5 6 7 8 9 10 11 12 13 -15
leaf_value=-0.044345710437267372 0.11155463170180724 0.024887126706818159 0.023082680994283709 0.18923113014962678 -0.078990082444388265 0.20722829595843592 -0.090709565209930731 0.25198810712961578 -0.087079927707977428 0.24125690389500332 -0.085560333115215478 0.23676467976787358 -0.10862774524610688 0.0027649885284599918
leaf_weight=4727.1700427718461 1199.5779505074024 3674.052705783397 1517.6634088456631 187.87836781516671 646.8056972771883 198.63849124312401 610.45530597493052 176.87738295644522 557.76048424094915 159.63308783620596 470.74031076207757 119.44884658232331 377.8168201893568 2002.4373811334372
leaf_count=36582 17364 24304 11692 1481 4980 1465 4264 1382 3699 1205 3103 930 2475 13749
internal_value=0 -0.0115695 0.0621403 -0.0246555 -0.00775815 -0.0147141 -0.005819 -0.0152755 -0.00336021 -0.0156073 -0.00287134 -0.0159909 -0.00288971 -0.0149163
internal_weight=0 13909.7 2717.24 10235.7 5508.49 5320.61 4673.81 4475.17 3864.71 3687.84 3130.08 2970.44 2499.7 2380.25
internal_count=128675 99619 29056 75315 38733 37252 32272 30807 26543 25161 21462 20257 17154 16224
shrinkage=0.1


Tree=23
num_leaves=15
num_cat=0
split_feature=6 0 6 5 5 6 6 6 5 5 5 5 5 5
split_gain=1081.17 469.769 430.73 240.106 810.86 222.291 239.685 413.305 206.441 822.391 308.207 514.605 184.039 705.308
threshold=1.0000000180025095e-35 0.36422960367622925 0.010183700647738535 0.10526420338592855 0.12269934903232442 0.010204274168435336 0.020407829663893727 0.020408717816329674 0.12280763299779413 0.14006335347507068 0.14035539145293313 0.15750753687007549 0.15789625307309102 0.17543244164842564
decision_type=2 2 2 2 2 2 2 2 2 2 2 2 2 2
left_child=1 3 -2 -1 -5 -4 -7 -8 -6 -10 -11 -12 -13 -14
right_child=2 -3 5 4 8 6 7 -9 9 10 11 12 13 -15
leaf_value=-0.056029261743152731 0.10762915448877615 0.010263690329983156 -0.0070648727316477804 0.25125235193306827 -0.079935389108622135 0.1107014095169489 -0.13649713654897402 0.059287254375358367 0.24752159716801847 -0.093180982533236534 0.19423764533078439 -0.076742463472323275 0.21328127692051913 -0.019914743403792394
leaf_weight=2195.4550526738167 996.88753210753202 5473.396844599396 977.87836395949125 110.50730042159557 558.72558947652578 490.26592753455043 136.59769413620234 511.86621611192822 115.82321268320084 541.29625970125198 116.51618473045528 484.50002792477608 134.83959778398275 3401.9922730326653
leaf_count=18728 16610 32897 4811 865 4761 6169 1103 5926 936 4647 925 4219 985 25093
internal_value=0 -0.0121099 0.0534321 -0.0280975 -0.0168748 0.0279062 0.0579374 0.0180456 -0.0224093 -0.0157062 -0.0222219 -0.0129393 -0.0189422 -0.0110243
internal_weight=0 13133.1 3113.5 7659.66 5464.2 2116.61 1138.73 648.464 5353.69 4794.97 4679.14 4137.85 4021.33 3536.83
internal_count=128675 94056 34619 61159 42431 18009 13198 7029 41566 36805 35869 31222 30297 26078
shrinkage=0.1


Tree=24
num_leaves=15
num_cat=0
split_feature=2 2 2 2 1 1 0 5 5 2 2 2 9 9
split_gain=967.048 759.56 448.21 415.861 376.828 301.158 249.162 214.084 345.547 205.737 321.258 256.715 201.981 692.706
threshold=1.0000000180025095e-35 0.010190167955222975 0.010204439600757793 0.020372297381331266 0.59223068449506255 0.58253615818851767 0.59601249919225319 0.14035539145293313 0.15750753687007549 0.020409017063373471 0.030507512302545135 0.030616229572702273 0.099934704012156053 0.050000680790483629
decision_type=2 2 2 2 2 2 2 2 2 2 2 2 2 2
left_child=4 -2 -3 -4 5 6 7 -1 -9 -5 -11 -12 13 -10
right_child=1 2 3 9 -6 -7 -8 8 12 10 11 -13 -14 -15
leaf_value=-0.038988761932962919 0.10835371090696994 -0.019594630269675787 0.11039645992748735 -0.027536829369927948 -0.053555306356922384 0.27767077543202051 0.01972820761551617 0.17483592729898842 -0.0033799408573129091 0.1161957134748066 -0.08212165538515967 0.04557125871841685 -0.047541516320758738 0.26639795180789599
leaf_weight=2884.7981529012322 1106.6078786049038 1981.9184381254017 686.72089905850589 623.18037679418921 2268.8255096077919 36.874797333031893 2225.2334267832339 107.9995115827769 1896.865092150867 398.51239192858338 232.69638950750232 486.82160982489586 871.47606129199266 100.2059300430119
leaf_count=22651 18669 11389 9971 3223 18883 246 13203 648 12964 4376 1309 4585 6005 553
internal_value=0 0.0342797 0.0156915 0.0444956 -0.0175235 -0.00746007 -0.00876027 -0.0195758 -0.000761196 0.0185048 0.0441679 0.00427461 -0.00737235 0.0101566
internal_weight=0 5516.46 4409.85 2427.93 10392.3 8123.45 8086.58 5861.34 2976.55 1741.21 1118.03 719.518 2868.55 1997.07
internal_count=128675 53522 34853 23464 75153 56270 56024 42821 20170 13493 10270 5894 19522 13517
shrinkage=0.1


Tree=25
num_leaves=15
num_cat=0
split_feature=8 8 0 8 2 2 5 5 5 5 5 8 5 5
split_gain=886.815 500.553 439.982 243.753 243.661 494.825 197.766 239.669 815.805 210.763 719.031 190.491 185.087 486.489
threshold=1.0000000180025095e-35 0.010191311153557203 0.049450444759073946 0.010213238437682825 1.0000000180025095e-35 0.010190167955222975 0.017542318106266427 0.17543875631721792 0.19297746399089144 0.19298751104701498 0.20981389810372245 0.020306902447688169 0.21052890736481222 0.22806369950247277
decision_type=2 2 2 2 2 2 2 2 2 2 2 2 2 2
left_child=2 -2 -1 -3 6 -6 -4 -8 -9 -10 -11 -5 -12 -14
right_child=1 3 4 11 5 -7 7 8 9 10 12 -13 13 -15
leaf_value=-0.044336224446044736 0.11028748369455671 -0.017731290476127124 0.065832080698097831 0.12099980753369624 0.10776006147318318 0.0044748170001882217 -0.027297331508324925 0.27340110053031935 -0.075878363484118694 0.27122539220052316 -0.078260364693162374 0.010088174698417267 0.27887454025385383 -0.0015901911500371764
leaf_weight=2883.9588275663555 997.80631846003234 818.09808600693941 324.76856833696365 309.03472338244319 565.61831613071263 2577.9409945011139 4522.9413463249803 113.93593684583902 321.332913659513 101.02953748777509 276.32932762056589 310.37999202311039 64.794332951307297 1359.4961688481271
leaf_count=27370 17364 4677 2126 3997 9906 17244 29659 583 2018 500 1718 3018 328 8167
internal_value=0 0.0558711 -0.00983891 0.0180996 -0.000111984 0.0230589 -0.0103932 -0.0140554 0.0127192 -0.00127106 0.0120355 0.0654236 -0.00336231 0.0111688
internal_weight=0 2435.32 13112.1 1437.51 10228.2 3143.56 7084.63 6759.86 2236.92 2122.98 1801.65 619.415 1700.62 1424.29
internal_count=128675 29056 99619 11692 72249 27150 45099 42973 13314 12731 10713 7015 10213 8495
shrinkage=0.1


Tree=26
num_leaves=15
num_cat=0
split_feature=8 8 1 1 0 8 9 9 9 9 9 9 8 2
split_gain=757.159 474.862 407.03 339.659 269.174 208.057 189.479 2325.59 188.908 1218.38 205.446 991.681 179.157 169.773
threshold=1.0000000180025095e-35 0.010191311153557203 0.58211354145372496 0.57282143289931964 0.59125244399356791 0.010213238437682825 0.049999544495928867 1.0000000180025095e-35 0.050000680790483629 0.099934704012156053 0.10001440476138009 0.14999529317913343 0.020306902447688169 1.0000000180025095e-35
decision_type=2 2 2 2 2 2 2 2 2 2 2 2 2 2
left_child=2 -2 3 4 6 -3 7 -1 -8 -10 -11 -12 -7 -9
right_child=1 5 -4 -5 -6 12 8 13 9 10 11 -13 -14 -15
leaf_value=-0.02674783850673176 0.10933351546050599 -0.015929126563623188 -0.042514664748608363 0.24891231526885621 0.023378064686970287 0.11926055452520892 -0.060490316400579038 0.26983797749109589 0.20305187457591745 -0.065001105157491176 0.23305824280533882 -0.045866881632849549 0.0091378669066458987 0.13903009201039829
leaf_weight=2944.9048674087971 910.32817991450429 819.51019071042538 2830.5904736220837 54.700106758624315 3127.8287708424032 283.49616964161396 1196.8888528570533 273.58109261654317 237.44586771167815 1125.9435793664306 151.19274538569152 812.27138696424663 308.49666020274162 155.68192297406495
leaf_count=22518 17364 4677 24298 506 21536 3997 8992 1461 2026 8669 1354 6199 3018 2060
internal_value=0 0.0530203 -0.00900779 0.000400949 -0.000954921 0.0167019 -0.0119886 0.00494854 -0.0282068 -0.0116008 -0.0359945 -0.00209623 0.0618739 0.222398
internal_weight=0 2321.83 12911 10080.4 10025.7 1411.5 6897.91 3374.17 3523.74 2326.85 2089.41 963.464 591.993 429.263
internal_count=128675 29056 99619 75321 74815 11692 53279 26039 27240 18248 16222 7553 7015 3521
shrinkage=0.1


Tree=27
num_leaves=15
num_cat=0
split_feature=6 6 1 1 3 7 7 4 6 6 6 7 7 5
split_gain=651.449 420.639 323.154 353.359 208.676 235.429 631.127 208.525 164.071 239.135 305.617 131.464 1114.59 125.459
threshold=1.0000000180025095e-35 0.010183700647738535 0.57214981101837592 0.56311161400300491 0.50126587812764523 0.071053066111418595 1.0000000180025095e-35 0.25729357604977582 0.010204274168435336 0.020407829663893727 0.020408717816329674 0.071441563348531578 0.14269531208659084 0.087722803273902625
decision_type=2 2 2 2 2 2 2 2 2 2 2 2 2 2
left_child=2 -2 3 4 5 6 7 -1 -3 -10 -11 -7 -13 -6
right_child=1 8 -4 -5 13 11 -8 -9 9 10 -12 12 -14 -15
leaf_value=0.022269580679312298 0.10641140421310361 -0.010176246277688377 -0.038175727919618208 0.24941735469469373 -0.045323564532468497 -0.047623295658821577 0.21981761957564136 -0.028655849990397303 0.10900888013081481 -0.1180133718254717 0.049455604736907667 0.23814273510404946 -0.037844683745565398 0.030480619166668228
leaf_weight=1755.375129211694 787.02754750847816 942.04259023070335 2956.6944140214473 56.36554535292089 241.961948601529 1838.1945201214403 134.74915216118097 1483.6627750843763 389.84305297955871 144.97910058498383 438.73775299265981 164.21808319725096 1343.4952698741108 2235.5744940321892
leaf_count=12484 16610 4811 25597 496 1618 14508 1227 10980 6169 1103 5926 1362 10398 15386
internal_value=0 0.0448627 -0.00939551 -0.0001997 -0.00172949 -0.0108757 0.00776459 -0.00105715 0.0195753 0.0483637 0.00786095 -0.0296714 -0.00778451 0.0230774
internal_weight=0 2702.63 12210.3 9253.6 9197.23 6719.69 3373.79 3239.04 1915.6 973.56 583.717 3345.91 1507.71 2477.54
internal_count=128675 34619 94056 68459 67963 50959 24691 23464 18009 13198 7029 26268 11760 17004
shrinkage=0.1


Tree=28
num_leaves=15
num_cat=0
split_feature=8 8 9 9 9 9 9 9 2 9 9 0 8 8
split_gain=602.086 445.106 310.293 3237.87 454.137 1530.03 321.604 1077.21 240.811 186.522 429.486 167.154 166.819 169.841
threshold=1.0000000180025095e-35 0.010191311153557203 1.0000000180025095e-35 0.049999544495928867 0.050000680790483629 0.099934704012156053 0.10001440476138009 0.14999529317913343 1.0000000180025095e-35 0.15003508800420873 0.19927281989819856 0.13708505316237932 0.010213238437682825 0.020306902447688169
decision_type=2 2 2 2 2 2 2 2 2 2 2 2 2 2
left_child=2 -2 11 8 -5 -6 -7 -8 -4 -9 -11 -1 -3 -14
right_child=1 12 3 4 5 6 7 9 -10 10 -12 -13 13 -15
leaf_value=-0.04484290074391855 0.10848607443083069 -0.014376054014068494 0.24945403640118108 -0.055121799959827439 0.18835394841827924 -0.051174258041252522 0.20039819014212076 -0.056092366758794525 0.13523592029173268 0.19934930944213222 -0.030123342944845644 -0.010981726566625985 0.11790009882606041 0.0062669433695079421
leaf_weight=2362.2694417294115 798.22399328649044 811.61111298203468 439.74039564467967 2127.1038298308849 396.81060634925961 1607.5346991475672 254.9458654243499 757.24767119623721 318.13009965512902 107.68805496953428 336.18569828569889 3807.8053360208869 249.68469105660915 300.08498997241259
leaf_count=23468 17364 4677 2491 16346 3730 12118 2482 5593 4350 995 2463 25583 3997 3018
internal_value=0 0.0491974 -0.00797794 0.00754874 -0.0187593 0.00359259 -0.0203385 0.013705 0.201509 -0.0259219 0.0255489 -0.0239458 0.0144344 0.0569665
internal_weight=0 2159.6 12515.5 6345.39 5587.52 3460.41 3063.6 1456.07 757.87 1201.12 443.874 6170.07 1361.38 549.77
internal_count=128675 29056 99619 50568 43727 27381 23651 11533 6841 9051 3458 49051 11692 7015
shrinkage=0.1


Tree=29
num_leaves=15
num_cat=0
split_feature=2 2 2 2 1 1 9 9 1 1 1 1 1 1
split_gain=514.364 624.092 286.39 375.864 251.075 325.536 152.231 1817.1 142.348 301.65 153.72 349.87 136.52 294.97
threshold=1.0000000180025095e-35 0.010190167955222975 0.010204439600757793 0.020372297381331266 0.42684270032546107 0.41747746387372614 0.049999544495928867 1.0000000180025095e-35 0.41686492003118508 0.407767610566167 0.40776353227594225 0.39806985485449203 0.39805362090006652 0.38835004333241441
decision_type=2 2 2 2 2 2 2 2 2 2 2 2 2 2
left_child=4 -2 -3 -4 5 8 7 -6 9 10 11 12 13 -1
right_child=1 2 3 -5 6 -7 -8 -9 -10 -11 -12 -13 -14 -15
leaf_value=0.0044505238783488239 0.10670651024986506 -0.017529432395608335 0.10890240708273718 0.01154241397284532 -0.035129511779834525 0.2369893313385236 -0.045827207790480981 0.22381362494000734 -0.08332153631644508 0.23565017141813638 -0.089775618217207975 0.23499947634751328 -0.083533137072491298 0.22838304396172313
leaf_weight=3028.0473805051297 818.2785171745345 1879.9551551379263 531.26280337385833 1563.4681783430278 3129.7903390992433 60.571952864527702 2332.7334760390222 296.6903512077406 180.58057823218405 57.115796256810427 166.58434716612101 66.921376205980778 168.88933133147657 59.987842475995421
leaf_count=21402 18669 11389 9971 13493 27027 404 19233 1957 1334 406 1255 468 1222 445
internal_value=0 0.027178 0.0108052 0.0362347 -0.0129703 0.007023 -0.0261229 -0.0127083 0.00328667 0.00769528 0.00396513 0.00866323 0.0040126 0.00880061
internal_weight=0 4792.96 3974.69 2094.73 9547.91 3788.7 5759.21 3426.48 3728.13 3547.55 3490.43 3323.85 3256.92 3088.04
internal_count=128675 53522 34853 23464 75153 26936 48217 28984 26532 25198 24792 23537 23069 21847
shrinkage=0.1


Tree=30
num_leaves=15
num_cat=0
split_feature=8 8 0 0 9 9 9 9 9 9 8 8 9 9
split_gain=473.879 413.853 259.34 199.535 136.446 1890.61 277.575 1070.26 219.911 732.569 134.416 159.068 105.344 311.746
threshold=1.0000000180025095e-35 0.010191311153557203 0.033268950314546859 0.71926736555921078 1.0000000180025095e-35 0.049999544495928867 0.050000680790483629 0.099934704012156053 0.10001440476138009 0.14999529317913343 0.010213238437682825 0.020306902447688169 0.15003508800420873 0.19927281989819856
decision_type=2 2 2 2 2 2 2 2 2 2 2 2 2 2
left_child=2 -2 -1 4 -4 -6 -7 -8 -9 -10 -3 -12 -11 -14
right_child=1 10 3 -5 5 6 7 8 9 12 11 -13 13 -15
leaf_value=-0.039096897292787272 0.10769393933503504 -0.013170174545519664 -0.016117891926327926 0.062416166760499429 0.17511970717425995 -0.047534077860238937 0.17956973336990709 -0.046636331621449825 0.18674656199266185 -0.047838009443582227 0.11641494132625288 0.004110215893662221 0.19296479901345989 -0.030747841922445215
leaf_weight=2089.2254675952718 696.35457503050566 803.4201332628727 4514.4803355652839 482.04987601563334 595.10054601449519 1630.7750635314733 309.9479905012995 1264.0555647034198 201.96506401058286 610.77138820104301 220.84312568604946 294.04768670722842 81.001434063538909 269.65698218345642
leaf_count=22587 17364 4677 33590 4142 5658 12013 3115 9272 2088 4407 3997 3018 832 1915
internal_value=0 0.0453326 -0.00706433 -0.000345001 -0.00353711 0.00790608 -0.0148744 0.00458231 -0.0177609 0.013613 0.0123923 0.0522791 -0.0227568 0.0209294
internal_weight=0 2014.67 12049 9959.8 9477.75 4963.27 4368.17 2737.4 2427.45 1163.39 1318.31 514.891 961.43 350.658
internal_count=128675 29056 99619 77032 72890 39300 33642 21629 18514 9242 11692 7015 7154 2747
shrinkage=0.1


Tree=31
num_leaves=15
num_cat=0
split_feature=0 8 1 1 8 1 1 7 7 7 7 4 0 0
split_gain=414.955 178.74 150.666 326.713 132.331 111.212 294.604 113.521 765.493 112.823 220.834 112.64 104.419 124.017
threshold=0.53185049067288437 1.0000000180025095e-35 0.53381853282945169 0.52427475065587004 0.010191311153557203 0.52427148883206554 0.51456676128130785 0.071441563348531578 0.14269531208659084 0.14288120810167124 0.21425752031130285 0.41719367334102814 0.71926736555921078 0.71924431575265202
decision_type=2 2 2 2 2 2 2 2 2 2 2 2 2 2
left_child=2 12 3 5 -3 6 7 11 -9 -10 -11 -1 13 -2
right_child=1 4 -4 -5 -6 -7 -8 8 9 10 -12 -13 -14 -15
leaf_value=-0.0048941764605364363 0.020979524493398974 0.10660845878807249 -0.029842790764428834 0.2425670866741268 0.034324224323366508 -0.086582422984767232 0.22736894090016993 0.19167065950142942 -0.02510383561669647 0.17907516779223082 -0.00070820366157918696 -0.046041009928645439 0.056998927009993497 -0.019149651710917308
leaf_weight=2568.6446255985647 2203.3723259270191 376.94843842275441 3226.1295745428652 53.803592760115862 771.87277180887759 162.38246740307659 55.142121524550021 216.70110053848475 1149.3425331925973 85.23386544175446 344.35924810171127 897.85469929780811 475.43896064162254 1183.9315475504845
leaf_count=23806 15691 10427 32225 600 7809 1419 680 2245 9673 805 2745 8407 4142 8001
internal_value=0 0.0234125 -0.0126667 -0.00265271 0.058042 -0.00506047 -0.0025709 -0.00498045 0.0154272 -0.00876129 0.0349619 -0.0155516 0.0131133 0.00695356
internal_weight=0 5011.56 8759.59 5533.46 1148.82 5479.66 5317.28 5262.14 1795.64 1578.94 429.593 3466.5 3862.74 3387.3
internal_count=128675 46070 82605 50380 18236 49780 48361 47681 15468 13223 3550 32213 27834 23692
shrinkage=0.1


Tree=32
num_leaves=15
num_cat=0
split_feature=6 6 1 1 0 3 7 7 4 7 7 6 6 6
split_gain=369.26 389.172 203.499 326.61 145.049 133.754 151.887 564.666 141.608 121.315 906.853 103.491 231.62 217.146
threshold=1.0000000180025095e-35 0.010183700647738535 0.60194015054797656 0.59223519769423716 0.71926736555921078 0.53754998296905721 0.071053066111418595 1.0000000180025095e-35 0.2404534670098831 0.071441563348531578 0.14269531208659084 0.010204274168435336 0.020407829663893727 0.020408717816329674
decision_type=2 2 2 2 2 2 2 2 2 2 2 2 2 2
left_child=2 -2 3 4 5 6 7 8 -1 -8 -11 -3 -13 -14
right_child=1 11 -4 -5 -6 -7 9 -9 -10 10 -12 12 13 -15
leaf_value=0.017183793269326723 0.10555106649614038 -0.010924094486740452 -0.035787024886347864 0.26486600946104422 0.057329809567471871 0.017519395303252187 -0.042964933809024795 0.20953429339513355 -0.025878595097936538 0.21009090533415306 -0.03136208167432819 0.10777757722790925 -0.10313450295713728 0.03869320032023045
leaf_weight=1526.8397932667285 606.28398459870368 904.40226755291224 2023.7838914077729 46.053659422323108 393.0366966817528 2063.0526587860659 1906.3817935595289 128.62683162186295 1527.7515612328425 173.85897377412766 1477.1346584325656 302.25060845725238 151.40634170174599 376.1311092544347
leaf_count=11466 16610 4811 19951 420 2811 14870 16762 1270 12289 1634 12583 6169 1103 5926
internal_value=0 0.036586 -0.0070657 -0.000776894 -0.00210714 -0.00476069 -0.0115798 0.00428892 -0.00435383 -0.0257795 -0.00593572 0.0124753 0.0379788 -0.00201218
internal_weight=0 2340.47 11266.5 9242.74 9196.68 8803.65 6740.59 3183.22 3054.59 3557.38 1650.99 1734.19 829.788 527.537
internal_count=128675 34619 94056 74105 73685 70874 56004 25025 23755 30979 14217 18009 13198 7029
shrinkage=0.1


Tree=33
num_leaves=15
num_cat=0
split_feature=8 8 1 1 1 1 0 1 1 1 1 1 1 1
split_gain=327.856 378.325 197.465 263.264 135.412 246.52 130.442 121.246 293.192 127.036 271.065 120.751 308.261 159.066
threshold=1.0000000180025095e-35 0.010191311153557203 0.42684270032546107 0.41747746387372614 0.41686492003118508 0.407767610566167 0.029880022530592052 0.42718892853717227 0.43683836284367139 0.43689549690772761 0.44614232124304087 0.40776353227594225 0.39806985485449203 0.39805362090006652
decision_type=2 2 2 2 2 2 2 2 2 2 2 2 2 2
left_child=2 -2 3 4 5 11 -4 -8 -9 -10 -11 12 13 -1
right_child=1 -3 6 -5 -6 -7 7 8 9 10 -12 -13 -14 -15
leaf_value=0.011292936672803611 0.10672185802408907 0.0089996369691674443 -0.044014816514087694 0.18152088223121893 -0.072022206702652344 0.18260187793171925 -0.08956283329607137 0.19021250107700083 -0.091495024586464302 0.17795507846228673 -0.0096231011582772405 -0.069471623041783601 0.18528252957794142 -0.080427124788167853
leaf_weight=3759.7129162675701 577.09262254368514 1263.641776974313 1378.2002533273771 87.982243972830474 207.60742202308029 81.803349382244051 183.57772619090974 74.40317009575665 183.24521918129176 78.234798087738454 5039.2502849497832 195.24638155475259 99.055042453110218 199.0946418363601
leaf_count=29489 17364 11692 16285 851 1620 861 1315 796 1263 809 42312 1546 990 1482
internal_value=0 0.0396367 -0.00580053 0.0101912 0.00687279 0.0106512 -0.0164753 -0.00964725 -0.00691788 -0.00968488 -0.00675545 0.00734396 0.01104 0.00668019
internal_weight=0 1840.73 11567.4 4630.5 4542.52 4334.91 6936.91 5558.71 5375.13 5300.73 5117.49 4253.11 4057.86 3958.81
internal_count=128675 29056 99619 36839 35988 34368 62780 46495 45180 44384 43121 33507 31961 30971
shrinkage=0.1


Tree=34
num_leaves=15
num_cat=0
split_feature=6 6 9 9 9 9 9 9 9 9 1 1 6 6
split_gain=286.291 363.735 189.494 2128.64 289.008 1141.1 195.835 786.702 130.922 303.805 92.5171 213.848 83.5012 214.95
threshold=1.0000000180025095e-35 0.010183700647738535 1.0000000180025095e-35 0.049999544495928867 0.050000680790483629 0.099934704012156053 0.10001440476138009 0.14999529317913343 0.15003508800420873 0.19927281989819856 0.6116493727904978 0.60194518610436287 0.010204274168435336 0.020407829663893727
decision_type=2 2 2 2 2 2 2 2 2 2 2 2 2 2
left_child=2 -2 10 -4 -5 -6 -7 -8 -9 -10 11 -1 -3 -14
right_child=1 12 3 4 5 6 7 8 9 -11 -12 -13 13 -15
leaf_value=-0.013585725302694869 0.10499915560542517 -0.010434441744376396 0.17799645466364547 -0.046902597578707746 0.17712376491454834 -0.04353260048514758 0.1819018912341589 -0.053239483337896333 0.19688254392400173 -0.02528526176527704 -0.042413863421161865 0.31368808409297344 0.10696445314437888 -0.00347307939435381
leaf_weight=4189.9769306527451 535.27064672345296 899.26660651341081 642.66189758246765 1839.8302778927609 335.94063281826675 1437.0913558378816 220.704627383966 652.48835199605674 77.763525571674109 295.22068624012172 1314.809792554006 20.06119885109365 267.54517104756087 516.42424258030951
leaf_count=32873 16610 4811 6158 15418 3365 11823 2238 5224 784 2315 13642 216 6169 7029
internal_value=0 0.0331952 -0.00617615 0.00696066 -0.0156607 0.00337729 -0.0183755 0.0106357 -0.0262246 0.0210345 -0.0192579 -0.0120262 0.0103615 0.0342159
internal_weight=0 2218.51 11026.5 5501.7 4859.04 3019.21 2683.27 1246.18 1025.47 372.984 5524.85 4210.04 1683.24 783.969
internal_count=128675 34619 94056 47325 41167 25749 22384 10561 8323 3099 46731 33089 18009 13198
shrinkage=0.1


Tree=35
num_leaves=15
num_cat=0
split_feature=0 5 5 5 5 5 5 5 5 2 5 5 5 5
split_gain=262.248 127.062 702.971 268.737 716.129 317.311 445.878 213.408 895.424 173.109 172.351 586.799 267.349 676.522
threshold=0.59125244399356791 0.10526420338592855 0.12269934903232442 0.12280763299779413 0.14006335347507068 0.14035539145293313 0.15750753687007549 0.10506079769517364 0.087722803273902625 1.0000000180025095e-35 0.15789625307309102 0.17543244164842564 0.17543875631721792 0.19297746399089144
decision_type=2 2 2 2 2 2 2 2 2 2 2 2 2 2
left_child=1 7 -3 -4 -5 -6 -7 8 -1 -10 -8 -12 -13 -14
right_child=-2 2 3 4 5 6 10 -9 9 -11 11 12 13 -15
leaf_value=-0.031214817973200373 0.021090776112764758 0.19905528676066356 -0.071106801499393552 0.20268688548813071 -0.078334988680166473 0.16028648599180118 -0.058689072475327092 -0.080541420187705798 0.35078543339362389 0.13049266077817423 0.17721479600432916 -0.07414226162353002 0.19890665589485185 -0.0059077642094564273
leaf_weight=1826.2425760459155 4170.7468001311645 169.7713094400242 594.59414245281368 168.42070065671578 554.66907223686576 170.69941179221496 517.12854428961873 595.49329914990813 63.510781695134938 81.377583696506917 183.75690374011174 497.08260302431881 169.83770301006734 3197.8949844846502
leaf_count=19253 40800 2136 5923 2185 5653 2313 5304 5793 563 1433 2140 4496 2000 28683
internal_value=0 -0.00935773 -0.0016371 -0.007265 -0.000311982 -0.00677366 0.00160672 -0.0280796 -0.0122305 0.227056 -0.00432589 0.00261797 -0.00568343 0.00442121
internal_weight=0 8790.48 6223.86 6054.08 5459.49 5291.07 4736.4 2566.62 1971.13 144.888 4565.7 4048.57 3864.82 3367.73
internal_count=128675 87875 60833 58697 52774 50589 44936 27042 21249 1996 42623 37319 35179 30683
shrinkage=0.1


Tree=36
num_leaves=15
num_cat=0
split_feature=8 8 9 9 9 9 9 9 9 9 8 8 8 1
split_gain=234.764 337.564 144.481 1750.54 240.436 899.396 174.183 618.852 100.835 252.482 89.7659 149.02 85.2935 81.665
threshold=1.0000000180025095e-35 0.010191311153557203 1.0000000180025095e-35 0.049999544495928867 0.050000680790483629 0.099934704012156053 0.10001440476138009 0.14999529317913343 0.15003508800420873 0.19927281989819856 0.010213238437682825 0.020306902447688169 0.020408562658459296 0.6116493727904978
decision_type=2 2 2 2 2 2 2 2 2 2 2 2 2 2
left_child=2 -2 13 -4 -5 -6 -7 -8 -9 -10 -3 -12 -13 -1
right_child=1 10 3 4 5 6 7 8 9 -11 11 12 -14 -15
leaf_value=-0.0096405278736092712 0.10585632514913353 -0.01365183461093032 0.16503702841221579 -0.041874823931137922 0.16385173514606788 -0.038983731354811993 0.17091095100528683 -0.042702344022394069 0.17368216556263466 -0.021163998089239112 0.11437393961911509 -0.072106718255383603 0.041829520829095912 -0.038407726280328847
leaf_weight=4301.6451342701912 481.62408528244123 773.02696038410068 618.6203861227259 1855.670146714896 314.72105004731566 1412.0500657306984 205.49078387301415 659.21111152134836 85.152928535826504 303.66249229945242 175.86361133307219 109.21987661346793 164.91008896194398 1280.605746595189
leaf_count=35146 17364 4677 6841 16346 3730 12118 2482 5593 995 2463 3997 738 2280 13905
internal_value=0 0.0349437 -0.00493001 0.00664462 -0.0136171 0.00397754 -0.0148987 0.0122325 -0.0188803 0.0215085 0.00701836 0.0425269 -0.00356538 -0.0162399
internal_weight=0 1704.64 11036.8 5454.58 4835.96 2980.29 2665.57 1253.52 1048.03 388.815 1223.02 449.994 274.13 5582.25
internal_count=128675 29056 99619 50568 43727 27381 23651 11533 9051 3458 11692 7015 3018 49051
shrinkage=0.1


Tree=37
num_leaves=15
num_cat=0
split_feature=2 2 2 2 5 5 3 7 7 4 3 1 0 7
split_gain=209.83 507.708 144.9 323.767 140.073 154.566 127.733 124.038 555.824 98.5993 97.0897 90.38 89.8136 74.3716
threshold=1.0000000180025095e-35 0.010190167955222975 0.010204439600757793 0.020372297381331266 0.017542318106266427 1.0000000180025095e-35 0.41250195574164966 0.071053066111418595 1.0000000180025095e-35 0.22508014177991706 1.0000000180025095e-35 0.29125372139838085 0.0030977079073685504 0.071441563348531578
decision_type=2 2 2 2 2 2 2 2 2 2 2 2 2 2
left_child=4 -2 -3 -4 5 -1 7 8 9 10 -6 12 -12 -8
right_child=1 2 3 -5 6 -7 13 -9 -10 -11 11 -13 -14 -15
leaf_value=0.013451233344062738 0.10594525509423869 -0.015885493223944974 0.1078907623290611 0.0026139170050840637 -0.10473297815340027 0.17040043795027182 -0.0115483319267023 -0.03813054800073408 0.23844000628813744 -0.030929457884163205 0.23897255395696448 -0.0072180103273823933 0.038903231961278532 0.020592888825809952
leaf_weight=224.96464812289923 577.8628516595345 1721.3020109077916 371.07022968074307 1373.0695912605152 74.357722089625895 87.018566133454442 1333.897620849777 2245.917612018995 89.477390705607831 1627.9596033133566 23.765104722231627 779.98622862994671 401.7583922855556 1564.0480964621529
leaf_count=1505 18669 11389 9971 13493 652 922 10266 23730 733 15604 256 7216 2820 11449
internal_value=0 0.019168 0.00469793 0.0250118 -0.00853004 0.0572276 -0.01105 -0.0203622 -0.00704822 -0.0146022 0.00616568 0.0130061 0.0500769 0.00579858
internal_weight=0 4043.3 3465.44 1744.14 8453.15 311.983 8141.17 5243.22 2997.3 2907.83 1279.87 1205.51 425.523 2897.95
internal_count=128675 53522 34853 23464 75153 2427 72726 51011 27281 26548 10944 10292 3076 21715
shrinkage=0.1


Tree=38
num_leaves=15
num_cat=0
split_feature=0 9 9 9 9 9 9 4 9 9 7 7 1 3
split_gain=193.608 140.296 1550.15 236.985 796.573 162.435 554.099 83.7114 73.4284 224.391 73.2051 534.931 63.9872 54.6881
threshold=0.71926736555921078 1.0000000180025095e-35 0.049999544495928867 0.050000680790483629 0.099934704012156053 0.10001440476138009 0.14999529317913343 0.3215271995918369 0.15003508800420873 0.19927281989819856 0.071441563348531578 0.14269531208659084 0.49428223114359465 0.66524915017001496
decision_type=2 2 2 2 2 2 2 2 2 2 2 2 2 2
left_child=1 7 -3 12 -5 -6 -7 -1 -8 -10 -9 -12 -4 -13
right_child=-2 2 3 4 5 6 8 10 9 -11 11 13 -14 -15
leaf_value=-0.0028047745148803392 0.052757285952664025 0.15159714400878238 -0.022193524487612411 0.14961538385784687 -0.03354710610422864 0.15248879413269936 -0.035175930398382946 -0.040705680628514207 0.15663853874592609 -0.021620367374871781 0.23512388688915539 -0.038784117340998563 -0.059000220785674032 0.022310729310685597
leaf_weight=3260.3011097162962 668.47312093805522 669.1778821668122 1107.4807327063754 346.63168012583628 1501.7276080055162 238.66911304858513 699.05801770836115 1547.5455276393332 90.97502727014944 315.55152249103412 84.27551054675132 793.32425466366112 823.55913324141875 179.70441754255444
leaf_count=31319 8732 10326 9766 5619 14169 4103 6493 15802 1559 2806 1035 7141 8584 1221
internal_value=0 -0.00258113 0.00845725 -0.0102376 0.00648842 -0.010944 0.014307 -0.0134834 -0.0155232 0.0182715 -0.0268491 -0.00656751 -0.037891 -0.0275008
internal_weight=0 11658 5792.83 5123.65 3192.61 2845.98 1344.25 5865.15 1105.58 406.527 2604.85 1057.3 1931.04 973.029
internal_count=128675 119943 63425 53099 34749 29130 14961 56518 10858 4365 25199 9397 18350 8362
shrinkage=0.1


Tree=39
num_leaves=15
num_cat=0
split_feature=8 8 1 1 9 9 9 9 1 1 1 1 1 1
split_gain=168.829 300.33 114.814 186.442 101.889 929.547 98.8689 399.347 90.8824 183.419 80.6262 230.35 109.83 228.616
threshold=1.0000000180025095e-35 0.010191311153557203 0.42684270032546107 0.41747746387372614 0.049999544495928867 1.0000000180025095e-35 0.050000680790483629 0.099934704012156053 0.41686492003118508 0.407767610566167 0.40776353227594225 0.39806985485449203 0.39805362090006652 0.38835004333241441
decision_type=2 2 2 2 2 2 2 2 2 2 2 2 2 2
left_child=2 -2 3 8 5 -4 -6 -8 9 10 11 12 13 -1
right_child=1 -3 4 -5 6 -7 7 -9 -10 -11 -12 -13 -14 -15
leaf_value=0.0054517009891637217 0.10521316324402885 0.005310930668384106 -0.018008996005883012 0.16759037690864231 -0.050920693898905724 0.15643847118875187 0.15680179642508718 -0.027384539193902543 -0.062890723766322973 0.17331951539791637 -0.060476245609372314 0.17370980825347918 -0.071218651279551237 0.17590122354957669
leaf_weight=3441.9790594696533 404.75627346057445 1172.9638299350627 3362.5165327629074 72.402416142635047 1090.7670321399346 335.97079141647555 129.09029870573431 1336.0090927432757 184.46340024238452 66.716402910184115 173.81080135144293 83.221025923267007 177.73966581653804 80.530210192780942
leaf_count=28504 17364 11692 32919 851 10938 4176 1877 12870 1620 861 1546 990 1482 985
internal_value=0 0.0309404 -0.00413576 0.00848256 -0.0127725 -0.00216218 -0.0281263 -0.0111558 0.00574527 0.0088916 0.00611948 0.00917886 0.00547845 0.00934845
internal_weight=0 1577.72 10535.2 4280.86 6254.35 3698.49 2555.87 1465.1 4208.46 4024 3957.28 3783.47 3700.25 3522.51
internal_count=128675 29056 99619 36839 62780 37095 25685 14747 35988 34368 33507 31961 30971 29489
shrinkage=0.1


Tree=40
num_leaves=15
num_cat=0
split_feature=0 5 5 5 5 5 5 5 5 5 5 2 5 5
split_gain=158.768 98.1893 699.112 250.951 691.984 273.574 583.375 216.066 593.156 252.886 375.345 143.529 136.768 486.12
threshold=0.61826249054287208 0.070176331267112632 0.087718563267215222 0.087722803273902625 0.10506079769517364 0.10526420338592855 0.12269934903232442 0.12280763299779413 0.14006335347507068 0.14035539145293313 0.15750753687007549 1.0000000180025095e-35 0.15789625307309102 0.17543244164842564
decision_type=2 2 2 2 2 2 2 2 2 2 2 2 2 2
left_child=1 -1 11 -4 -5 -6 -7 -8 -9 -10 -11 -3 -12 -14
right_child=-2 2 3 4 5 6 7 8 9 10 12 -13 13 -15
leaf_value=-0.034682328273110047 0.01786471702018402 0.34727651941207793 -0.073594215490112191 0.21620952484444123 -0.073900874917778095 0.19266795235923409 -0.064848931060936948 0.19583688843321917 -0.071373023386389997 0.15750975735848799 -0.052712823162409897 0.12956210940952673 0.17075300756863929 -0.0039300352412062261
leaf_weight=1123.7913681296632 3633.971670486033 58.829180156812072 523.63930227514356 142.61756064044312 550.47455068584532 152.79398530162871 550.9914245265536 151.70767971058376 513.15508206700906 151.39863729686476 485.02013818919659 62.398185564670712 166.52773841656744 3675.3766295874957
leaf_count=12399 38166 513 5556 2174 5917 2257 6013 2284 5765 2447 5410 1353 2273 36148
internal_value=0 -0.00719495 -0.00289566 -0.00698211 -0.00164872 -0.00650541 -0.000160328 -0.00533456 0.00104123 -0.00487926 0.00274003 0.235214 -0.00267535 0.00364162
internal_weight=0 8308.72 7184.93 7063.7 6540.06 6397.45 5846.97 5694.18 5143.19 4991.48 4478.32 121.227 4326.92 3841.9
internal_count=128675 90509 78110 76244 70688 68514 62597 60340 54327 52043 46278 1866 43831 38421
shrinkage=0.1


Tree=41
num_leaves=15
num_cat=0
split_feature=0 1 1 1 1 1 1 1 1 1 1 1 1 1
split_gain=142.983 103.773 224.251 98.6124 269.695 109.066 260.182 119.344 307.928 115.009 275.245 109.468 229.062 147.88
threshold=0.71926736555921078 0.54368722442905015 0.53398262632011828 0.53381853282945169 0.52427475065587004 0.52427148883206554 0.51456676128130785 0.51456244262113138 0.50485558091311211 0.50485311999729621 0.49515136203703536 0.49428223114359465 0.4854380301044155 0.48543379928179042
decision_type=2 2 2 2 2 2 2 2 2 2 2 2 2 2
left_child=1 2 3 4 5 6 7 8 9 10 11 12 13 -1
right_child=-2 -3 -4 -5 -6 -7 -8 -9 -10 -11 -12 -13 -14 -15
leaf_value=0.0050245634467503799 0.046251389040962536 -0.017510084422604433 0.19086946865894391 -0.07158135599820957 0.20209678581215465 -0.074489714879969623 0.19406558727004886 -0.074474286474921228 0.19458414893595286 -0.073615975469853073 0.18774763864406421 -0.070020283217463328 0.17224650940132957 -0.080372288686709162
leaf_weight=6317.1231146915816 642.90309721417725 3181.5165861910209 63.613709904719144 176.33953334903345 68.152217004215345 180.66560691734776 71.440459924051538 197.03883403446525 84.146569218020886 194.81099484860897 80.827657122397795 204.04197317454964 80.269792185164988 209.50574279809371
leaf_count=65210 8732 36772 990 1649 1088 1724 1212 1802 1287 1742 1329 1920 1315 1903
internal_value=0 -0.00225347 0.00386905 0.00235643 0.00405234 0.00228102 0.00414545 0.00230392 0.00441364 0.00215555 0.00429739 0.00212033 0.00434826 0.00228331
internal_weight=0 11109.5 7927.98 7864.36 7688.02 7619.87 7439.21 7367.76 7170.73 7086.58 6891.77 6810.94 6606.9 6526.63
internal_count=128675 119943 83171 82181 80532 79444 77720 76508 74706 73419 71677 70348 68428 67113
shrinkage=0.1


Tree=42
num_leaves=15
num_cat=0
split_feature=2 2 5 5 5 5 5 5 5 5 5 5 5 5
split_gain=124.377 431.681 101.938 134.337 112.798 577.038 211.359 295.739 123.777 614.025 165.013 782.558 173.848 793.126
threshold=1.0000000180025095e-35 0.010190167955222975 0.017542318106266427 1.0000000180025095e-35 0.12280763299779413 0.14006335347507068 0.14035539145293313 0.15750753687007549 0.12269934903232442 0.10526420338592855 0.10506079769517364 0.087722803273902625 0.087718563267215222 0.070176331267112632
decision_type=2 2 2 2 2 2 2 2 2 2 2 2 2 2
left_child=2 -2 3 -1 8 -6 -7 -8 9 10 11 12 13 -4
right_child=1 -3 4 -5 5 6 7 -9 -10 -11 -12 -13 -14 -15
leaf_value=0.010374486355994446 0.10529144904899501 0.0025335907492362855 -0.025626878666274878 0.16205432774870532 0.21419837292564625 -0.069710915824143613 0.16547863376508865 -0.001234167696939631 -0.068570926283247069 0.20492682011186256 -0.074649113222159932 0.25125349064196628 -0.075855795675952131 0.270139246564157
leaf_weight=220.92991294432431 467.80943493172526 3242.1174533308949 1749.0938902678899 79.365856853313744 124.82633794378489 437.54074395354837 109.88216616422869 3364.5313538857736 489.01224385108799 122.56031825020909 519.92315992712975 107.46195774152875 518.0633049365133 95.622906617354602
leaf_count=1505 18669 34853 16005 922 918 5190 961 30515 5486 961 5584 951 5282 873
internal_value=0 0.015491 -0.00668835 0.0504623 -0.00893513 0.00254336 -0.00421033 0.00403831 -0.0218001 -0.0144523 -0.0234442 -0.0126669 -0.0246703 -0.0102955
internal_weight=0 3709.93 7938.81 300.296 7638.52 4036.78 3911.95 3474.41 3601.74 3112.73 2990.17 2470.24 2362.78 1844.72
internal_count=128675 53522 75153 2427 72726 37584 36666 31476 35142 29656 28695 23111 22160 16878
shrinkage=0.1


Tree=43
num_leaves=15
num_cat=0
split_feature=8 8 4 5 5 5 5 5 5 5 5 5 5 1
split_gain=115.235 265.493 90.6506 136.605 284.503 114.495 264.085 95.1894 266.634 129.853 194.677 122.553 224.125 81.8416
threshold=1.0000000180025095e-35 0.010191311153557203 0.38594557385198097 0.17543875631721792 0.19297746399089144 0.19298751104701498 0.20981389810372245 0.22807240313791741 0.24561256715419991 0.24561673357517536 0.26315753614740339 0.26316624938090888 0.2806877356068595 0.66019268077014326
decision_type=2 2 2 2 2 2 2 2 2 2 2 2 2 2
left_child=2 -2 13 -4 -5 -6 -7 -8 -9 -10 -11 -12 -13 -1
right_child=1 -3 3 4 5 6 7 8 9 10 11 12 -14 -15
leaf_value=0.0077889707534375581 0.10453969930988488 0.0033679501709619033 -0.033653813162356348 0.19577731651936292 -0.068560616305105279 0.19666169824283447 -0.042655418949539697 0.22684008608656769 -0.084996925441505222 0.22488670156379664 -0.083933861132712159 0.22702833581944537 0.0063110268115435285 -0.032264447260797843
leaf_weight=5547.3117783651687 336.1579834963195 1135.6309744147584 1998.9353926016483 74.190460189711303 238.66898171417415 69.278693445958197 432.29111049417406 55.260519664268941 148.90250155050308 42.459669450763613 129.72781044617295 49.490720533300191 653.47022731089965 561.81249226396903
leaf_count=52016 17364 11692 22947 833 2174 776 3985 570 1277 445 1057 522 5819 7198
internal_value=0 0.0264757 -0.00349388 -0.0154203 0.00382597 -0.00400067 0.00574608 -0.00300382 0.0128776 0.00133164 0.0160201 0.00536972 0.0218502 0.00410554
internal_weight=0 1471.79 10001.8 3892.68 1893.74 1819.55 1580.88 1511.6 1079.31 1024.05 875.148 832.689 702.961 6109.12
internal_count=128675 29056 99619 40405 17458 16625 14451 13675 9690 9120 7843 7398 6341 59214
shrinkage=0.1


Tree=44
num_leaves=15
num_cat=0
split_feature=0 3 7 7 4 1 7 5 5 1 1 1 1 1
split_gain=109.24 81.7315 188.335 432.603 84.7618 66.9518 66.203 61.0317 122.458 54.3195 120.135 58.2966 104.275 53.3072
threshold=0.71926736555921078 0.38167917538605312 0.071053066111418595 1.0000000180025095e-35 0.28994567691206657 0.63106464234757831 0.28589696064041242 0.24561673357517536 0.26315753614740339 0.46601940937437109 0.45631181163717111 0.45631058574902633 0.44660230069745238 0.46602385502233767
decision_type=2 2 2 2 2 2 2 2 2 2 2 2 2 2
left_child=1 2 3 4 5 -1 9 -4 -9 10 11 12 -3 -11
right_child=-2 6 7 -5 -6 -7 -8 8 -10 13 -12 -13 -14 -15
leaf_value=0.014619457315252882 0.041171701684857051 0.014444201091136685 -0.038745487938170987 0.17677702711580023 -0.021555266422778038 -0.039417380622637312 0.092167720728853306 0.23678288937443914 -0.0087758316481625197 -0.076449642222694292 0.17120146684036755 -0.061337690814754424 0.16050704651280553 -0.00096602130153977748
leaf_weight=2195.8770912883338 619.25892898626626 1901.823004751699 1975.995684986352 139.66312768310308 1445.1556517779827 256.0219598999247 92.604744641575962 21.577542847022414 345.29020753316581 97.967606129590422 50.08390473225154 96.721296493895352 50.165711774723604 2078.4940337745938
leaf_count=22901 8732 18975 25225 2375 16955 3557 903 242 3621 716 780 755 764 22174
internal_value=0 -0.00202196 -0.00923769 0.00385197 -0.00234533 0.00897705 0.00851716 -0.031791 0.00566685 0.00670523 0.0181838 0.014443 0.018198 -0.00436371
internal_weight=0 10747.4 6379.58 4036.72 3897.05 2451.9 4367.86 2342.86 366.868 4275.26 2098.79 2048.71 1951.99 2176.46
internal_count=128675 119943 74876 45788 43413 26458 45067 29088 3863 44164 21274 20494 19739 22890
shrinkage=0.1


Tree=45
num_leaves=15
num_cat=0
split_feature=9 9 9 9 9 9 9 9 4 3 5 5 5 5
split_gain=97.7384 1112.79 169.722 606.581 132.912 427.73 67.5109 170.21 54.5985 56.9242 53.5637 235.425 142.999 300.352
threshold=1.0000000180025095e-35 0.049999544495928867 0.050000680790483629 0.099934704012156053 0.10001440476138009 0.14999529317913343 0.15003508800420873 0.19927281989819856 0.3215271995918369 1.0000000180025095e-35 0.035086295781965239 0.017545449789829838 0.035089619903279946 0.052209076573470507
decision_type=2 2 2 2 2 2 2 2 2 2 2 2 2 2
left_child=8 -2 -3 -4 -5 -6 -7 -8 9 -1 11 -11 -12 -14
right_child=1 2 3 4 5 6 7 -9 -10 10 12 -13 13 -15
leaf_value=-0.058323081965631129 0.14007263002406592 -0.029469361676805996 0.13876759241406572 -0.027043009450454233 0.14261779096719326 -0.028245249187747408 0.14591065984956647 -0.010907272426232189 -0.020136507606718868 -0.0027080304691858847 -0.086849050133921607 0.20371607468080155 0.21501396530802169 -0.001389417846417022
leaf_weight=161.43287513451651 586.15119567711372 1863.6539141950198 321.4548940686509 1464.9074007296003 224.00553445308469 684.93447108473629 88.441890246234834 318.35623413696885 2452.7962526171468 264.6312072747387 185.2633208045736 69.82882344070822 65.798661014996469 2538.3014262286015
leaf_count=1436 11485 19316 6528 15056 4678 6936 1824 3147 26133 2207 1466 1003 995 26465
internal_value=0 0.00976391 -0.00561756 0.00871192 -0.00632309 0.0167459 -0.00908091 0.0231865 -0.00884733 -0.000418753 0.00257363 0.0403894 -0.00196069 0.00407852
internal_weight=0 5551.91 4965.75 3102.1 2780.65 1315.74 1091.73 406.798 5738.05 3285.26 3123.82 334.46 2789.36 2604.1
internal_count=128675 68970 57485 38169 31641 16585 11907 4971 59705 33572 32136 3210 28926 27460
shrinkage=0.1


Tree=46
num_leaves=15
num_cat=0
split_feature=6 6 5 5 5 5 5 5 5 5 5 5 5 5
split_gain=86.4058 305.516 69.8247 446.122 196.85 429.646 155.707 333.673 116.278 323.825 114.537 252.904 113.241 544.003
threshold=1.0000000180025095e-35 0.010183700647738535 0.22807240313791741 0.24561256715419991 0.22806369950247277 0.21052890736481222 0.24561673357517536 0.26315753614740339 0.26316624938090888 0.2806877356068595 0.28070464023786712 0.29774022174234444 0.20981389810372245 0.19298751104701498
decision_type=2 2 2 2 2 2 2 2 2 2 2 2 2 2
left_child=2 -2 4 -4 5 12 -5 -8 -9 -10 -11 -12 13 -1
right_child=1 -3 3 6 -6 -7 7 8 9 10 11 -13 -14 -15
leaf_value=-0.0084592424335418852 0.10436335817403489 0.00017398113986705655 0.22311517102826919 -0.070643677848998179 -0.087622943440241019 0.19336545031386015 0.21191059536686574 -0.065954178506449163 0.2217935434853231 -0.075587282431058223 0.24370018951005515 0.0030762011144037007 -0.060412915381620663 0.19170542047393402
leaf_weight=6700.9659081414575 349.24124170909636 1449.7091674418189 96.932899922132492 248.08174643991515 295.64714094810188 108.23546667047776 81.326848789816722 205.22021762095392 71.505149881355464 161.56341772619635 46.237934524193406 789.40579514415003 381.0907864891924 138.58507639425807
leaf_count=69194 16610 18009 1068 2213 2695 1270 938 1734 816 1378 598 7067 3526 1559
internal_value=0 0.0204009 -0.00353599 0.0147885 -0.00762236 -0.00439513 0.00219372 0.0155267 0.0029897 0.0162287 0.00148858 0.0163904 -0.00735951 -0.00440344
internal_weight=0 1798.95 9324.8 1700.27 7624.52 7328.88 1603.34 1355.26 1273.93 1068.71 997.207 835.644 7220.64 6839.55
internal_count=128675 34619 94056 15812 78244 75549 14744 12531 11593 9859 9043 7665 74279 70753
shrinkage=0.1


Tree=47
num_leaves=15
num_cat=0
split_feature=0 9 9 9 9 9 9 4 1 4 7 7 3 7
split_gain=81.5001 66.7069 932.613 116.526 481.188 91.9167 348.898 48.6605 43.3444 38.6989 54.0051 285.154 48.0959 40.1853
threshold=0.71926736555921078 1.0000000180025095e-35 0.049999544495928867 0.050000680790483629 0.099934704012156053 0.10001440476138009 0.14999529317913343 0.44949504234128118 0.54368722442905015 0.38594557385198097 0.071441563348531578 0.14269531208659084 1.0000000180025095e-35 0.5012749611975803
decision_type=2 2 2 2 2 2 2 2 2 2 2 2 2 2
left_child=1 9 -3 8 -5 -6 -7 -8 -4 12 -11 -12 -1 -13
right_child=-2 2 3 4 5 6 7 -9 -10 10 11 13 -14 -15
leaf_value=-0.055908908865376195 0.036330924492492075 0.13735960985017012 -0.018242850519616684 0.13556152252383311 -0.025933138348265258 0.13983611765678525 0.0064682456478524167 -0.039080502265036093 -0.053600380034577677 -0.038214407611661061 0.22378283383185629 -0.021007300987640993 -0.001204699321362376 0.22800772724073082
leaf_weight=168.40742223523557 594.806710136123 491.72680287784897 1245.6862281456124 256.24785158841405 1359.4797545624897 181.27417379105464 609.6477799937129 381.19779974408448 480.43025565706193 926.77534047607332 51.984010411193594 712.71281547984108 3520.2098985742778 6.5400888770818701
leaf_count=1522 8732 10326 12340 5619 14169 4103 6641 4217 6010 10986 752 6787 36431 40
internal_value=0 -0.0017298 0.00658125 -0.00766504 0.00497746 -0.00824023 0.0122808 -0.0110553 -0.0280839 -0.00945309 -0.0219457 -0.00239596 -0.00370227 -0.018743
internal_weight=0 10392.3 5005.69 4513.96 2787.85 2531.6 1172.12 990.846 1726.12 5386.63 1698.01 771.237 3688.62 719.253
internal_count=128675 119943 63425 53099 34749 29130 14961 10858 18350 56518 18565 7579 37953 6827
shrinkage=0.1


Tree=48
num_leaves=15
num_cat=0
split_feature=8 8 5 5 3 5 5 5 5 5 5 5 5 5
split_gain=73.9139 225.5 72.2107 123.567 98.3401 62.7885 647.835 225.778 537.455 194.615 552.505 244.104 328.246 160.062
threshold=1.0000000180025095e-35 0.010191311153557203 0.017542318106266427 1.0000000180025095e-35 1.0000000180025095e-35 0.087722803273902625 0.10506079769517364 0.10526420338592855 0.12269934903232442 0.12280763299779413 0.14006335347507068 0.14035539145293313 0.15750753687007549 0.087718563267215222
decision_type=2 2 2 2 2 2 2 2 2 2 2 2 2 2
left_child=2 -2 3 -1 -4 13 -7 -8 -9 -10 -11 -12 -13 -6
right_child=1 -3 4 -5 5 6 7 8 9 10 11 12 -14 -15
leaf_value=0.0076822174850034938 0.10386982144065021 0.0018630649066307611 -0.098264242232043122 0.15418887358789884 -0.0031141287414702778 0.1965931849574436 -0.061925368616761622 0.17907660118452223 -0.057729259326284033 0.18192480503638578 -0.067911848409669615 0.15182404428381813 0.00024663912344878895 -0.063047895110963176
leaf_weight=223.6810659696348 270.43916104361415 1090.9010733766481 110.21044458821416 77.520106308162212 2005.024438850116 166.71230549830943 591.73644958017394 168.18286238075234 569.96448038564995 168.54080805368721 506.95720322290435 147.93377024726942 4170.8836807168555 572.92808083957061
leaf_count=1562 17364 11692 1191 966 19788 2148 6542 2150 6448 2042 6023 2152 42573 6034
internal_value=0 0.0221274 -0.00279079 0.0453886 -0.00437175 -0.00323071 0.00201312 -0.00311621 0.00295439 -0.00236898 0.00394888 -0.00226695 0.00543867 -0.0164339
internal_weight=0 1361.34 9480.28 301.201 9179.07 9068.86 6490.91 6324.2 5732.46 5564.28 4994.32 4825.77 4318.82 2577.95
internal_count=128675 29056 99619 2528 97091 95900 70078 67930 61388 59238 52790 50748 44725 25822
shrinkage=0.1


Tree=49
num_leaves=15
num_cat=0
split_feature=7 7 7 7 7 7 7 7 7 4 1 1 8 0
split_gain=69.0234 664.089 166.94 933.928 117.874 369.485 102.706 105.272 71.7569 68.8183 63.6275 61.2211 55.8249 55.2583
threshold=0.071053066111418595 1.0000000180025095e-35 0.071441563348531578 0.14269531208659084 0.14288120810167124 0.21425752031130285 0.21430070114087782 0.28557011347891553 0.28589696064041242 0.25729357604977582 0.51456244262113138 0.50485558091311211 1.0000000180025095e-35 0.63121662404444889
decision_type=2 2 2 2 2 2 2 2 2 2 2 2 2 2
left_child=1 9 12 -4 10 -6 -7 -8 -9 -1 11 -5 -2 -14
right_child=2 -3 3 4 5 6 7 8 -10 -11 -12 -13 13 -15
leaf_value=0.011333474081286809 -0.028832564560953091 0.17407558956908051 0.16701102284366076 -0.011001908159008917 0.17069292660573765 -0.045731081909424029 0.18080996023031146 -0.048638309605544439 0.071774989633149974 -0.013857907422635585 -0.045623524671971345 0.19412996744703798 -0.023885447888663723 0.052863238808989327
leaf_weight=2598.142747709644 2594.9078055067221 232.77934220002498 335.75584391539451 1205.0405096041504 139.73620125791058 340.82964642718434 43.274535160046071 103.98551322333515 94.433207607944496 1861.3082008550409 744.48993032542057 14.726849775062872 198.54375047283247 177.84071660996415
leaf_count=29264 29374 4706 5974 12473 2110 3296 688 1008 986 23089 8575 202 3253 3677
internal_value=0 0.00941415 -0.00678042 0.0097675 -0.0098845 0.024659 -0.0103717 0.0394911 0.00866986 0.000818968 -0.0225862 -0.00852525 -0.0236123 0.0123781
internal_weight=0 4692.23 5993.56 3022.27 2686.52 722.259 582.523 241.693 198.419 4459.45 1964.26 1219.77 2971.29 376.384
internal_count=128675 57059 71616 35312 29338 8088 5978 2682 1994 52353 21250 12675 36304 6930
shrinkage=0.1


Tree=50
num_leaves=15
num_cat=0
split_feature=5 5 5 5 5 5 5 5 5 5 5 5 5 5
split_gain=63.2713 421.625 161.539 467.245 205.708 598.395 309.274 625.685 194.339 582.695 205.562 485.083 171.536 495.32
threshold=0.035086295781965239 0.017545449789829838 0.035089619903279946 0.052209076573470507 0.052632601549423154 0.070160760217746337 0.070176331267112632 0.087718563267215222 0.087722803273902625 0.10506079769517364 0.10526420338592855 0.12269934903232442 0.12280763299779413 0.14006335347507068
decision_type=2 2 2 2 2 2 2 2 2 2 2 2 2 2
left_child=1 -1 -2 -4 -5 -6 -7 -8 -9 -10 -11 -12 -13 -14
right_child=2 -3 3 4 5 6 7 8 9 10 11 12 13 -15
leaf_value=-0.0058813138480093702 -0.0643675727582914 0.17990999748721642 0.18158096221690065 -0.064135357487116448 0.19527452859646469 -0.07127116273756344 0.18094164660683212 -0.054258954970330932 0.17034338818844941 -0.055494356445932251 0.15805544899833909 -0.051061949860210745 0.16307788414353808 -0.0010230657757312293
leaf_weight=700.25295868935063 397.69649659143761 147.95239908690564 140.67115341639146 504.51684386748821 156.56874131248333 599.36323955818079 193.28531748184469 634.00919132563286 203.38975069683511 637.42854029173031 198.21547461382579 613.19494501315057 190.62047681410331 5244.2390238584485
leaf_count=6382 3633 2545 2782 4873 3171 6081 3967 7048 4300 7335 4067 7088 3638 61765
internal_value=0 0.0265263 -0.00195326 0.00071133 -0.00206182 0.00155018 -0.00201243 0.00323259 -0.00121607 0.00352914 -0.00139965 0.00412068 -0.000924288 0.00473256
internal_weight=0 848.205 9713.2 9315.5 9174.83 8670.31 8513.75 7914.38 7721.1 7087.09 6883.7 6246.27 6048.05 5434.86
internal_count=128675 8927 119748 116115 113333 108460 105289 99208 95241 88193 83893 76558 72491 65403
shrinkage=0.1


Tree=51
num_leaves=15
num_cat=0
split_feature=1 1 4 7 7 7 5 5 5 5 5 5 5 5
split_gain=58.1545 97.2603 57.5297 58.0644 197.526 56.6773 43.1285 95.1696 366.179 130.846 319.758 169.134 337.489 221.286
threshold=0.66019268077014326 0.65048688714565894 0.38594557385198097 0.14288120810167124 0.21425752031130285 0.28589696064041242 0.017542318106266427 0.017545449789829838 0.035086295781965239 0.035089619903279946 0.052209076573470507 0.052632601549423154 0.070160760217746337 0.070176331267112632
decision_type=2 2 2 2 2 2 2 2 2 2 2 2 2 2
left_child=1 2 6 -4 -5 -6 -1 -8 -9 -10 -11 -12 -13 -14
right_child=-2 -3 3 4 5 -7 7 8 9 10 11 12 13 -15
leaf_value=0.043796876609539785 -0.025023978591466989 0.2261149816128788 -0.013193560155142559 0.16687723859934964 -0.021801747818761763 0.068986471499039193 -0.049489863956094143 0.17648977237313246 -0.057652343223941194 0.17519887639956466 -0.06010046612158268 0.1805730344317043 -0.064853334689795414 0.013244895202346724
leaf_weight=320.3255673982203 830.6376367576886 19.421893348917365 3046.5169333826052 80.625651676557027 344.44745817314833 85.913137027877383 292.2761785518378 127.58980514807627 313.12376325484365 113.12207595026121 367.39563959813677 113.69106061931234 399.72005852218717 3928.4197746806312
leaf_count=3300 12228 265 39003 1393 3732 871 2171 2253 2724 2380 3286 2565 3750 48754
internal_value=0 0.0025622 0.00210676 -0.00796135 0.0232333 -0.00367764 0.00810062 0.00607874 0.00910712 0.00502796 0.00901523 0.00510627 0.0104997 0.00603223
internal_weight=0 9552.59 9533.17 3557.5 510.986 430.361 5975.66 5655.34 5363.06 5235.47 4922.35 4809.23 4441.83 4328.14
internal_count=128675 116447 116182 44999 5996 4603 71183 67883 65712 63459 60735 58355 55069 52504
shrinkage=0.1


Tree=52
num_leaves=15
num_cat=0
split_feature=0 1 4 5 6 6 6 6 6 2 2 2 2 5
split_gain=51.9985 58.3896 45.4554 66.5492 37.8564 131.606 79.468 103.703 99.0665 46.9107 68.7833 64.7013 139.81 44.9154
threshold=0.029880022530592052 0.33009416235161954 0.64432848771712392 0.24561673357517536 0.020407829663893727 0.010204274168435336 0.020408717816329674 0.030609745072649557 0.030617404490623463 0.040668630401230831 0.030616229572702273 0.030507512302545135 0.020409017063373471 0.017542318106266427
decision_type=2 2 2 2 2 2 2 2 2 2 2 2 2 2
left_child=1 -1 4 -4 5 9 -6 -8 -9 10 11 12 13 -2
right_child=2 -3 3 -5 6 -7 7 8 -10 -11 -12 -13 -14 -15
leaf_value=0.035541252134527967 0.045124323857830974 -0.024856666121271406 -0.037233018041510829 0.021825187043941867 -0.085746540210512909 0.1051540672934753 0.10712559951781311 -0.16873557000816675 0.0096674657341734964 -0.056717767532872512 0.11703781979079149 -0.057147539986623058 0.11421288988137779 0.0035149845691554563
leaf_weight=183.22994317719713 269.81401283782907 1265.9669529618695 597.78076070401585 280.25444529647939 138.07101172208786 134.54007544484921 74.87904407363385 41.363839421421289 125.75700887851417 119.76503151841462 55.741071757627651 161.0628264399711 119.4709998012986 6738.3900962158223
leaf_count=2359 2177 20980 7774 3012 1018 5626 2280 467 2702 1148 1222 925 2735 74250
internal_value=0 -0.0172202 0.00321306 -0.0183826 0.00558956 0.00713005 -0.0252096 0.00932919 -0.0344888 0.00536321 0.00637555 0.00552926 0.00694555 0.00511693
internal_weight=0 1449.2 8856.89 878.035 7978.86 7598.78 380.071 242 167.121 7464.24 7344.48 7288.74 7127.68 7008.2
internal_count=128675 23339 105336 10786 94550 88083 6467 5449 3169 82457 81309 80087 79162 76427
shrinkage=0.1


Tree=53
num_leaves=15
num_cat=0
split_feature=9 9 9 9 9 9 9 9 1 7 0 4 0 4
split_gain=55.8013 754.491 94.2018 411.056 76.8672 289.733 46.7399 128.417 35.7502 32.1698 31.5487 30.4344 42.9301 41.0529
threshold=1.0000000180025095e-35 0.049999544495928867 0.050000680790483629 0.099934704012156053 0.10001440476138009 0.14999529317913343 0.15003508800420873 0.19927281989819856 0.54368722442905015 0.14288120810167124 0.34006702414417583 0.22508014177991706 0.019677991118389252 0.052841676519916218
decision_type=2 2 2 2 2 2 2 2 2 2 2 2 2 2
left_child=11 -2 8 -4 10 -6 -7 -8 9 -3 -5 13 -13 -1
right_child=1 2 3 4 5 6 7 -9 -10 -11 -12 12 -14 -15
leaf_value=-0.058280984878104229 0.13205502823600965 -0.018282973432301005 0.1306725766237965 -0.039095660952829334 0.13459825049883103 -0.023147589516042948 0.14091172240736441 -0.007575654751173006 -0.046774912920193333 0.04660458956868789 -0.0081442233491927207 -0.040221424693437785 -0.0078991789628127043 0.0067673402893211792
leaf_weight=102.47902236948721 445.9138292480493 1178.4473866738845 245.23139347112738 569.88214044133201 169.7732708749827 633.41427736729383 72.512345974217169 295.96960760187358 455.11279418133199 81.702914076391608 780.15137637616135 477.74819360149559 2937.7094880803488 1822.0816701308358
