tree
version=v3
num_class=1
num_tree_per_iteration=1
label_index=0
max_feature_idx=9
objective=binary sigmoid:1
feature_names=Column_0 Column_1 Column_2 Column_3 Column_4 Column_5 Column_6 Column_7 Column_8 Column_9
feature_infos=[0:1] [0:1] [0:1] [0:1] [0:0.99890463917525762] [0:1] [0:1] [0:1] [0:1] [0:1]
tree_sizes=1551 1735 1731 1742 1743 1744 1745 1751 1738 1745 1749 1740 1749 1746 1741 1749 1735 1749 1737 1740 1749 1740 1745 1739 1745 1743 1748 1752 1742 1744 1737 1751 1746 1733 1749 1735 1749 1746 1747 1740 1742 1742 1742 1742 1730 1759 1739 1735 1744 1737 1748 1751 1756 1758 1752 1739 1762 1738 1743 1745 1730 1757 1755 1747 1750 1747 1746 1747 1757 1752 1744 1751 1758 1755 1740 1754 1748 1751 1739 1755 1757 1739 1732 1753 1736 1753 1754 1753 1737 1735 1763 1726 1760 1751 1749 1732 1748 1739 1757 1726 1738 1742 1750 1746 1739 1742 1760 1733 1724 1750 1738 1749 1712 1721 1722 1746 1769 1751 1694 1713 1746 1749 1749 1731 1750 1719 1744 1743 1727 1706 1754 1736 1720 1730 1718 1732 1742 1724 1731 1740 1705 1698 1740 1727 1747 1736 1742 1723 1725 1773 1736 1719 1729 1731 1749 1735 1734 1746 1715 1703 1709 1692 1741 1724 1714 1746 1753 1725 1740 1701 1700 1715 1711 1758 1760 1731 1701 1730 1737 1709 1717 1730 1710 1754 1715 1718 1746 1748 1711 1703 1732 1704 1746 1731 1763 1713 1742 1725 1732 1712 1715 1753 1743 1720 1729 1701 1726 1708 1725 1710 1743 1721 1741 1728 1732 1716 1757 1734 1739 1706 1726 1708 1712 1746 1710 1719 1734 1742 1715 1717 1700 1729 1723 1728 1706 1713 1713 1745 1733 1740 1745 1710 1727 1735 1731 1728 1721 1751 1713 1706 1698 1723 1710 1729 1697 1706 1745 1711 1716 1730 1710 1721 1708 1716 1718 1712 1704 1753 1719 1739 1713 1711 1727 1738 1719 1716 1731 1725 1726 1709 1703 1720 1720 1718 1727 1713 1729 1741 1716 1721 1724 1726 1725 1710 1709 1730 1725 1715 1719 1745 1715 1724 1710 1732 1697 1728 1724 1732 1730 1738 1717 1729 1712 1737 1729 1730 1700 1699 1712 1700 1713 1712 1711 1700 1729 1729 1713 1696 1715 1717 1718 1699 1729 1727 1715 1733 1728 1714 1706 1713 1705 1724 1721 1731 1700 1713 1732 1719 1712 1710 1726 1722 1709 1713 1708 1701 1713 1720 1704 1701 1734 1713 1734 1741 1724 1708 1708 1717 1727 1734 1734 1720 1743 1711 1699 1709 1717 1716 1717 1732 1714 1732 1697 1725 1734 1705 1710 1718 1718 1725 1729 1706 1729 1714 1711 1710 1724 1710 1728 1706 1719 1715 1708 1714 1721 1730 1690 1732 1714 1718 1729 1725 1714 1706 1709 1729 1721 1726 1708 1704 1721 1699 1723 1688 1722 1721 1714 1719 1713 1700 1722 1742 1716 1732 1725 1701 1699 1735 1710 1741 1719 1722 1740 1711 1718 1690 1698 1696 1699 1717 1717 1707 1713 1712 1731 1744 1727 1726 1717 1708 1706 1704 1698 1727 1713 1724 1702 1704 1724 1707 1723 1711 1731 1729 1718 1715 1722 1708 1722 1718 1709 1721 1725 1728 1724 1726 1705 1727 1744 1715 1717 1732 1721 1708 1713 1736 1693 1693 1730 1721 1707 1714 1721 1713 1727 1713 1726 1708 1724 1719 1733 1718 1702 1712 1719 1715 1716 1703 1710 1701 1724 1723 1712 1707 1717 1694 1703 1709 1727 1722 1725 1713 1719 1716 1743 1724 1716 1719 1705 1694 1710 1721 1714 1709 1702 1717 1733 1703 1714 1725 1714 1722 1714 1696 1711 1709 1711 1706 1707 1722 1730 1726 1719 1717 1717 1714 1725 1708 1698 1736 1715 1705 1733 1725 1705 1729 1710 1713 1723 1697 1720 1718 1713 1701 1715 1704 1710 1710 1703 1728 1700 1713 1729 1719 1716 1724 1706 1706 1702 1709 1720 1711 1699 1719 1703 1705 1736 1722 1717 1724 1720 1714 1709 1733 1704 1712 1719 1741 1704 1723 1703 1710 1718 1719 1720 1701 1691 1721 1704 1704 1690 1707 1710 1699 1716 1713 1711 1716 1708 1718 1716 1702 1707 1714 1704 1714 1725 1721 1720 1697 1705 1719 1717 1723 1716 1706 1716 1712 1730 1726 1710 1730 1710 1705 1749 1698 1723 1728 1721 1723 1711 1730 1702 1724 1705 1725 1709 1709 1721 1717 1708 1714 1701 1706 1708 1700 1716 1712 1703 1720 1728 1714 1703 1689 1726 1730 1707 1734 1707 1704 1708 1712 1717 1709 1700 1728 1700 1710 1704 1701 1696 1704 1724 1713 1696 1718 1701 1695 1711 1722 1712 1715 1712 1722 1719 1712 1728 1728 1711 1713 1724 1723 1718 1707 1732 1706 1720 1716 1733 1694 1734 1711 1734 1712 1713 1712 1728 1709 1706 1714 1691 1716 1688 1694 1710 1721 1703 1706 1706 1699 1690 1698 1702 1694 1713 1712 1708 1727 1704 1713 1685 1711 1727 1717 1723 1706 1732 1712 1718 1710 1723 1706 1708 1717 1737 1713 1719 1714 1720 1696 1722 1709 1716 1701 1717 1710 1715 1701 1731 1697 1708 1716 1728 1710 1709 1724 1701 1697 1690 1705 1716 1731 1712 1712 1721 1694 1711 1704 1712 1721 1709 1712 1688 1707 1703 1705 1698 1704 1712 1704 1715 1704 1708 1715 1708 1721 1691 1717 1707 1708 1713 1699 1710 1713 1716 1739 1724 1725 1736 1720 1745 1723 1726 1720 1693 1721 1702 1712 1696 1723 1716 1710 1711 1689 1721 1711 1707 1710 1713 1725 1709 1707 1709 1712 1704 1731 1706 1708 1696 1714 1709 1723 1722 1712 1704 1726 1696 1724 1718 1714 1715 1705 1703 1736 1694 1689 1710 1718 1696 1727 1707 1726 1704 1725 1718 1699 1692 1684 1716 1701 1722 1718 1713 1718 1722 1701 1721 1711 1729 1709 1705 1714 1709 1694 1722 1706 1700 1714 1729 1705 1694 1701 1720 1702 1708 1717 1717 1707 1711 1709 1705 1713 1715 1710 1709 1714 1703 1708 1712 1716 1698 1720 1700 1704 1707 1713 1719 1707 1714 1740 1710 1711 1708 1722 1721 1713 1716 1716 1690 1701 1707 1701 1730 1727 1731 1704 1723 1706 1716 1723 1693 1717 1730 1718 1699

Tree=0
num_leaves=15
num_cat=0
split_feature=2 8 0 2 2 8 5 8 2 2 0 8 8 8
split_gain=39966.9 8454.39 5019.19 3342.81 6726.15 1912.81 1524.98 1180.78 804.055 1712.09 708.361 463.736 371.569 346.53
threshold=1.0000000180025095e-35 1.0000000180025095e-35 0.28828126242495283 0.010203615911265387 0.010204439600757793 1.0000000180025095e-35 0.035086295781965239 0.010195842595200797 0.020406438860566867 0.020409017063373471 0.57990571316279593 0.010208275396424374 0.010195842595200797 1.0000000180025095e-35
decision_type=2 2 2 2 2 2 2 2 2 2 2 2 2 2
left_child=1 2 -1 -2 5 10 -4 -3 -6 13 -5 -9 -7 -10
right_child=3 7 6 4 8 12 -8 11 9 -11 -12 -13 -14 -15
leaf_value=-0.15373502544840312 0.20000000000000001 0.20000000000000001 0.073807702116806942 -0.11364911701600924 0.20000000000000001 0.20000000000000001 -0.062658959537572265 -0.036491228070175442 -0.048855674918262496 0.16499951061955564 0.0097579143389199263 0.14461538461538462 0.051138581652569938 0.090400745573159372
leaf_weight=11248.25 4689.5 929.75 980.25 1514.75 2483.25 297.5 4973.75 427.5 535.25 2554.25 671.25 211.25 384.25 268.25
leaf_count=44993 18758 3719 3921 6059 9933 1190 19895 1710 2141 10217 2685 845 1537 1073
internal_value=0 -0.0941705 -0.114436 0.131931 0.0952777 -0.0301456 -0.0401915 0.128084 0.156857 0.12495 -0.0757548 0.0234051 0.116098 -0.00236465
internal_weight=0 18770.8 17202.2 13398.2 8708.75 2867.75 5954 1568.5 5841 3357.75 2186 638.75 681.75 803.5
internal_count=128676 75083 68809 53593 34835 11471 23816 6274 23364 13431 8744 2555 2727 3214
shrinkage=0.1


Tree=1
num_leaves=15
num_cat=0
split_feature=2 6 8 6 2 2 0 8 2 2 6 6 8 2
split_gain=32590 12974.9 3209.79 2901.09 4073.62 4139.84 1556.44 1132.85 1013.86 1226.69 616.921 759.991 542.735 353.264
threshold=1.0000000180025095e-35 1.0000000180025095e-35 1.0000000180025095e-35 1.0000000180025095e-35 0.010203615911265387 0.010204439600757793 0.21519084865496113 0.010195842595200797 0.020406438860566867 0.020409017063373471 0.010203942695819609 0.010204321285100461 1.0000000180025095e-35 0.030582641945812537
decision_type=2 2 2 2 2 2 2 2 2 2 2 2 2 2
left_child=1 2 6 4 -2 12 -1 -4 -7 -10 -3 -12 -6 -11
right_child=3 10 7 -5 5 8 -8 -9 9 13 11 -13 -14 -15
leaf_value=-0.15014194437412076 0.18187308119005771 0.19734817809694402 0.18187308119005771 0.16848240195427844 -0.10548771029095379 0.18187308119005771 -0.084821601260957488 -0.05405028664435 -0.075302095385389664 0.18478940523032827 -0.0067245102394657696 0.1571041542365533 0.042700467924981195 0.064510178538733157
leaf_weight=9840.4916767030954 2356.1102533936501 1045.3442543298006 456.17304307222366 6354.3043859153986 1778.1334718763828 1037.5894718170166 5796.6203535944223 367.49830074608326 496.05045168101788 435.28066395223141 470.42640441656113 711.30385349690914 287.04776471853256 556.20575428009033
leaf_count=39595 9519 4200 1843 25620 7130 4192 23230 1472 1986 1753 1887 2856 1153 2240
internal_value=0 -0.0851443 -0.115793 0.119652 0.0749841 0.0201202 -0.125928 0.0766109 0.106003 0.0530828 0.141388 0.0918868 -0.0848904 0.117315
internal_weight=0 18687.9 16460.8 13300.7 6946.42 4590.31 15637.1 823.671 2525.13 1487.54 2227.07 1181.73 2065.18 991.486
internal_count=128676 75083 66140 53593 27973 18454 62825 3315 10171 5979 8943 4743 8283 3993
shrinkage=0.1


Tree=2
num_leaves=15
num_cat=0
split_feature=2 6 6 2 2 0 2 2 6 6 0 1 3 2
split_gain=26876.5 10647.2 2420.58 3422.97 3403.88 1772.04 862.301 1007.35 515.011 625.157 364.984 346.599 311.738 301.612
threshold=1.0000000180025095e-35 1.0000000180025095e-35 1.0000000180025095e-35 0.010203615911265387 0.010204439600757793 0.28335489324291546 0.020406438860566867 0.020409017063373471 0.010203942695819609 0.010204321285100461 0.31927696459938654 0.47572368740623 0.42150442230238144 0.030582641945812537
decision_type=2 2 2 2 2 2 2 2 2 2 2 2 2 2
left_child=1 5 3 -2 10 12 -6 -8 -3 -10 -5 -7 -1 -9
right_child=2 8 -4 4 6 11 7 13 9 -11 -12 -13 -14 -15
leaf_value=-0.1380687529088683 0.16825816740612271 0.18004274686745445 0.15495812194782743 -0.1176974552330342 0.16825816740612271 -0.037684417082408148 -0.067922814536569426 0.17048368226752331 -0.0060526719158013574 0.14282488830201426 -0.033293159599535424 -0.090255491773079621 -0.098752095056878653 0.058447935566802535
leaf_weight=8305.9348304569721 2295.0578347295523 1031.8011243641376 6224.2981873303652 1060.762650758028 1010.703061580658 3239.1803858429193 494.99386230111122 425.11348366737366 470.38134041428566 704.47360351681709 990.91390433907509 2046.4064696729183 2663.3333167284727 552.6898193359375
leaf_count=33974 9519 4200 25620 4292 4192 13041 1986 1753 1887 2856 3991 8238 10887 2240
internal_value=0 -0.0776225 0.10985 0.0687441 0.0183844 -0.105603 0.0971275 0.0483143 0.128492 0.0832182 -0.0769321 -0.0580382 -0.128523 0.107157
internal_weight=0 18461.5 13054.5 6830.23 4535.18 16254.9 2483.5 1472.8 2206.66 1174.85 2051.68 5285.59 10969.3 977.803
internal_count=128676 75083 53593 27973 18454 66140 10171 5979 8943 4743 8283 21279 44861 3993
shrinkage=0.1


Tree=3
num_leaves=15
num_cat=0
split_feature=2 6 8 2 2 6 0 8 2 2 6 6 8 6
split_gain=22344.2 8792.04 2631.04 2135.38 3984.79 1494.12 1183.06 930.491 551.116 1052.25 446.71 522.339 436.687 407.654
threshold=1.0000000180025095e-35 1.0000000180025095e-35 1.0000000180025095e-35 0.010203615911265387 0.010204439600757793 1.0000000180025095e-35 0.20190371636285473 0.010195842595200797 0.020406438860566867 0.020409017063373471 0.010203942695819609 0.010204321285100461 1.0000000180025095e-35 1.0000000180025095e-35
decision_type=2 2 2 2 2 2 2 2 2 2 2 2 2 2
left_child=1 2 6 -2 5 12 -1 -4 -6 13 -3 -12 -5 -10
right_child=3 10 7 4 8 -7 -8 -9 9 -11 11 -13 -14 -15
leaf_value=-0.12847206649838044 0.15845872114639872 0.16695092524344413 0.17439068110174016 -0.088637636776877748 0.15859197214666293 0.093741635838506809 -0.071252672032401265 -0.040337306249392579 -0.061410149040837927 0.12725128269611793 -0.0054480108422010187 0.13117047901773901 0.044429628858957584 0.086817355704655236
leaf_weight=9244.069726601243 4366.8948615938425 1002.8656805753708 450.55809307098389 1747.5517762303352 2313.801872164011 769.29949350655079 5932.3047166466713 365.5273846834898 492.84837251901627 2425.1954381614923 470.33175154030323 691.03046745061874 287.1418234705925 297.55792444944382
leaf_count=38741 18758 4200 1843 7130 9933 3188 24084 1472 1986 10217 1887 2856 1153 1228
internal_value=0 -0.071101 -0.0966999 0.101814 0.0721316 -0.0249736 -0.106106 0.0782133 0.121374 0.094594 0.11806 0.0758423 -0.0698588 -0.00560813
internal_weight=0 18156.7 15992.5 12700.3 8333.4 2803.99 15176.4 816.085 5529.4 3215.6 2164.23 1161.36 2034.69 790.406
internal_count=128676 75083 66140 53593 34835 11471 62825 3315 23364 13431 8943 4743 8283 3214
shrinkage=0.1


Tree=4
num_leaves=15
num_cat=0
split_feature=2 6 8 2 2 6 0 8 2 2 6 6 8 8
split_gain=18718.3 7314.13 2187.8 1894.46 3378.29 1230.68 1063.35 785.342 504.7 895.475 398.466 441.437 359.754 334.969
threshold=1.0000000180025095e-35 1.0000000180025095e-35 1.0000000180025095e-35 0.010203615911265387 0.010204439600757793 1.0000000180025095e-35 0.20190371636285473 0.010195842595200797 0.020406438860566867 0.020409017063373471 0.010203942695819609 0.010204321285100461 1.0000000180025095e-35 0.010195842595200797
decision_type=2 2 2 2 2 2 2 2 2 2 2 2 2 2
left_child=1 2 6 -2 5 12 -1 -4 -6 -10 -3 -12 -5 -14
right_child=3 10 7 4 8 -7 -8 -9 9 -11 11 -13 13 -15
leaf_value=-0.11949769645296865 0.14989271345487651 0.15672980304357018 0.16249490594433821 -0.080933451143361493 0.14999976048164973 0.086055939650777999 -0.064760503874146502 -0.036424794539668619 -0.0050821418586642578 0.11842652501453675 -0.0049037800512189431 0.12137082618249893 0.17934457012213215 -0.043889454432400339
leaf_weight=8959.2343603372574 4165.1264034956694 963.44124001264572 435.91969041526318 1723.7591352760792 2207.1594955176115 754.95993702113628 5877.2117247134447 364.37224124372005 782.57589223980904 2349.2616619467735 470.2798298150301 673.06742981076241 107.75513625144958 178.67566606402397
leaf_count=38741 18758 4200 1843 7130 9933 3188 24084 1472 3214 10217 1887 2856 437 716
internal_value=0 -0.0655604 -0.0891271 0.0950811 0.0669106 -0.0228044 -0.0978145 0.0719269 0.113375 0.0875645 0.109353 0.0694318 -0.0636887 0.0400911
internal_weight=0 17743.5 15636.7 12269.3 8104.15 2765.15 14836.4 800.292 5339 3131.84 2106.79 1143.35 2010.19 286.431
internal_count=128676 75083 66140 53593 34835 11471 62825 3315 23364 13431 8943 4743 8283 1153
shrinkage=0.1


Tree=5
num_leaves=15
num_cat=0
split_feature=2 6 8 2 2 6 0 8 2 2 6 6 6 3
split_gain=15756.5 6112 1826.18 1708.08 2876.2 1016.36 969.003 671.921 475.056 773.405 362.878 376.182 334.453 319.233
threshold=1.0000000180025095e-35 1.0000000180025095e-35 1.0000000180025095e-35 0.010203615911265387 0.010204439600757793 1.0000000180025095e-35 0.21519084865496113 0.010195842595200797 0.020406438860566867 0.020409017063373471 0.010203942695819609 0.010204321285100461 1.0000000180025095e-35 0.54085427796252683
decision_type=2 2 2 2 2 2 2 2 2 2 2 2 2 2
left_child=1 2 6 -2 5 -5 -1 -4 -6 12 -3 -12 -10 -8
right_child=3 10 7 4 8 -7 13 -9 9 -11 11 -13 -14 -15
leaf_value=-0.11111691220839795 0.14294815687677426 0.1485564823587798 0.15312885126910952 -0.05822580779882968 0.14303568663235908 0.079176540163767684 -0.071634503149815495 -0.032905099422005785 -0.055136545407878025 0.11073500604928688 -0.0044139267367365722 0.11292426134242282 0.079945970874489958 -0.016314575224947815
leaf_weight=8840.201302215457 3942.1768973916769 917.17349030077457 417.27458782494068 1980.3006713986397 2089.2168684601784 739.32941906154156 4233.4164587259293 363.08187980949879 489.67173384130001 2265.5670504719019 470.22717434167862 652.15975145995617 292.94000327587128 1384.2296626716852
leaf_count=39595 18758 4200 1843 8283 9933 3188 17504 1472 1986 10217 1887 2856 1228 5726
internal_value=0 -0.0606772 -0.0824368 0.089234 0.0622836 -0.0208731 -0.0904794 0.0665715 0.106305 0.0811298 0.101895 0.0637651 -0.0045737 -0.0580033
internal_weight=0 17277.8 15238.2 11799.2 7857.03 2719.63 14457.8 780.356 5137.4 3048.18 2039.56 1122.39 782.612 5617.65
internal_count=128676 75083 66140 53593 34835 11471 62825 3315 23364 13431 8943 4743 3214 23230
shrinkage=0.1


Tree=6
num_leaves=15
num_cat=0
split_feature=2 6 2 2 8 0 6 8 2 2 6 6 8 1
split_gain=13313 5124.24 1558.71 2469.61 1528.53 890.269 837.841 581.136 449.525 666.565 335.605 322.498 301.96 298.956
threshold=1.0000000180025095e-35 1.0000000180025095e-35 0.010203615911265387 0.010204439600757793 1.0000000180025095e-35 0.20190371636285473 1.0000000180025095e-35 0.010195842595200797 0.020406438860566867 0.020409017063373471 0.010203942695819609 0.010204321285100461 1.0000000180025095e-35 0.47572368740623
decision_type=2 2 2 2 2 2 2 2 2 2 2 2 2 2
left_child=1 4 -2 6 5 -1 12 -6 -5 -10 -3 -12 -4 -7
right_child=2 10 3 8 7 13 -8 -9 9 -11 11 -13 -14 -15
leaf_value=-0.10482379224568868 0.13722781029626319 0.14189686967719453 -0.069194503278966674 0.13730039832570029 0.14559089586248555 -0.034550929190586666 0.072951245499624937 -0.029732368462525378 -0.0041477975016363834 0.10390016386171746 -0.003972995221485461 0.10549034831835158 0.042192770757582702 -0.080895926162172727
leaf_weight=8310.8117894530296 3707.9056060314178 866.78681854903698 1674.2655492126942 1965.2163497954607 396.07849897444248 3380.3963862508535 723.04607513546944 361.71733506023884 773.85582347214222 2177.7479084432125 470.17498809099197 629.49347673356533 284.77143640816212 2366.1430673599243
leaf_count=38741 18758 4200 7130 9933 1843 14098 3188 1472 3214 10217 1887 2856 1153 9986
internal_value=0 -0.0563078 0.0840753 0.0581394 -0.0764398 -0.0838976 -0.0190477 0.0619042 0.100244 0.075572 0.0953654 0.0586881 -0.0530029 -0.0536335
internal_weight=0 16781.6 11306.8 7598.9 14815.1 14057.4 2682.08 757.796 4916.82 2951.6 1966.46 1099.67 1959.04 5746.54
internal_count=128676 75083 53593 34835 66140 62825 11471 3315 23364 13431 8943 4743 8283 24084
shrinkage=0.1


Tree=7
num_leaves=15
num_cat=0
split_feature=2 6 2 2 8 0 6 8 2 2 6 0 3 5
split_gain=11278.5 4306.21 1436.24 2121.93 1281.87 818.425 693.169 507.059 433.466 581.23 313.95 299.657 284.394 285.323
threshold=1.0000000180025095e-35 1.0000000180025095e-35 0.010203615911265387 0.010204439600757793 1.0000000180025095e-35 0.20190371636285473 1.0000000180025095e-35 0.010195842595200797 0.020406438860566867 0.020409017063373471 0.010203942695819609 0.33929700817143688 0.54526727692608212 0.01753560638447901
decision_type=2 2 2 2 2 2 2 2 2 2 2 2 2 2
left_child=1 4 -2 6 5 -1 11 -6 -5 -10 -3 -4 13 -7
right_child=2 10 3 8 7 12 -8 -9 9 -11 -12 -13 -14 -15
leaf_value=-0.09858985818745114 0.13245445457656044 0.13638837919881933 -0.085944892250264207 0.13251536622089691 0.13941798346210107 0.065510135094926564 0.067269407318381089 -0.026868213667795179 -0.0037329704658134637 0.097724957653134284 0.054090701482925309 -0.0070041885405718214 -0.0093402075346868171 -0.066789072724821194
leaf_weight=7970.5625172257423 3469.6332613825798 814.31476272642612 1013.9553235918283 1839.0506986528635 373.41896623373032 169.71069052815437 706.58621276915073 360.32447452843189 773.86568468809128 2088.5147580355406 1076.0823245495558 914.61553481221199 1376.292607575655 4130.5062572211027
leaf_count=38741 18758 4200 4437 9933 1843 696 3188 1472 3214 10217 4743 3846 5790 17598
internal_value=0 -0.0523487 0.0794416 0.0543706 -0.0710006 -0.0779234 -0.0174634 0.0577587 0.0946337 0.0702951 0.0895416 -0.0485076 -0.048905 -0.0615678
internal_weight=0 16271.2 10806.2 7336.59 14380.8 13647.1 2635.16 733.743 4701.43 2862.38 1890.4 1928.57 5676.51 4300.22
internal_count=128676 75083 53593 34835 66140 62825 11471 3315 23364 13431 8943 8283 24084 18294
shrinkage=0.1


Tree=8
num_leaves=15
num_cat=0
split_feature=6 2 2 8 2 0 2 6 6 8 3 2 2 2
split_gain=9635.66 4692.93 1676.73 1076.38 986.59 758.742 575.67 447.844 903.791 445.652 381.777 334.528 345.661 441.286
threshold=1.0000000180025095e-35 1.0000000180025095e-35 0.010203615911265387 1.0000000180025095e-35 0.010204439600757793 0.3539198190100501 0.020406438860566867 0.010203942695819609 0.010204321285100461 0.010195842595200797 0.54985243601633549 0.020409017063373471 0.030582641945812537 0.030616229572702273
decision_type=2 2 2 2 2 2 2 2 2 2 2 2 2 2
left_child=1 3 -3 5 -4 10 -6 -2 -9 -5 -1 -8 -13 -14
right_child=7 2 4 9 6 -7 11 8 -10 -11 -12 12 13 -15
leaf_value=-0.095667730613923641 0.13295383923101092 0.12805191925162387 -0.044310433940892652 0.13429154328277929 0.12803897968029518 -0.034534484924534946 -0.04925857598014053 0.0015970308301185507 0.11270788602299141 -0.024279966835948671 -0.037761508434123882 0.13401698338607795 -0.13835544118466872 0.068162557540813476
leaf_weight=8139.3900723159313 3032.6080049425364 1628.477406039834 1902.5124694555998 350.10575412213802 716.96687936782837 3773.4805940538645 485.70325410366058 1028.4425794929266 2540.4060782194138 358.93727090954781 1323.7403385639191 332.01520013809204 153.58993709087372 317.0550137758255
leaf_count=40496 16606 9519 8283 1843 4192 16020 1986 4702 13255 1472 6309 1753 731 1509
internal_value=0 -0.0350949 0.042801 -0.0660189 0.00727523 -0.072449 0.056216 0.104699 0.0806888 0.0540182 -0.0875676 0.0162469 0.0558854 0.000767621
internal_weight=0 19482 5536.32 13945.7 3907.84 13236.6 2005.33 6601.46 3568.85 709.043 9463.13 1288.36 802.66 470.645
internal_count=128676 94113 27973 66140 18454 62825 10171 34563 17957 3315 46805 5979 3993 2240
shrinkage=0.1


Tree=9
num_leaves=15
num_cat=0
split_feature=6 2 2 8 2 0 2 6 6 8 5 5 5 5
split_gain=8237.26 3950.05 1502.08 903.982 828.532 721.392 522.881 438.343 810.094 394.066 298.053 925.628 345.884 855.059
threshold=1.0000000180025095e-35 1.0000000180025095e-35 0.010203615911265387 1.0000000180025095e-35 0.010204439600757793 0.14358038100909468 0.020406438860566867 0.010203942695819609 0.010204321285100461 0.010195842595200797 0.14035605517381264 0.15786769312099527 0.15789625307309102 0.17499608953723395
decision_type=2 2 2 2 2 2 2 2 2 2 2 2 2 2
left_child=1 3 -3 5 -4 -1 -6 -2 -9 -5 -7 -12 -13 -14
right_child=7 2 4 9 6 10 -8 8 -10 -11 11 12 13 -15
leaf_value=-0.090690741374847131 0.12891554375737738 0.12468030286064989 -0.040353601331593963 0.12998485478305863 0.12466923672208186 -0.062872886845866088 0.015110962147303248 0.0014378868487945539 0.10750049726373588 -0.021939438468713435 0.28538900815748541 -0.11637807115286916 0.28538370734684743 -0.027451179866770672
leaf_weight=6521.0799058824778 2825.4945129901171 1511.2837806791067 1881.3068697452545 326.7367462515831 665.36249208450317 3482.8734534084797 1261.6493246257305 1028.0628979355097 2404.2215609401464 357.58040048182011 96.378468096256256 395.85364004969597 90.897493541240692 2251.8573488146067
leaf_count=34560 16606 9519 8283 1843 4192 15460 5979 4702 13255 1472 425 1798 401 10181
internal_value=0 -0.0326738 0.0403272 -0.06139 0.00685275 -0.067359 0.0529395 0.0997452 0.0757318 0.0505989 -0.0432769 -0.0192025 -0.0299218 -0.0153134
internal_weight=0 18842.9 5319.6 13523.3 3808.32 12838.9 1927.01 6257.78 3432.28 684.317 6317.86 2834.99 2738.61 2342.75
internal_count=128676 94113 27973 66140 18454 62825 10171 34563 17957 3315 28265 12805 12380 10582
shrinkage=0.1


Tree=10
num_leaves=15
num_cat=0
split_feature=6 2 2 0 8 0 6 6 8 3 8 8 8 8
split_gain=7053.87 3323.36 1355.32 825.233 714.59 447.724 431.585 727.891 411.798 384.629 298.823 275.564 272.658 261.431
threshold=1.0000000180025095e-35 1.0000000180025095e-35 0.010203615911265387 0.3539198190100501 1.0000000180025095e-35 0.44856851011234161 0.010203942695819609 0.010204321285100461 0.010195842595200797 0.67221748611869303 1.0000000180025095e-35 0.010195842595200797 1.0000000180025095e-35 0.010208275396424374
decision_type=2 2 2 2 2 2 2 2 2 2 2 2 2 2
left_child=1 3 -3 9 5 -4 -2 -8 -6 10 -1 -12 -5 -10
right_child=6 2 4 12 8 -7 7 -9 13 -11 11 -13 -14 -15
leaf_value=-0.083388820552227794 0.12547066367596385 0.12178725226772913 -0.055079718433539787 -0.027305469152180184 0.14321901746046226 0.025988426632634898 0.0012945536849463734 0.10272001166498211 -0.05324716425708647 -0.0034714216898274648 0.12729823067418294 -0.070232916109478599 0.066731544478056681 0.097809038911551946
leaf_weight=8081.3855944871902 2623.1599420309067 1398.2668982595205 1552.5167675763369 3695.1502492874861 501.56514123082161 1213.9402719140053 1027.7202848047018 2271.4321072548628 262.65401346981525 715.84246648848057 131.16903279721737 153.00430858135223 336.40386763215065 203.21882671117783
leaf_count=43454 16606 9519 7548 16020 2765 5948 4702 13255 1151 3557 779 637 1693 1042
internal_value=0 -0.0304096 0.037811 -0.0571099 0.00636358 -0.0195065 0.0951962 0.0711249 0.0803408 -0.0738246 -0.0798447 0.0209437 -0.0194588 0.0126452
internal_weight=0 18245.1 5132.16 13113 3733.9 2766.46 5922.31 3299.15 967.438 9081.4 8365.56 284.173 4031.55 465.873
internal_count=128676 94113 27973 66140 18454 13496 34563 17957 4958 48427 44870 1416 17713 2193
shrinkage=0.1


Tree=11
num_leaves=15
num_cat=0
split_feature=6 2 2 0 2 2 6 6 7 7 7 7 1 2
split_gain=6043.59 2791.4 1229.03 743.474 635.768 483.034 426.634 654.913 315.486 2274.3 293.267 981.91 261.705 256.911
threshold=1.0000000180025095e-35 1.0000000180025095e-35 0.010203615911265387 0.28335489324291546 0.010204439600757793 0.020406438860566867 0.010203942695819609 0.010204321285100461 0.071434243465786487 0.14284780194301494 0.14288120810167124 0.21406120804572407 0.51456244262113138 0.020409017063373471
decision_type=2 2 2 2 2 2 2 2 2 2 2 2 2 2
left_child=1 3 -3 8 -4 -6 -2 -8 -1 -10 -11 -12 -5 -7
right_child=6 2 4 12 5 13 7 -9 9 10 11 -13 -14 -15
leaf_value=-0.084832016992843887 0.12251015695317438 0.11928906137409133 -0.035683246361048644 -0.0071315773607236056 0.12107477305927963 -0.04531000596102143 0.001165469132702246 0.098272398559488494 0.3690064746213364 -0.084991817226887478 0.3610754547083545 -0.050441330159814446 -0.0589966243788035 0.048067248387784811
leaf_weight=5564.9453822225332 2427.9186078310013 1290.3305897265673 1840.7637129575014 3420.2938749045134 600.21134059131145 481.80452999472618 1027.4112333357334 2143.493100181222 127.81417731940746 1710.0908069163561 65.916817560791969 481.70316521823406 1359.6235703378916 758.50771659612656
leaf_count=31630 16606 9519 8283 15130 4192 1986 4702 13255 701 9543 355 2632 6149 3993
internal_value=0 -0.0282358 0.0353079 -0.0530516 0.00587154 0.0474318 0.0909635 0.0668086 -0.0717897 -0.0413646 -0.0645966 -0.000907205 -0.0218843 0.0117945
internal_weight=0 17702 4971.62 12730.4 3681.29 1840.52 5598.82 3170.9 7950.47 2385.52 2257.71 547.62 4779.92 1240.31
internal_count=128676 94113 27973 66140 18454 10171 34563 17957 44861 13231 12530 2987 21279 5979
shrinkage=0.1


Tree=12
num_leaves=15
num_cat=0
split_feature=6 2 2 0 8 6 6 8 0 8 5 5 5 5
split_gain=5185.27 2344.66 1112.65 666.386 580.629 422.78 589.505 367.104 362.835 321.306 343.416 831.019 330.406 822.923
threshold=1.0000000180025095e-35 1.0000000180025095e-35 0.010203615911265387 0.086198283001746909 1.0000000180025095e-35 0.010203942695819609 0.010204321285100461 0.010195842595200797 0.3637669735108468 1.0000000180025095e-35 0.14035605517381264 0.15786769312099527 0.15789625307309102 0.17499608953723395
decision_type=2 2 2 2 2 2 2 2 2 2 2 2 2 2
left_child=1 3 -3 -1 8 -2 -7 -6 -4 10 -5 -12 -13 -14
right_child=5 2 4 9 7 6 -8 -9 -10 -11 11 12 13 -15
leaf_value=-0.077791975008637118 0.11994984654526895 0.11712001900733252 -0.0552967518718675 -0.056369498172491678 0.13846279134311529 0.001049221733129006 0.094085031837284422 0.011050546952581576 0.018174869003304391 0.048978645012315677 0.26041579297049106 -0.10215964443921038 0.26559895032980119 -0.019445892561057054
leaf_weight=4918.8258911296725 2241.3391240462661 1188.0462033301592 1317.6183387339115 3758.7552787363529 452.57271546125412 1027.1324656754732 2021.3870821893215 451.96497057378292 1372.1084486991167 477.42984349280596 108.29075165092945 435.58707436919212 105.41016997396946 2586.2314468324184
leaf_count=29685 16606 9519 6601 18145 2765 4702 13255 2193 6895 2443 464 2229 456 12718
internal_value=0 -0.0262539 0.0332226 -0.0492097 0.0054912 0.0869793 0.0627386 0.0747995 -0.0178167 -0.0303932 -0.0358111 -0.0119281 -0.0213589 -0.00828296
internal_weight=0 17172.8 4782.31 12390.5 3594.26 5289.86 3048.52 904.538 2689.73 7471.7 6994.27 3235.52 3127.23 2691.64
internal_count=128676 94113 27973 66140 18454 34563 17957 4958 13496 36455 34012 15867 15403 13174
shrinkage=0.1


Tree=13
num_leaves=15
num_cat=0
split_feature=6 2 2 0 2 2 6 6 3 8 0 8 0 8
split_gain=4446.59 1965.45 1013.23 625.747 497.267 444.702 419.474 530.441 329.09 251.043 225.788 213.554 212.09 208.92
threshold=1.0000000180025095e-35 1.0000000180025095e-35 0.010203615911265387 0.3637669735108468 0.010204439600757793 0.020406438860566867 0.010203942695819609 0.010204321285100461 0.55891576219631134 1.0000000180025095e-35 0.65776430967459165 1.0000000180025095e-35 0.3488458433453791 0.010195842595200797
decision_type=2 2 2 2 2 2 2 2 2 2 2 2 2 2
left_child=1 3 -3 8 10 -6 -2 12 9 -1 -4 -7 -8 -11
right_child=6 2 4 -5 5 11 7 -9 -10 13 -12 -13 -14 -15
leaf_value=-0.073154610196832656 0.1177236441486562 0.1152278903033269 -0.050408357991412515 -0.012190142813863779 0.11836434902450199 -0.021131318196611983 -0.07849903727576385 0.090101463037181362 -0.013129842026194364 0.12581844633275344 0.03551756584171447 0.067653260795611264 0.026942577696516281 -0.054882407430974361
leaf_weight=6759.5820726007223 2064.4198097214103 1091.7313990518451 1411.4515391290188 3825.7253575325012 541.49722915887833 791.83985789120197 253.19121749699116 1905.7337881177664 1217.0173438191414 117.41550110280514 390.39595723152161 411.80648981034756 773.68990878760815 140.59628228843212
leaf_count=41081 16606 9519 6628 17281 4192 3747 1109 13255 6437 732 1655 2232 3593 609
internal_value=0 -0.0243317 0.0309862 -0.0456084 0.00505735 0.0431033 0.0831914 0.0588824 -0.0611343 -0.0694594 -0.0317913 0.00924477 0.000944543 0.0273506
internal_weight=0 16699.1 4638.72 12060.3 3546.99 1745.14 4997.03 2932.61 8234.61 7017.59 1801.85 1203.65 1026.88 258.012
internal_count=128676 94113 27973 66140 18454 10171 34563 17957 48859 42422 8283 5979 4702 1341
shrinkage=0.1


Tree=14
num_leaves=15
num_cat=0
split_feature=6 2 2 0 8 6 6 8 1 1 0 5 5 0
split_gain=3815.46 1647.49 921.098 569.52 438.028 415.265 475.754 341.884 318.137 405.619 282.575 253.071 365.929 319.395
threshold=1.0000000180025095e-35 1.0000000180025095e-35 0.010203615911265387 0.076565239603127125 1.0000000180025095e-35 0.010203942695819609 0.010204321285100461 0.010195842595200797 0.47572368740623 0.46602385502233767 0.50256749744689022 0.15789625307309102 0.17499608953723395 0.60975217724644482
decision_type=2 2 2 2 2 2 2 2 2 2 2 2 2 2
left_child=1 3 -3 -1 10 -2 -7 -6 9 11 -4 13 -13 -5
right_child=5 2 4 8 7 6 -8 -9 -10 -11 -12 12 -14 -15
leaf_value=-0.071116789970751812 0.11577892806183183 0.11357053347122409 -0.041993713705466833 -0.05322876803511678 0.13376811188162238 0.00086998884317860238 0.086277786972472001 0.0065321395600471946 -0.049083541718942671 0.28766765950106821 0.025082928704089014 0.22198993878958834 0.01185557427005947 0.015085567961115971
leaf_weight=4315.9892740920186 1897.7238432019949 1001.5136238634586 1586.8985490351915 1779.1231773197651 404.09355333447456 1023.8277083486319 1796.8763640522957 442.3679137378931 3223.7901374027133 46.09777943789959 1039.4117166846991 89.122512936592102 1181.44134888798 1112.2478435784578
leaf_count=28392 16606 9519 8203 9291 2765 4702 13255 2193 17007 227 5293 386 5829 5008
internal_value=0 -0.0225572 0.0290814 -0.0422244 0.00471559 0.0796108 0.0552774 0.0672735 -0.0254453 -0.00733593 -0.0154469 -0.0106034 0.0265953 -0.0269497
internal_weight=0 16222.1 4474.29 11747.8 3472.77 4718.43 2820.7 846.461 7431.82 4208.03 2626.31 4161.93 1270.56 2891.37
internal_count=128676 94113 27973 66140 18454 34563 17957 4958 37748 20741 13496 20514 6215 14299
shrinkage=0.1


Tree=15
num_leaves=15
num_cat=0
split_feature=6 8 0 8 2 2 6 6 8 7 7 5 5 5
split_gain=3269.78 1470.43 906.329 607.992 429.843 427.823 411.895 427.001 385.916 244.097 1516.43 229.205 725.889 245.703
threshold=1.0000000180025095e-35 1.0000000180025095e-35 0.16590187991139224 0.010195842595200797 1.0000000180025095e-35 0.010203615911265387 0.010203942695819609 0.010204321285100461 0.010208275396424374 0.071434243465786487 0.14284780194301494 0.17543875631721792 0.19297746399089144 0.01753560638447901
decision_type=2 2 2 2 2 2 2 2 2 2 2 2 2 2
left_child=1 2 9 -3 11 -6 -2 -8 -5 -1 -11 13 -13 -4
right_child=6 3 4 8 5 -7 7 -9 -10 10 -12 12 -14 -15
leaf_value=-0.073069784385151812 0.11407324059280205 0.12358244545183948 0.08199325376013479 -0.045167995803096987 0.11211361470291187 0.0054996215574859182 0.0007831602034684015 0.082580047134005283 0.09654471547008299 0.29994879002413305 -0.054201044601378603 0.30109039802910459 -0.0078597881552730404 -0.042767586106261218
leaf_weight=4336.0040774047375 1741.4863932356238 892.23736866563559 164.90516817569733 542.38810144364834 473.0969186425209 1841.2697199955583 1023.6201669424772 1694.9490416795015 297.60499329864979 129.70222985744476 1782.732493698597 79.883763581514359 1584.1759998947382 3691.5167783051729
leaf_count=29521 16606 7016 696 2458 4909 9472 4702 13255 1742 800 11645 362 7593 17899
internal_value=0 -0.020843 -0.0315368 0.0660989 -0.0088819 0.0272934 0.0761039 0.0517811 0.00504005 -0.0599434 -0.0301824 -0.0240478 0.00697147 -0.0374327
internal_weight=0 15815.5 14083.3 1732.23 7834.85 2314.37 4460.06 2718.57 839.993 6248.44 1912.43 5520.48 1664.06 3856.42
internal_count=128676 94113 82897 11216 40931 14381 34563 17957 4200 41966 12445 26550 7955 18595
shrinkage=0.1


Tree=16
num_leaves=15
num_cat=0
split_feature=8 0 8 8 2 2 5 5 5 5 5 5 5 5
split_gain=2857.26 1374.62 611.525 557.002 429.977 375.836 353.045 1197.27 278.641 1228.07 417.309 976.052 300.056 1031.32
threshold=1.0000000180025095e-35 0.3590746828435622 0.010195842595200797 0.010208275396424374 1.0000000180025095e-35 0.010203615911265387 0.10526509240154323 0.12280282866640664 0.12280763299779413 0.14004575982283879 0.14035605517381264 0.15786769312099527 0.15789625307309102 0.17499608953723395
decision_type=2 2 2 2 2 2 2 2 2 2 2 2 2 2
left_child=1 6 -2 -4 -3 -6 -1 -8 -9 -10 -11 -12 -13 -14
right_child=2 4 3 -5 5 -7 7 8 9 10 11 12 13 -15
leaf_value=-0.07350799907503093 0.11872015218303432 -0.0041359952505153159 -0.019752605785192761 0.092097045643719802 0.11251303672700728 0.025812915483734364 0.29212132016922737 -0.094686433272077 0.28958316563767833 -0.10823841870902658 0.24465446459990697 -0.096536925984703273 0.24281330044116778 -0.032242645429279591
leaf_weight=2710.0901824757457 1922.1794212087989 4111.62423171103 871.38634437322617 910.399020396173 665.34235706180334 2011.8065626621246 113.02497976273298 722.51550675928593 118.65710606426001 690.95764921605587 130.47512768208981 635.06552873551846 141.28988660126925 3873.4754814878106
leaf_count=18515 17290 20229 4767 6956 7075 11961 845 4804 878 4542 891 4218 922 24783
internal_value=0 -0.017911 0.0795997 0.0373967 0.0161715 0.0473602 -0.0432383 -0.0304713 -0.0362474 -0.028694 -0.0355966 -0.0250967 -0.032666 -0.0225627
internal_weight=0 15924.3 3703.96 1781.79 6788.77 2677.15 9135.55 6425.46 6312.44 5589.92 5471.26 4780.31 4649.83 4014.77
internal_count=128676 99663 29013 11723 39265 19036 60398 41883 41038 36234 35356 30814 29923 25705
shrinkage=0.1


Tree=17
num_leaves=15
num_cat=0
split_feature=6 8 0 8 6 6 2 2 5 5 8 0 5 5
split_gain=2500.04 1044.37 702.76 532.166 418.917 366.635 332.639 468.867 283.516 876.888 274.196 215.741 208.862 934.138
threshold=1.0000000180025095e-35 1.0000000180025095e-35 0.078904467411978721 0.010195842595200797 0.010203942695819609 0.010204321285100461 1.0000000180025095e-35 0.010203615911265387 0.17543875631721792 0.19297746399089144 0.010208275396424374 0.71926736555921078 0.19298751104701498 0.21027286916795965
decision_type=2 2 2 2 2 2 2 2 2 2 2 2 2 2
left_child=1 2 -1 -3 -2 -6 8 -8 11 -10 -5 -4 -11 -14
right_child=4 3 6 10 5 -7 7 -9 9 12 -12 -13 13 -15
leaf_value=-0.060762737415207102 0.11189528533845268 0.11900019697029132 -0.04186383649921304 -0.038890421943416714 -0.0014020132696909915 0.07630973710119987 0.11021255587027819 -0.0011740719087866877 0.28929702301008237 -0.083034649224552684 0.083007151825859715 0.080860699613624298 0.31945648649461289 -0.011696273126855505
leaf_weight=4285.3715191483498 1512.5898108780384 758.69066412001848 4334.2351135909557 539.61652515828609 1008.2073284089565 1525.9799364879727 461.39771076664329 2088.3932209014893 104.28223256766796 313.9192937463522 280.42952098697424 148.13730731606483 89.906030640006065 1621.6032685488462
leaf_count=31544 16606 7016 23182 2458 4702 13255 5549 10855 471 1679 1742 671 422 8524
internal_value=0 -0.0183035 -0.0273367 0.0586393 0.0702498 0.0453927 -0.011702 0.0189819 -0.0235346 0.00650638 0.00279465 -0.0378079 -0.00805352 0.00569927
internal_weight=0 15026 13447.2 1578.74 4046.78 2534.19 9161.87 2549.79 6612.08 2129.71 820.046 4482.37 2025.43 1711.51
internal_count=128676 94113 82897 11216 34563 17957 51353 16404 34949 11096 4200 23853 10625 8946
shrinkage=0.1


Tree=18
num_leaves=15
num_cat=0
split_feature=8 6 1 8 6 8 1 3 2 2 7 7 4 6
split_gain=2149.88 937.312 620.992 578.104 477.037 434.269 425.269 336.381 312.378 386.704 292.313 533.781 226.797 225.408
threshold=1.0000000180025095e-35 1.0000000180025095e-35 0.59223068449506255 0.010195842595200797 0.010203942695819609 0.010208275396424374 0.58253615818851767 0.54085427796252683 1.0000000180025095e-35 0.010203615911265387 0.071434243465786487 0.14257828817293358 0.19299299384271959 0.010204321285100461
decision_type=2 2 2 2 2 2 2 2 2 2 2 2 2 2
left_child=1 2 6 -2 -3 -5 7 8 12 -10 -9 -12 -1 -6
right_child=3 4 -4 5 13 -7 -8 10 9 -11 11 -13 -14 -15
leaf_value=0.006647035064365492 0.11561226017236091 0.11138106290736011 -0.065459448756384014 -0.01753913324494041 -0.029699233539212368 0.084093754408724991 0.28398070328791619 -0.025363436229109117 0.10982284506564462 -0.0096531427101096915 0.21819775981246603 0.025370416576863515 -0.04491051589416626 0.054542766800349529
leaf_weight=1032.3301311731339 1639.7246616259217 747.50451096147299 2965.598627589643 859.47978656738997 661.8106212168932 823.01593379676342 47.83947055414319 879.01124516129494 323.8898295275867 1656.0264441892505 163.39546592906117 1182.4094252213836 4917.1478049531579 610.73078759759665
leaf_count=5937 17290 8553 20338 4767 2949 6956 336 4861 4093 8660 970 6687 31015 5264
internal_value=0 -0.0154504 -0.0251807 0.073357 0.0479759 0.032176 -0.0134722 -0.0148735 -0.0245145 0.00989165 0.0194875 0.0487818 -0.0359645 0.010731
internal_weight=0 15187.7 13167.6 3322.22 2020.05 1682.5 10202 10154.2 7929.39 1979.92 2224.82 1345.8 5949.48 1272.54
internal_count=128676 99663 82897 29013 16766 11723 62559 62223 49705 12753 12518 7657 36952 8213
shrinkage=0.1


Tree=19
num_leaves=15
num_cat=0
split_feature=6 0 6 6 8 8 5 5 8 6 6 7 7 1
split_gain=1844.62 742.232 404.463 290.219 287.442 303.459 295.457 1040.06 270.329 219.655 498.537 218.305 757.767 192.079
threshold=1.0000000180025095e-35 0.3539198190100501 0.010203942695819609 0.010204321285100461 1.0000000180025095e-35 0.010195842595200797 0.10526509240154323 0.12280282866640664 1.0000000180025095e-35 0.020346053864501806 0.020408717816329674 0.14288120810167124 0.21406120804572407 0.46601940937437109
decision_type=2 2 2 2 2 2 2 2 2 2 2 2 2 2
left_child=1 4 -2 -4 6 -6 -1 -8 13 -5 -11 -9 -13 -3
right_child=2 8 3 9 5 -7 7 11 -10 10 -12 12 -14 -15
leaf_value=-0.069909621874843272 0.10962534502141907 0.018244700949260905 -0.0012091451939745237 0.11370318837572986 0.11599728141429483 -0.032891801192531281 0.31640891797892584 -0.039767422643902831 0.06224966934799471 -0.14101702369266125 0.071394841381639623 0.27429490334105239 -0.025596226756538661 -0.021566881318444434
leaf_weight=2287.5857739746571 1269.9645286984742 3058.3101002499461 1001.7962212115526 619.12578298151493 251.66163351386786 300.16451282054186 86.709203377366066 4860.3326978236437 889.2213281467557 134.7103672772646 614.6630916967988 100.71466545015574 515.63848213851452 2007.2848975993693
leaf_count=17354 16606 16086 4702 6160 2712 1546 610 34229 6958 1139 5956 568 3356 10694
internal_value=0 -0.0156129 0.0640869 0.0396881 -0.0347533 0.0350094 -0.0396568 -0.0272172 0.011396 0.0696266 0.0332108 -0.0326577 0.0234072 0.00246902
internal_weight=0 14357.6 3640.26 2370.3 8402.81 551.826 7850.98 5563.4 5954.82 1368.5 749.373 5476.69 616.353 5065.59
internal_count=128676 94113 34563 17957 60375 4258 56117 38763 33738 13255 7095 38153 3924 26780
shrinkage=0.1


Tree=20
num_leaves=15
num_cat=0
split_feature=8 0 8 8 9 9 2 2 2 9 9 9 9 5
split_gain=1604.59 794.732 566.729 369.358 296.646 3473.36 485.294 256.334 333.157 242.338 1629.59 236.65 994.891 229.37
threshold=1.0000000180025095e-35 0.3488458433453791 0.010195842595200797 0.010208275396424374 1.0000000180025095e-35 0.049888426073404629 1.0000000180025095e-35 1.0000000180025095e-35 0.010203615911265387 0.050000680790483629 0.099978260665356158 0.10001222297154691 0.14949033928253488 0.01753560638447901
decision_type=2 2 2 2 2 2 2 2 2 2 2 2 2 2
left_child=1 4 -2 -4 -1 6 -6 13 -9 -7 -11 -12 -13 -3
right_child=2 7 3 -5 5 9 -8 8 -10 10 11 12 -14 -15
leaf_value=-0.052507669111404601 0.11332675852593353 0.075931628113126953 -0.018778766029301307 0.07750218194064222 0.37013338166128928 -0.076842697471516619 0.13826059430948889 0.10965161011383598 0.019241579043714659 0.27419417151972653 -0.082277267078163033 0.26148455492712391 -0.054970920789758973 -0.0098818811931734394
leaf_weight=4225.440985891968 1406.4011872708797 339.93691567331553 850.75269618630409 749.4377109631896 221.21531081572175 1435.1556211225688 152.47714975476265 515.89295706525445 1941.3649506643414 168.94567414745688 1026.0997877083719 115.73829544708133 701.43337219208479 3720.4350107461214
leaf_count=31855 17290 2080 4767 6956 1318 10467 1483 7167 12135 1303 7323 869 5057 18606
internal_value=0 -0.0132252 0.067016 0.0263137 -0.0342489 -0.0140578 0.275523 0.0127302 0.0382229 -0.0454481 -0.0230569 -0.0503015 -0.0101505 -0.00269752
internal_weight=0 14564.1 3006.59 1600.19 8046.51 3821.07 373.692 6517.63 2457.26 3447.37 2012.22 1843.27 817.172 4060.37
internal_count=128676 99663 29013 11723 59675 27820 2801 39988 19302 25019 14552 13249 5926 20686
shrinkage=0.1


Tree=21
num_leaves=15
num_cat=0
split_feature=6 2 2 6 1 1 2 2 7 7 6 6 6 5
split_gain=1387.82 569.008 601.065 403.144 391.692 382.87 261.504 409.899 259.894 996.136 246.658 218.943 392.379 183.984
threshold=1.0000000180025095e-35 1.0000000180025095e-35 0.010203615911265387 0.010203942695819609 0.47572368740623 0.46602385502233767 0.010204439600757793 0.020406438860566867 0.071434243465786487 0.14284780194301494 0.010204321285100461 0.020346053864501806 0.020408717816329674 0.01753560638447901
decision_type=2 2 2 2 2 2 2 2 2 2 2 2 2 2
left_child=1 4 -3 -2 5 8 -4 -8 13 -10 -5 -12 -13 -1
right_child=3 2 6 10 -6 -7 7 -9 9 -11 11 12 -14 -15
leaf_value=0.087707038000162579 0.10821258765974312 0.10835932034874868 -0.025897542639279458 -0.0032095399893795362 -0.045848926487755869 0.26160688065386761 0.11548045535373247 -0.00075578967331857731 0.24602589271367689 -0.0047601392388095885 0.11171393159667552 -0.11917634315737842 0.065275097560017523 -0.028580455336868583
leaf_weight=141.79379709810019 1094.1592812612653 633.90798806771636 1646.7881241589785 987.18343602120876 4987.4622510261834 52.795801103115082 421.2314650863409 1084.4141318202019 180.85455094277859 1274.7709222659469 538.80727534368634 145.60915564000607 554.60407630354166 3361.41211681813
leaf_count=628 16606 9519 8283 4702 35848 271 4192 5979 845 7648 6160 1139 5956 20900
internal_value=0 -0.0135069 0.0195087 0.05851 -0.0260089 -0.0062646 0.00164211 0.0317634 -0.00911658 0.0263988 0.0340816 0.0637931 0.0269185 -0.0238737
internal_weight=0 13785.4 3786.34 3320.36 9999.09 5011.63 3152.43 1505.65 4958.83 1455.63 2226.2 1239.02 700.213 3503.21
internal_count=128676 94113 27973 34563 66140 30292 18454 10171 30021 8493 17957 13255 7095 21528
shrinkage=0.1


Tree=22
num_leaves=15
num_cat=0
split_feature=8 0 8 5 5 5 5 5 5 8 5 5 5 5
split_gain=1264.61 629.801 540.357 305.397 937.48 323.793 890.499 368.668 958.471 300.656 297.408 834.02 271.686 751.152
threshold=1.0000000180025095e-35 0.50256749744689022 0.010195842595200797 0.14035605517381264 0.15786769312099527 0.15789625307309102 0.17499608953723395 0.17543875631721792 0.19297746399089144 0.010208275396424374 0.19298751104701498 0.21027286916795965 0.21052922393957232 0.22806200949993152
decision_type=2 2 2 2 2 2 2 2 2 2 2 2 2 2
left_child=1 3 -2 -1 -5 -6 -7 -8 -9 -4 -10 -12 -13 -14
right_child=2 -3 9 4 5 6 7 8 10 -11 11 12 13 -15
leaf_value=-0.046171951598207195 0.1120186803207899 0.018768782817160594 -0.017362416232983485 0.21999163200650773 -0.085798272432250189 0.21608921306033985 -0.091227709891647593 0.22943999089479128 -0.088528149194162992 0.071924836036767012 0.22872442424172679 -0.090699149099311413 0.25482184238470867 -0.016124266871626835
leaf_weight=4299.4325299486518 1222.8714890182018 4553.4543635807931 838.9257739558816 171.33120230957866 615.55730105191469 169.94202114269137 582.24931890144944 165.71563984081149 494.56705293059349 685.1184721365571 145.47694922983646 422.82070212066174 107.3275934420526 2193.1956401504576
leaf_count=33838 17290 29751 4767 1273 4713 1256 4055 1191 3487 6956 1038 2898 845 15318
internal_value=0 -0.0117389 0.0625049 -0.0265682 -0.00993805 -0.0179828 -0.00823245 -0.0175047 -0.00534156 0.0227758 -0.0169094 -0.00456271 -0.0170246 -0.00348367
internal_weight=0 13921.1 2746.92 9367.62 5068.18 4896.85 4281.29 4111.35 3529.1 1524.04 3363.39 2868.82 2723.34 2300.52
internal_count=128676 99663 29013 69912 36074 34801 30088 28832 24777 11723 23586 20099 19061 16163
shrinkage=0.1


Tree=23
num_leaves=15
num_cat=0
split_feature=8 0 8 0 8 8 6 6 5 5 5 5 5 5
split_gain=1081.3 547.128 516.779 266.439 256.815 219.957 195.133 275.692 203.071 357.778 194.871 437.989 224.605 350.294
threshold=1.0000000180025095e-35 0.16590187991139224 0.010195842595200797 0.71926736555921078 0.010208275396424374 0.020408065519690415 1.0000000180025095e-35 0.010203942695819609 0.17543875631721792 0.19297746399089144 0.19298751104701498 0.21027286916795965 0.21052922393957232 0.22806200949993152
decision_type=2 2 2 2 2 2 2 2 2 2 2 2 2 2
left_child=1 -1 -2 6 -4 -6 8 -8 -3 -10 -11 -12 -13 -14
right_child=2 3 4 -5 5 -7 7 -9 9 10 11 12 13 -15
leaf_value=-0.036673540191911679 0.11087585324186933 -0.018933401223493546 -0.015594070283001936 0.07190132125031122 0.12283543894295418 0.0066961686276055454 0.10763830445591052 0.0051680214675300425 0.17380340295287305 -0.06963704100679044 0.19661053922358307 -0.079730760934471304 0.20862230717997166 0.0085260316910109931
leaf_weight=5112.1252813525498 1117.3219253867865 4498.9712657630444 840.56140623241663 551.51513313129544 345.10055962577462 309.16270662844181 378.76254686713219 855.80945265293121 137.96905781328678 283.00886978954077 129.78268805891275 258.9873724617064 93.452438946813345 1371.0768603943288
leaf_count=44304 17290 25829 4767 4239 4014 2942 6130 6025 907 1537 805 1394 669 7824
internal_value=0 -0.0107881 0.0594289 0.00467222 0.0209744 0.0679555 4.20159e-05 0.0366056 -0.00662249 0.0177309 0.00765133 0.0194537 0.00611357 0.0212943
internal_weight=0 13671.5 2612.15 8559.34 1494.82 654.263 8007.82 1234.57 6773.25 2274.28 2136.31 1853.3 1723.52 1464.53
internal_count=128676 99663 29013 55359 11723 6956 51120 12155 38965 13136 12229 10692 9887 8493
shrinkage=0.1


Tree=24
num_leaves=15
num_cat=0
split_feature=8 8 0 9 9 9 9 2 9 9 8 8 2 8
split_gain=923.452 492.595 472.625 308.937 3558.48 358.508 1763.28 335.191 258.612 1087.22 220.097 206.196 159.523 158.603
threshold=1.0000000180025095e-35 0.010195842595200797 0.59133427413338413 1.0000000180025095e-35 0.049888426073404629 0.050000680790483629 0.099978260665356158 1.0000000180025095e-35 0.10001222297154691 0.14949033928253488 0.010208275396424374 0.020408065519690415 1.0000000180025095e-35 0.020408562658459296
decision_type=2 2 2 2 2 2 2 2 2 2 2 2 2 2
left_child=2 -2 3 -1 7 -6 12 -5 -8 -10 -3 -12 -7 -13
right_child=1 10 -4 4 5 6 8 -9 9 -11 11 13 -14 -15
leaf_value=-0.038911701220722676 0.10984510830365508 -0.014009564141510965 0.021038459340256672 0.29386264272646911 -0.070172592093238492 0.29526916001994125 -0.069627802873843708 0.13845169785543487 0.2245287767613304 -0.046983267150434778 0.12096201486464737 -0.090956386245321305 0.13983904270920927 0.059149329659771627
leaf_weight=4927.451226901263 1019.9968846403062 841.98755486309528 3620.7558347396553 339.93058171123266 1704.3171115219593 157.6360054910183 1273.7782051041722 234.53046593815088 175.74402814917266 917.09191781654954 316.84923331812024 108.9188186712563 113.63047795183957 198.99574286863208
leaf_count=38355 17290 4767 24338 1823 12787 841 9339 2693 1447 6667 4014 703 1373 2239
internal_value=0 0.0564738 -0.00985353 -0.0212159 -0.00348123 -0.034425 -0.0113287 0.230414 -0.0390088 -0.00332015 0.0193587 0.0643288 0.230161 0.00605234
internal_weight=0 2486.75 13464.9 9844.11 4916.66 4342.2 2637.88 574.461 2366.61 1092.84 1466.75 624.764 271.266 307.915
internal_count=128676 29013 99663 75325 36970 32454 19667 4516 17453 8114 11723 6956 2214 2942
shrinkage=0.1


Tree=25
num_leaves=15
num_cat=0
split_feature=6 1 6 1 2 2 3 7 7 6 6 6 7 7
split_gain=826.799 411.23 391.843 351.658 216.736 391.133 196.157 208.758 257.958 186.595 226.186 304.038 145.926 760.213
threshold=1.0000000180025095e-35 0.60194015054797656 0.010203942695819609 0.59223962540348596 1.0000000180025095e-35 0.010203615911265387 0.57928861375767038 0.071434243465786487 0.14284780194301494 0.010204321285100461 0.020346053864501806 0.020408717816329674 0.071318170920108767 1.0000000180025095e-35
decision_type=2 2 2 2 2 2 2 2 2 2 2 2 2 2
left_child=1 3 -2 4 6 -6 12 -8 -9 -4 -11 -12 13 -1
right_child=2 -3 9 -5 5 -7 7 8 -10 10 11 -13 -14 -15
leaf_value=-0.012255557435176473 0.10645113854590851 -0.047837236849777622 -0.0068853150981476006 0.25897406431685333 0.10675963618552209 0.0045680889451750655 -0.027171710117437006 0.19941556553148068 0.031689828259711936 0.10966740311607959 -0.10796919057653956 0.055146048698089527 -0.034412695339249705 0.30207563397099002
leaf_weight=2580.4798766933382 841.21390754543245 2388.3427517861128 954.109214797616 51.45203385874629 439.2011093813926 2543.8534796871245 540.72381766140461 104.52608056366444 747.03328141197562 432.67033756896853 150.98180159926414 469.97710657119751 3275.7657871358097 79.306061137467623
leaf_count=17146 16606 19909 4702 421 8348 15970 3138 481 4116 6160 1139 5956 24147 437
internal_value=0 -0.01043 0.0491565 -0.00180822 -0.00310954 0.019614 -0.0123599 0.0214217 0.0522776 0.0251509 0.0541612 0.0154857 -0.020284 -0.00288324
internal_weight=0 12750.7 2848.95 10362.3 10310.9 2983.05 7327.83 1392.28 851.559 2007.74 1053.63 620.959 5935.55 2659.79
internal_count=128676 94113 34563 74204 73783 24318 49465 7735 4597 17957 13255 7095 41730 17583
shrinkage=0.1


Tree=26
num_leaves=15
num_cat=0
split_feature=8 8 0 0 9 9 9 9 9 9 8 8 2 9
split_gain=726.933 465.613 390.02 225.169 200.031 2490.32 343.532 1420.17 285.993 922.342 180.571 194.865 159.189 132.87
threshold=1.0000000180025095e-35 0.010195842595200797 0.042124998308822353 0.71926736555921078 1.0000000180025095e-35 0.049888426073404629 0.050000680790483629 0.099978260665356158 0.10001222297154691 0.14949033928253488 0.010208275396424374 0.020408065519690415 1.0000000180025095e-35 0.15000534084025116
decision_type=2 2 2 2 2 2 2 2 2 2 2 2 2 2
left_child=2 -2 -1 4 -4 12 -7 -8 -9 -10 -3 -12 -6 -11
right_child=1 10 3 -5 5 6 7 8 9 13 11 -13 -14 -15
leaf_value=-0.043198841107281644 0.10893193272242725 -0.013268373635250581 -0.018673220483404675 0.063679217544481873 0.23584472425519057 -0.051758528473097414 0.19309758893253792 -0.053252197789051339 0.19728625427266322 -0.053923257447755057 0.1196512405910386 0.0031497229321662541 0.13600201539147155 0.021201390761980826
leaf_weight=2617.691449534148 889.95541356876493 831.97996851056814 4590.7084638401866 526.96555909141898 371.32542175985873 1694.7357019819319 352.37928897701204 1327.6397216059268 223.87824952416122 652.95331201329827 278.59483240917325 296.23667795583606 280.18589925952256 368.1818570047617
leaf_count=25319 17290 4767 31995 4239 2005 11521 3074 8984 2004 4299 4014 2942 3542 2681
internal_value=0 0.0523226 -0.00870134 -9.05164e-06 -0.00341217 0.00987854 -0.0159334 0.00482338 -0.0209648 0.0134655 0.0165113 0.0596127 0.192907 -0.0268362
internal_weight=0 2296.77 13006.6 10389 9861.99 5271.28 4619.77 2925.03 2572.65 1245.01 1406.81 574.832 651.511 1021.14
internal_count=128676 29013 99663 74344 70105 38110 32563 21042 17968 8984 11723 6956 5547 6980
shrinkage=0.1


Tree=27
num_leaves=15
num_cat=0
split_feature=6 6 1 1 0 5 5 5 5 5 5 5 5 5
split_gain=634.067 371.848 337.753 294.758 185.351 195.114 551.326 263.25 581.651 275.178 551.814 189.862 951.456 166.491
threshold=1.0000000180025095e-35 0.010203942695819609 0.59223068449506255 0.58253615818851767 0.59133427413338413 0.14035605517381264 0.15786769312099527 0.15789625307309102 0.17499608953723395 0.17543875631721792 0.19297746399089144 0.14004575982283879 0.12280763299779413 0.19298751104701498
decision_type=2 2 2 2 2 2 2 2 2 2 2 2 2 2
left_child=2 -2 3 4 5 11 -7 -8 -9 -10 -11 12 -1 -12
right_child=1 -3 -4 -5 -6 6 7 8 9 10 13 -13 -14 -15
leaf_value=-0.031414870277549516 0.10569080760444693 0.021773003830791046 -0.041766209001683041 0.2342878387731121 0.020121067195043051 0.18808886903015143 -0.075855440499905086 0.1921197411356016 -0.077590162120734052 0.20294545040509115 -0.066000135803269619 -0.085198193752233767 0.24266913142940921 0.0088495676031724591
leaf_weight=2628.3939972892404 728.76377803273499 1916.9839597158134 2514.1880781371146 53.095557576045394 2735.3114850725979 157.48097081109881 436.65151175297797 161.04586038738489 424.26467512920499 139.23252059519291 345.95427816733718 499.61109429039061 133.06684979051352 2107.5415705759078
leaf_count=21543 16606 17957 21800 449 16955 1295 3546 1273 3139 1137 2616 3891 1146 15323
internal_value=0 0.0448879 -0.00906162 -0.000689763 -0.00196695 -0.0105572 0.00492919 -0.00305051 0.00695263 -0.00293151 0.00928536 -0.0284708 -0.0182076 -0.00170459
internal_weight=0 2645.75 12335.8 9821.65 9768.55 7033.24 3772.17 3614.69 3178.04 3016.99 2592.73 3261.07 2761.46 2453.5
internal_count=128676 34563 94113 72313 71864 54909 28329 27034 23488 22215 19076 26580 22689 17939
shrinkage=0.1


Tree=28
num_leaves=15
num_cat=0
split_feature=8 8 1 1 0 7 7 8 8 9 9 8 7 7
split_gain=572.864 438.794 317.995 364.765 175.822 172.089 930.671 148.321 183.295 122.22 1288.85 119.545 119.475 263.954
threshold=1.0000000180025095e-35 0.010195842595200797 0.53398016287288164 0.52427319537384631 0.59602191564433638 0.071434243465786487 0.14284780194301494 0.010208275396424374 0.020408065519690415 0.049888426073404629 1.0000000180025095e-35 0.020408562658459296 0.14288120810167124 0.21406120804572407
decision_type=2 2 2 2 2 2 2 2 2 2 2 2 2 2
left_child=2 -2 3 4 5 -1 -7 -3 -9 10 -4 -10 -8 -14
right_child=1 7 9 -5 -6 6 12 8 11 -11 -12 -13 13 -15
leaf_value=-0.021610493442239621 0.1079778807893212 -0.012743473735078063 -0.039776976042341802 0.23046937218091823 0.021913626635042399 0.19163555295737397 -0.027174632211310026 0.11798362242829359 -0.08043877161233752 -0.059111291366269816 0.20530820436479513 0.051486677582302465 0.18890538495864298 -0.004100889801041608
leaf_weight=3678.4235954508185 781.13655457273126 822.97206662595272 2676.0642937701195 70.043804444372654 2784.4923551809043 259.17055093403906 1282.9922272544354 247.63981441222131 111.41970232874155 1111.3261528424919 233.27356881089509 179.09322042018175 87.10349502414465 379.90168550796807
leaf_count=29895 17290 4767 23101 635 19430 1898 9728 4014 703 9483 2055 2239 677 2761
internal_value=0 0.0482359 -0.00771151 0.00320372 0.00132478 -0.00875497 0.0147812 0.0139505 0.0547724 -0.0309015 -0.0201258 0.000889637 -0.0114106 0.0318977
internal_weight=0 2142.26 12562.8 8542.13 8472.08 5687.59 2009.17 1361.12 538.153 4020.66 2909.34 290.513 1750 467.005
internal_count=128676 29013 99663 65024 64389 44959 15064 11723 6956 34639 25156 2942 13166 3438
shrinkage=0.1


Tree=29
num_leaves=15
num_cat=0
split_feature=2 2 2 2 1 1 5 5 5 7 7 3 7 7
split_gain=518.565 668.607 362.618 432.544 255.533 284.12 155.414 411.463 211.399 165.176 1023.82 192.214 169.766 695.538
threshold=1.0000000180025095e-35 0.010203615911265387 0.010204439600757793 0.020406438860566867 0.60194015054797656 0.59223962540348596 0.035086295781965239 0.017545449789829838 0.01753560638447901 0.071434243465786487 0.14284780194301494 0.6251430478532477 0.071318170920108767 1.0000000180025095e-35
decision_type=2 2 2 2 2 2 2 2 2 2 2 2 2 2
left_child=4 -2 -3 -4 5 6 7 8 -1 12 -11 -12 13 -8
right_child=1 2 3 -5 -6 -7 9 -9 -10 10 11 -13 -14 -15
leaf_value=0.061289927243917575 0.10730323243412626 -0.022482737957069069 0.11096499322080236 0.010305859194479346 -0.046856349992934782 0.29198272260790914 -0.015637857787582962 0.21235064361432077 -0.058691750448384816 0.19772750345725432 -0.032126614212954999 0.03419535619039131 -0.042455463739627254 0.23592004997217361
leaf_weight=311.886344878003 855.62531958613545 1854.0971792005002 588.11435622442514 1557.3102852925658 1812.0894761579111 32.046329515054822 2428.9159584753215 113.98683330602944 277.51688130572438 260.43561261147261 1476.3830800242722 620.70884781889617 2143.499855497852 115.12128635495901
leaf_count=2209 18758 11471 9933 13431 17306 232 18395 1070 1679 1500 11396 3558 16915 823
internal_value=0 0.0270714 0.00990727 0.037899 -0.0130367 -0.00516005 -0.00638898 0.038432 0.00479729 -0.010864 0.0107271 -0.0124963 -0.0217229 -0.00425451
internal_weight=0 4855.15 3999.52 2145.42 9592.59 7780.5 7748.45 703.39 589.403 7045.06 2357.53 2097.09 4687.54 2544.04
internal_count=128676 53593 34835 23364 75083 57777 57545 4958 3888 52587 16454 14954 36133 19218
shrinkage=0.1


Tree=30
num_leaves=15
num_cat=0
split_feature=8 8 0 4 7 7 7 7 0 8 8 1 7 7
split_gain=451.542 405.825 249.697 167.733 171.808 628.062 186.813 300.99 132.423 122.345 169.338 107.722 106.719 112.131
threshold=1.0000000180025095e-35 0.010195842595200797 0.042124998308822353 0.38588544573449307 0.071434243465786487 0.14284780194301494 0.14288120810167124 0.21406120804572407 0.71926736555921078 0.010208275396424374 0.020408065519690415 0.59223068449506255 0.21430070114087782 0.28556496966917116
decision_type=2 2 2 2 2 2 2 2 2 2 2 2 2 2
left_child=2 -2 -1 8 -5 -6 -7 -8 11 -3 -11 -4 -9 -14
right_child=1 9 3 4 5 6 7 12 -10 10 -12 -13 13 -15
leaf_value=-0.035933627941532612 0.1071721310201571 -0.011896615461281249 0.012675874410156574 -0.037207889314493807 0.17914597659971909 -0.036244997828229361 0.1869650857565397 -0.04611161419401226 0.066548417572746668 0.11683060505277804 -0.00020905962746625971 -0.026287553287437915 0.20479840274140448 0.016574668030982089
leaf_weight=2367.9957568887621 681.11743042990565 813.07680561393499 4702.8939453018829 1917.5646087499335 187.13298288919032 1180.9099002629519 104.42148455884308 245.55946253612638 397.53265503980219 219.32856393419206 283.2902679219842 835.64031370729208 38.590295750647783 175.99023728817701
leaf_count=25319 17290 4767 34709 14958 1671 8526 863 1707 3419 4014 2942 6929 325 1237
internal_value=0 0.0445154 -0.00679561 0.000254978 -0.0160009 0.00504101 -0.0136249 0.0336903 0.0107987 0.0120789 0.0508637 0.00679717 -0.001093 0.0504249
internal_weight=0 1996.81 12154.2 9786.24 3850.17 1932.6 1745.47 564.561 5936.07 1315.7 502.619 5538.53 460.14 214.581
internal_count=128676 29013 99663 74344 29287 14329 12658 4132 45057 11723 6956 41638 3269 1562
shrinkage=0.1


Tree=31
num_leaves=15
num_cat=0
split_feature=2 2 2 2 1 1 2 2 2 2 9 9 9 9
split_gain=394.563 612.183 287.051 403.949 199.965 247.494 134.802 360.012 265.7 186.747 124.187 1079.49 262.223 1780.47
threshold=1.0000000180025095e-35 0.010203615911265387 0.010204439600757793 0.020406438860566867 0.59223068449506255 0.58253615818851767 0.020409017063373471 0.030582641945812537 0.030616229572702273 0.040812568363590609 0.099978260665356158 0.050000680790483629 0.049888426073404629 1.0000000180025095e-35
decision_type=2 2 2 2 2 2 2 2 2 2 2 2 2 2
left_child=4 -2 -3 -4 5 10 -5 -8 -9 -10 11 12 13 -1
right_child=1 2 3 6 -6 -7 7 8 9 -11 -12 -13 -14 -15
leaf_value=-0.016855528229322295 0.10659906425063473 -0.020580458640325525 0.10992682988231484 -0.029402868840960134 -0.040402716655584342 0.26173310028094771 0.11670469251974064 -0.10726942415353824 0.11901325591962758 -0.020359003566434046 -0.025653551369625389 0.21565086745772433 -0.045694078044870891 0.20840244027560845
leaf_weight=3358.6220123395324 756.17579749971628 1827.0024259202182 521.49296451359987 591.02310728281736 1895.9095228351653 34.880077103152871 324.54262398555875 202.53566995821893 155.57215712592006 251.65543018095195 2128.1352634653449 228.30444725416601 1283.0885844770819 391.82816822268069
leaf_count=25395 18758 11471 9933 3214 18867 243 4440 1231 2004 2542 16307 1549 9985 2737
internal_value=0 0.0242974 0.00823197 0.0339501 -0.0114168 -0.00401541 0.00797447 0.0316186 -0.0136679 0.032885 -0.00526972 0.00297445 -0.00667184 0.00667829
internal_weight=0 4630 3873.82 2046.82 9320.77 7424.86 1525.33 934.306 609.763 407.228 7389.98 5261.84 5033.54 3750.45
internal_count=128676 53593 34835 23364 75083 56216 13431 10217 5777 4546 55973 39666 38117 28132
shrinkage=0.1


Tree=32
num_leaves=15
num_cat=0
split_feature=8 8 0 4 7 7 7 7 0 7 8 8 8 0
split_gain=354.488 369.304 201.621 142.607 145.626 563.238 152.947 273.298 107.952 97.2766 97.2378 153.396 86.9416 84.8226
threshold=1.0000000180025095e-35 0.010195842595200797 0.029806850375419403 0.38588544573449307 0.071434243465786487 0.14284780194301494 0.14288120810167124 0.21406120804572407 0.71926736555921078 0.28586881064634334 0.010208275396424374 0.020408065519690415 0.020408562658459296 0.68819922509391918
decision_type=2 2 2 2 2 2 2 2 2 2 2 2 2 2
left_child=2 -2 -1 8 -5 -6 -7 -8 -4 -9 13 -12 -13 -3
right_child=1 10 3 4 5 6 7 9 -10 -11 11 12 -14 -15
leaf_value=-0.035790184374597959 0.10651816484682111 -0.035627639475070243 0.005950038153425697 -0.034351013629646397 0.17419919153875885 -0.033095722821541017 0.18154777185773258 -0.024086741852224085 0.060820744515748426 0.092145505330504307 0.11577486937017317 -0.067174623508835726 0.046018670041201332 0.031479633693472335
leaf_weight=1898.5200959872454 588.51068480312824 501.43912990763783 5623.2406075326726 1957.8218198865652 177.31157909054309 1192.9816115442663 98.369790975004435 376.96924311853945 382.96985558047891 89.004224369302392 191.47680613957345 114.8802318572998 165.77015430852771 301.66601718589664
leaf_count=21300 17290 2819 43680 16117 1718 9073 887 2794 3419 675 4014 703 2239 1948
internal_value=0 0.0409917 -0.00593916 -0.000213869 -0.0151236 0.00433422 -0.0128049 0.0300884 0.00944872 -0.00188556 0.0107517 0.0467664 -0.00031539 -0.0104205
internal_weight=0 1863.74 11797.2 9898.67 3892.46 1934.64 1757.32 564.343 6006.21 465.973 1275.23 472.127 280.65 803.105
internal_count=128676 29013 99663 78363 31264 15147 13429 4356 47099 3469 11723 6956 2942 4767
shrinkage=0.1


Tree=33
num_leaves=15
num_cat=0
split_feature=2 2 2 2 1 1 5 5 5 5 1 1 1 1
split_gain=303.031 557.356 229.746 371.829 174.94 333.975 160.271 410.507 164.147 325.448 118.395 260.556 145.602 288.242
threshold=1.0000000180025095e-35 0.010203615911265387 0.010204439600757793 0.020406438860566867 0.40776353227594225 0.39806985485449203 0.22807240313791741 0.24561256715419991 0.24562017005766926 0.26315753614740339 0.39805362090006652 0.38835004333241441 0.3879152016327575 0.37864120463541401
decision_type=2 2 2 2 2 2 2 2 2 2 2 2 2 2
left_child=4 -2 -3 -4 5 10 -6 -8 -9 -10 11 12 13 -1
right_child=1 2 3 -5 6 -7 7 8 9 -11 -12 -13 -14 -15
leaf_value=0.0053342820395853889 0.10598780775589141 -0.018782885388855131 0.1090318455675091 0.0062548867210834086 -0.028537061152788895 0.23482060217588574 0.28817732406853297 -0.087517011569692771 0.27707579808994298 0.0034968732617051881 -0.077079803577003336 0.2165561295777815 -0.086047628131248582 0.22976201901295965
leaf_weight=2690.6332013020292 669.62776811467484 1801.2909797243774 462.7581799980253 1470.8250384405255 4691.0730780567974 64.063266663812101 51.719241400249302 179.89084949716926 45.682342153973877 903.01851872727275 169.62080878950655 59.17401451151818 167.04731103032827 58.471146192401648
leaf_count=19625 18758 11471 9933 13431 42331 449 371 1498 322 7088 1271 440 1264 424
internal_value=0 0.0219762 0.00691369 0.0308522 -0.00998821 0.00878668 -0.0202496 0.0126882 6.35333e-05 0.0166704 0.00418232 0.00881501 0.00459956 0.0101077
internal_weight=0 4404.5 3734.87 1933.58 9080.39 3209.01 5871.38 1180.31 1128.59 948.701 3144.95 2975.33 2916.15 2749.1
internal_count=128676 53593 34835 23364 75083 23473 51610 9279 8908 7410 23024 21753 21313 20049
shrinkage=0.1


Tree=34
num_leaves=15
num_cat=0
split_feature=8 8 9 9 9 9 9 9 9 9 4 8 8 7
split_gain=281.584 339.777 187.893 2257.26 314.853 1222.25 262.573 894.939 138.982 424.561 113.161 79.238 140.956 77.7768
threshold=1.0000000180025095e-35 0.010195842595200797 1.0000000180025095e-35 0.049888426073404629 0.050000680790483629 0.099978260665356158 0.10001222297154691 0.14949033928253488 0.15000534084025116 0.19879935744519531 0.38588544573449307 0.010208275396424374 0.020408065519690415 0.071434243465786487
decision_type=2 2 2 2 2 2 2 2 2 2 2 2 2 2
left_child=2 -2 10 -4 -5 -6 -7 -8 -9 -10 -1 -3 -13 -12
right_child=1 11 3 4 5 6 7 8 9 -11 13 12 -14 -15
leaf_value=-0.0084220249787235538 0.10595938829103389 -0.0096283505089277011 0.1799917561178293 -0.046878576772994174 0.17885870317531702 -0.046663159453988245 0.19354995731474012 -0.049173350135188622 0.20315031897345728 -0.033233471301518172 -0.056774437362198851 0.11460503897101376 -0.0012166987753084724 -0.015335223514015846
leaf_weight=3873.4102958533913 515.90854260791093 791.65731330215931 670.55790874082595 1939.0460693007335 356.04614523472264 1489.8371576629579 230.7919323365204 717.08348187152296 99.939772774465382 316.94194873981178 1029.8826029226184 170.25161533616483 274.4782218337059 808.48405811656266
leaf_count=32617 17290 4767 6847 16422 3726 12100 2444 5690 1011 2483 9744 4014 2942 6579
internal_value=0 0.0377908 -0.00523382 0.00741115 -0.0150611 0.00415479 -0.0176356 0.0140524 -0.0224801 0.0234352 -0.0181189 0.00934609 0.0431222 -0.0385501
internal_weight=0 1752.3 11532 5820.24 5149.69 3210.64 2854.59 1364.76 1133.97 416.882 5711.78 1236.39 444.73 1838.37
internal_count=128676 29013 99663 50723 43876 27454 23728 11628 9184 3494 48940 11723 6956 16323
shrinkage=0.1


Tree=35
num_leaves=15
num_cat=0
split_feature=0 5 5 5 5 5 5 5 5 5 5 5 5 2
split_gain=257.601 137.424 621.065 224.471 986.645 221.006 609.014 266.043 565.742 186.085 918.531 226.944 972.77 181.412
threshold=0.59602191564433638 0.14035605517381264 0.15786769312099527 0.14004575982283879 0.12280763299779413 0.15789625307309102 0.17499608953723395 0.17543875631721792 0.19297746399089144 0.12280282866640664 0.10526509240154323 0.10526235718077213 0.087721172224649493 1.0000000180025095e-35
decision_type=2 2 2 2 2 2 2 2 2 2 2 2 2 2
left_child=1 3 -3 4 9 -4 -7 -8 -9 10 11 12 -1 -14
right_child=-2 2 5 -5 -6 6 7 8 -10 -11 -12 -13 13 -15
leaf_value=-0.032080385251679333 0.021101214508668149 0.18199616977774438 -0.065032429095666686 -0.079385434968058638 0.22061755503670413 0.18420958277836053 -0.072798183617644702 0.18534311597382644 -0.0042899997022872883 -0.073824046123261863 0.21159484334348716 -0.08202636872700092 0.35303049246878709 0.13181328608765164
leaf_weight=1824.7298770202324 4129.0599685478956 185.22507064510137 537.36625632829964 592.97900636214763 172.13405578490347 177.75635039666668 504.59278629720211 165.52040361519903 3176.2643934311345 630.29385340306908 169.95541373640299 604.59557220619172 68.5726652815938 80.693888661451638
leaf_count=19108 40419 2342 5325 5693 2216 2099 4573 2020 28862 5974 2143 5816 592 1494
internal_value=0 -0.00912488 0.00249159 -0.0224311 -0.0129202 -0.0047974 0.00324613 -0.0051169 0.00510263 -0.0248177 -0.0135797 -0.028421 -0.0120027 0.23344
internal_weight=0 8890.68 4746.73 4143.95 3550.98 4561.5 4024.13 3846.38 3341.78 3378.84 2748.55 2578.59 1974 149.267
internal_count=128676 88257 45221 43036 37343 42879 37554 35455 30882 35127 29153 27010 21194 2086
shrinkage=0.1


Tree=36
num_leaves=15
num_cat=0
split_feature=8 8 1 1 1 1 5 5 3 1 1 1 1 1
split_gain=220.937 311.475 153.468 262.215 94.9976 267.487 92.5293 120.663 114.884 99.0015 274.426 97.9339 237.867 144.616
threshold=1.0000000180025095e-35 0.010195842595200797 0.58251956917249126 0.57282628866315954 0.57188965349845444 0.56311161400300491 0.01753560638447901 1.0000000180025095e-35 1.0000000180025095e-35 0.56216033653097341 0.55340184642698487 0.54368870938159153 0.53398429839207162 0.53398016287288164
decision_type=2 2 2 2 2 2 2 2 2 2 2 2 2 2
left_child=2 -2 3 4 5 6 7 -1 -8 10 11 12 13 -10
right_child=1 -3 -4 -5 -6 -7 8 -9 9 -11 -12 -13 -14 -15
leaf_value=0.015909650793006234 0.10525052049661032 0.0079425915965989774 -0.027622534495791946 0.22921194492636066 -0.075061957309513511 0.22560120089454336 -0.1176425433112601 0.15700659342724049 0.0025520412977570075 -0.077399585718680469 0.22512193711936757 -0.048848775799321439 0.21423774268478277 -0.090020723607750278
leaf_weight=224.96910244785249 452.2095467611216 1206.8015212630853 2305.9477859502658 50.214862931519747 165.23150598630309 52.927895063068718 84.886325176805258 82.959509076550603 7323.4380128863268 164.91126555204391 54.203110579401255 400.38412862783298 52.392221849411726 172.73274083249271
leaf_count=1470 17290 11723 24264 505 1461 512 679 843 62289 1489 514 3540 583 1514
internal_value=0 0.0344666 -0.00465062 0.00134898 4.564e-05 0.00148637 0.00010077 0.0539228 -0.0019074 -0.000704628 0.000875732 -0.000653381 0.00190296 0.000418906
internal_weight=0 1659.01 11135.2 8829.25 8779.04 8613.8 8560.88 307.929 8252.95 8168.06 8003.15 7948.95 7548.56 7496.17
internal_count=128676 29013 99663 75399 74894 73433 72921 2313 70608 69929 68440 67926 64386 63803
shrinkage=0.1


Tree=37
num_leaves=15
num_cat=0
split_feature=0 6 6 5 5 5 5 5 5 5 5 5 5 5
split_gain=205.861 136.25 343.148 157.961 916.435 347.405 637.634 228.326 587.525 276.294 530.06 201.455 578.577 231.2
threshold=0.71926736555921078 1.0000000180025095e-35 0.010203942695819609 0.12280763299779413 0.14004575982283879 0.14035605517381264 0.15786769312099527 0.15789625307309102 0.17499608953723395 0.17543875631721792 0.19297746399089144 0.19298751104701498 0.21027286916795965 0.21052922393957232
decision_type=2 2 2 2 2 2 2 2 2 2 2 2 2 2
left_child=1 3 -3 -1 -5 -6 -7 -8 -9 -10 -11 -12 -13 -14
right_child=-2 2 -4 4 5 6 7 8 9 10 11 12 13 -15
leaf_value=-0.021473108322011387 0.053201804243605905 0.10474764522657681 -0.00062977768886061285 0.22119660252257428 -0.072856732993506187 0.18382968922563239 -0.061738930991732527 0.17820744192659049 -0.069880099274996124 0.18137634618262172 -0.062640157964707996 0.19548325461701921 -0.0710832004875257 0.010586661898967967
leaf_weight=4384.3868431970477 697.67150917090476 397.26151786837727 1391.2058953978121 187.43395564053208 641.24691204912961 192.42303218040615 561.51003305520862 189.52419930323958 521.33060268871486 168.16071947431192 452.22833472304046 157.53131411969662 407.53946006670594 2319.1738970102742
leaf_count=38670 8907 14165 14573 1869 6054 1975 5514 1912 4742 1761 4010 1468 3454 19602
internal_value=0 -0.00267891 0.0227771 -0.00715004 0.00368072 -0.00358577 0.00535285 -0.0018364 0.00614272 -0.00195731 0.00814652 -0.000584395 0.00914549 -0.00161986
internal_weight=0 11971 1788.47 10182.5 5798.1 5610.67 4969.42 4777 4215.49 4025.96 3504.63 3336.47 2884.24 2726.71
internal_count=128676 119769 28738 91031 52361 50492 44438 42463 36949 35037 30295 28534 24524 23056
shrinkage=0.1


Tree=38
num_leaves=15
num_cat=0
split_feature=0 9 9 9 9 9 9 8 8 0 0 5 5 5
split_gain=175.634 106.412 1536.82 176.078 808.465 154.421 562.493 86.6508 101.785 74.8316 117.476 174.487 160.165 123.954
threshold=0.59602191564433638 1.0000000180025095e-35 0.049888426073404629 0.050000680790483629 0.099978260665356158 0.10001222297154691 0.14949033928253488 1.0000000180025095e-35 0.010195842595200797 0.71926696136207224 0.71926736555921078 0.035086295781965239 0.017545449789829838 0.01753560638447901
decision_type=2 2 2 2 2 2 2 2 2 2 2 2 2 2
left_child=1 -1 -3 -4 -5 -6 -7 9 -9 -2 11 12 13 -11
right_child=7 2 3 4 5 6 -8 8 -10 10 -12 -13 -14 -15
leaf_value=-0.019024442719577598 0.025532876345169282 0.16746980902921782 -0.046892840451195489 0.16990853324810135 -0.048306910228223782 0.17522502553478814 -0.027832636046551257 0.10466063516548268 0.025675056974147261 0.03882300113867021 0.037927849042210013 -0.062185995260385513 0.16501430216551904 -0.059628420758618274
leaf_weight=4225.8189622908831 1554.5808392614126 502.81898852903396 1395.7733904360794 244.80864734994248 1082.5659887799993 164.3518674634397 802.7014913870953 218.39290789747611 644.99112439993769 304.97487167082727 451.99719846155494 560.54203318897635 64.070885013788939 220.23313978500664
leaf_count=42997 11698 6795 14133 3448 10520 2539 7825 9180 7248 2234 4239 3693 815 1312
internal_value=0 -0.00782551 0.00346102 -0.0188865 -0.0018493 -0.0223642 0.00667725 0.0175821 0.0456545 0.00990332 -0.00526532 -0.0222447 0.0157489 -0.0024602
internal_weight=0 8418.84 4193.02 3690.2 2294.43 2049.62 967.053 4019.78 863.384 3156.4 1601.82 1149.82 589.279 525.208
internal_count=128676 88257 45260 38465 24332 20884 10364 40419 16428 23991 12293 8054 4361 3546
shrinkage=0.1


Tree=39
num_leaves=15
num_cat=0
split_feature=6 6 9 9 9 9 9 9 9 9 6 6 6 6
split_gain=149.969 320.927 116.268 1581.39 210.396 908.448 160.062 671.811 107.564 330.988 81.3981 239.81 186.337 117.826
threshold=1.0000000180025095e-35 0.010203942695819609 1.0000000180025095e-35 0.049888426073404629 0.050000680790483629 0.099978260665356158 0.10001222297154691 0.14949033928253488 0.15000534084025116 0.19879935744519531 0.010204321285100461 0.020346053864501806 0.020408717816329674 0.030611550435490544
decision_type=2 2 2 2 2 2 2 2 2 2 2 2 2 2
left_child=2 -2 -1 -4 -5 -6 -7 -8 -9 -10 -3 -12 -13 -14
right_child=1 10 3 4 5 6 7 8 9 -11 11 12 13 -15
leaf_value=-0.015105489682921117 0.10426554695705532 -0.016054044983117369 0.16511135056917389 -0.041139364728640472 0.16641816097200471 -0.039937920341652985 0.17666177270564476 -0.048315028509933272 0.20505893081524082 -0.029293073724118476 0.10768065744668509 -0.10547792461964881 0.10851421168986619 -0.016075421175182594
leaf_weight=5140.5364605700597 410.65845098602585 847.752311501652 557.78793569281697 1699.5338623947464 304.9410721892491 1343.622283778619 201.90546833397821 632.08739801310003 76.315915844868869 286.56857405696064 255.19722044747323 148.28623320162296 119.98202745523304 206.63142574299127
leaf_count=46611 16606 4702 6096 15506 3347 11813 2252 5356 786 2346 6160 1139 2567 3389
internal_value=0 0.0255189 -0.00449077 0.00620254 -0.0132998 0.00332838 -0.0162476 0.0103473 -0.0234022 0.019992 0.00502399 0.0294988 -0.0125139 0.0296928
internal_weight=0 1988.51 10243.3 5102.76 4544.97 2845.44 2540.5 1196.88 994.972 362.884 1577.85 730.097 474.9 326.613
internal_count=128676 34563 94113 47502 41406 25900 22553 10740 8488 3132 17957 13255 7095 5956
shrinkage=0.1


Tree=40
num_leaves=15
num_cat=0
split_feature=0 9 9 9 9 9 9 4 9 9 5 5 5 5
split_gain=137.982 110.044 1402.21 201.019 771.699 161.072 562.451 84.7111 81.3236 292.639 81.0674 367.75 116.252 294.312
threshold=0.71926736555921078 1.0000000180025095e-35 0.049888426073404629 0.050000680790483629 0.099978260665356158 0.10001222297154691 0.14949033928253488 0.22551441807796971 0.15000534084025116 0.19879935744519531 0.087721172224649493 0.10526235718077213 0.10526509240154323 0.12280282866640664
decision_type=2 2 2 2 2 2 2 2 2 2 2 2 2 2
left_child=1 7 -3 -4 -5 -6 -7 -1 -8 -10 -9 -12 -13 -14
right_child=-2 2 3 4 5 6 8 10 9 -11 11 12 13 -15
leaf_value=0.0048858631826244267 0.044912621531016071 0.14921967773575628 -0.035780915460429628 0.14898971363415286 -0.034288678963944628 0.15600684961757921 -0.03620302652333772 -0.047684357688849092 0.17013785388785754 -0.027348091348370348 0.25173093273362113 -0.083495569495216235 0.2138352997585225 -0.01640765431778049
leaf_weight=1950.8608572124504 658.7931776442565 623.09676691750064 1871.623497242108 335.37668607058004 1475.9404841302894 229.84973096149042 710.3339458508417 863.83470188826323 98.395046473946422 316.0438072187826 51.631431247107685 244.38524042256176 56.772965519689023 2511.7986247632653
leaf_count=19125 8907 10324 18385 5613 14176 4036 6637 8760 1527 2835 714 2462 779 24396
internal_value=0 -0.00216327 0.00770386 -0.00980025 0.00555887 -0.0114354 0.0134646 -0.011998 -0.0156642 0.0195385 -0.0208324 -0.012735 -0.0175892 -0.0113186
internal_weight=0 11339.9 5660.66 5037.56 3165.94 2830.56 1354.62 5679.28 1124.77 414.439 3728.42 2864.59 2812.96 2568.57
internal_count=128676 119769 63533 53209 34824 29211 15035 56236 10999 4362 37111 28351 27637 25175
shrinkage=0.1


Tree=41
num_leaves=15
num_cat=0
split_feature=1 1 4 7 3 0 7 7 7 7 3 8 5 5
split_gain=127.33 222.137 117.954 84.6151 60.7835 55.2087 52.4944 324.09 115.145 360.225 57.3583 51.4968 79.755 182.522
threshold=0.6116493727904978 0.60194518610436287 0.38588544573449307 0.28586881064634334 0.38211315341803737 0.71926736555921078 0.071434243465786487 0.14284780194301494 0.071318170920108767 1.0000000180025095e-35 0.38471861663798823 1.0000000180025095e-35 0.14035605517381264 0.15786769312099527
decision_type=2 2 2 2 2 2 2 2 2 2 2 2 2 2
left_child=1 2 5 11 -2 6 8 -8 9 -1 -9 12 -4 -14
right_child=4 -3 3 -5 -6 -7 7 10 -10 -11 -12 -13 13 -15
leaf_value=0.0087409036530272377 -0.038878599006638287 0.22373752284760068 -0.036030464234575642 0.085054522107003774 0.00052165483027684476 0.045056178538901738 0.15408173760631225 -0.06608450307358639 -0.017587590739288079 0.17471907156918207 0.014048355995972621 0.020567423523989575 0.16008711955970401 -0.0097388888230639809
leaf_weight=3092.6971154212952 1097.9789548804983 46.091808896046132 1295.8730273910332 91.065768311731517 608.57368038222194 471.68959421850741 174.6154548432678 101.61484044790268 1524.3207855974324 136.53164011240005 738.58534551365301 417.63595171831548 65.426947426283732 1933.9552139479201
leaf_count=31347 14399 752 13162 838 6189 6525 2447 1044 15845 2296 6827 7977 735 18293
internal_value=0 0.0047069 0.00370177 -0.0101779 -0.0248281 0.0121628 0.0094731 0.0301196 0.00506538 0.0157585 0.00435699 -0.0125136 -0.0167063 -0.00418157
internal_weight=0 10090.1 10044 3803.96 1706.55 6240.05 5768.37 1014.82 4753.55 3229.23 840.2 3712.89 3295.26 1999.38
internal_count=128676 108088 107336 41005 20588 66331 59806 10318 49488 33643 7871 40167 32190 19028
shrinkage=0.1


Tree=42
num_leaves=15
num_cat=0
split_feature=8 8 1 1 1 1 1 1 1 1 1 1 1 1
split_gain=112.861 256.734 98.1084 226.039 116.453 246.465 108.469 274.575 104.239 246.214 101.724 244.288 128.817 198.993
threshold=1.0000000180025095e-35 0.010195842595200797 0.42660860937852479 0.41748435578675253 0.41696915625636005 0.407767610566167 0.42718892853717227 0.43671211454948311 0.43689549690772761 0.44633584925032693 0.40776353227594225 0.39806985485449203 0.39805362090006652 0.38835004333241441
decision_type=2 2 2 2 2 2 2 2 2 2 2 2 2 2
left_child=2 -2 3 4 5 10 -4 -8 -9 -10 11 12 13 -1
right_child=1 -3 6 -5 -6 -7 7 8 9 -11 -12 -13 -14 -15
leaf_value=0.0059843736295779448 0.10424514812807628 0.0038023026830409229 -0.085152444378591999 0.18054233750150475 -0.071393090426268166 0.19183972933031823 0.18451828624004182 -0.082533160647722495 0.17431105487562087 -0.011266243029870417 -0.067690851761560131 0.17590987007572001 -0.075632791524828796 0.16838879449451177
leaf_weight=3300.5478633972816 328.53496708674356 1128.879725088831 193.08318596705794 75.012099544517696 188.53138653608039 72.416737792082131 72.430821550544351 198.91596874408424 72.427612078608945 5539.7500431223307 180.35789482295513 85.874112534802407 186.69842296792194 77.211935765575618
leaf_count=28357 17290 11723 1657 843 1595 870 876 1686 830 57889 1557 1007 1538 958
internal_value=0 0.0264444 -0.00329732 0.00852142 0.00536775 0.00907553 -0.0114013 -0.00898094 -0.0113928 -0.00887129 0.00562049 0.0092427 0.00522739 0.00969676
internal_weight=0 1457.41 10243.3 4166.65 4091.64 3903.11 6076.61 5883.52 5811.09 5612.18 3830.69 3650.33 3564.46 3377.76
internal_count=128676 29013 99663 36725 35882 34287 62938 61281 60405 58719 33417 31860 30853 29315
shrinkage=0.1


Tree=43
num_leaves=15
num_cat=0
split_feature=0 5 5 5 5 5 5 5 5 5 5 2 5 5
split_gain=102.963 80.1679 409.704 147.887 643.695 136.475 662.729 166.77 697.954 147.318 737.784 137.763 135.984 538.801
threshold=0.59602191564433638 0.14035605517381264 0.15786769312099527 0.14004575982283879 0.12280763299779413 0.12280282866640664 0.10526509240154323 0.10526235718077213 0.087721172224649493 0.087569343111397066 0.070176331267112632 1.0000000180025095e-35 0.070159358762897847 0.052632601549423154
decision_type=2 2 2 2 2 2 2 2 2 2 2 2 2 2
left_child=1 3 -3 4 5 6 7 8 9 10 12 -12 13 -1
right_child=-2 2 -4 -5 -6 -7 -8 -9 -10 -11 11 -13 -14 -15
leaf_value=-0.03424553699813445 0.013901566040992564 0.16851777417603606 -0.0026965248282549491 -0.067900840689779265 0.19953091612293514 -0.064059727996857316 0.19981271594327543 -0.072105923838295768 0.21734879104778404 -0.071452894995350527 0.35952728205580819 0.13457464240950112 -0.077593112352697516 0.26424942006158153
leaf_weight=582.07227050047368 3794.1892751329578 144.76707009924576 4042.6636756109074 494.80181307997555 141.24545702105388 547.40319339698181 143.30815376574174 512.61850694194436 128.2346975132823 480.51199710136279 52.04593602893874 57.081693405751139 395.79832389159128 67.482865450438112
leaf_count=6547 40419 2342 42879 5693 2216 5974 2143 5816 2086 5324 485 1291 4363 1098
internal_value=0 -0.0061868 0.00322266 -0.0171237 -0.00903939 -0.01897 -0.0087671 -0.0219012 -0.00730531 -0.0249252 -0.00555974 0.241861 -0.0313887 -0.00323463
internal_weight=0 7790.04 4187.43 3602.6 3107.8 2966.56 2419.15 2275.85 1763.23 1634.99 1154.48 109.128 1045.35 649.555
internal_count=128676 88257 45221 43036 37343 35127 29153 27010 21194 19108 13784 1776 12008 7645
shrinkage=0.1


Tree=44
num_leaves=15
num_cat=0
split_feature=1 1 1 1 1 1 1 1 1 1 1 1 1 1
split_gain=92.2699 251.425 116.286 305.318 135.815 305.933 133.726 263.607 126.579 240.379 153.296 276.811 133.041 227.875
threshold=0.53398016287288164 0.52427319537384631 0.52427148883206554 0.51456676128130785 0.51456244262113138 0.50485558091311211 0.50473184804941529 0.49515136203703536 0.49438352273020386 0.4854380301044155 0.48543330943340729 0.47573025281562392 0.47572368740623 0.46602385502233767
decision_type=2 2 2 2 2 2 2 2 2 2 2 2 2 2
left_child=1 2 3 4 5 6 7 8 9 10 11 12 13 -1
right_child=-2 -3 -4 -5 -6 -7 -8 -9 -10 -11 -12 -13 -14 -15
leaf_value=0.0051880535680217145 -0.013492733121901268 0.19692983041472861 -0.072459797780763835 0.20005740799127253 -0.07736020434515084 0.189975598051705 -0.076675888019672359 0.17958230937874572 -0.0715810251202431 0.17224003479560163 -0.077370320077345373 0.16987770477779962 -0.070038783508671945 0.15872633040359616
leaf_weight=6170.4242568595801 3382.8942506546155 68.521874459926039 191.34890272468328 80.60858648060821 197.84370251186192 89.868957539787516 198.21548173343763 87.014820380834863 212.33328218129463 86.728405154310167 220.22900576330721 103.26844898890704 228.80889753135853 98.201977754244581
leaf_count=66166 40771 1172 1750 1347 1820 1448 1768 1476 1967 1480 2012 1676 2131 1692
internal_value=0 0.00619512 0.00455424 0.00644997 0.0044213 0.00658004 0.00435437 0.00658296 0.0044687 0.00680638 0.00470288 0.00744121 0.00485949 0.00759333
internal_weight=0 8033.42 7964.89 7773.55 7692.94 7495.09 7405.22 7207.01 7119.99 6907.66 6820.93 6600.7 6497.44 6268.63
internal_count=128676 87905 86733 84983 83636 81816 80368 78600 77124 75157 73677 71665 69989 67858
shrinkage=0.1


Tree=45
num_leaves=15
num_cat=0
split_feature=9 9 9 9 9 9 9 9 4 3 2 2 3 1
split_gain=89.5688 1145.44 169.794 653.767 132.951 459.757 71.2412 228.395 66.4372 56.1545 58.7878 118.2 50.3801 61.1459
threshold=1.0000000180025095e-35 0.049888426073404629 0.050000680790483629 0.099978260665356158 0.10001222297154691 0.14949033928253488 0.15000534084025116 0.19879935744519531 0.22551441807796971 0.55453113929449904 1.0000000180025095e-35 0.010203615911265387 1.0000000180025095e-35 0.24271780728844186
decision_type=2 2 2 2 2 2 2 2 2 2 2 2 2 2
left_child=8 -2 -3 -4 -5 -6 -7 -8 12 10 -10 -12 -1 -14
right_child=1 2 3 4 5 6 7 -9 9 -11 11 -13 13 -15
leaf_value=-0.053735140661687032 0.14084312476110825 -0.030055579412453806 0.14096255647376538 -0.028423282644781108 0.14541879582886649 -0.030361313372482469 0.15632511808224403 -0.018639746348395728 -0.03129253419978368 0.0098958447730184765 0.10577319120111046 -0.013220513321454056 0.067710271998444094 0.0045731101768321791
leaf_weight=131.92580474214628 592.23004435701296 1871.6214593220502 330.83784584491514 1471.5474348557182 225.32233020430431 709.26993407681584 96.848035594215617 324.89115246711299 2130.6225704378448 659.20544423814863 93.475017864722759 780.52019588951953 168.3206378063187 1729.2657938781194
leaf_count=1195 11526 19379 6520 15074 4646 7083 1791 3173 23072 5517 3268 6993 1380 18059
internal_value=0 0.00929896 -0.00618795 0.00795423 -0.00760661 0.0149784 -0.0110083 0.0215391 -0.00849499 -0.0165349 -0.0223337 -0.000493969 0.00601923 0.0101735
internal_weight=0 5622.57 5030.34 3158.72 2827.88 1356.33 1131.01 421.739 5693.34 3663.82 3004.62 873.995 2029.51 1897.59
internal_count=128676 69192 57666 38287 31767 16693 12047 4964 59484 38850 33333 10261 20634 19439
shrinkage=0.1


Tree=46
num_leaves=15
num_cat=0
split_feature=7 7 7 7 4 7 7 7 7 7 1 2 0 8
split_gain=80.2673 788.58 183.984 842.338 108.887 95.392 328.93 99.4439 107.898 92.1521 77.6493 60.126 57.8112 50.0322
threshold=0.071318170920108767 1.0000000180025095e-35 0.071434243465786487 0.14284780194301494 0.25734050594261149 0.14288120810167124 0.21406120804572407 0.21430070114087782 0.28556496966917116 0.28586881064634334 0.52427148883206554 1.0000000180025095e-35 0.24089196878373856 1.0000000180025095e-35
decision_type=2 2 2 2 2 2 2 2 2 2 2 2 2 2
left_child=1 4 -2 -4 -1 10 -7 -8 -9 -10 -5 12 -3 -6
right_child=2 11 3 5 13 6 7 8 9 -11 -12 -13 -14 -15
leaf_value=0.013551193991617133 -0.024430520977705834 0.33077733859300712 0.15423457711335453 -0.0057656116051980752 -0.023978535024898537 0.16436838479305363 -0.043843651944953939 0.17437549728277396 -0.056146907569289618 0.073750822576403877 -0.046824570825701045 0.13343343806358263 0.18368596079805147 0.02220733077871621
leaf_weight=2674.6478310709354 3101.1839151978493 38.895417337771505 358.26810311176814 1347.5804793206044 1677.4727673975285 133.24318179814145 350.89534353394993 47.192055803956464 111.21898985141888 107.30602665245533 699.77915741107427 135.60067820223048 85.360239645233378 272.67365589411929
leaf_count=29349 36164 338 6111 13347 17737 2058 3303 696 1017 1037 7831 3587 795 5306
internal_value=0 0.00997319 -0.00713284 0.00986718 0.000449033 -0.00862344 0.0218907 -0.00889714 0.0372518 0.00763897 -0.0197994 0.179479 0.22973 -0.0175207
internal_weight=0 4884.65 6256.67 3155.48 4624.79 2797.22 749.856 616.612 265.717 218.525 2047.36 259.856 124.256 1950.15
internal_count=128676 57112 71564 35400 52392 29289 8111 6053 2750 2054 21178 4720 1133 23043
shrinkage=0.1


Tree=47
num_leaves=15
num_cat=0
split_feature=1 1 4 7 9 9 9 9 9 9 1 1 3 3
split_gain=76.8813 105.374 80.728 65.1393 47.5065 437.687 79.8824 240.243 67.2526 156.547 46.1977 88.7338 47.3573 40.121
threshold=0.66019268077014326 0.65049989645772854 0.38588544573449307 0.28586881064634334 1.0000000180025095e-35 0.049888426073404629 0.050000680790483629 0.099978260665356158 0.10001222297154691 0.14949033928253488 0.66021829434879253 0.66990053325976318 0.43246664493416093 1.0000000180025095e-35
decision_type=2 2 2 2 2 2 2 2 2 2 2 2 2 2
left_child=1 2 4 -4 13 -6 -7 -8 -9 -10 -2 -12 -13 -1
right_child=10 -3 3 -5 5 6 7 8 9 -11 11 12 -14 -15
leaf_value=-0.051022362037359451 -0.1015857156237642 0.24793887536619078 -0.011143253127479748 0.071142061153765201 0.13330408192307766 -0.016344510174682258 0.13321211411525433 -0.014014363805647993 0.13848463311729228 0.0079240196478325663 0.22942042612863736 -0.039194803693555672 0.015849793883790726 0.0036118836809185327
leaf_weight=140.24805773748085 77.113099083304405 17.513129457365721 3725.8056456195191 98.7551855572965 299.35469270893373 1011.8723555351608 166.61268547677901 760.02966443868354 110.0503259494435 554.91849463642575 13.949055216740815 603.77621900080703 210.89344350108877 3230.8142941715196
leaf_count=1231 949 243 44175 925 6833 10134 3828 7799 2749 6070 206 8852 2195 32487
internal_value=0 0.00285799 0.00243296 -0.00901854 0.00941378 0.0187911 0.00562416 0.0195908 0.00630606 0.0295314 -0.027553 -0.0206634 -0.0249454 0.00133891
internal_weight=0 10116 10098.5 3824.56 6273.9 2902.84 2603.48 1591.61 1425 664.969 905.732 828.619 814.67 3371.06
internal_count=128676 116474 116231 45100 71131 37413 30580 20446 16618 8819 12202 11253 11047 33718
shrinkage=0.1


Tree=48
num_leaves=15
num_cat=0
split_feature=0 5 5 5 5 5 5 5 5 5 5 5 5 5
split_gain=70.3302 61.7792 400.251 232.486 459.626 162.91 320.462 127.454 464.091 117.646 314.085 104.242 448.75 149.61
threshold=0.71926736555921078 0.22807240313791741 0.24561256715419991 0.22806200949993152 0.21052922393957232 0.24562017005766926 0.26315753614740339 0.21027286916795965 0.19298751104701498 0.26316624938090888 0.27943028873795966 0.19297746399089144 0.17543875631721792 0.17499608953723395
decision_type=2 2 2 2 2 2 2 2 2 2 2 2 2 2
left_child=1 3 -3 4 7 -4 -7 8 11 -8 -11 12 13 -1
right_child=-2 2 5 -5 -6 6 9 -9 -10 10 -12 -13 -14 -15
leaf_value=-0.0023369220155785761 0.033554761694447981 0.1997424295966411 -0.071235860574288878 -0.088544334361585098 0.19335258787565018 0.19386479474943744 -0.064679803878626763 -0.062270159968846807 0.1740852240778098 0.21410292639633985 0.0022702708764190203 -0.054236011054122693 0.16516344820514473 -0.059956768740080858
leaf_weight=6554.1343090266455 602.67073221132159 110.43887303280644 250.14163485681638 321.4271575063467 118.8776623965241 94.836297806585208 212.09413686650805 367.31832108297385 146.86659961915575 75.074657616205513 1034.2665278997738 413.09212852362543 156.02404859685339 483.89620182174258
leaf_count=78835 8907 1561 2279 2801 1819 1375 1840 3619 2207 1050 10417 4205 2664 5097
internal_value=0 -0.00158785 0.0153807 -0.00510945 -0.00185489 0.00316244 0.0163027 -0.00471228 -0.00198569 0.00355943 0.016606 -0.00538498 -0.00257989 -0.00629855
internal_weight=0 10338.5 1776.85 8561.64 8240.21 1666.41 1416.27 8121.33 7754.01 1321.44 1109.34 7607.15 7194.05 7038.03
internal_count=128676 119769 18522 101247 98446 16961 14682 96627 93008 13307 11467 90801 86596 83932
shrinkage=0.1


Tree=49
num_leaves=15
num_cat=0
split_feature=7 7 7 7 4 7 7 7 7 7 1 1 1 1
split_gain=65.0442 662.293 143.616 705.795 83.8031 69.8308 273.02 70.3482 94.231 62.118 61.4669 47.0163 46.5033 54.7257
threshold=0.071318170920108767 1.0000000180025095e-35 0.071434243465786487 0.14284780194301494 0.28994085123751351 0.14288120810167124 0.21406120804572407 0.21430070114087782 0.28556496966917116 0.28586881064634334 0.52427148883206554 0.51456676128130785 0.63819313428945301 0.63106930286339558
decision_type=2 2 2 2 2 2 2 2 2 2 2 2 2 2
left_child=1 4 -2 -4 12 10 -7 -8 -9 -10 11 -5 13 -1
right_child=2 -3 3 5 -6 6 7 8 9 -11 -12 -13 -14 -15
leaf_value=0.013493307836435535 -0.022043722770191787 0.17119476601117911 0.14896353171694421 -0.0068901193183997737 -0.018641056737044859 0.15700146911103693 -0.038889214019553094 0.16725162368416033 -0.05084590629761513 0.05734582144094006 -0.042302316068564508 0.18373589484922215 -0.028263574500911021 0.33483767705565903
leaf_weight=2740.3326195959235 3007.2660445710644 239.26625423273072 321.17573278269265 1301.6375262091169 1521.8846917322371 119.31569891679101 335.97057385928929 42.220463558915071 105.31004512449726 106.97318820818327 665.02255720365793 13.068396603222935 285.9005646398291 5.3099542218260458
leaf_count=29974 36164 4720 6111 13163 18508 2058 3303 696 1017 1037 7831 184 3853 57
internal_value=0 0.00902731 -0.00658674 0.00885264 0.000505995 -0.00787906 0.0190316 -0.00884765 0.0308102 0.00367377 -0.0175273 -0.00499526 0.0101181 0.0141148
internal_weight=0 4792.69 6017.96 3010.69 4553.43 2689.52 709.79 590.474 254.504 212.283 1979.73 1314.71 3031.54 2745.64
internal_count=128676 57112 71564 35400 52392 29289 8111 6053 2750 2054 21178 13347 33884 30031
shrinkage=0.1


Tree=50
num_leaves=15
num_cat=0
split_feature=9 9 9 9 9 9 4 1 5 7 9 9 5 0
split_gain=61.7303 880.587 113.159 502.336 89.6479 358.043 55.713 45.2791 43.8753 45.5623 43.8215 81.7284 40.2744 39.4195
threshold=1.0000000180025095e-35 0.049888426073404629 0.050000680790483629 0.099978260665356158 0.10001222297154691 0.14949033928253488 0.43930073364504635 0.42660860937852479 0.035086295781965239 0.071434243465786487 0.15000534084025116 0.19879935744519531 0.017545449789829838 0.024449387237478106
decision_type=2 2 2 2 2 2 2 2 2 2 2 2 2 2
left_child=13 -2 7 -4 -5 -6 10 8 12 -10 -7 -12 -3 -1
right_child=1 2 3 4 5 6 -8 -9 9 -11 11 -13 -14 -15
leaf_value=-0.027015377451509694 0.1349435665760845 0.023433673606641753 0.13503919356714517 -0.023826129286138781 0.13942051348073456 -0.010828758282450437 -0.037831287512363219 -0.038192054472228953 -0.030895538258765488 0.032823278723767814 0.14480501575848911 0.0093922617319905297 0.18004034637904509 -0.0034741583612697144
leaf_weight=840.39717385335825 495.48561039357446 80.789957895874977 276.96992278145626 1405.9590740939602 189.98989308427554 417.26850556675345 421.56993949518073 1062.3124981184956 470.71960799023509 147.34783065831289 59.179745322093368 180.55879531614482 20.610684525221586 4630.4743966166861
leaf_count=12751 11526 636 6520 15074 4646 4222 4687 12498 4551 1396 1320 1818 298 46733
internal_value=0 0.00810479 -0.00517286 0.00684062 -0.00643543 0.0128388 -0.00945844 -0.025073 -0.00570246 -0.0157049 0.00874706 0.0428191 0.0552655 -0.0070904
internal_weight=0 5228.76 4733.28 2951.5 2674.53 1268.57 1078.58 1781.78 719.468 618.067 657.007 239.739 101.401 5470.87
internal_count=128676 69192 57666 38287 31767 16693 12047 19379 6881 5947 7360 3138 934 59484
shrinkage=0.1


Tree=51
num_leaves=15
num_cat=0
split_feature=4 5 9 9 9 9 9 9 5 9 9 5 5 5
split_gain=57.5851 68.6752 59.983 652.075 101.573 341.868 64.8044 258.936 54.9027 47.5357 128.496 38.8209 510.274 141.139
threshold=0.64298221919796006 0.15789625307309102 1.0000000180025095e-35 0.049888426073404629 0.050000680790483629 0.099978260665356158 0.10001222297154691 0.14949033928253488 0.17499608953723395 0.15000534084025116 0.19879935744519531 0.087721172224649493 0.10526235718077213 0.087569343111397066
decision_type=2 2 2 2 2 2 2 2 2 2 2 2 2 2
left_child=2 -2 11 -4 -5 -6 -7 -8 -3 -9 -11 13 -13 -1
right_child=1 8 3 4 5 6 7 9 -10 10 -12 12 -14 -15
leaf_value=-0.0033229483745847812 -0.053491166752870217 0.15805571939875848 0.13164984093057749 -0.020997084075753646 0.13024911440342221 -0.015787634071222873 0.13688005982934734 -0.019898101783820663 -0.0069566818548567975 0.148293178593421 -0.0046844719689300785 0.21749525886471616 -0.0053508127583884995 -0.074895677849199691
leaf_weight=1576.0705021345057 413.37523064773995 20.784333146060817 409.01460139721166 1545.36793954717 221.40604973968584 1206.238372760592 156.44150622491725 572.30886387359351 674.76098786306102 69.742822334403172 258.13505220180377 106.39720187196508 2999.7831680818927 333.88620857289061
leaf_count=16408 5854 318 10328 16784 5764 12922 4172 5897 7906 1575 2611 1655 33099 3383
internal_value=0 -0.0212107 0.00287659 0.0113439 -0.0008673 0.0116546 5.09845e-05 0.0181322 -0.00202577 -0.0025047 0.0278554 -0.00461595 0.00228242 -0.0158348
internal_weight=0 1108.92 9454.79 4438.66 4029.64 2484.27 2262.87 1056.63 695.545 900.187 327.878 5016.14 3106.18 1909.96
internal_count=128676 14078 114598 60053 49725 32941 27177 14255 8224 10083 4186 54545 34754 19791
shrinkage=0.1


Tree=52
num_leaves=15
num_cat=0
split_feature=8 8 5 5 5 5 5 5 5 5 5 5 5 5
split_gain=55.5091 201.054 62.0859 392.683 172.744 607.46 166.533 636.348 208.675 695.769 184.958 716.371 259.464 521.662
threshold=1.0000000180025095e-35 0.010195842595200797 0.14035605517381264 0.15786769312099527 0.14004575982283879 0.12280763299779413 0.12280282866640664 0.10526509240154323 0.10526235718077213 0.087721172224649493 0.087569343111397066 0.070176331267112632 0.070159358762897847 0.052632601549423154
decision_type=2 2 2 2 2 2 2 2 2 2 2 2 2 2
left_child=2 -2 4 -4 5 6 7 8 9 10 11 12 13 -1
right_child=1 -3 3 -5 -6 -7 -8 -9 -10 -11 -12 -13 -14 -15
leaf_value=-0.0097348102732182397 0.10354783097519071 0.0010256946529694081 0.16238127502646768 0.00064821654172321627 -0.064335629443314044 0.18740718984884072 -0.060110157038227419 0.18989736072420849 -0.066292923793907041 0.19618028482392713 -0.064346524070408834 0.21849321096138274 -0.077141646151297733 0.21982879684804743
leaf_weight=1607.3633675619494 234.54603251675144 1037.0253062776756 156.11204099201132 3912.47466794512 519.88103731069714 160.80942397308536 585.88772198255174 163.93117232213262 583.97770419856533 168.97476756281685 557.31258130865172 140.72876691329293 505.31782848807052 105.48420310812071
leaf_count=14789 17290 11723 2200 42660 6096 2064 6493 2163 6591 2190 6022 1791 5186 1418
internal_value=0 0.0199363 -0.0023591 0.00685393 -0.00970938 -0.0035084 -0.0104559 -0.0028663 -0.0114786 -0.00110311 -0.0125344 -0.000293223 -0.0141739 0.00440266
internal_weight=0 1271.57 9168.26 4068.59 5099.67 4579.79 4418.98 3833.09 3669.16 3085.18 2916.21 2358.89 2218.17 1712.85
internal_count=128676 29013 99663 44860 54803 48707 46643 40150 37987 31396 29206 23184 21393 16207
shrinkage=0.1


Tree=53
num_leaves=15
num_cat=0
split_feature=5 5 5 5 5 5 5 5 5 5 5 5 5 5
split_gain=55.4277 353.248 164.235 505.516 200.382 479.271 233.656 601.451 195.503 587.504 222.471 530.737 199.393 502.301
threshold=0.035086295781965239 0.017545449789829838 0.035089619903279946 0.052620628945296934 0.052632601549423154 0.070159358762897847 0.070176331267112632 0.087569343111397066 0.087721172224649493 0.10526235718077213 0.10526509240154323 0.12280282866640664 0.12280763299779413 0.14004575982283879
decision_type=2 2 2 2 2 2 2 2 2 2 2 2 2 2
left_child=1 -1 -2 -4 -5 -6 -7 -8 -9 -10 -11 -12 -13 -14
right_child=2 -3 3 4 5 6 7 8 9 10 11 12 13 -15
leaf_value=-0.0038093184113108095 -0.064522875575928215 0.17010110334306816 0.18420236811569049 -0.064158473485415354 0.18505634620241157 -0.064101576660304221 0.18575543626516366 -0.055238785603232435 0.17166828505997622 -0.05812750126281252 0.16753430833601676 -0.054278745270701284 0.16918270601388133 -0.00053679104114212454
leaf_weight=709.38806379027665 400.36102244234644 139.81580511131324 148.03338273568079 491.87857219134457 139.89466257754248 557.65936681022868 175.83385969465598 617.71621987386607 201.62966961134225 630.24348955554888 192.84465371037368 628.69406375172548 180.62412917451002 5045.5781070900848
leaf_count=6378 3662 2549 2924 4742 3134 5979 3888 6972 4459 7283 4078 7092 3672 61864
internal_value=0 0.0248239 -0.00185192 0.000932681 -0.0021285 0.00151649 -0.00160303 0.00293915 -0.00134842 0.00349037 -0.00158746 0.00430465 -0.0010717 0.00532893
internal_weight=0 849.204 9410.99 9010.63 8862.6 8370.72 8230.82 7673.16 7497.33 6879.61 6677.98 6047.74 5854.9 5226.2
internal_count=128676 8927 119749 116087 113163 108421 105287 99308 95420 88448 83989 76706 72628 65536
shrinkage=0.1


Tree=54
num_leaves=15
num_cat=0
split_feature=5 5 3 2 2 2 2 3 1 1 5 5 5 5
split_gain=52.1892 156.634 81.0643 51.6984 197.821 71.7341 131.202 50.1544 44.2958 113.329 55.1353 406.922 146.255 316.963
threshold=0.01753560638447901 1.0000000180025095e-35 1.0000000180025095e-35 0.030582641945812537 0.020409017063373471 0.030616229572702273 0.040812568363590609 0.032363125489851145 0.2706081827891062 0.26213945196869515 0.15789625307309102 0.17499608953723395 0.17543875631721792 0.19297746399089144
decision_type=2 2 2 2 2 2 2 2 2 2 2 2 2 2
left_child=1 7 -2 4 8 -5 -7 -1 9 -4 -10 -12 -13 -14
right_child=2 -3 3 5 -6 6 -8 -9 10 -11 11 12 13 -15
